<?xml version="1.0"?>
<opencv_storage>
<stage35>
  <maxWeakCount>89</maxWeakCount>
  <stageThreshold>-1.0114161968231201e+00</stageThreshold>
  <weakClassifiers>
    <_>
      <internalNodes>
        0 -1 1959 7087121 31079900 -2117014168 -376634638 67387002
        1432950654 -1314053787 -290084277</internalNodes>
      <leafValues>
        -4.9189287237823009e-03 3.3516183495521545e-01</leafValues></_>
    <_>
      <internalNodes>
        0 -1 2158 -203487353 908664739 1802168311 -1440238111 -375958321
        -1463989955 -642075598 -25179738</internalNodes>
      <leafValues>
        -8.6564280092716217e-02 2.3012329638004303e-01</leafValues></_>
    <_>
      <internalNodes>
        0 -1 15 895548154 170154632 17765405 218570531 -2050890547
        135620847 -2067004796 1112605265</internalNodes>
      <leafValues>
        -2.7829733490943909e-01 7.5140602886676788e-02</leafValues></_>
    <_>
      <internalNodes>
        0 -1 1719 -875591969 195273908 318148181 1080548583 -94374034
        -327102796 -546848938 -892865499</internalNodes>
      <leafValues>
        -1.2130896002054214e-01 1.6798980534076691e-01</leafValues></_>
    <_>
      <internalNodes>
        0 -1 3177 -791945270 -393412823 558690118 -1395527010 983016848
        -1466877022 -971389628 469367794</internalNodes>
      <leafValues>
        -1.8619860708713531e-01 9.7123011946678162e-02</leafValues></_>
    <_>
      <internalNodes>
        0 -1 1075 -88346510 -620364907 -541449 1898586613 -2065185537
        -818577476 -1326016295 -38757988</internalNodes>
      <leafValues>
        -8.0027379095554352e-02 2.4532812833786011e-01</leafValues></_>
    <_>
      <internalNodes>
        0 -1 3934 1343874752 674017290 1711819364 1078878386 1424081576
        1749659920 1682478154 404814356</internalNodes>
      <leafValues>
        -2.5481319427490234e-01 7.4419543147087097e-02</leafValues></_>
    <_>
      <internalNodes>
        0 -1 834 -914972941 1443689047 66194709 -275931116 43435830
        755386412 1278031787 -1614314241</internalNodes>
      <leafValues>
        -7.8649036586284637e-02 2.2814255952835083e-01</leafValues></_>
    <_>
      <internalNodes>
        0 -1 1000 -1839280434 554769211 202477075 764435259 -1066405523
        20062476 1107411635 262692393</internalNodes>
      <leafValues>
        -2.5564932823181152e-01 6.7046545445919037e-02</leafValues></_>
    <_>
      <internalNodes>
        0 -1 1995 -1944182506 708578634 1453071644 -767454294
        -1919916281 -2111750826 1838191074 1172818374</internalNodes>
      <leafValues>
        -2.3137766122817993e-01 8.7666384875774384e-02</leafValues></_>
    <_>
      <internalNodes>
        0 -1 3595 -1334495874 336305686 2019570864 1031782380 -188141283
        -1418853039 762903437 -1383132592</internalNodes>
      <leafValues>
        -1.3255606591701508e-01 1.5596204996109009e-01</leafValues></_>
    <_>
      <internalNodes>
        0 -1 3808 1859577574 -157455356 -333316009 2050582142
        -1059943472 -626874332 1832313987 993747586</internalNodes>
      <leafValues>
        -1.5947037935256958e-01 1.2399622797966003e-01</leafValues></_>
    <_>
      <internalNodes>
        0 -1 3139 -272239019 -33878198 -559191178 -10547339 72679553
        -1499463276 -842366536 -1359973</internalNodes>
      <leafValues>
        -7.8228451311588287e-02 2.5505000352859497e-01</leafValues></_>
    <_>
      <internalNodes>
        0 -1 3114 1423709412 1758514360 -215607756 1290895792 1448871882
        498339600 -1676408238 14026272</internalNodes>
      <leafValues>
        -2.9491826891899109e-01 7.7240139245986938e-02</leafValues></_>
    <_>
      <internalNodes>
        0 -1 829 -748315749 349421999 1648148257 -672665249 -224165221
        -56977061 -1790777621 -1394619202</internalNodes>
      <leafValues>
        -6.9329522550106049e-02 3.0635890364646912e-01</leafValues></_>
    <_>
      <internalNodes>
        0 -1 1094 -422754806 39057670 -1874694355 1228300571 -834664702
        70455318 -916447728 1079396704</internalNodes>
      <leafValues>
        -3.1152042746543884e-01 7.3192261159420013e-02</leafValues></_>
    <_>
      <internalNodes>
        0 -1 3480 -806489868 -668529201 1324296870 -1614854 359729005
        686134553 -1998549202 -1446844822</internalNodes>
      <leafValues>
        -1.1568187922239304e-01 1.7942647635936737e-01</leafValues></_>
    <_>
      <internalNodes>
        0 -1 1618 1484729903 317599077 1728997994 1043767304 -1600044158
        -1297582558 663728041 1532186965</internalNodes>
      <leafValues>
        -1.6415002942085266e-01 1.3122121989727020e-01</leafValues></_>
    <_>
      <internalNodes>
        0 -1 1602 1427373823 1375534841 -1158056078 -742058243
        -1696542312 -751700097 -643565633 -3950374</internalNodes>
      <leafValues>
        -6.6562227904796600e-02 3.2697361707687378e-01</leafValues></_>
    <_>
      <internalNodes>
        0 -1 1536 21022918 -2038266828 1174470736 609331289 1527978330
        1677730986 578961261 3154008</internalNodes>
      <leafValues>
        -4.0841084718704224e-01 5.5485125631093979e-02</leafValues></_>
    <_>
      <internalNodes>
        0 -1 3289 1609909718 1844231925 787362883 -88213384 -4182729
        1266857821 1106379727 -9242127</internalNodes>
      <leafValues>
        -9.6781879663467407e-02 2.3298481106758118e-01</leafValues></_>
    <_>
      <internalNodes>
        0 -1 3598 1290200618 546466022 1142730762 1814171147 1175732576
        -2013034425 1543823488 142631754</internalNodes>
      <leafValues>
        -3.0002641677856445e-01 7.2302162647247314e-02</leafValues></_>
    <_>
      <internalNodes>
        0 -1 3780 451974618 -1232295302 1354287260 -747894433 -220882722
        2045543784 818694666 1501832195</internalNodes>
      <leafValues>
        -1.6638174653053284e-01 1.2438957393169403e-01</leafValues></_>
    <_>
      <internalNodes>
        0 -1 3127 523719987 -613950132 1962921317 -104888553 865999765
        -1956082476 1531551409 -12854017</internalNodes>
      <leafValues>
        -7.5429931282997131e-02 2.7404758334159851e-01</leafValues></_>
    <_>
      <internalNodes>
        0 -1 3884 -1436433222 705309837 67504176 2060928682 1963051105
        1752180854 -257947231 1072421914</internalNodes>
      <leafValues>
        -1.9534198939800262e-01 1.0469393432140350e-01</leafValues></_>
    <_>
      <internalNodes>
        0 -1 3717 -168824065 -751982680 -1629092965 -787374965
        -328339447 -347088989 -2013172081 -40936194</internalNodes>
      <leafValues>
        -6.3987404108047485e-02 3.3065012097358704e-01</leafValues></_>
    <_>
      <internalNodes>
        0 -1 792 -796711262 -1348688508 192998323 -587363247 -305254008
        -1771126202 1921018312 1276205528</internalNodes>
      <leafValues>
        -1.6223871707916260e-01 1.2621730566024780e-01</leafValues></_>
    <_>
      <internalNodes>
        0 -1 3443 -733234573 -696359195 -592673665 1595782127
        -1973618795 -9247199 -2086732617 -78913606</internalNodes>
      <leafValues>
        -7.7148795127868652e-02 2.8443577885627747e-01</leafValues></_>
    <_>
      <internalNodes>
        0 -1 2150 -577688512 -1072424666 -738035219 21079582 -1710971376
        35129478 704916410 704774530</internalNodes>
      <leafValues>
        -3.0959701538085938e-01 7.1716189384460449e-02</leafValues></_>
    <_>
      <internalNodes>
        0 -1 2192 -480800041 -1635342668 -1226131364 -1377059161
        1842479507 -1094798244 -395638030 -1074860781</internalNodes>
      <leafValues>
        -1.0032809525728226e-01 2.1529838442802429e-01</leafValues></_>
    <_>
      <internalNodes>
        0 -1 2227 700030474 1079772997 -1037415356 -38910918 107561232
        -494324412 -1575273079 784288988</internalNodes>
      <leafValues>
        -2.0358099043369293e-01 1.0407972335815430e-01</leafValues></_>
    <_>
      <internalNodes>
        0 -1 311 -562811328 -654276336 578894416 206061854 1963984128
        939794567 1106907210 271593340</internalNodes>
      <leafValues>
        -3.1439602375030518e-01 6.6956877708435059e-02</leafValues></_>
    <_>
      <internalNodes>
        0 -1 714 -1629887843 -1420618522 -1926732497 827322032
        -569005112 -1976396162 -1270754590 -316226107</internalNodes>
      <leafValues>
        -1.0478056222200394e-01 2.0990721881389618e-01</leafValues></_>
    <_>
      <internalNodes>
        0 -1 580 -922759789 -1863261539 132161519 -145677985 -1476404289
        -1365086723 -824582401 -1073771777</internalNodes>
      <leafValues>
        -5.0774455070495605e-02 4.0254351496696472e-01</leafValues></_>
    <_>
      <internalNodes>
        0 -1 604 -1945757279 273994690 -1194834556 1493731628 39006992
        60966967 1790708739 1299407681</internalNodes>
      <leafValues>
        -2.9026398062705994e-01 7.4942559003829956e-02</leafValues></_>
    <_>
      <internalNodes>
        0 -1 1579 1423300447 -1075116522 -290071661 -140148785
        -1339125597 -556810761 -2123274849 -536878086</internalNodes>
      <leafValues>
        -6.4456097781658173e-02 3.3768931031227112e-01</leafValues></_>
    <_>
      <internalNodes>
        0 -1 899 1917297467 -1644510537 2142807903 -1617404815 628878883
        -1500063990 1124136667 -73422200</internalNodes>
      <leafValues>
        -8.7201744318008423e-02 2.4282220005989075e-01</leafValues></_>
    <_>
      <internalNodes>
        0 -1 750 -413225299 2103059261 1820968723 -248889614 -1067414484
        -1552099163 -1966992760 1402450999</internalNodes>
      <leafValues>
        -1.2627848982810974e-01 1.6883119940757751e-01</leafValues></_>
    <_>
      <internalNodes>
        0 -1 2 788579202 -1903114463 -857127890 -1964733310 -235093080
        1556236338 -1320902064 1080066048</internalNodes>
      <leafValues>
        -2.7328184247016907e-01 8.1607073545455933e-02</leafValues></_>
    <_>
      <internalNodes>
        0 -1 3191 -1790607762 -905042728 -2069703588 -89759520 427294904
        1191661593 -1130575245 -951154747</internalNodes>
      <leafValues>
        -1.6638770699501038e-01 1.2789389491081238e-01</leafValues></_>
    <_>
      <internalNodes>
        0 -1 3558 -254561665 -37739411 -805000773 1644260443 -62338636
        -105666038 -61752995 -5243266</internalNodes>
      <leafValues>
        -8.8007852435112000e-02 2.4807767570018768e-01</leafValues></_>
    <_>
      <internalNodes>
        0 -1 3755 440376462 -2147317370 418418837 -2051869021 285321386
        -2069813003 820474451 728631876</internalNodes>
      <leafValues>
        -2.1029026806354523e-01 1.0249967873096466e-01</leafValues></_>
    <_>
      <internalNodes>
        0 -1 3201 2087306835 -606523500 -1682650918 -843444419
        -1984636674 -1625402192 632231331 -647799291</internalNodes>
      <leafValues>
        -9.4914920628070831e-02 2.2870254516601562e-01</leafValues></_>
    <_>
      <internalNodes>
        0 -1 1103 715399204 304418184 1427871518 427960466 -1407642748
        414737585 1101042536 1888536036</internalNodes>
      <leafValues>
        -2.5324869155883789e-01 8.3078213036060333e-02</leafValues></_>
    <_>
      <internalNodes>
        0 -1 1761 -10754789 -1273974255 -404211953 -1960716047
        1073061596 -1826894492 -268915079 -1435243731</internalNodes>
      <leafValues>
        -8.8980704545974731e-02 2.3926967382431030e-01</leafValues></_>
    <_>
      <internalNodes>
        0 -1 2321 818178448 1658577056 -464376617 673744494 1890544944
        -2006408953 1348612231 610982331</internalNodes>
      <leafValues>
        -2.2387541830539703e-01 9.9630557000637054e-02</leafValues></_>
    <_>
      <internalNodes>
        0 -1 3255 -518589325 -1448210842 1874310365 1561826983
        -1201145291 -847259484 -218804337 -71622768</internalNodes>
      <leafValues>
        -9.3711726367473602e-02 2.3812167346477509e-01</leafValues></_>
    <_>
      <internalNodes>
        0 -1 1226 -169878081 1083473770 -1083385073 965202775 -555746151
        -55796263 -451550721 -20192258</internalNodes>
      <leafValues>
        -5.2906569093465805e-02 4.1920739412307739e-01</leafValues></_>
    <_>
      <internalNodes>
        0 -1 2156 1316506688 -896327552 852710637 1487904935 1717982241
        -1294657930 1284083584 1163410886</internalNodes>
      <leafValues>
        -2.1832662820816040e-01 1.0681328922510147e-01</leafValues></_>
    <_>
      <internalNodes>
        0 -1 3570 -1268616980 -522614398 672663688 136340320 1092632240
        1411649540 1323313516 1335492</internalNodes>
      <leafValues>
        -3.9477461576461792e-01 5.5941224098205566e-02</leafValues></_>
    <_>
      <internalNodes>
        0 -1 2695 234992419 -297296242 -1663676286 -196360589 1928183361
        -1569522243 -188250174 -3629317</internalNodes>
      <leafValues>
        -1.0416643321514130e-01 2.1936303377151489e-01</leafValues></_>
    <_>
      <internalNodes>
        0 -1 889 1358946267 -1832911167 -835792485 2138893379 2139889823
        -163389145 -822551606 -4984657</internalNodes>
      <leafValues>
        -6.3855193555355072e-02 3.3304196596145630e-01</leafValues></_>
    <_>
      <internalNodes>
        0 -1 3878 -101980486 1368386895 1030712315 -107355598
        -1111744549 -1999475761 -754170177 -5389853</internalNodes>
      <leafValues>
        -6.6313035786151886e-02 3.2232767343521118e-01</leafValues></_>
    <_>
      <internalNodes>
        0 -1 1783 270437587 -1110300543 -1888190567 -930167463
        -194300892 -1989654808 -961792723 -21085556</internalNodes>
      <leafValues>
        -1.4370852708816528e-01 1.5807826817035675e-01</leafValues></_>
    <_>
      <internalNodes>
        0 -1 2484 -384760302 997603720 210896849 -1253361530 -2134106079
        1017957021 1301286170 998779976</internalNodes>
      <leafValues>
        -2.5710219144821167e-01 9.0969838201999664e-02</leafValues></_>
    <_>
      <internalNodes>
        0 -1 1264 283768531 -611013123 -968523851 -204734765 -22957283
        -1834222659 110951899 -19259905</internalNodes>
      <leafValues>
        -7.3528565466403961e-02 2.9681283235549927e-01</leafValues></_>
    <_>
      <internalNodes>
        0 -1 83 -631382400 327189186 -988991284 -1039561199 813969200
        -1576475857 1884291737 -288929061</internalNodes>
      <leafValues>
        -1.6908939182758331e-01 1.3375285267829895e-01</leafValues></_>
    <_>
      <internalNodes>
        0 -1 174 -138555905 -649747562 -1305463825 -587265735 -154958853
        -1864125218 -651327553 -638582833</internalNodes>
      <leafValues>
        -4.8106882721185684e-02 4.7405815124511719e-01</leafValues></_>
    <_>
      <internalNodes>
        0 -1 1721 -1974530950 246316902 1690602546 539659562 1026326096
        73908330 -683422415 1425023991</internalNodes>
      <leafValues>
        -3.4447079896926880e-01 6.9460421800613403e-02</leafValues></_>
    <_>
      <internalNodes>
        0 -1 1097 817168896 -1187432323 -937401858 893664763 -1756771198
        -1868425085 1502179219 1157782337</internalNodes>
      <leafValues>
        -1.9461156427860260e-01 1.1838358640670776e-01</leafValues></_>
    <_>
      <internalNodes>
        0 -1 1404 -553787410 -1367429240 -923168423 1708252919 -64434685
        -1200382811 -965281553 -823657381</internalNodes>
      <leafValues>
        -1.0302282124757767e-01 2.2403734922409058e-01</leafValues></_>
    <_>
      <internalNodes>
        0 -1 3569 -142826298 -2110209478 1121848011 269627154 -653821427
        238302812 1740797980 2099891859</internalNodes>
      <leafValues>
        -1.7703662812709808e-01 1.2403641641139984e-01</leafValues></_>
    <_>
      <internalNodes>
        0 -1 2921 -117071393 -1049561099 -1409803659 -592597360
        -848192070 213843769 -1909523780 -2244932</internalNodes>
      <leafValues>
        -7.2982199490070343e-02 3.1199842691421509e-01</leafValues></_>
    <_>
      <internalNodes>
        0 -1 3135 -790956289 -55664735 -1740937 -13498743 -1455484771
        -817980977 -1544834358 -5244182</internalNodes>
      <leafValues>
        -6.7047461867332458e-02 3.3351483941078186e-01</leafValues></_>
    <_>
      <internalNodes>
        0 -1 1909 1494312482 482005552 -1845793922 1437484596 575973890
        -1662389407 -1950977111 491205328</internalNodes>
      <leafValues>
        -1.9507859647274017e-01 1.1997113376855850e-01</leafValues></_>
    <_>
      <internalNodes>
        0 -1 3786 1450102820 451838585 78646347 1080942807 -760557748
        -1979010223 1541689902 402703116</internalNodes>
      <leafValues>
        -2.2965170443058014e-01 9.8793178796768188e-02</leafValues></_>
    <_>
      <internalNodes>
        0 -1 247 -791166183 -982789577 -778511459 -1046615405 3909672
        -1055567735 1433189842 -108934171</internalNodes>
      <leafValues>
        -1.1958135664463043e-01 1.9014453887939453e-01</leafValues></_>
    <_>
      <internalNodes>
        0 -1 2877 -424552205 -977524610 -981615009 -600042374
        -1980842592 -1285742411 -862012001 -37753857</internalNodes>
      <leafValues>
        -8.1610351800918579e-02 2.8586900234222412e-01</leafValues></_>
    <_>
      <internalNodes>
        0 -1 1857 -1997750445 579969032 -1073734966 -1426841663
        -478142685 885392064 -1244911983 702556196</internalNodes>
      <leafValues>
        -3.2635352015495300e-01 7.3097109794616699e-02</leafValues></_>
    <_>
      <internalNodes>
        0 -1 2424 1439358551 -2013205576 -352770404 -1687440346
        -1272454199 -1730514480 -1574661747 -1098929386</internalNodes>
      <leafValues>
        -1.1224520206451416e-01 2.1107359230518341e-01</leafValues></_>
    <_>
      <internalNodes>
        0 -1 2719 -1003197942 1845856900 -699405742 2016699973
        -2046550620 793784897 554043908 310290601</internalNodes>
      <leafValues>
        -2.5843128561973572e-01 9.3536347150802612e-02</leafValues></_>
    <_>
      <internalNodes>
        0 -1 731 -1023970685 -173789657 2135367454 322778424 1616649629
        -1099970802 -1268693937 -451663024</internalNodes>
      <leafValues>
        -1.3223040103912354e-01 1.7583025991916656e-01</leafValues></_>
    <_>
      <internalNodes>
        0 -1 4 571572866 -331707430 285770323 -1266364033 761229888
        -50187413 1355676690 1073758225</internalNodes>
      <leafValues>
        -2.5174286961555481e-01 8.9665301144123077e-02</leafValues></_>
    <_>
      <internalNodes>
        0 -1 155 1002919421 -986781386 950995693 -1791118659 -940059697
        -77871759 -472403459 -604259331</internalNodes>
      <leafValues>
        -5.4725985974073410e-02 4.4003817439079285e-01</leafValues></_>
    <_>
      <internalNodes>
        0 -1 620 235154115 -1299117282 1157631349 1326486674 -503112574
        842158208 320934107 1098348455</internalNodes>
      <leafValues>
        -2.3229117691516876e-01 1.0451238602399826e-01</leafValues></_>
    <_>
      <internalNodes>
        0 -1 1176 -638852654 -506056068 -1646112990 -1694181737 8344714
        -17118018 2128909054 -11561509</internalNodes>
      <leafValues>
        -9.6923366189002991e-02 2.3818892240524292e-01</leafValues></_>
    <_>
      <internalNodes>
        0 -1 3575 -656087462 -1617211744 -116535180 -1093684005
        -522682544 598554312 -1266719602 -407143900</internalNodes>
      <leafValues>
        -1.2463057041168213e-01 1.8251845240592957e-01</leafValues></_>
    <_>
      <internalNodes>
        0 -1 3292 -155759524 1121353798 618671924 -363840335 1976352929
        -1836034144 -404436222 806911238</internalNodes>
      <leafValues>
        -2.5282534956932068e-01 9.2881605029106140e-02</leafValues></_>
    <_>
      <internalNodes>
        0 -1 3960 -522390236 -669734912 -1947686361 -251820721
        -1797951445 -2072326667 -563124325 -68032530</internalNodes>
      <leafValues>
        -1.2147518247365952e-01 1.9362588226795197e-01</leafValues></_>
    <_>
      <internalNodes>
        0 -1 1973 -1388426736 542017595 -1312708856 -535691080 676793057
        573769057 -1580266140 92739362</internalNodes>
      <leafValues>
        -2.7595815062522888e-01 8.2849778234958649e-02</leafValues></_>
    <_>
      <internalNodes>
        0 -1 1014 293571837 2130257467 1815083330 1483706471 877705074
        -1144340657 -1892328404 -1913129290</internalNodes>
      <leafValues>
        -1.1913795769214630e-01 2.1770726144313812e-01</leafValues></_>
    <_>
      <internalNodes>
        0 -1 3585 -1865596051 -1349891324 39801406 -1659407864 626694989
        -298637204 695803020 629055796</internalNodes>
      <leafValues>
        -1.9673721492290497e-01 1.1501353979110718e-01</leafValues></_>
    <_>
      <internalNodes>
        0 -1 2766 266213038 785981798 1926267024 1623153934 1753845474
        443244896 -1291176014 -409714593</internalNodes>
      <leafValues>
        -1.7688369750976562e-01 1.2831090390682220e-01</leafValues></_>
    <_>
      <internalNodes>
        0 -1 1293 -1080315055 -725852332 -670243775 -872083251 941398219
        50331859 54646457 1531534024</internalNodes>
      <leafValues>
        -1.5220956504344940e-01 1.5526288747787476e-01</leafValues></_>
    <_>
      <internalNodes>
        0 -1 357 -690637071 -9410434 -298722321 2032353050 887926164
        -348167657 216326718 -344363207</internalNodes>
      <leafValues>
        -9.1958813369274139e-02 2.4982494115829468e-01</leafValues></_>
    <_>
      <internalNodes>
        0 -1 2538 1320019997 -1494364487 -1467721724 -991542881
        1976394545 -1403976258 1346425826 1740827850</internalNodes>
      <leafValues>
        -2.2323791682720184e-01 1.0274989157915115e-01</leafValues></_>
    <_>
      <internalNodes>
        0 -1 1871 -1238228714 -1989299915 -350023873 -991143135
        -1723964100 -182495511 -218988497 -241238457</internalNodes>
      <leafValues>
        -1.1747224628925323e-01 1.9834636151790619e-01</leafValues></_>
    <_>
      <internalNodes>
        0 -1 2403 -981457600 -868932490 157181385 -186903960 1075226888
        -2015333474 -1477177360 1069660878</internalNodes>
      <leafValues>
        -1.9208250939846039e-01 1.1953417211771011e-01</leafValues></_>
    <_>
      <internalNodes>
        0 -1 739 1686894644 169337715 1635450191 797705839 -1372404086
        -1405126894 719438555 -522199709</internalNodes>
      <leafValues>
        -1.0975793004035950e-01 2.0741413533687592e-01</leafValues></_></weakClassifiers></stage35>
</opencv_storage>
