<?xml version="1.0"?>
<opencv_storage>
<stage26>
  <maxWeakCount>84</maxWeakCount>
  <stageThreshold>-9.4739598035812378e-01</stageThreshold>
  <weakClassifiers>
    <_>
      <internalNodes>
        0 -1 1989 251864825 105745646 651035613 -1970479748 6092279
        -1997617675 59946749 -1949504264</internalNodes>
      <leafValues>
        9.5678091049194336e-02 3.7488076090812683e-01</leafValues></_>
    <_>
      <internalNodes>
        0 -1 3227 2126410862 1472380922 1826011019 -836318054 449971269
        -125209633 -93951842 -1192956370</internalNodes>
      <leafValues>
        -1.8178565800189972e-01 1.1761543154716492e-01</leafValues></_>
    <_>
      <internalNodes>
        0 -1 3194 -1156859267 -47059314 -857944508 -88373690 -181971078
        -1619632281 1056863119 -85269344</internalNodes>
      <leafValues>
        -9.6743315458297729e-02 2.0533651113510132e-01</leafValues></_>
    <_>
      <internalNodes>
        0 -1 67 377711298 1240073868 16910259 1931712338 872468597
        732344884 -1444775388 356995344</internalNodes>
      <leafValues>
        -2.7873563766479492e-01 7.0518054068088531e-02</leafValues></_>
    <_>
      <internalNodes>
        0 -1 1611 2090795001 -134219813 441936528 -1982056740
        -1238961409 -800663083 -1108705542 -17836329</internalNodes>
      <leafValues>
        -1.1798860877752304e-01 2.2782222926616669e-01</leafValues></_>
    <_>
      <internalNodes>
        0 -1 895 994983358 -1141895164 1517165495 -1308921995 92536563
        -1404788472 1464300692 1305380060</internalNodes>
      <leafValues>
        -1.6015584766864777e-01 1.2733887135982513e-01</leafValues></_>
    <_>
      <internalNodes>
        0 -1 6 -1700761136 -1910469440 -282650708 233627040 1402173172
        -141093632 1987256852 1181061456</internalNodes>
      <leafValues>
        -2.3810911178588867e-01 7.7603474259376526e-02</leafValues></_>
    <_>
      <internalNodes>
        0 -1 2020 -1358736662 -2009935698 1522073341 -454954150
        -1247369953 -1666908290 -1177286415 -335677440</internalNodes>
      <leafValues>
        -1.0809227824211121e-01 1.7464539408683777e-01</leafValues></_>
    <_>
      <internalNodes>
        0 -1 2429 1887221881 489722369 25412055 -273960511 -1271234910
        360325600 305482506 1893778672</internalNodes>
      <leafValues>
        -1.9281548261642456e-01 1.0051909834146500e-01</leafValues></_>
    <_>
      <internalNodes>
        0 -1 2934 -830527493 -406354383 -52445867 -1148359703
        -1029060227 -807733983 -768803586 -536893205</internalNodes>
      <leafValues>
        -7.6345518231391907e-02 2.8063401579856873e-01</leafValues></_>
    <_>
      <internalNodes>
        0 -1 2423 260321889 -1929960843 450040703 1530683340 -1426519246
        -965963826 229505566 1942994910</internalNodes>
      <leafValues>
        -1.4972604811191559e-01 1.3519236445426941e-01</leafValues></_>
    <_>
      <internalNodes>
        0 -1 3799 -701517430 1853442119 403841117 -2095665493 822743178
        1073636150 -2089747729 -80743842</internalNodes>
      <leafValues>
        -8.3126179873943329e-02 2.2157633304595947e-01</leafValues></_>
    <_>
      <internalNodes>
        0 -1 1236 -1173821581 3460756 184629760 201334821 -195755311
        926748769 -1286069228 572524544</internalNodes>
      <leafValues>
        -3.0131116509437561e-01 6.9998160004615784e-02</leafValues></_>
    <_>
      <internalNodes>
        0 -1 886 994977616 826793787 2080040480 -521019248 -2052182545
        1414980729 -1157821282 -81672173</internalNodes>
      <leafValues>
        -1.1454507708549500e-01 1.8585185706615448e-01</leafValues></_>
    <_>
      <internalNodes>
        0 -1 3266 -240273082 194315271 -1446979753 1063230022 -433996868
        84997511 -1540750768 -1416240687</internalNodes>
      <leafValues>
        -1.5525326132774353e-01 1.3300424814224243e-01</leafValues></_>
    <_>
      <internalNodes>
        0 -1 2648 1436153281 -47854785 186244735 -96528163 347268961
        -1163609159 829721337 -77194151</internalNodes>
      <leafValues>
        -8.8212832808494568e-02 2.3859994113445282e-01</leafValues></_>
    <_>
      <internalNodes>
        0 -1 3768 -1037595070 1479410830 604171666 -2005607696 659202856
        500993492 2009820189 1688170781</internalNodes>
      <leafValues>
        -1.9602383673191071e-01 1.1174026876688004e-01</leafValues></_>
    <_>
      <internalNodes>
        0 -1 192 -897419366 1653406695 251987211 2149569 1082664214
        1363505912 239607761 67614</internalNodes>
      <leafValues>
        -3.2413932681083679e-01 5.5925063788890839e-02</leafValues></_>
    <_>
      <internalNodes>
        0 -1 1323 894304537 432307919 430752041 -1652017162 731874475
        -186984553 2144714718 -1915826178</internalNodes>
      <leafValues>
        -8.9348800480365753e-02 2.3998646438121796e-01</leafValues></_>
    <_>
      <internalNodes>
        0 -1 3387 271192690 1105281680 6434649 -1396594596 1030577490
        2120352849 259865636 1262644272</internalNodes>
      <leafValues>
        -2.5443038344383240e-01 8.4187068045139313e-02</leafValues></_>
    <_>
      <internalNodes>
        0 -1 996 -1770132036 -1240696869 -1234965024 1094155513
        934741243 3838179 -1360277251 -1994789159</internalNodes>
      <leafValues>
        -1.2907694280147552e-01 1.6308251023292542e-01</leafValues></_>
    <_>
      <internalNodes>
        0 -1 1349 -400055373 -2116010338 -1990493376 -804975370
        -1045325963 -662952420 -126003311 446274312</internalNodes>
      <leafValues>
        -1.5247645974159241e-01 1.5078575909137726e-01</leafValues></_>
    <_>
      <internalNodes>
        0 -1 840 -1616765966 -288597534 775040675 -1447770515 1951060404
        -36038844 1345211892 -100890386</internalNodes>
      <leafValues>
        -1.2643267214298248e-01 1.5970738232135773e-01</leafValues></_>
    <_>
      <internalNodes>
        0 -1 3250 24906272 -314996200 944243777 521176160 712790640
        -885518160 148524221 55053312</internalNodes>
      <leafValues>
        -3.3416101336479187e-01 5.6506078690290451e-02</leafValues></_>
    <_>
      <internalNodes>
        0 -1 1092 -1435254587 -2001583693 -2146806046 -1894939876
        -179852636 -434758568 -1215927678 -572000368</internalNodes>
      <leafValues>
        -1.0349209606647491e-01 1.9678419828414917e-01</leafValues></_>
    <_>
      <internalNodes>
        0 -1 3963 -1193234776 174622388 801396572 356575388 128692191
        -1981350543 132260486 196476504</internalNodes>
      <leafValues>
        -2.1635802090167999e-01 9.2124983668327332e-02</leafValues></_>
    <_>
      <internalNodes>
        0 -1 1689 75846570 1243798768 143917009 -689417860 -1079104457
        -1609134872 -1846214028 1179186018</internalNodes>
      <leafValues>
        -2.0992507040500641e-01 9.8325438797473907e-02</leafValues></_>
    <_>
      <internalNodes>
        0 -1 1510 -629181461 -622249498 1515126519 -314590090 48558571
        -2030295608 299373483 -1897923702</internalNodes>
      <leafValues>
        -7.1330547332763672e-02 2.7908664941787720e-01</leafValues></_>
    <_>
      <internalNodes>
        0 -1 2069 -1341751078 560811257 1012366847 -847676878 -542613819
        -281920650 192186367 -563618214</internalNodes>
      <leafValues>
        -1.1945529282093048e-01 1.8407659232616425e-01</leafValues></_>
    <_>
      <internalNodes>
        0 -1 1614 -2080825278 -110344219 1084707943 -326471982 875050992
        83038271 84258553 795864692</internalNodes>
      <leafValues>
        -1.9456276297569275e-01 1.1137751489877701e-01</leafValues></_>
    <_>
      <internalNodes>
        0 -1 3249 -818614376 -9156410 1054488559 -641116203 -361513282
        -1153450894 -1132687376 -20992861</internalNodes>
      <leafValues>
        -9.0898208320140839e-02 2.3900800943374634e-01</leafValues></_>
    <_>
      <internalNodes>
        0 -1 1754 -771030382 -1557447146 -1873167371 1348222650
        -26507709 -537328554 -904505033 797820437</internalNodes>
      <leafValues>
        -1.6360200941562653e-01 1.3162088394165039e-01</leafValues></_>
    <_>
      <internalNodes>
        0 -1 3943 1750518282 136888462 -1039524732 1482061390 -576384258
        1414781898 -1256809660 1409350704</internalNodes>
      <leafValues>
        -2.6294779777526855e-01 7.8164443373680115e-02</leafValues></_>
    <_>
      <internalNodes>
        0 -1 601 1819238146 963450574 298455952 938320576 1228301826
        -1490201558 81748120 -2050951920</internalNodes>
      <leafValues>
        -1.7967402935028076e-01 1.2535421550273895e-01</leafValues></_>
    <_>
      <internalNodes>
        0 -1 1002 41726114 -230312454 843714371 760131792 691714944
        137011446 211237171 1322625049</internalNodes>
      <leafValues>
        -2.0506893098354340e-01 1.0670013725757599e-01</leafValues></_>
    <_>
      <internalNodes>
        0 -1 3195 -1213598063 -625344328 -2019967844 -421388847
        2101630319 -367575051 -1216824190 -300769739</internalNodes>
      <leafValues>
        -1.1774062365293503e-01 1.8751746416091919e-01</leafValues></_>
    <_>
      <internalNodes>
        0 -1 168 -558114381 -109099036 -276502733 -446699588 661036679
        1314960056 1863578299 -7340325</internalNodes>
      <leafValues>
        -6.4481928944587708e-02 3.1457459926605225e-01</leafValues></_>
    <_>
      <internalNodes>
        0 -1 3401 959104691 1910915384 -1582590027 -1219450105
        -805318742 -313658156 -587620557 -272703649</internalNodes>
      <leafValues>
        -9.2266514897346497e-02 2.3996020853519440e-01</leafValues></_>
    <_>
      <internalNodes>
        0 -1 11 -1991520836 218566875 -1052220322 5905712 645506007
        596064246 1344201634 708398947</internalNodes>
      <leafValues>
        -2.0954640209674835e-01 1.0588482767343521e-01</leafValues></_>
    <_>
      <internalNodes>
        0 -1 2485 1121438999 -616755664 -147047173 -1451362635
        -1364983983 1148192567 -718850 -186526114</internalNodes>
      <leafValues>
        -1.0752636939287186e-01 1.9971685111522675e-01</leafValues></_>
    <_>
      <internalNodes>
        0 -1 3840 -1755303899 -894431602 148534997 309381802 652432416
        538192663 -1007414549 2020354106</internalNodes>
      <leafValues>
        -1.9659951329231262e-01 1.1442764103412628e-01</leafValues></_>
    <_>
      <internalNodes>
        0 -1 2558 -1934486704 197396037 -1254801668 -1192353776
        1461841773 -864937934 1570599214 138530741</internalNodes>
      <leafValues>
        -2.3478442430496216e-01 9.2219121754169464e-02</leafValues></_>
    <_>
      <internalNodes>
        0 -1 1729 -1309703458 -2085933134 20067899 -2051417382
        -1659723158 -2042379802 -373446809 -907416135</internalNodes>
      <leafValues>
        -1.0595978796482086e-01 2.0885933935642242e-01</leafValues></_>
    <_>
      <internalNodes>
        0 -1 3226 1085284360 -1264985100 1705243239 268722978 -333964244
        -206920476 -893489552 546138</internalNodes>
      <leafValues>
        -3.1429380178451538e-01 6.8559832870960236e-02</leafValues></_>
    <_>
      <internalNodes>
        0 -1 3849 432425214 1387911068 -1341773130 3436090 1485618112
        -1256964039 -1091612883 1536272400</internalNodes>
      <leafValues>
        -1.7910179495811462e-01 1.2365067005157471e-01</leafValues></_>
    <_>
      <internalNodes>
        0 -1 3458 -595620937 -20838828 1304165935 -1318052487 -165839242
        -1501899456 -169681670 -556011638</internalNodes>
      <leafValues>
        -8.3563104271888733e-02 2.5537905097007751e-01</leafValues></_>
    <_>
      <internalNodes>
        0 -1 3744 132718856 -1057879272 -1463331562 438178141 1969554260
        1948525948 1408507670 675298716</internalNodes>
      <leafValues>
        -2.8804627060890198e-01 7.4752412736415863e-02</leafValues></_>
    <_>
      <internalNodes>
        0 -1 576 703848939 -790107202 -815816140 1166931401 -20467064
        -905236924 -1965583429 -1811616548</internalNodes>
      <leafValues>
        -1.0603229701519012e-01 2.1591623127460480e-01</leafValues></_>
    <_>
      <internalNodes>
        0 -1 2424 343941120 -1734343900 1233822787 392190888 286433811
        348008600 806766486 722123416</internalNodes>
      <leafValues>
        -2.6967793703079224e-01 8.2407832145690918e-02</leafValues></_>
    <_>
      <internalNodes>
        0 -1 222 -162547181 -537201703 -1369281758 -1616409791
        1315295920 8846614 1499888032 -1661083253</internalNodes>
      <leafValues>
        -1.1548974364995956e-01 1.9619065523147583e-01</leafValues></_>
    <_>
      <internalNodes>
        0 -1 3940 -662724429 1002283940 1083093831 1938159350
        -1137972516 -61944151 -805706389 -875561645</internalNodes>
      <leafValues>
        -8.4288120269775391e-02 2.6878979802131653e-01</leafValues></_>
    <_>
      <internalNodes>
        0 -1 63 415392640 -1039030234 50956289 169448962 -754437692
        1143864227 1808524632 122103344</internalNodes>
      <leafValues>
        -3.1192329525947571e-01 7.5591892004013062e-02</leafValues></_>
    <_>
      <internalNodes>
        0 -1 1433 -220014285 1497897784 -1288470585 -1179650240
        -62468165 -1730982268 -1716161073 -53926091</internalNodes>
      <leafValues>
        -9.1143392026424408e-02 2.5713106989860535e-01</leafValues></_>
    <_>
      <internalNodes>
        0 -1 2182 1393126700 416993952 -1610603580 -164137853 1451192528
        863253712 1893227904 1122159894</internalNodes>
      <leafValues>
        -2.2873835265636444e-01 1.0112377256155014e-01</leafValues></_>
    <_>
      <internalNodes>
        0 -1 2950 -878159276 -1710259330 804254609 1230663889
        -1776383095 -2117481508 -1682658340 -8390705</internalNodes>
      <leafValues>
        -1.0446798801422119e-01 2.2526469826698303e-01</leafValues></_>
    <_>
      <internalNodes>
        0 -1 3751 -1294786024 616703185 163569917 -663636647 1098633180
        -1835441619 -1430582756 1890608996</internalNodes>
      <leafValues>
        -2.1468403935432434e-01 1.0445668548345566e-01</leafValues></_>
    <_>
      <internalNodes>
        0 -1 1770 -1056641541 -844489795 1464286773 1307463799
        -947414912 -1880111556 1852025882 -1145064565</internalNodes>
      <leafValues>
        -8.6365245282649994e-02 2.6743152737617493e-01</leafValues></_>
    <_>
      <internalNodes>
        0 -1 1031 1669792351 -1791192262 -21168396 -652335880 1663995603
        -1073182219 -723105537 -1378379506</internalNodes>
      <leafValues>
        -1.1992052197456360e-01 1.8826241791248322e-01</leafValues></_>
    <_>
      <internalNodes>
        0 -1 2451 1647192281 -2082529806 889457928 1917335508
        -2145700507 -1133453533 1905245168 135533304</internalNodes>
      <leafValues>
        -2.3512803018093109e-01 9.6311084926128387e-02</leafValues></_>
    <_>
      <internalNodes>
        0 -1 3724 -1628516861 481861194 1188707801 -212402777 2054467353
        1883846498 -1096321665 -329114</internalNodes>
      <leafValues>
        -1.0616178065538406e-01 2.1849444508552551e-01</leafValues></_>
    <_>
      <internalNodes>
        0 -1 726 1450841248 844112375 -1556065935 1261428294 -748838766
        790911773 642015136 1166289507</internalNodes>
      <leafValues>
        -1.9679610431194305e-01 1.1800839751958847e-01</leafValues></_>
    <_>
      <internalNodes>
        0 -1 390 -742174042 -979255168 -1685665792 -295318040 -150928108
        2087813793 1943589633 -760789503</internalNodes>
      <leafValues>
        -2.1186466515064240e-01 1.0950116068124771e-01</leafValues></_>
    <_>
      <internalNodes>
        0 -1 3408 1555561939 -2502284 -2099447 693841519 1371334847
        -2576395 -136298921 -73678965</internalNodes>
      <leafValues>
        -6.6035069525241852e-02 3.5762357711791992e-01</leafValues></_>
    <_>
      <internalNodes>
        0 -1 2827 3145744 212557168 847404440 176503624 -119272176
        -554845110 -1582693773 541148257</internalNodes>
      <leafValues>
        -3.4763053059577942e-01 6.8702399730682373e-02</leafValues></_>
    <_>
      <internalNodes>
        0 -1 2577 -234380333 1546726108 -1317167521 -34765059 -70558020
        -1445300809 1124774619 -865749244</internalNodes>
      <leafValues>
        -8.9333713054656982e-02 2.6028454303741455e-01</leafValues></_>
    <_>
      <internalNodes>
        0 -1 2408 -1053556935 1939834635 1457447927 -79692849 -280301685
        -1165293603 1392274318 -1074019345</internalNodes>
      <leafValues>
        -6.1818402260541916e-02 3.6653938889503479e-01</leafValues></_>
    <_>
      <internalNodes>
        0 -1 2116 954388874 388995764 584323905 -201042991 691474492
        -465649516 189946789 469900433</internalNodes>
      <leafValues>
        -2.2874505817890167e-01 1.0497438907623291e-01</leafValues></_>
    <_>
      <internalNodes>
        0 -1 327 -580398897 -44034373 -286114417 1335142943 -512817642
        2087130981 -1192233498 -1581453633</internalNodes>
      <leafValues>
        -1.2112440913915634e-01 1.9938912987709045e-01</leafValues></_>
    <_>
      <internalNodes>
        0 -1 3534 1216088576 79452365 703981583 14855124 -1440923102
        -1205536588 -456278972 27184</internalNodes>
      <leafValues>
        -3.4561431407928467e-01 6.8210579454898834e-02</leafValues></_>
    <_>
      <internalNodes>
        0 -1 828 20336384 1183339656 -481366368 -1586568187 778267322
        -1987103972 699937113 1304723914</internalNodes>
      <leafValues>
        -1.9869752228260040e-01 1.1739642918109894e-01</leafValues></_>
    <_>
      <internalNodes>
        0 -1 956 -2036890930 -1155829822 -1133806532 -879460411 14476896
        1958281123 1793967323 -2009358376</internalNodes>
      <leafValues>
        -1.2783272564411163e-01 1.9653384387493134e-01</leafValues></_>
    <_>
      <internalNodes>
        0 -1 3139 105188224 -903148914 505358860 -1714417478 618138626
        746668381 -1128719600 1295743008</internalNodes>
      <leafValues>
        -2.5895780324935913e-01 9.4775527715682983e-02</leafValues></_>
    <_>
      <internalNodes>
        0 -1 2848 949905557 -35285131 -1674866381 1553604044 -1695273874
        -1256632463 -1069141481 -1383077098</internalNodes>
      <leafValues>
        -1.2201526761054993e-01 1.9435477256774902e-01</leafValues></_>
    <_>
      <internalNodes>
        0 -1 1337 -776603651 -743332641 -563223175 -203835401 -717244723
        -736178031 -268460289 -67394627</internalNodes>
      <leafValues>
        -6.0915127396583557e-02 3.7979075312614441e-01</leafValues></_>
    <_>
      <internalNodes>
        0 -1 2615 562584222 -2107356974 1099977108 261044056 -1868819598
        -956442601 38934529 1615900260</internalNodes>
      <leafValues>
        -2.8423300385475159e-01 8.8444657623767853e-02</leafValues></_>
    <_>
      <internalNodes>
        0 -1 589 -157117641 2029212665 1001206518 95341933 -49822525
        -791996257 -51840929 -126645684</internalNodes>
      <leafValues>
        -1.0030157119035721e-01 2.4490535259246826e-01</leafValues></_>
    <_>
      <internalNodes>
        0 -1 1360 204104193 -2109769004 288750605 -72777620 21636919
        270362634 -1450345483 659993936</internalNodes>
      <leafValues>
        -2.6505848765373230e-01 9.4924122095108032e-02</leafValues></_>
    <_>
      <internalNodes>
        0 -1 2716 -1892434468 -211350507 523818802 -999568015 -238698576
        -1708118308 -1094874205 -354686581</internalNodes>
      <leafValues>
        -8.7694846093654633e-02 2.6811534166336060e-01</leafValues></_>
    <_>
      <internalNodes>
        0 -1 2152 738730752 -1541666032 -767549393 136187721 -2116149024
        183540072 1331167364 71334480</internalNodes>
      <leafValues>
        -4.2408651113510132e-01 5.7229306548833847e-02</leafValues></_>
    <_>
      <internalNodes>
        0 -1 2191 -1062227345 -2030756862 -1074006681 -582911452
        -692092549 -184111226 -321659398 -1277166625</internalNodes>
      <leafValues>
        -8.2524433732032776e-02 3.1176611781120300e-01</leafValues></_>
    <_>
      <internalNodes>
        0 -1 3813 1750968991 -112526811 -974363065 1565158617 -292086838
        -1274556870 -523397643 1597632222</internalNodes>
      <leafValues>
        -1.3377809524536133e-01 1.9235964119434357e-01</leafValues></_>
    <_>
      <internalNodes>
        0 -1 3742 1898904354 -2134479733 746577107 -1870801857
        -1900023610 610044469 912604777 -37803006</internalNodes>
      <leafValues>
        -1.4607186615467072e-01 1.6506238281726837e-01</leafValues></_>
    <_>
      <internalNodes>
        0 -1 3707 1977142334 104277114 987980981 -1738508501 1475066886
        481915528 -962306556 -929911214</internalNodes>
      <leafValues>
        -1.8884505331516266e-01 1.3053117692470551e-01</leafValues></_>
    <_>
      <internalNodes>
        0 -1 1229 1619147808 -691207038 841522788 -556459846 -250264560
        260329657 282772226 1272089737</internalNodes>
      <leafValues>
        -2.2738079726696014e-01 1.0629004985094070e-01</leafValues></_></weakClassifiers></stage26>
</opencv_storage>
