<?xml version="1.0"?>
<opencv_storage>
<cascade>
  <stageType>BOOST</stageType>
  <featureType>HAAR</featureType>
  <height>20</height>
  <width>20</width>
  <stageParams>
    <boostType>GAB</boostType>
    <minHitRate>9.9900001287460327e-01</minHitRate>
    <maxFalseAlarm>5.0000000000000000e-01</maxFalseAlarm>
    <weightTrimRate>9.4999999999999996e-01</weightTrimRate>
    <maxDepth>1</maxDepth>
    <maxWeakCount>1000</maxWeakCount></stageParams>
  <featureParams>
    <maxCatCount>0</maxCatCount>
    <featSize>1</featSize>
    <mode>ALL</mode></featureParams>
  <stageNum>17</stageNum>
  <stages>
    <!-- stage 0 -->
    <_>
      <maxWeakCount>24</maxWeakCount>
      <stageThreshold>-2.1776006221771240e+00</stageThreshold>
      <weakClassifiers>
        <_>
          <internalNodes>
            0 -1 95 -1.8167325854301453e-01</internalNodes>
          <leafValues>
            6.1994051933288574e-01 -6.2629216909408569e-01</leafValues></_>
        <_>
          <internalNodes>
            0 -1 532 -1.7041280865669250e-01</internalNodes>
          <leafValues>
            4.6421796083450317e-01 -4.2102986574172974e-01</leafValues></_>
        <_>
          <internalNodes>
            0 -1 83 -9.9084731191396713e-03</internalNodes>
          <leafValues>
            5.1009291410446167e-01 -2.2131887078285217e-01</leafValues></_>
        <_>
          <internalNodes>
            0 -1 3027 1.2277048081159592e-02</internalNodes>
          <leafValues>
            -1.5799476206302643e-01 5.1797932386398315e-01</leafValues></_>
        <_>
          <internalNodes>
            0 -1 2921 8.0378800630569458e-03</internalNodes>
          <leafValues>
            -1.8500472605228424e-01 4.6146702766418457e-01</leafValues></_>
        <_>
          <internalNodes>
            0 -1 2921 -6.7433542571961880e-03</internalNodes>
          <leafValues>
            4.4457554817199707e-01 -1.8721783161163330e-01</leafValues></_>
        <_>
          <internalNodes>
            0 -1 288 4.4558933004736900e-03</internalNodes>
          <leafValues>
            -7.8192748129367828e-02 7.0326161384582520e-01</leafValues></_>
        <_>
          <internalNodes>
            0 -1 49 4.6089497208595276e-01</internalNodes>
          <leafValues>
            9.3098536133766174e-02 -8.5550874471664429e-01</leafValues></_>
        <_>
          <internalNodes>
            0 -1 51 -4.9344158172607422e-01</internalNodes>
          <leafValues>
            -7.6139670610427856e-01 7.7570259571075439e-02</leafValues></_>
        <_>
          <internalNodes>
            0 -1 1258 -2.1639559417963028e-03</internalNodes>
          <leafValues>
            4.7606655955314636e-01 -1.5556892752647400e-01</leafValues></_>
        <_>
          <internalNodes>
            0 -1 1258 4.7048125416040421e-03</internalNodes>
          <leafValues>
            -8.2001894712448120e-02 6.7226660251617432e-01</leafValues></_>
        <_>
          <internalNodes>
            0 -1 1064 8.5445791482925415e-03</internalNodes>
          <leafValues>
            -9.3449138104915619e-02 6.2618672847747803e-01</leafValues></_>
        <_>
          <internalNodes>
            0 -1 75 -4.2254686355590820e-01</internalNodes>
          <leafValues>
            -6.7247235774993896e-01 9.8588541150093079e-02</leafValues></_>
        <_>
          <internalNodes>
            0 -1 43 3.9336317777633667e-01</internalNodes>
          <leafValues>
            8.4424830973148346e-02 -6.7896568775177002e-01</leafValues></_>
        <_>
          <internalNodes>
            0 -1 2724 3.0381013639271259e-03</internalNodes>
          <leafValues>
            -9.9748395383358002e-02 6.1791527271270752e-01</leafValues></_>
        <_>
          <internalNodes>
            0 -1 1871 6.6152927465736866e-03</internalNodes>
          <leafValues>
            9.2826478183269501e-02 -6.8000322580337524e-01</leafValues></_>
        <_>
          <internalNodes>
            0 -1 2067 4.9703372642397881e-03</internalNodes>
          <leafValues>
            -1.0850311815738678e-01 5.1108831167221069e-01</leafValues></_>
        <_>
          <internalNodes>
            0 -1 1366 -1.0584586858749390e-01</internalNodes>
          <leafValues>
            -6.5122282505035400e-01 8.2179568707942963e-02</leafValues></_>
        <_>
          <internalNodes>
            0 -1 2444 1.5957127325236797e-03</internalNodes>
          <leafValues>
            -1.4057150483131409e-01 3.5815793275833130e-01</leafValues></_>
        <_>
          <internalNodes>
            0 -1 281 -2.3254984989762306e-03</internalNodes>
          <leafValues>
            5.4252648353576660e-01 -7.6237507164478302e-02</leafValues></_>
        <_>
          <internalNodes>
            0 -1 155 3.3431155607104301e-03</internalNodes>
          <leafValues>
            -9.6684932708740234e-02 4.4521626830101013e-01</leafValues></_>
        <_>
          <internalNodes>
            0 -1 789 -6.8025872111320496e-02</internalNodes>
          <leafValues>
            -6.5998417139053345e-01 7.1175202727317810e-02</leafValues></_>
        <_>
          <internalNodes>
            0 -1 155 -4.4146757572889328e-03</internalNodes>
          <leafValues>
            5.3277844190597534e-01 -9.6223436295986176e-02</leafValues></_>
        <_>
          <internalNodes>
            0 -1 1057 -4.8253741115331650e-03</internalNodes>
          <leafValues>
            6.0191822052001953e-01 -6.5611213445663452e-02</leafValues></_></weakClassifiers></_>
    <!-- stage 1 -->
    <_>
      <maxWeakCount>39</maxWeakCount>
      <stageThreshold>-2.1278483867645264e+00</stageThreshold>
      <weakClassifiers>
        <_>
          <internalNodes>
            0 -1 69 -2.0523202419281006e-01</internalNodes>
          <leafValues>
            4.8097476363182068e-01 -5.7030278444290161e-01</leafValues></_>
        <_>
          <internalNodes>
            0 -1 348 -1.4025883376598358e-01</internalNodes>
          <leafValues>
            3.4398019313812256e-01 -4.6762290596961975e-01</leafValues></_>
        <_>
          <internalNodes>
            0 -1 1076 1.9414843991398811e-02</internalNodes>
          <leafValues>
            -1.8650202453136444e-01 5.6647503376007080e-01</leafValues></_>
        <_>
          <internalNodes>
            0 -1 907 1.8589917570352554e-02</internalNodes>
          <leafValues>
            -1.0525455325841904e-01 6.0518199205398560e-01</leafValues></_>
        <_>
          <internalNodes>
            0 -1 2257 -1.1969037353992462e-02</internalNodes>
          <leafValues>
            3.1445065140724182e-01 -2.1851971745491028e-01</leafValues></_>
        <_>
          <internalNodes>
            0 -1 1492 -6.2340579926967621e-02</internalNodes>
          <leafValues>
            -7.2982579469680786e-01 5.0676487386226654e-02</leafValues></_>
        <_>
          <internalNodes>
            0 -1 451 7.5776404701173306e-03</internalNodes>
          <leafValues>
            -1.3093981146812439e-01 4.6068701148033142e-01</leafValues></_>
        <_>
          <internalNodes>
            0 -1 1858 4.9456125125288963e-03</internalNodes>
          <leafValues>
            1.5642599761486053e-01 -6.0410213470458984e-01</leafValues></_>
        <_>
          <internalNodes>
            0 -1 2921 2.1361323073506355e-02</internalNodes>
          <leafValues>
            -1.3366085290908813e-01 6.1370921134948730e-01</leafValues></_>
        <_>
          <internalNodes>
            0 -1 648 -1.2976082973182201e-02</internalNodes>
          <leafValues>
            4.2560613155364990e-01 -1.3572426140308380e-01</leafValues></_>
        <_>
          <internalNodes>
            0 -1 243 6.5739192068576813e-03</internalNodes>
          <leafValues>
            -1.2237946689128876e-01 5.0529968738555908e-01</leafValues></_>
        <_>
          <internalNodes>
            0 -1 258 -3.1668255105614662e-03</internalNodes>
          <leafValues>
            4.6580135822296143e-01 -1.0501315444707870e-01</leafValues></_>
        <_>
          <internalNodes>
            0 -1 1718 6.1358427628874779e-03</internalNodes>
          <leafValues>
            1.0930003970861435e-01 -6.3204002380371094e-01</leafValues></_>
        <_>
          <internalNodes>
            0 -1 2966 -3.0145777855068445e-03</internalNodes>
          <leafValues>
            4.2677760124206543e-01 -1.5834470093250275e-01</leafValues></_>
        <_>
          <internalNodes>
            0 -1 977 -1.1575865000486374e-01</internalNodes>
          <leafValues>
            -7.8872877359390259e-01 9.4016715884208679e-02</leafValues></_>
        <_>
          <internalNodes>
            0 -1 2856 3.8167457096278667e-03</internalNodes>
          <leafValues>
            -1.2294300645589828e-01 5.3913438320159912e-01</leafValues></_>
        <_>
          <internalNodes>
            0 -1 1064 7.5980275869369507e-03</internalNodes>
          <leafValues>
            -9.8740376532077789e-02 5.1337575912475586e-01</leafValues></_>
        <_>
          <internalNodes>
            0 -1 878 -1.7315452918410301e-02</internalNodes>
          <leafValues>
            5.0557285547256470e-01 -9.0407259762287140e-02</leafValues></_>
        <_>
          <internalNodes>
            0 -1 2351 5.6459214538335800e-03</internalNodes>
          <leafValues>
            -7.9296484589576721e-02 5.3706210851669312e-01</leafValues></_>
        <_>
          <internalNodes>
            0 -1 2351 -4.5293094590306282e-03</internalNodes>
          <leafValues>
            5.3143900632858276e-01 -9.8579265177249908e-02</leafValues></_>
        <_>
          <internalNodes>
            0 -1 1348 -2.2136434912681580e-01</internalNodes>
          <leafValues>
            -6.0131561756134033e-01 8.0080352723598480e-02</leafValues></_>
        <_>
          <internalNodes>
            0 -1 2996 -9.7265429794788361e-03</internalNodes>
          <leafValues>
            5.4815393686294556e-01 -8.3528131246566772e-02</leafValues></_>
        <_>
          <internalNodes>
            0 -1 2996 2.7373442426323891e-03</internalNodes>
          <leafValues>
            -1.2137693166732788e-01 3.4407663345336914e-01</leafValues></_>
        <_>
          <internalNodes>
            0 -1 1732 4.8835519701242447e-03</internalNodes>
          <leafValues>
            8.8437393307685852e-02 -4.8031753301620483e-01</leafValues></_>
        <_>
          <internalNodes>
            0 -1 481 1.4207228086888790e-02</internalNodes>
          <leafValues>
            -1.0389914363622665e-01 4.0736281871795654e-01</leafValues></_>
        <_>
          <internalNodes>
            0 -1 2872 -7.8726001083850861e-03</internalNodes>
          <leafValues>
            5.4326480627059937e-01 -6.8221352994441986e-02</leafValues></_>
        <_>
          <internalNodes>
            0 -1 1882 5.7227378711104393e-03</internalNodes>
          <leafValues>
            8.5319727659225464e-02 -5.0353103876113892e-01</leafValues></_>
        <_>
          <internalNodes>
            0 -1 564 -3.5080222878605127e-03</internalNodes>
          <leafValues>
            5.6599724292755127e-01 -7.1408867835998535e-02</leafValues></_>
        <_>
          <internalNodes>
            0 -1 2444 3.6078086122870445e-03</internalNodes>
          <leafValues>
            -7.8753583133220673e-02 4.1480413079261780e-01</leafValues></_>
        <_>
          <internalNodes>
            0 -1 2934 -1.0391868650913239e-02</internalNodes>
          <leafValues>
            4.1885155439376831e-01 -8.3949513733386993e-02</leafValues></_>
        <_>
          <internalNodes>
            0 -1 1921 -1.3239801861345768e-02</internalNodes>
          <leafValues>
            3.3598688244819641e-01 -1.1856772005558014e-01</leafValues></_>
        <_>
          <internalNodes>
            0 -1 1446 -1.8040392547845840e-02</internalNodes>
          <leafValues>
            1.6801527142524719e-01 -2.1751993894577026e-01</leafValues></_>
        <_>
          <internalNodes>
            0 -1 382 -3.1117857433855534e-03</internalNodes>
          <leafValues>
            5.0619328022003174e-01 -6.8308606743812561e-02</leafValues></_>
        <_>
          <internalNodes>
            0 -1 1866 -8.6707947775721550e-04</internalNodes>
          <leafValues>
            -4.4515565037727356e-01 7.9508990049362183e-02</leafValues></_>
        <_>
          <internalNodes>
            0 -1 1247 -6.2073883600533009e-03</internalNodes>
          <leafValues>
            4.8387220501899719e-01 -7.9008556902408600e-02</leafValues></_>
        <_>
          <internalNodes>
            0 -1 130 1.1279160156846046e-02</internalNodes>
          <leafValues>
            -4.9962963908910751e-02 6.0520988702774048e-01</leafValues></_>
        <_>
          <internalNodes>
            0 -1 2382 -2.8932879213243723e-03</internalNodes>
          <leafValues>
            -4.3367138504981995e-01 7.8422211110591888e-02</leafValues></_>
        <_>
          <internalNodes>
            0 -1 2713 -1.4981454238295555e-02</internalNodes>
          <leafValues>
            5.1004004478454590e-01 -6.9953933358192444e-02</leafValues></_>
        <_>
          <internalNodes>
            0 -1 2355 -1.0974399745464325e-02</internalNodes>
          <leafValues>
            3.1029731035232544e-01 -1.1724978685379028e-01</leafValues></_></weakClassifiers></_>
    <!-- stage 2 -->
    <_>
      <maxWeakCount>45</maxWeakCount>
      <stageThreshold>-1.9809587001800537e+00</stageThreshold>
      <weakClassifiers>
        <_>
          <internalNodes>
            0 -1 360 -3.4110236167907715e-01</internalNodes>
          <leafValues>
            3.1137564778327942e-01 -5.7224988937377930e-01</leafValues></_>
        <_>
          <internalNodes>
            0 -1 87 -3.1899936497211456e-02</internalNodes>
          <leafValues>
            3.7995058298110962e-01 -3.2286712527275085e-01</leafValues></_>
        <_>
          <internalNodes>
            0 -1 701 -3.1898967921733856e-02</internalNodes>
          <leafValues>
            3.4268355369567871e-01 -2.5430196523666382e-01</leafValues></_>
        <_>
          <internalNodes>
            0 -1 959 -1.7053437232971191e-01</internalNodes>
          <leafValues>
            -6.3188558816909790e-01 1.2252391874790192e-01</leafValues></_>
        <_>
          <internalNodes>
            0 -1 827 1.7493840306997299e-02</internalNodes>
          <leafValues>
            -1.2853708863258362e-01 5.7499706745147705e-01</leafValues></_>
        <_>
          <internalNodes>
            0 -1 828 -1.2934105470776558e-02</internalNodes>
          <leafValues>
            4.9259281158447266e-01 -1.5309645235538483e-01</leafValues></_>
        <_>
          <internalNodes>
            0 -1 2991 -7.4882847256958485e-03</internalNodes>
          <leafValues>
            5.1560807228088379e-01 -1.4651311933994293e-01</leafValues></_>
        <_>
          <internalNodes>
            0 -1 2992 3.7659779191017151e-03</internalNodes>
          <leafValues>
            -6.8680137395858765e-02 5.2919948101043701e-01</leafValues></_>
        <_>
          <internalNodes>
            0 -1 905 1.9467476755380630e-02</internalNodes>
          <leafValues>
            -1.0815481096506119e-01 5.9717154502868652e-01</leafValues></_>
        <_>
          <internalNodes>
            0 -1 1077 -1.7567662522196770e-02</internalNodes>
          <leafValues>
            4.5408290624618530e-01 -1.2835721671581268e-01</leafValues></_>
        <_>
          <internalNodes>
            0 -1 2912 2.7638185769319534e-02</internalNodes>
          <leafValues>
            -7.8976728022098541e-02 6.2387490272521973e-01</leafValues></_>
        <_>
          <internalNodes>
            0 -1 2473 5.1648031920194626e-02</internalNodes>
          <leafValues>
            -1.7425073683261871e-01 2.8070163726806641e-01</leafValues></_>
        <_>
          <internalNodes>
            0 -1 2714 3.1026113778352737e-02</internalNodes>
          <leafValues>
            -8.8718853890895844e-02 7.2584342956542969e-01</leafValues></_>
        <_>
          <internalNodes>
            0 -1 1231 1.4463238418102264e-02</internalNodes>
          <leafValues>
            -7.6871298253536224e-02 5.3269451856613159e-01</leafValues></_>
        <_>
          <internalNodes>
            0 -1 1939 -5.1526250317692757e-03</internalNodes>
          <leafValues>
            4.1185006499290466e-01 -9.0247482061386108e-02</leafValues></_>
        <_>
          <internalNodes>
            0 -1 660 2.4325825273990631e-02</internalNodes>
          <leafValues>
            -1.6132998466491699e-01 2.5198078155517578e-01</leafValues></_>
        <_>
          <internalNodes>
            0 -1 1096 -8.8272020220756531e-03</internalNodes>
          <leafValues>
            4.4586777687072754e-01 -9.5817856490612030e-02</leafValues></_>
        <_>
          <internalNodes>
            0 -1 1098 8.4575861692428589e-03</internalNodes>
          <leafValues>
            -1.0128891468048096e-01 4.1918605566024780e-01</leafValues></_>
        <_>
          <internalNodes>
            0 -1 1872 2.3724841885268688e-03</internalNodes>
          <leafValues>
            9.8015971481800079e-02 -4.9238631129264832e-01</leafValues></_>
        <_>
          <internalNodes>
            0 -1 109 -1.2558367103338242e-02</internalNodes>
          <leafValues>
            5.7881593704223633e-01 -8.6759515106678009e-02</leafValues></_>
        <_>
          <internalNodes>
            0 -1 499 5.1045869477093220e-03</internalNodes>
          <leafValues>
            -5.9284593909978867e-02 5.5717629194259644e-01</leafValues></_>
        <_>
          <internalNodes>
            0 -1 2815 5.5283876135945320e-03</internalNodes>
          <leafValues>
            -5.9469714760780334e-02 5.4067993164062500e-01</leafValues></_>
        <_>
          <internalNodes>
            0 -1 1880 1.5515144914388657e-03</internalNodes>
          <leafValues>
            6.5460093319416046e-02 -6.2660533189773560e-01</leafValues></_>
        <_>
          <internalNodes>
            0 -1 2860 -4.6149548143148422e-03</internalNodes>
          <leafValues>
            4.9303337931632996e-01 -7.9468682408332825e-02</leafValues></_>
        <_>
          <internalNodes>
            0 -1 2846 5.3676604293286800e-03</internalNodes>
          <leafValues>
            -7.5823746621608734e-02 4.6032640337944031e-01</leafValues></_>
        <_>
          <internalNodes>
            0 -1 754 -4.8606563359498978e-03</internalNodes>
          <leafValues>
            1.6971248388290405e-01 -2.1416938304901123e-01</leafValues></_>
        <_>
          <internalNodes>
            0 -1 1749 7.3848746251314878e-04</internalNodes>
          <leafValues>
            8.9500099420547485e-02 -3.6625555157661438e-01</leafValues></_>
        <_>
          <internalNodes>
            0 -1 2816 3.8843401707708836e-03</internalNodes>
          <leafValues>
            -5.9109121561050415e-02 6.0230457782745361e-01</leafValues></_>
        <_>
          <internalNodes>
            0 -1 543 -6.4895056188106537e-02</internalNodes>
          <leafValues>
            1.9168099761009216e-01 -1.8479670584201813e-01</leafValues></_>
        <_>
          <internalNodes>
            0 -1 2114 2.6272032409906387e-03</internalNodes>
          <leafValues>
            1.0629326105117798e-01 -3.4009978175163269e-01</leafValues></_>
        <_>
          <internalNodes>
            0 -1 1250 9.2448573559522629e-03</internalNodes>
          <leafValues>
            -8.8797889649868011e-02 3.9738324284553528e-01</leafValues></_>
        <_>
          <internalNodes>
            0 -1 1250 -4.9749882891774178e-03</internalNodes>
          <leafValues>
            3.6055159568786621e-01 -1.1233061552047729e-01</leafValues></_>
        <_>
          <internalNodes>
            0 -1 1875 -4.6150851994752884e-03</internalNodes>
          <leafValues>
            -6.7711263895034790e-01 5.2345339208841324e-02</leafValues></_>
        <_>
          <internalNodes>
            0 -1 130 4.4077020138502121e-03</internalNodes>
          <leafValues>
            -1.1621239781379700e-01 3.3032548427581787e-01</leafValues></_>
        <_>
          <internalNodes>
            0 -1 495 -3.0378671362996101e-03</internalNodes>
          <leafValues>
            5.0125151872634888e-01 -6.2586151063442230e-02</leafValues></_>
        <_>
          <internalNodes>
            0 -1 2653 -1.2020673602819443e-03</internalNodes>
          <leafValues>
            -2.9827779531478882e-01 1.0951798409223557e-01</leafValues></_>
        <_>
          <internalNodes>
            0 -1 2239 -1.0555840563029051e-03</internalNodes>
          <leafValues>
            1.3987864553928375e-01 -2.4809390306472778e-01</leafValues></_>
        <_>
          <internalNodes>
            0 -1 288 4.1257878765463829e-03</internalNodes>
          <leafValues>
            -7.4226029217243195e-02 4.2879939079284668e-01</leafValues></_>
        <_>
          <internalNodes>
            0 -1 34 2.1033486723899841e-01</internalNodes>
          <leafValues>
            6.4632117748260498e-02 -5.3995996713638306e-01</leafValues></_>
        <_>
          <internalNodes>
            0 -1 1556 -1.8589511513710022e-02</internalNodes>
          <leafValues>
            1.5887221693992615e-01 -2.0150867104530334e-01</leafValues></_>
        <_>
          <internalNodes>
            0 -1 188 -1.1610662564635277e-02</internalNodes>
          <leafValues>
            4.2207694053649902e-01 -7.3884621262550354e-02</leafValues></_>
        <_>
          <internalNodes>
            0 -1 187 4.0011294186115265e-03</internalNodes>
          <leafValues>
            -1.1264286190271378e-01 2.6696708798408508e-01</leafValues></_>
        <_>
          <internalNodes>
            0 -1 1838 6.6310148686170578e-03</internalNodes>
          <leafValues>
            7.1077257394790649e-02 -4.7425886988639832e-01</leafValues></_>
        <_>
          <internalNodes>
            0 -1 2738 -2.2916304878890514e-03</internalNodes>
          <leafValues>
            1.9624781608581543e-01 -1.6054539382457733e-01</leafValues></_>
        <_>
          <internalNodes>
            0 -1 980 -9.1222161427140236e-04</internalNodes>
          <leafValues>
            -3.7011727690696716e-01 8.4120757877826691e-02</leafValues></_></weakClassifiers></_>
    <!-- stage 3 -->
    <_>
      <maxWeakCount>63</maxWeakCount>
      <stageThreshold>-1.9899718761444092e+00</stageThreshold>
      <weakClassifiers>
        <_>
          <internalNodes>
            0 -1 349 -2.2821632027626038e-01</internalNodes>
          <leafValues>
            3.4984770417213440e-01 -4.8590165376663208e-01</leafValues></_>
        <_>
          <internalNodes>
            0 -1 69 -2.7621826529502869e-01</internalNodes>
          <leafValues>
            3.6635237932205200e-01 -3.0218133330345154e-01</leafValues></_>
        <_>
          <internalNodes>
            0 -1 2583 -3.0417542438954115e-03</internalNodes>
          <leafValues>
            4.6648365259170532e-01 -1.0561452060937881e-01</leafValues></_>
        <_>
          <internalNodes>
            0 -1 2583 2.6355788577347994e-03</internalNodes>
          <leafValues>
            -1.4530527591705322e-01 4.6729251742362976e-01</leafValues></_>
        <_>
          <internalNodes>
            0 -1 495 -2.6466287672519684e-03</internalNodes>
          <leafValues>
            5.4050940275192261e-01 -7.8628204762935638e-02</leafValues></_>
        <_>
          <internalNodes>
            0 -1 490 3.6080712452530861e-03</internalNodes>
          <leafValues>
            -9.0578511357307434e-02 4.2919144034385681e-01</leafValues></_>
        <_>
          <internalNodes>
            0 -1 548 3.1021391041576862e-03</internalNodes>
          <leafValues>
            -8.2128055393695831e-02 5.4199856519699097e-01</leafValues></_>
        <_>
          <internalNodes>
            0 -1 548 -3.2369522377848625e-03</internalNodes>
          <leafValues>
            5.6007862091064453e-01 -8.0310657620429993e-02</leafValues></_>
        <_>
          <internalNodes>
            0 -1 2968 -5.8442759327590466e-03</internalNodes>
          <leafValues>
            4.7626444697380066e-01 -3.2590173184871674e-02</leafValues></_>
        <_>
          <internalNodes>
            0 -1 2968 3.9611533284187317e-03</internalNodes>
          <leafValues>
            -1.3008280098438263e-01 3.6081165075302124e-01</leafValues></_>
        <_>
          <internalNodes>
            0 -1 1399 -7.3570339009165764e-03</internalNodes>
          <leafValues>
            1.7548383772373199e-01 -2.2553947567939758e-01</leafValues></_>
        <_>
          <internalNodes>
            0 -1 747 -1.5944275259971619e-01</internalNodes>
          <leafValues>
            -6.5273964405059814e-01 5.4635796695947647e-02</leafValues></_>
        <_>
          <internalNodes>
            0 -1 1120 -3.9936289191246033e-02</internalNodes>
          <leafValues>
            1.2696450948715210e-01 -3.2122516632080078e-01</leafValues></_>
        <_>
          <internalNodes>
            0 -1 1471 -1.7786478996276855e-01</internalNodes>
          <leafValues>
            -4.7425466775894165e-01 8.7399192154407501e-02</leafValues></_>
        <_>
          <internalNodes>
            0 -1 2920 3.9955927059054375e-03</internalNodes>
          <leafValues>
            -1.0338118672370911e-01 4.3416279554367065e-01</leafValues></_>
        <_>
          <internalNodes>
            0 -1 2920 -2.8810179792344570e-03</internalNodes>
          <leafValues>
            4.5582476258277893e-01 -8.2603037357330322e-02</leafValues></_>
        <_>
          <internalNodes>
            0 -1 137 -1.5801750123500824e-02</internalNodes>
          <leafValues>
            3.3604186773300171e-01 -1.0402291268110275e-01</leafValues></_>
        <_>
          <internalNodes>
            0 -1 3020 1.1630311608314514e-02</internalNodes>
          <leafValues>
            -8.7760590016841888e-02 4.1465637087821960e-01</leafValues></_>
        <_>
          <internalNodes>
            0 -1 693 -1.0513661801815033e-01</internalNodes>
          <leafValues>
            1.6323682665824890e-01 -2.1799372136592865e-01</leafValues></_>
        <_>
          <internalNodes>
            0 -1 2575 -2.3837937042117119e-03</internalNodes>
          <leafValues>
            3.3280524611473083e-01 -9.8120555281639099e-02</leafValues></_>
        <_>
          <internalNodes>
            0 -1 2575 3.8254987448453903e-03</internalNodes>
          <leafValues>
            -7.6452024281024933e-02 4.1046154499053955e-01</leafValues></_>
        <_>
          <internalNodes>
            0 -1 1521 -1.1146239936351776e-01</internalNodes>
          <leafValues>
            -6.2755376100540161e-01 6.3153564929962158e-02</leafValues></_>
        <_>
          <internalNodes>
            0 -1 1083 4.8277545720338821e-03</internalNodes>
          <leafValues>
            -9.1056764125823975e-02 3.7787139415740967e-01</leafValues></_>
        <_>
          <internalNodes>
            0 -1 890 -7.1496106684207916e-03</internalNodes>
          <leafValues>
            3.7203386425971985e-01 -9.3768619000911713e-02</leafValues></_>
        <_>
          <internalNodes>
            0 -1 420 -3.4685559570789337e-02</internalNodes>
          <leafValues>
            1.6546344757080078e-01 -1.8127842247486115e-01</leafValues></_>
        <_>
          <internalNodes>
            0 -1 2841 -1.0627524927258492e-02</internalNodes>
          <leafValues>
            3.0005934834480286e-01 -1.0067359358072281e-01</leafValues></_>
        <_>
          <internalNodes>
            0 -1 1241 -2.5097937323153019e-03</internalNodes>
          <leafValues>
            3.1579598784446716e-01 -8.8285133242607117e-02</leafValues></_>
        <_>
          <internalNodes>
            0 -1 1871 -8.3130327984690666e-03</internalNodes>
          <leafValues>
            -5.5360186100006104e-01 5.8077607303857803e-02</leafValues></_>
        <_>
          <internalNodes>
            0 -1 132 9.4893705099821091e-03</internalNodes>
          <leafValues>
            -9.7567789256572723e-02 3.3954581618309021e-01</leafValues></_>
        <_>
          <internalNodes>
            0 -1 723 -1.2538099661469460e-02</internalNodes>
          <leafValues>
            5.0930172204971313e-01 -5.7520162314176559e-02</leafValues></_>
        <_>
          <internalNodes>
            0 -1 2105 -4.9450397491455078e-02</internalNodes>
          <leafValues>
            1.6410447657108307e-01 -1.9565083086490631e-01</leafValues></_>
        <_>
          <internalNodes>
            0 -1 1073 -9.7427759319543839e-03</internalNodes>
          <leafValues>
            2.8113052248954773e-01 -1.0301274806261063e-01</leafValues></_>
        <_>
          <internalNodes>
            0 -1 2860 -3.0607022345066071e-03</internalNodes>
          <leafValues>
            3.4231022000312805e-01 -7.6791204512119293e-02</leafValues></_>
        <_>
          <internalNodes>
            0 -1 1283 -6.7080259323120117e-02</internalNodes>
          <leafValues>
            -7.0997178554534912e-01 4.1043464094400406e-02</leafValues></_>
        <_>
          <internalNodes>
            0 -1 2912 -2.4456564337015152e-02</internalNodes>
          <leafValues>
            4.8995843529701233e-01 -5.9513412415981293e-02</leafValues></_>
        <_>
          <internalNodes>
            0 -1 2000 1.3626281870529056e-03</internalNodes>
          <leafValues>
            5.1511626690626144e-02 -5.2439278364181519e-01</leafValues></_>
        <_>
          <internalNodes>
            0 -1 658 -2.9946416616439819e-03</internalNodes>
          <leafValues>
            4.3675327301025391e-01 -6.4485572278499603e-02</leafValues></_>
        <_>
          <internalNodes>
            0 -1 222 -5.4876066744327545e-02</internalNodes>
          <leafValues>
            -5.3188604116439819e-01 5.4316774010658264e-02</leafValues></_>
        <_>
          <internalNodes>
            0 -1 504 -3.8407426327466965e-03</internalNodes>
          <leafValues>
            3.7845054268836975e-01 -7.4632026255130768e-02</leafValues></_>
        <_>
          <internalNodes>
            0 -1 1160 -1.4539705589413643e-02</internalNodes>
          <leafValues>
            1.5559643507003784e-01 -1.6302581131458282e-01</leafValues></_>
        <_>
          <internalNodes>
            0 -1 385 -6.7366166040301323e-03</internalNodes>
          <leafValues>
            1.4459103345870972e-01 -1.8204295635223389e-01</leafValues></_>
        <_>
          <internalNodes>
            0 -1 42 3.3425819873809814e-01</internalNodes>
          <leafValues>
            4.1328344494104385e-02 -5.9122896194458008e-01</leafValues></_>
        <_>
          <internalNodes>
            0 -1 2771 5.6913862936198711e-03</internalNodes>
          <leafValues>
            -7.0538327097892761e-02 3.5313338041305542e-01</leafValues></_>
        <_>
          <internalNodes>
            0 -1 1531 -5.6875459849834442e-02</internalNodes>
          <leafValues>
            -7.5623768568038940e-01 3.4700497984886169e-02</leafValues></_>
        <_>
          <internalNodes>
            0 -1 1326 3.0125582218170166e-01</internalNodes>
          <leafValues>
            2.6913059875369072e-02 -6.8646645545959473e-01</leafValues></_>
        <_>
          <internalNodes>
            0 -1 1199 5.5326067376881838e-04</internalNodes>
          <leafValues>
            7.3892153799533844e-02 -2.8627541661262512e-01</leafValues></_>
        <_>
          <internalNodes>
            0 -1 1437 -7.4498732574284077e-03</internalNodes>
          <leafValues>
            3.7481513619422913e-01 -6.2320787459611893e-02</leafValues></_>
        <_>
          <internalNodes>
            0 -1 1284 6.0938093811273575e-03</internalNodes>
          <leafValues>
            -6.5863996744155884e-02 3.2225736975669861e-01</leafValues></_>
        <_>
          <internalNodes>
            0 -1 325 2.4502463638782501e-02</internalNodes>
          <leafValues>
            -5.6134954094886780e-02 3.8115686178207397e-01</leafValues></_>
        <_>
          <internalNodes>
            0 -1 667 -1.5939656645059586e-02</internalNodes>
          <leafValues>
            2.7512842416763306e-01 -9.3084193766117096e-02</leafValues></_>
        <_>
          <internalNodes>
            0 -1 1614 -9.4322711229324341e-03</internalNodes>
          <leafValues>
            3.0535444617271423e-01 -7.2632558643817902e-02</leafValues></_>
        <_>
          <internalNodes>
            0 -1 2860 2.7712676674127579e-03</internalNodes>
          <leafValues>
            -7.2930537164211273e-02 2.9546397924423218e-01</leafValues></_>
        <_>
          <internalNodes>
            0 -1 554 4.3573275208473206e-02</internalNodes>
          <leafValues>
            -8.5651524364948273e-02 2.6301828026771545e-01</leafValues></_>
        <_>
          <internalNodes>
            0 -1 614 -1.9617144018411636e-02</internalNodes>
          <leafValues>
            1.3119256496429443e-01 -1.6889350116252899e-01</leafValues></_>
        <_>
          <internalNodes>
            0 -1 73 -3.1024473905563354e-01</internalNodes>
          <leafValues>
            -5.4089701175689697e-01 3.8681194186210632e-02</leafValues></_>
        <_>
          <internalNodes>
            0 -1 1861 -8.4425874054431915e-02</internalNodes>
          <leafValues>
            -6.7557716369628906e-01 2.8917478397488594e-02</leafValues></_>
        <_>
          <internalNodes>
            0 -1 2029 5.5651497095823288e-03</internalNodes>
          <leafValues>
            5.3422849625349045e-02 -3.8544580340385437e-01</leafValues></_>
        <_>
          <internalNodes>
            0 -1 2698 3.3347043208777905e-03</internalNodes>
          <leafValues>
            -5.3851760923862457e-02 4.5441234111785889e-01</leafValues></_>
        <_>
          <internalNodes>
            0 -1 2724 -4.7779027372598648e-03</internalNodes>
          <leafValues>
            4.8756280541419983e-01 -3.6553040146827698e-02</leafValues></_>
        <_>
          <internalNodes>
            0 -1 1513 -2.1612837910652161e-02</internalNodes>
          <leafValues>
            -4.6610128879547119e-01 4.3528251349925995e-02</leafValues></_>
        <_>
          <internalNodes>
            0 -1 1062 -3.9986697956919670e-03</internalNodes>
          <leafValues>
            4.5267987251281738e-01 -4.5487623661756516e-02</leafValues></_>
        <_>
          <internalNodes>
            0 -1 1787 -5.0039947382174432e-05</internalNodes>
          <leafValues>
            1.2348856776952744e-01 -1.5465147793292999e-01</leafValues></_>
        <_>
          <internalNodes>
            0 -1 2832 9.2607177793979645e-03</internalNodes>
          <leafValues>
            -7.1872718632221222e-02 2.6848495006561279e-01</leafValues></_></weakClassifiers></_>
    <!-- stage 4 -->
    <_>
      <maxWeakCount>79</maxWeakCount>
      <stageThreshold>-1.9254066944122314e+00</stageThreshold>
      <weakClassifiers>
        <_>
          <internalNodes>
            0 -1 121 -1.4941412210464478e-01</internalNodes>
          <leafValues>
            2.9076743125915527e-01 -5.4219329357147217e-01</leafValues></_>
        <_>
          <internalNodes>
            0 -1 448 7.5338020920753479e-02</internalNodes>
          <leafValues>
            -3.4320122003555298e-01 2.1895058453083038e-01</leafValues></_>
        <_>
          <internalNodes>
            0 -1 684 3.0363053083419800e-02</internalNodes>
          <leafValues>
            -2.0459830760955811e-01 2.8469190001487732e-01</leafValues></_>
        <_>
          <internalNodes>
            0 -1 3033 9.8845977336168289e-03</internalNodes>
          <leafValues>
            -1.5139670670032501e-01 2.5768360495567322e-01</leafValues></_>
        <_>
          <internalNodes>
            0 -1 658 3.9603658951818943e-03</internalNodes>
          <leafValues>
            -2.9210731387138367e-02 6.1726683378219604e-01</leafValues></_>
        <_>
          <internalNodes>
            0 -1 658 -2.3561476264148951e-03</internalNodes>
          <leafValues>
            4.5608040690422058e-01 -1.0245344042778015e-01</leafValues></_>
        <_>
          <internalNodes>
            0 -1 2714 1.9799847155809402e-02</internalNodes>
          <leafValues>
            -9.4493903219699860e-02 4.5676732063293457e-01</leafValues></_>
        <_>
          <internalNodes>
            0 -1 905 2.3999795317649841e-02</internalNodes>
          <leafValues>
            -6.8579353392124176e-02 5.3453111648559570e-01</leafValues></_>
        <_>
          <internalNodes>
            0 -1 2340 -4.4401232153177261e-03</internalNodes>
          <leafValues>
            2.8417563438415527e-01 -1.1462117731571198e-01</leafValues></_>
        <_>
          <internalNodes>
            0 -1 175 -3.6736881732940674e-01</internalNodes>
          <leafValues>
            -6.7918407917022705e-01 5.0561998039484024e-02</leafValues></_>
        <_>
          <internalNodes>
            0 -1 531 4.0508335828781128e-01</internalNodes>
          <leafValues>
            1.5823716297745705e-02 -7.3854899406433105e-01</leafValues></_>
        <_>
          <internalNodes>
            0 -1 2956 1.2896973639726639e-02</internalNodes>
          <leafValues>
            -1.0992792248725891e-01 2.6492199301719666e-01</leafValues></_>
        <_>
          <internalNodes>
            0 -1 3020 2.0028010010719299e-02</internalNodes>
          <leafValues>
            -3.4563492983579636e-02 5.7597702741622925e-01</leafValues></_>
        <_>
          <internalNodes>
            0 -1 2563 -9.6179777756333351e-03</internalNodes>
          <leafValues>
            2.1721912920475006e-01 -1.3396593928337097e-01</leafValues></_>
        <_>
          <internalNodes>
            0 -1 1683 -7.0327296853065491e-02</internalNodes>
          <leafValues>
            -6.1769211292266846e-01 4.4405829161405563e-02</leafValues></_>
        <_>
          <internalNodes>
            0 -1 2724 3.1014697160571814e-03</internalNodes>
          <leafValues>
            -7.0714861154556274e-02 4.3620708584785461e-01</leafValues></_>
        <_>
          <internalNodes>
            0 -1 207 -1.1032032780349255e-02</internalNodes>
          <leafValues>
            1.8434794247150421e-01 -1.4826145768165588e-01</leafValues></_>
        <_>
          <internalNodes>
            0 -1 2878 1.6459196805953979e-02</internalNodes>
          <leafValues>
            -5.7550046592950821e-02 4.6758654713630676e-01</leafValues></_>
        <_>
          <internalNodes>
            0 -1 1185 4.7606574371457100e-03</internalNodes>
          <leafValues>
            7.2042234241962433e-02 -4.1695475578308105e-01</leafValues></_>
        <_>
          <internalNodes>
            0 -1 1720 -4.7015171730890870e-05</internalNodes>
          <leafValues>
            1.5509046614170074e-01 -1.8451222777366638e-01</leafValues></_>
        <_>
          <internalNodes>
            0 -1 1720 -3.7728047464042902e-03</internalNodes>
          <leafValues>
            -5.1833313703536987e-01 5.9852313250303268e-02</leafValues></_>
        <_>
          <internalNodes>
            0 -1 288 -3.1006247736513615e-03</internalNodes>
          <leafValues>
            3.2921209931373596e-01 -8.8983282446861267e-02</leafValues></_>
        <_>
          <internalNodes>
            0 -1 288 5.0894925370812416e-03</internalNodes>
          <leafValues>
            -7.4246801435947418e-02 4.4088351726531982e-01</leafValues></_>
        <_>
          <internalNodes>
            0 -1 901 -1.2244441546499729e-02</internalNodes>
          <leafValues>
            2.5294411182403564e-01 -1.1113303154706955e-01</leafValues></_>
        <_>
          <internalNodes>
            0 -1 2996 -9.7220111638307571e-03</internalNodes>
          <leafValues>
            4.0760347247123718e-01 -7.1128569543361664e-02</leafValues></_>
        <_>
          <internalNodes>
            0 -1 2330 3.9011021144688129e-03</internalNodes>
          <leafValues>
            -6.5893851220607758e-02 3.7283837795257568e-01</leafValues></_>
        <_>
          <internalNodes>
            0 -1 1271 -1.0742366313934326e-02</internalNodes>
          <leafValues>
            3.3688268065452576e-01 -7.8310273587703705e-02</leafValues></_>
        <_>
          <internalNodes>
            0 -1 820 -1.4718318358063698e-02</internalNodes>
          <leafValues>
            1.2777189910411835e-01 -2.0256698131561279e-01</leafValues></_>
        <_>
          <internalNodes>
            0 -1 2724 -2.2980195935815573e-03</internalNodes>
          <leafValues>
            3.4154540300369263e-01 -7.5023442506790161e-02</leafValues></_>
        <_>
          <internalNodes>
            0 -1 2135 5.4590990766882896e-03</internalNodes>
          <leafValues>
            6.5045617520809174e-02 -4.1216227412223816e-01</leafValues></_>
        <_>
          <internalNodes>
            0 -1 2263 -4.1724386392161250e-05</internalNodes>
          <leafValues>
            1.7689941823482513e-01 -1.4517921209335327e-01</leafValues></_>
        <_>
          <internalNodes>
            0 -1 1192 -5.8064330369234085e-04</internalNodes>
          <leafValues>
            -3.0495306849479675e-01 8.8155061006546021e-02</leafValues></_>
        <_>
          <internalNodes>
            0 -1 1418 -2.5716170202940702e-03</internalNodes>
          <leafValues>
            1.2773579359054565e-01 -1.9170346856117249e-01</leafValues></_>
        <_>
          <internalNodes>
            0 -1 704 -3.5327072255313396e-03</internalNodes>
          <leafValues>
            4.4518965482711792e-01 -5.5907242000102997e-02</leafValues></_>
        <_>
          <internalNodes>
            0 -1 2816 2.6115416549146175e-03</internalNodes>
          <leafValues>
            -5.7786777615547180e-02 3.9559605717658997e-01</leafValues></_>
        <_>
          <internalNodes>
            0 -1 1139 -1.7415609210729599e-02</internalNodes>
          <leafValues>
            1.3704483211040497e-01 -1.7977575957775116e-01</leafValues></_>
        <_>
          <internalNodes>
            0 -1 2531 -1.6789457731647417e-05</internalNodes>
          <leafValues>
            2.0159222185611725e-01 -1.2523427605628967e-01</leafValues></_>
        <_>
          <internalNodes>
            0 -1 1718 5.9552285820245743e-03</internalNodes>
          <leafValues>
            5.1660154014825821e-02 -4.9976745247840881e-01</leafValues></_>
        <_>
          <internalNodes>
            0 -1 1494 4.5304026571102440e-05</internalNodes>
          <leafValues>
            -1.3522189855575562e-01 1.8082633614540100e-01</leafValues></_>
        <_>
          <internalNodes>
            0 -1 1879 1.0459106415510178e-03</internalNodes>
          <leafValues>
            5.7536941021680832e-02 -4.8480024933815002e-01</leafValues></_>
        <_>
          <internalNodes>
            0 -1 2815 3.7157943006604910e-03</internalNodes>
          <leafValues>
            -7.3924541473388672e-02 3.5519033670425415e-01</leafValues></_>
        <_>
          <internalNodes>
            0 -1 704 2.7405112050473690e-03</internalNodes>
          <leafValues>
            -6.0562055557966232e-02 3.8741677999496460e-01</leafValues></_>
        <_>
          <internalNodes>
            0 -1 565 -4.9218842759728432e-03</internalNodes>
          <leafValues>
            1.1117412149906158e-01 -2.0650136470794678e-01</leafValues></_>
        <_>
          <internalNodes>
            0 -1 112 -6.0260077007114887e-03</internalNodes>
          <leafValues>
            2.0152319967746735e-01 -1.1285123974084854e-01</leafValues></_>
        <_>
          <internalNodes>
            0 -1 253 -3.5472035408020020e-01</internalNodes>
          <leafValues>
            -7.5922000408172607e-01 2.9035812243819237e-02</leafValues></_>
        <_>
          <internalNodes>
            0 -1 2558 7.4749509803950787e-04</internalNodes>
          <leafValues>
            6.3865244388580322e-02 -3.2398718595504761e-01</leafValues></_>
        <_>
          <internalNodes>
            0 -1 1241 4.5262249186635017e-03</internalNodes>
          <leafValues>
            -6.2934555113315582e-02 3.4862256050109863e-01</leafValues></_>
        <_>
          <internalNodes>
            0 -1 1888 5.1390524022281170e-03</internalNodes>
          <leafValues>
            5.8656990528106689e-02 -3.8681966066360474e-01</leafValues></_>
        <_>
          <internalNodes>
            0 -1 2971 1.3033816590905190e-02</internalNodes>
          <leafValues>
            -6.6391974687576294e-02 3.2201713323593140e-01</leafValues></_>
        <_>
          <internalNodes>
            0 -1 1058 -2.6541538536548615e-03</internalNodes>
          <leafValues>
            3.6292567849159241e-01 -5.2281472831964493e-02</leafValues></_>
        <_>
          <internalNodes>
            0 -1 1983 5.9447428211569786e-03</internalNodes>
          <leafValues>
            5.4640851914882660e-02 -3.9284181594848633e-01</leafValues></_>
        <_>
          <internalNodes>
            0 -1 1900 -2.0156381651759148e-05</internalNodes>
          <leafValues>
            1.7106419801712036e-01 -1.1988624930381775e-01</leafValues></_>
        <_>
          <internalNodes>
            0 -1 1900 4.0840855945134535e-05</internalNodes>
          <leafValues>
            -1.1056961119174957e-01 1.7668007314205170e-01</leafValues></_>
        <_>
          <internalNodes>
            0 -1 2032 3.7623109528794885e-04</internalNodes>
          <leafValues>
            8.2577213644981384e-02 -2.4406667053699493e-01</leafValues></_>
        <_>
          <internalNodes>
            0 -1 2852 -8.4614064544439316e-03</internalNodes>
          <leafValues>
            3.5862258076667786e-01 -5.5659558624029160e-02</leafValues></_>
        <_>
          <internalNodes>
            0 -1 1151 -1.0034181177616119e-02</internalNodes>
          <leafValues>
            1.2299841642379761e-01 -1.6129149496555328e-01</leafValues></_>
        <_>
          <internalNodes>
            0 -1 401 6.9496980868279934e-03</internalNodes>
          <leafValues>
            -6.4968787133693695e-02 3.2785460352897644e-01</leafValues></_>
        <_>
          <internalNodes>
            0 -1 1831 -1.3946872204542160e-02</internalNodes>
          <leafValues>
            1.1256635934114456e-01 -1.7332513630390167e-01</leafValues></_>
        <_>
          <internalNodes>
            0 -1 915 1.6098648309707642e-01</internalNodes>
          <leafValues>
            -6.8278990685939789e-02 3.8354659080505371e-01</leafValues></_>
        <_>
          <internalNodes>
            0 -1 1875 -4.3300269171595573e-03</internalNodes>
          <leafValues>
            -5.7631951570510864e-01 3.9208125323057175e-02</leafValues></_>
        <_>
          <internalNodes>
            0 -1 382 4.0573929436504841e-03</internalNodes>
          <leafValues>
            -5.0939433276653290e-02 4.4151392579078674e-01</leafValues></_>
        <_>
          <internalNodes>
            0 -1 816 -2.2015159629518166e-05</internalNodes>
          <leafValues>
            1.1460485309362411e-01 -1.6858303546905518e-01</leafValues></_>
        <_>
          <internalNodes>
            0 -1 224 4.5859189704060555e-03</internalNodes>
          <leafValues>
            -5.5208530277013779e-02 3.6671000719070435e-01</leafValues></_>
        <_>
          <internalNodes>
            0 -1 1489 2.9897368513047695e-03</internalNodes>
          <leafValues>
            7.3379673063755035e-02 -2.6715368032455444e-01</leafValues></_>
        <_>
          <internalNodes>
            0 -1 1924 -1.6681482084095478e-03</internalNodes>
          <leafValues>
            2.3261617124080658e-01 -8.7172687053680420e-02</leafValues></_>
        <_>
          <internalNodes>
            0 -1 1064 -5.5554453283548355e-03</internalNodes>
          <leafValues>
            3.0227354168891907e-01 -6.9909960031509399e-02</leafValues></_>
        <_>
          <internalNodes>
            0 -1 1033 2.4035345762968063e-02</internalNodes>
          <leafValues>
            -5.5247802287340164e-02 3.5726383328437805e-01</leafValues></_>
        <_>
          <internalNodes>
            0 -1 697 -3.6258302628993988e-02</internalNodes>
          <leafValues>
            2.3179201781749725e-01 -9.6373103559017181e-02</leafValues></_>
        <_>
          <internalNodes>
            0 -1 303 -9.4954967498779297e-03</internalNodes>
          <leafValues>
            1.4963072538375854e-01 -1.2638412415981293e-01</leafValues></_>
        <_>
          <internalNodes>
            0 -1 2942 2.3668304085731506e-02</internalNodes>
          <leafValues>
            -5.6390691548585892e-02 3.4158480167388916e-01</leafValues></_>
        <_>
          <internalNodes>
            0 -1 1763 -8.0310320481657982e-03</internalNodes>
          <leafValues>
            1.5707141160964966e-01 -1.2731808423995972e-01</leafValues></_>
        <_>
          <internalNodes>
            0 -1 1760 6.2960042851045728e-04</internalNodes>
          <leafValues>
            6.9477051496505737e-02 -2.9602035880088806e-01</leafValues></_>
        <_>
          <internalNodes>
            0 -1 2698 3.6424323916435242e-03</internalNodes>
          <leafValues>
            -4.9694940447807312e-02 4.1872289776802063e-01</leafValues></_>
        <_>
          <internalNodes>
            0 -1 1112 4.9541577696800232e-02</internalNodes>
          <leafValues>
            -2.5965016335248947e-02 6.5212798118591309e-01</leafValues></_>
        <_>
          <internalNodes>
            0 -1 2467 5.3334739059209824e-03</internalNodes>
          <leafValues>
            -5.2769791334867477e-02 3.1219768524169922e-01</leafValues></_>
        <_>
          <internalNodes>
            0 -1 1653 -1.3686866499483585e-02</internalNodes>
          <leafValues>
            1.3169959187507629e-01 -1.3696195185184479e-01</leafValues></_>
        <_>
          <internalNodes>
            0 -1 2121 -6.1529013328254223e-04</internalNodes>
          <leafValues>
            -2.9398754239082336e-01 7.2263963520526886e-02</leafValues></_>
        <_>
          <internalNodes>
            0 -1 1880 4.3303814891260117e-05</internalNodes>
          <leafValues>
            -1.0886271297931671e-01 1.6799519956111908e-01</leafValues></_>
        <_>
          <internalNodes>
            0 -1 42 4.2699033021926880e-01</internalNodes>
          <leafValues>
            2.5078302249312401e-02 -7.2896742820739746e-01</leafValues></_></weakClassifiers></_>
    <!-- stage 5 -->
    <_>
      <maxWeakCount>106</maxWeakCount>
      <stageThreshold>-1.8454627990722656e+00</stageThreshold>
      <weakClassifiers>
        <_>
          <internalNodes>
            0 -1 893 -8.4842294454574585e-02</internalNodes>
          <leafValues>
            2.1740631759166718e-01 -4.7425180673599243e-01</leafValues></_>
        <_>
          <internalNodes>
            0 -1 63 -5.7303853332996368e-02</internalNodes>
          <leafValues>
            2.1942763030529022e-01 -2.6696309447288513e-01</leafValues></_>
        <_>
          <internalNodes>
            0 -1 2946 2.3194670677185059e-02</internalNodes>
          <leafValues>
            -2.1947504580020905e-01 2.0159626007080078e-01</leafValues></_>
        <_>
          <internalNodes>
            0 -1 123 -3.8769328594207764e-01</internalNodes>
          <leafValues>
            -5.4805433750152588e-01 7.2753161191940308e-02</leafValues></_>
        <_>
          <internalNodes>
            0 -1 49 -4.7071915864944458e-01</internalNodes>
          <leafValues>
            -6.9796377420425415e-01 3.9497759193181992e-02</leafValues></_>
        <_>
          <internalNodes>
            0 -1 2189 4.5173038961365819e-04</internalNodes>
          <leafValues>
            9.8541408777236938e-02 -3.1090036034584045e-01</leafValues></_>
        <_>
          <internalNodes>
            0 -1 858 -2.6599806733429432e-03</internalNodes>
          <leafValues>
            4.3603265285491943e-01 -5.5530618876218796e-02</leafValues></_>
        <_>
          <internalNodes>
            0 -1 858 3.1427207868546247e-03</internalNodes>
          <leafValues>
            -9.3916788697242737e-02 4.5337179303169250e-01</leafValues></_>
        <_>
          <internalNodes>
            0 -1 2778 -2.1706331521272659e-02</internalNodes>
          <leafValues>
            2.8068703413009644e-01 -9.6006065607070923e-02</leafValues></_>
        <_>
          <internalNodes>
            0 -1 1858 7.2625163011252880e-03</internalNodes>
          <leafValues>
            3.5727243870496750e-02 -6.4246106147766113e-01</leafValues></_>
        <_>
          <internalNodes>
            0 -1 1077 -2.0550161600112915e-02</internalNodes>
          <leafValues>
            3.2780003547668457e-01 -8.1920132040977478e-02</leafValues></_>
        <_>
          <internalNodes>
            0 -1 157 -9.9868839606642723e-03</internalNodes>
          <leafValues>
            4.4288474321365356e-01 -5.7496257126331329e-02</leafValues></_>
        <_>
          <internalNodes>
            0 -1 913 -1.0075876489281654e-02</internalNodes>
          <leafValues>
            1.2612074613571167e-01 -1.9868670403957367e-01</leafValues></_>
        <_>
          <internalNodes>
            0 -1 1786 -6.1819218099117279e-03</internalNodes>
          <leafValues>
            3.2600906491279602e-01 -7.3743119835853577e-02</leafValues></_>
        <_>
          <internalNodes>
            0 -1 2183 8.6752080824226141e-04</internalNodes>
          <leafValues>
            6.9501094520092010e-02 -3.2896769046783447e-01</leafValues></_>
        <_>
          <internalNodes>
            0 -1 2909 2.3997277021408081e-03</internalNodes>
          <leafValues>
            -8.8633179664611816e-02 2.8706884384155273e-01</leafValues></_>
        <_>
          <internalNodes>
            0 -1 1662 5.2547887898981571e-03</internalNodes>
          <leafValues>
            4.6629384160041809e-02 -3.9607289433479309e-01</leafValues></_>
        <_>
          <internalNodes>
            0 -1 2961 -5.9155896306037903e-03</internalNodes>
          <leafValues>
            3.8873630762100220e-01 -5.9842344373464584e-02</leafValues></_>
        <_>
          <internalNodes>
            0 -1 270 6.8640783429145813e-03</internalNodes>
          <leafValues>
            -6.9700248539447784e-02 3.3059298992156982e-01</leafValues></_>
        <_>
          <internalNodes>
            0 -1 269 -3.8964711129665375e-03</internalNodes>
          <leafValues>
            3.1600335240364075e-01 -7.7115304768085480e-02</leafValues></_>
        <_>
          <internalNodes>
            0 -1 640 1.1357564479112625e-02</internalNodes>
          <leafValues>
            -5.6272439658641815e-02 4.2494964599609375e-01</leafValues></_>
        <_>
          <internalNodes>
            0 -1 2177 -1.5947625041007996e-02</internalNodes>
          <leafValues>
            1.4617361128330231e-01 -1.6680926084518433e-01</leafValues></_>
        <_>
          <internalNodes>
            0 -1 1201 3.6132202949374914e-03</internalNodes>
          <leafValues>
            6.5830230712890625e-02 -3.5524085164070129e-01</leafValues></_>
        <_>
          <internalNodes>
            0 -1 1251 1.1146154254674911e-02</internalNodes>
          <leafValues>
            -7.3381699621677399e-02 3.4763056039810181e-01</leafValues></_>
        <_>
          <internalNodes>
            0 -1 1598 -4.3282154947519302e-03</internalNodes>
          <leafValues>
            2.4805600941181183e-01 -1.0283969342708588e-01</leafValues></_>
        <_>
          <internalNodes>
            0 -1 2970 -1.7951309680938721e-02</internalNodes>
          <leafValues>
            4.1562619805335999e-01 -5.8850470930337906e-02</leafValues></_>
        <_>
          <internalNodes>
            0 -1 1389 -6.5831548999994993e-04</internalNodes>
          <leafValues>
            -2.8910925984382629e-01 8.5634171962738037e-02</leafValues></_>
        <_>
          <internalNodes>
            0 -1 874 1.9344285130500793e-02</internalNodes>
          <leafValues>
            -6.3974730670452118e-02 3.5611182451248169e-01</leafValues></_>
        <_>
          <internalNodes>
            0 -1 676 -8.0607552081346512e-03</internalNodes>
          <leafValues>
            2.3877982795238495e-01 -9.3835137784481049e-02</leafValues></_>
        <_>
          <internalNodes>
            0 -1 2002 2.1748682484030724e-03</internalNodes>
          <leafValues>
            3.9209820330142975e-02 -6.1873626708984375e-01</leafValues></_>
        <_>
          <internalNodes>
            0 -1 2933 3.5672869998961687e-03</internalNodes>
          <leafValues>
            -5.2184242755174637e-02 4.3052420020103455e-01</leafValues></_>
        <_>
          <internalNodes>
            0 -1 240 2.5908344984054565e-01</internalNodes>
          <leafValues>
            4.4605575501918793e-02 -5.2774626016616821e-01</leafValues></_>
        <_>
          <internalNodes>
            0 -1 522 -1.8315741792321205e-02</internalNodes>
          <leafValues>
            1.5374973416328430e-01 -1.3971470296382904e-01</leafValues></_>
        <_>
          <internalNodes>
            0 -1 2856 3.4107961691915989e-03</internalNodes>
          <leafValues>
            -7.0754736661911011e-02 2.8927880525588989e-01</leafValues></_>
        <_>
          <internalNodes>
            0 -1 2849 -2.8849099762737751e-03</internalNodes>
          <leafValues>
            3.7258911132812500e-01 -5.5384185165166855e-02</leafValues></_>
        <_>
          <internalNodes>
            0 -1 2139 -6.2282015569508076e-03</internalNodes>
          <leafValues>
            -4.0859735012054443e-01 5.0136316567659378e-02</leafValues></_>
        <_>
          <internalNodes>
            0 -1 1786 7.7101113274693489e-03</internalNodes>
          <leafValues>
            -6.8567037582397461e-02 3.0900415778160095e-01</leafValues></_>
        <_>
          <internalNodes>
            0 -1 1502 -8.0996965989470482e-03</internalNodes>
          <leafValues>
            1.3493791222572327e-01 -1.4845778048038483e-01</leafValues></_>
        <_>
          <internalNodes>
            0 -1 1030 -1.2887965887784958e-02</internalNodes>
          <leafValues>
            1.4803907275199890e-01 -1.2472587823867798e-01</leafValues></_>
        <_>
          <internalNodes>
            0 -1 1050 1.4689256437122822e-02</internalNodes>
          <leafValues>
            -4.5758809894323349e-02 4.4309514760971069e-01</leafValues></_>
        <_>
          <internalNodes>
            0 -1 979 -4.9243168905377388e-04</internalNodes>
          <leafValues>
            -2.3701444268226624e-01 7.9649925231933594e-02</leafValues></_>
        <_>
          <internalNodes>
            0 -1 1247 -3.9486018940806389e-03</internalNodes>
          <leafValues>
            2.6256948709487915e-01 -6.8406663835048676e-02</leafValues></_>
        <_>
          <internalNodes>
            0 -1 2996 -7.1615381166338921e-03</internalNodes>
          <leafValues>
            2.7797719836235046e-01 -6.2727488577365875e-02</leafValues></_>
        <_>
          <internalNodes>
            0 -1 2994 8.3925537765026093e-03</internalNodes>
          <leafValues>
            -6.2159601598978043e-02 3.0486914515495300e-01</leafValues></_>
        <_>
          <internalNodes>
            0 -1 2545 3.2112856861203909e-03</internalNodes>
          <leafValues>
            7.0130579173564911e-02 -2.9601311683654785e-01</leafValues></_>
        <_>
          <internalNodes>
            0 -1 2698 -3.5042180679738522e-03</internalNodes>
          <leafValues>
            3.5239833593368530e-01 -5.0269771367311478e-02</leafValues></_>
        <_>
          <internalNodes>
            0 -1 2332 -4.2082509025931358e-03</internalNodes>
          <leafValues>
            1.7435204982757568e-01 -9.5589928328990936e-02</leafValues></_>
        <_>
          <internalNodes>
            0 -1 2451 2.3188320919871330e-03</internalNodes>
          <leafValues>
            -7.6747737824916840e-02 2.2779351472854614e-01</leafValues></_>
        <_>
          <internalNodes>
            0 -1 2391 4.0275324136018753e-03</internalNodes>
          <leafValues>
            6.1207026243209839e-02 -2.9794824123382568e-01</leafValues></_>
        <_>
          <internalNodes>
            0 -1 1980 4.7075081965886056e-05</internalNodes>
          <leafValues>
            -1.1008827388286591e-01 1.5490527451038361e-01</leafValues></_>
        <_>
          <internalNodes>
            0 -1 1044 -1.2779150158166885e-02</internalNodes>
          <leafValues>
            1.1609937250614166e-01 -1.4711748063564301e-01</leafValues></_>
        <_>
          <internalNodes>
            0 -1 975 4.1191084310412407e-03</internalNodes>
          <leafValues>
            5.5617760866880417e-02 -2.9050579667091370e-01</leafValues></_>
        <_>
          <internalNodes>
            0 -1 399 -5.1588104106485844e-03</internalNodes>
          <leafValues>
            4.8027524352073669e-01 -3.6183357238769531e-02</leafValues></_>
        <_>
          <internalNodes>
            0 -1 2697 -3.1887851655483246e-03</internalNodes>
          <leafValues>
            2.5951579213142395e-01 -5.8656703680753708e-02</leafValues></_>
        <_>
          <internalNodes>
            0 -1 2549 8.7386491941288114e-04</internalNodes>
          <leafValues>
            5.6268401443958282e-02 -2.9589644074440002e-01</leafValues></_>
        <_>
          <internalNodes>
            0 -1 428 3.3077514171600342e-01</internalNodes>
          <leafValues>
            -2.6743434369564056e-02 6.5514922142028809e-01</leafValues></_>
        <_>
          <internalNodes>
            0 -1 2648 2.8669992461800575e-03</internalNodes>
          <leafValues>
            5.5459626019001007e-02 -3.1818664073944092e-01</leafValues></_>
        <_>
          <internalNodes>
            0 -1 2406 -5.7310840929858387e-05</internalNodes>
          <leafValues>
            1.5810129046440125e-01 -1.0633392632007599e-01</leafValues></_>
        <_>
          <internalNodes>
            0 -1 415 -1.0194985568523407e-01</internalNodes>
          <leafValues>
            1.3125856220722198e-01 -1.3151544332504272e-01</leafValues></_>
        <_>
          <internalNodes>
            0 -1 161 9.9566243588924408e-03</internalNodes>
          <leafValues>
            -7.5682841241359711e-02 2.2345151007175446e-01</leafValues></_>
        <_>
          <internalNodes>
            0 -1 2565 3.7616635672748089e-03</internalNodes>
          <leafValues>
            -9.8814725875854492e-02 1.6494734585285187e-01</leafValues></_>
        <_>
          <internalNodes>
            0 -1 564 4.9515468999743462e-03</internalNodes>
          <leafValues>
            -3.3704947680234909e-02 4.6334603428840637e-01</leafValues></_>
        <_>
          <internalNodes>
            0 -1 2803 9.0311011299490929e-03</internalNodes>
          <leafValues>
            -6.4543180167675018e-02 2.3941138386726379e-01</leafValues></_>
        <_>
          <internalNodes>
            0 -1 1910 -1.0735517367720604e-02</internalNodes>
          <leafValues>
            1.1144851893186569e-01 -1.6046153008937836e-01</leafValues></_>
        <_>
          <internalNodes>
            0 -1 201 -7.2298850864171982e-03</internalNodes>
          <leafValues>
            2.9622113704681396e-01 -5.5799722671508789e-02</leafValues></_>
        <_>
          <internalNodes>
            0 -1 1221 -4.5907340245321393e-04</internalNodes>
          <leafValues>
            -2.0960471034049988e-01 8.2973793148994446e-02</leafValues></_>
        <_>
          <internalNodes>
            0 -1 2504 -4.9880808219313622e-03</internalNodes>
          <leafValues>
            1.4305143058300018e-01 -1.0915085673332214e-01</leafValues></_>
        <_>
          <internalNodes>
            0 -1 2713 -2.8056873008608818e-02</internalNodes>
          <leafValues>
            6.2253928184509277e-01 -3.0034713447093964e-02</leafValues></_>
        <_>
          <internalNodes>
            0 -1 1095 -3.2681236043572426e-03</internalNodes>
          <leafValues>
            1.7456021904945374e-01 -8.2144558429718018e-02</leafValues></_>
        <_>
          <internalNodes>
            0 -1 1433 3.4867809154093266e-03</internalNodes>
          <leafValues>
            -6.2632381916046143e-02 2.6869449019432068e-01</leafValues></_>
        <_>
          <internalNodes>
            0 -1 2178 3.7402547895908356e-03</internalNodes>
          <leafValues>
            5.5963132530450821e-02 -2.8183642029762268e-01</leafValues></_>
        <_>
          <internalNodes>
            0 -1 1152 -3.5905009508132935e-01</internalNodes>
          <leafValues>
            -5.6232416629791260e-01 2.5634633377194405e-02</leafValues></_>
        <_>
          <internalNodes>
            0 -1 1375 -1.3102680444717407e-02</internalNodes>
          <leafValues>
            1.0514838248491287e-01 -1.4966522157192230e-01</leafValues></_>
        <_>
          <internalNodes>
            0 -1 802 3.4952584654092789e-02</internalNodes>
          <leafValues>
            -6.2790177762508392e-02 2.7146950364112854e-01</leafValues></_>
        <_>
          <internalNodes>
            0 -1 971 -6.7544765770435333e-03</internalNodes>
          <leafValues>
            9.4436593353748322e-02 -1.9748991727828979e-01</leafValues></_>
        <_>
          <internalNodes>
            0 -1 2724 5.2722841501235962e-03</internalNodes>
          <leafValues>
            -3.3520348370075226e-02 4.3731468915939331e-01</leafValues></_>
        <_>
          <internalNodes>
            0 -1 1674 2.0975405350327492e-03</internalNodes>
          <leafValues>
            5.4552737623453140e-02 -2.6945379376411438e-01</leafValues></_>
        <_>
          <internalNodes>
            0 -1 548 2.6370328851044178e-03</internalNodes>
          <leafValues>
            -5.2766941487789154e-02 2.7875727415084839e-01</leafValues></_>
        <_>
          <internalNodes>
            0 -1 1392 4.2901978304143995e-05</internalNodes>
          <leafValues>
            -1.0095725208520889e-01 1.3556417822837830e-01</leafValues></_>
        <_>
          <internalNodes>
            0 -1 1379 3.4712445922195911e-03</internalNodes>
          <leafValues>
            5.7904008775949478e-02 -2.8812772035598755e-01</leafValues></_>
        <_>
          <internalNodes>
            0 -1 646 -7.3977294377982616e-03</internalNodes>
          <leafValues>
            2.3847983777523041e-01 -6.1430670320987701e-02</leafValues></_>
        <_>
          <internalNodes>
            0 -1 46 -5.3671962022781372e-01</internalNodes>
          <leafValues>
            -6.0436803102493286e-01 2.2857282310724258e-02</leafValues></_>
        <_>
          <internalNodes>
            0 -1 2715 -1.5746336430311203e-02</internalNodes>
          <leafValues>
            1.3697050511837006e-01 -1.0809552669525146e-01</leafValues></_>
        <_>
          <internalNodes>
            0 -1 996 -1.7917507793754339e-03</internalNodes>
          <leafValues>
            8.5005462169647217e-02 -1.6994468867778778e-01</leafValues></_>
        <_>
          <internalNodes>
            0 -1 1010 4.7079749492695555e-05</internalNodes>
          <leafValues>
            -1.0171996802091599e-01 1.4645709097385406e-01</leafValues></_>
        <_>
          <internalNodes>
            0 -1 267 -9.6203073859214783e-02</internalNodes>
          <leafValues>
            -6.0110223293304443e-01 2.3671440780162811e-02</leafValues></_>
        <_>
          <internalNodes>
            0 -1 241 4.2767645791172981e-03</internalNodes>
          <leafValues>
            -5.1854174584150314e-02 2.7634876966476440e-01</leafValues></_>
        <_>
          <internalNodes>
            0 -1 162 -7.0310430601239204e-03</internalNodes>
          <leafValues>
            1.8387340009212494e-01 -8.3324149250984192e-02</leafValues></_>
        <_>
          <internalNodes>
            0 -1 0 -5.9035874437540770e-04</internalNodes>
          <leafValues>
            -1.9973927736282349e-01 7.4797146022319794e-02</leafValues></_>
        <_>
          <internalNodes>
            0 -1 0 4.7951610758900642e-04</internalNodes>
          <leafValues>
            8.1136003136634827e-02 -2.3740956187248230e-01</leafValues></_>
        <_>
          <internalNodes>
            0 -1 2056 4.8481831327080727e-03</internalNodes>
          <leafValues>
            -4.7115389257669449e-02 3.2812407612800598e-01</leafValues></_>
        <_>
          <internalNodes>
            0 -1 1481 -1.2461835285648704e-03</internalNodes>
          <leafValues>
            8.7292417883872986e-02 -1.7369882762432098e-01</leafValues></_>
        <_>
          <internalNodes>
            0 -1 2238 2.4463217705488205e-03</internalNodes>
          <leafValues>
            8.0569885671138763e-02 -2.0806793868541718e-01</leafValues></_>
        <_>
          <internalNodes>
            0 -1 1068 5.4987901821732521e-03</internalNodes>
          <leafValues>
            -4.8453927040100098e-02 3.2165837287902832e-01</leafValues></_>
        <_>
          <internalNodes>
            0 -1 2053 -4.4496790505945683e-03</internalNodes>
          <leafValues>
            1.6192768514156342e-01 -8.7185032665729523e-02</leafValues></_>
        <_>
          <internalNodes>
            0 -1 2446 -5.3132129833102226e-03</internalNodes>
          <leafValues>
            4.8572653532028198e-01 -3.3355895429849625e-02</leafValues></_>
        <_>
          <internalNodes>
            0 -1 1492 -6.8852484226226807e-02</internalNodes>
          <leafValues>
            -4.9753066897392273e-01 2.9819257557392120e-02</leafValues></_>
        <_>
          <internalNodes>
            0 -1 1336 -2.1167699247598648e-02</internalNodes>
          <leafValues>
            2.0594094693660736e-01 -6.8731389939785004e-02</leafValues></_>
        <_>
          <internalNodes>
            0 -1 1018 7.9123280011117458e-04</internalNodes>
          <leafValues>
            5.6628338992595673e-02 -2.5061812996864319e-01</leafValues></_>
        <_>
          <internalNodes>
            0 -1 2898 4.3525565415620804e-03</internalNodes>
          <leafValues>
            -4.7718346118927002e-02 2.9674375057220459e-01</leafValues></_>
        <_>
          <internalNodes>
            0 -1 384 -1.0076412931084633e-02</internalNodes>
          <leafValues>
            1.5133400261402130e-01 -8.9528404176235199e-02</leafValues></_>
        <_>
          <internalNodes>
            0 -1 2982 4.7358302399516106e-03</internalNodes>
          <leafValues>
            -7.4590981006622314e-02 1.9142110645771027e-01</leafValues></_>
        <_>
          <internalNodes>
            0 -1 1161 1.0188698768615723e-02</internalNodes>
          <leafValues>
            -7.8203320503234863e-02 1.7314577102661133e-01</leafValues></_>
        <_>
          <internalNodes>
            0 -1 1913 4.0035098791122437e-03</internalNodes>
          <leafValues>
            5.3995054215192795e-02 -2.8278249502182007e-01</leafValues></_>
        <_>
          <internalNodes>
            0 -1 2464 -7.5434176251292229e-03</internalNodes>
          <leafValues>
            6.1822897195816040e-01 -2.3549152538180351e-02</leafValues></_>
        <_>
          <internalNodes>
            0 -1 2539 4.5249861432239413e-04</internalNodes>
          <leafValues>
            6.9255709648132324e-02 -1.9269302487373352e-01</leafValues></_></weakClassifiers></_>
    <!-- stage 6 -->
    <_>
      <maxWeakCount>133</maxWeakCount>
      <stageThreshold>-1.7824394702911377e+00</stageThreshold>
      <weakClassifiers>
        <_>
          <internalNodes>
            0 -1 360 -3.9724159240722656e-01</internalNodes>
          <leafValues>
            1.7559626698493958e-01 -4.0818524360656738e-01</leafValues></_>
        <_>
          <internalNodes>
            0 -1 339 2.9086068272590637e-02</internalNodes>
          <leafValues>
            -1.7938028275966644e-01 2.7376124262809753e-01</leafValues></_>
        <_>
          <internalNodes>
            0 -1 1548 -1.3983756303787231e-02</internalNodes>
          <leafValues>
            1.7944529652595520e-01 -2.0078355073928833e-01</leafValues></_>
        <_>
          <internalNodes>
            0 -1 155 -3.6679422482848167e-03</internalNodes>
          <leafValues>
            4.2454141378402710e-01 -3.4230850636959076e-02</leafValues></_>
        <_>
          <internalNodes>
            0 -1 155 2.4431669153273106e-03</internalNodes>
          <leafValues>
            -1.5519744157791138e-01 2.7167168259620667e-01</leafValues></_>
        <_>
          <internalNodes>
            0 -1 2497 3.5205535590648651e-02</internalNodes>
          <leafValues>
            -1.7541158199310303e-01 1.8822123110294342e-01</leafValues></_>
        <_>
          <internalNodes>
            0 -1 1068 -5.1477905362844467e-03</internalNodes>
          <leafValues>
            4.3630152940750122e-01 -7.4225150048732758e-02</leafValues></_>
        <_>
          <internalNodes>
            0 -1 1068 3.1889041420072317e-03</internalNodes>
          <leafValues>
            -1.1021637171506882e-01 3.0860427021980286e-01</leafValues></_>
        <_>
          <internalNodes>
            0 -1 2062 -4.7849565744400024e-03</internalNodes>
          <leafValues>
            3.1771796941757202e-01 -5.8477725833654404e-02</leafValues></_>
        <_>
          <internalNodes>
            0 -1 2200 3.1298957765102386e-03</internalNodes>
          <leafValues>
            -8.4462299942970276e-02 3.6146584153175354e-01</leafValues></_>
        <_>
          <internalNodes>
            0 -1 1334 -1.8476803600788116e-01</internalNodes>
          <leafValues>
            -4.8098075389862061e-01 4.2773745954036713e-02</leafValues></_>
        <_>
          <internalNodes>
            0 -1 2067 -5.3151594474911690e-03</internalNodes>
          <leafValues>
            3.4703275561332703e-01 -7.2104737162590027e-02</leafValues></_>
        <_>
          <internalNodes>
            0 -1 2067 2.9943753033876419e-03</internalNodes>
          <leafValues>
            -1.0173059254884720e-01 2.5631421804428101e-01</leafValues></_>
        <_>
          <internalNodes>
            0 -1 764 9.0834321454167366e-03</internalNodes>
          <leafValues>
            -2.1231117844581604e-01 1.1210421472787857e-01</leafValues></_>
        <_>
          <internalNodes>
            0 -1 836 -1.4199024997651577e-02</internalNodes>
          <leafValues>
            2.6660749316215515e-01 -9.6546851098537445e-02</leafValues></_>
        <_>
          <internalNodes>
            0 -1 648 1.6113087534904480e-02</internalNodes>
          <leafValues>
            -4.4336330145597458e-02 4.7859403491020203e-01</leafValues></_>
        <_>
          <internalNodes>
            0 -1 1109 2.8144130110740662e-01</internalNodes>
          <leafValues>
            4.9291674047708511e-02 -4.4572114944458008e-01</leafValues></_>
        <_>
          <internalNodes>
            0 -1 759 -9.3460962176322937e-02</internalNodes>
          <leafValues>
            -4.5360094308853149e-01 3.7418719381093979e-02</leafValues></_>
        <_>
          <internalNodes>
            0 -1 2744 -5.6110229343175888e-03</internalNodes>
          <leafValues>
            1.8609091639518738e-01 -1.0714512318372726e-01</leafValues></_>
        <_>
          <internalNodes>
            0 -1 124 -4.0176123380661011e-02</internalNodes>
          <leafValues>
            9.8941035568714142e-02 -1.9373986124992371e-01</leafValues></_>
        <_>
          <internalNodes>
            0 -1 150 -3.2816505432128906e-01</internalNodes>
          <leafValues>
            -5.0593417882919312e-01 4.3285004794597626e-02</leafValues></_>
        <_>
          <internalNodes>
            0 -1 2833 -2.0063208416104317e-02</internalNodes>
          <leafValues>
            5.1771038770675659e-01 -3.6920201033353806e-02</leafValues></_>
        <_>
          <internalNodes>
            0 -1 2513 1.0607189033180475e-03</internalNodes>
          <leafValues>
            8.3476766943931580e-02 -2.3014226555824280e-01</leafValues></_>
        <_>
          <internalNodes>
            0 -1 1232 -3.4040943719446659e-03</internalNodes>
          <leafValues>
            9.3273460865020752e-02 -1.8747508525848389e-01</leafValues></_>
        <_>
          <internalNodes>
            0 -1 232 -2.6224186643958092e-02</internalNodes>
          <leafValues>
            1.7596426606178284e-01 -1.0804934054613113e-01</leafValues></_>
        <_>
          <internalNodes>
            0 -1 2840 -1.2445263564586639e-02</internalNodes>
          <leafValues>
            2.9161095619201660e-01 -6.6687539219856262e-02</leafValues></_>
        <_>
          <internalNodes>
            0 -1 2928 -2.7457631658762693e-03</internalNodes>
          <leafValues>
            3.3300551772117615e-01 -5.4294995963573456e-02</leafValues></_>
        <_>
          <internalNodes>
            0 -1 2928 2.1987685468047857e-03</internalNodes>
          <leafValues>
            -6.5846018493175507e-02 3.5977336764335632e-01</leafValues></_>
        <_>
          <internalNodes>
            0 -1 1329 4.4833174906671047e-03</internalNodes>
          <leafValues>
            5.5422775447368622e-02 -2.9708003997802734e-01</leafValues></_>
        <_>
          <internalNodes>
            0 -1 1497 4.7070709115359932e-05</internalNodes>
          <leafValues>
            -1.1077449470758438e-01 1.5769422054290771e-01</leafValues></_>
        <_>
          <internalNodes>
            0 -1 1143 -2.4380842660320923e-05</internalNodes>
          <leafValues>
            8.7074540555477142e-02 -1.8202434480190277e-01</leafValues></_>
        <_>
          <internalNodes>
            0 -1 288 5.1213349215686321e-03</internalNodes>
          <leafValues>
            -5.1797170192003250e-02 3.0695745348930359e-01</leafValues></_>
        <_>
          <internalNodes>
            0 -1 1537 4.9117632443085313e-05</internalNodes>
          <leafValues>
            -1.0481135547161102e-01 1.4808322489261627e-01</leafValues></_>
        <_>
          <internalNodes>
            0 -1 1520 -6.2233857810497284e-02</internalNodes>
          <leafValues>
            -8.8388276100158691e-01 1.7354061827063560e-02</leafValues></_>
        <_>
          <internalNodes>
            0 -1 288 -2.7096904814243317e-03</internalNodes>
          <leafValues>
            2.2214941680431366e-01 -7.5225502252578735e-02</leafValues></_>
        <_>
          <internalNodes>
            0 -1 2261 3.8601716514676809e-03</internalNodes>
          <leafValues>
            5.4622337222099304e-02 -2.9042968153953552e-01</leafValues></_>
        <_>
          <internalNodes>
            0 -1 2724 -4.4598039239645004e-03</internalNodes>
          <leafValues>
            3.7437826395034790e-01 -4.4841855764389038e-02</leafValues></_>
        <_>
          <internalNodes>
            0 -1 907 -1.4747388660907745e-02</internalNodes>
          <leafValues>
            2.1279516816139221e-01 -7.0917584002017975e-02</leafValues></_>
        <_>
          <internalNodes>
            0 -1 907 1.2712267227470875e-02</internalNodes>
          <leafValues>
            -6.7654997110366821e-02 2.3256322741508484e-01</leafValues></_>
        <_>
          <internalNodes>
            0 -1 2983 5.2922135218977928e-03</internalNodes>
          <leafValues>
            -6.8352028727531433e-02 1.9090145826339722e-01</leafValues></_>
        <_>
          <internalNodes>
            0 -1 2908 5.2483715116977692e-03</internalNodes>
          <leafValues>
            -6.4060948789119720e-02 2.6519268751144409e-01</leafValues></_>
        <_>
          <internalNodes>
            0 -1 2588 -1.0368883609771729e-02</internalNodes>
          <leafValues>
            1.1115960776805878e-01 -1.4247639477252960e-01</leafValues></_>
        <_>
          <internalNodes>
            0 -1 1209 3.5683559253811836e-03</internalNodes>
          <leafValues>
            5.0117488950490952e-02 -2.7264648675918579e-01</leafValues></_>
        <_>
          <internalNodes>
            0 -1 1717 -4.7678706323495135e-05</internalNodes>
          <leafValues>
            1.4622122049331665e-01 -9.8948158323764801e-02</leafValues></_>
        <_>
          <internalNodes>
            0 -1 1717 5.1682654884643853e-05</internalNodes>
          <leafValues>
            -1.0057584196329117e-01 1.5726806223392487e-01</leafValues></_>
        <_>
          <internalNodes>
            0 -1 2268 -8.3791406359523535e-04</internalNodes>
          <leafValues>
            -2.9947289824485779e-01 4.9070496112108231e-02</leafValues></_>
        <_>
          <internalNodes>
            0 -1 414 4.6551749110221863e-02</internalNodes>
          <leafValues>
            -5.4627515375614166e-02 2.9253864288330078e-01</leafValues></_>
        <_>
          <internalNodes>
            0 -1 1527 4.1489922441542149e-03</internalNodes>
          <leafValues>
            5.0510324537754059e-02 -3.0715951323509216e-01</leafValues></_>
        <_>
          <internalNodes>
            0 -1 1048 1.1233552359044552e-02</internalNodes>
          <leafValues>
            -6.2865659594535828e-02 2.2183752059936523e-01</leafValues></_>
        <_>
          <internalNodes>
            0 -1 329 -7.0745043922215700e-04</internalNodes>
          <leafValues>
            -1.8852134048938751e-01 6.6370062530040741e-02</leafValues></_>
        <_>
          <internalNodes>
            0 -1 887 -1.8600327894091606e-03</internalNodes>
          <leafValues>
            1.4607101678848267e-01 -8.7405741214752197e-02</leafValues></_>
        <_>
          <internalNodes>
            0 -1 1093 -6.7783077247440815e-03</internalNodes>
          <leafValues>
            2.4656940996646881e-01 -5.7692121714353561e-02</leafValues></_>
        <_>
          <internalNodes>
            0 -1 2099 -1.0629571974277496e-01</internalNodes>
          <leafValues>
            -5.9311753511428833e-01 2.4578940123319626e-02</leafValues></_>
        <_>
          <internalNodes>
            0 -1 714 -1.9512556027621031e-03</internalNodes>
          <leafValues>
            1.2967820465564728e-01 -9.8576396703720093e-02</leafValues></_>
        <_>
          <internalNodes>
            0 -1 329 8.9094892609864473e-04</internalNodes>
          <leafValues>
            6.1353605240583420e-02 -2.2842122614383698e-01</leafValues></_>
        <_>
          <internalNodes>
            0 -1 2860 -2.7494751848280430e-03</internalNodes>
          <leafValues>
            2.1677401661872864e-01 -6.1707187443971634e-02</leafValues></_>
        <_>
          <internalNodes>
            0 -1 2860 1.9267118768766522e-03</internalNodes>
          <leafValues>
            -6.9946773350238800e-02 2.0771047472953796e-01</leafValues></_>
        <_>
          <internalNodes>
            0 -1 1871 7.3485281318426132e-03</internalNodes>
          <leafValues>
            2.5637805461883545e-02 -5.5338549613952637e-01</leafValues></_>
        <_>
          <internalNodes>
            0 -1 2444 1.6439461614936590e-03</internalNodes>
          <leafValues>
            -7.8226722776889801e-02 1.8883064389228821e-01</leafValues></_>
        <_>
          <internalNodes>
            0 -1 2196 -4.8754429444670677e-03</internalNodes>
          <leafValues>
            2.1125952899456024e-01 -8.8050141930580139e-02</leafValues></_>
        <_>
          <internalNodes>
            0 -1 1743 2.5462736375629902e-03</internalNodes>
          <leafValues>
            5.1570389419794083e-02 -2.8923052549362183e-01</leafValues></_>
        <_>
          <internalNodes>
            0 -1 548 -4.2131468653678894e-03</internalNodes>
          <leafValues>
            3.4895858168601990e-01 -3.7355955690145493e-02</leafValues></_>
        <_>
          <internalNodes>
            0 -1 1139 -5.4184608161449432e-03</internalNodes>
          <leafValues>
            8.0551251769065857e-02 -1.6143026947975159e-01</leafValues></_>
        <_>
          <internalNodes>
            0 -1 668 -1.0099058039486408e-02</internalNodes>
          <leafValues>
            1.9481855630874634e-01 -7.0223830640316010e-02</leafValues></_>
        <_>
          <internalNodes>
            0 -1 1163 -2.9645010828971863e-02</internalNodes>
          <leafValues>
            2.0436093211174011e-01 -6.9815270602703094e-02</leafValues></_>
        <_>
          <internalNodes>
            0 -1 42 -3.5932707786560059e-01</internalNodes>
          <leafValues>
            -4.9824589490890503e-01 2.9022028669714928e-02</leafValues></_>
        <_>
          <internalNodes>
            0 -1 2164 5.8357645757496357e-03</internalNodes>
          <leafValues>
            3.5614974796772003e-02 -3.4724488854408264e-01</leafValues></_>
        <_>
          <internalNodes>
            0 -1 1422 2.3558181710541248e-03</internalNodes>
          <leafValues>
            -6.3009031116962433e-02 2.0208872854709625e-01</leafValues></_>
        <_>
          <internalNodes>
            0 -1 317 -1.1127862147986889e-02</internalNodes>
          <leafValues>
            1.3037443161010742e-01 -1.1244403570890427e-01</leafValues></_>
        <_>
          <internalNodes>
            0 -1 653 2.5962642394006252e-03</internalNodes>
          <leafValues>
            -4.6571116894483566e-02 2.7157914638519287e-01</leafValues></_>
        <_>
          <internalNodes>
            0 -1 1941 -3.0266030225902796e-03</internalNodes>
          <leafValues>
            1.6003395617008209e-01 -7.5472421944141388e-02</leafValues></_>
        <_>
          <internalNodes>
            0 -1 223 -7.8230991959571838e-02</internalNodes>
          <leafValues>
            -6.2219750881195068e-01 1.9264459609985352e-02</leafValues></_>
        <_>
          <internalNodes>
            0 -1 2893 -5.7356236502528191e-03</internalNodes>
          <leafValues>
            2.6811537146568298e-01 -4.8168275505304337e-02</leafValues></_>
        <_>
          <internalNodes>
            0 -1 217 8.2073062658309937e-03</internalNodes>
          <leafValues>
            -4.5835692435503006e-02 2.5374981760978699e-01</leafValues></_>
        <_>
          <internalNodes>
            0 -1 1725 2.6995528023689985e-03</internalNodes>
          <leafValues>
            3.4352384507656097e-02 -3.7431800365447998e-01</leafValues></_>
        <_>
          <internalNodes>
            0 -1 2320 7.5599448755383492e-03</internalNodes>
          <leafValues>
            -6.4845725893974304e-02 1.9630175828933716e-01</leafValues></_>
        <_>
          <internalNodes>
            0 -1 1267 -1.4412090182304382e-01</internalNodes>
          <leafValues>
            -5.0645554065704346e-01 2.5420216843485832e-02</leafValues></_>
        <_>
          <internalNodes>
            0 -1 2487 -2.9503577388823032e-03</internalNodes>
          <leafValues>
            2.9420557618141174e-01 -4.2242351919412613e-02</leafValues></_>
        <_>
          <internalNodes>
            0 -1 2027 2.2775027900934219e-03</internalNodes>
          <leafValues>
            2.8758659958839417e-02 -4.2005601525306702e-01</leafValues></_>
        <_>
          <internalNodes>
            0 -1 2019 5.0859951443271711e-05</internalNodes>
          <leafValues>
            -9.5269411802291870e-02 1.4800246059894562e-01</leafValues></_>
        <_>
          <internalNodes>
            0 -1 2019 -1.9870387404807843e-05</internalNodes>
          <leafValues>
            1.3942137360572815e-01 -9.3853093683719635e-02</leafValues></_>
        <_>
          <internalNodes>
            0 -1 1914 -2.0212000235915184e-03</internalNodes>
          <leafValues>
            -2.3905903100967407e-01 4.4681556522846222e-02</leafValues></_>
        <_>
          <internalNodes>
            0 -1 1429 7.9909628257155418e-03</internalNodes>
          <leafValues>
            -7.0902504026889801e-02 1.5860356390476227e-01</leafValues></_>
        <_>
          <internalNodes>
            0 -1 796 -1.1588495224714279e-02</internalNodes>
          <leafValues>
            8.9721865952014923e-02 -1.2540596723556519e-01</leafValues></_>
        <_>
          <internalNodes>
            0 -1 1184 -4.2265857337042689e-04</internalNodes>
          <leafValues>
            -2.0635731518268585e-01 5.9300873428583145e-02</leafValues></_>
        <_>
          <internalNodes>
            0 -1 569 4.3279360979795456e-02</internalNodes>
          <leafValues>
            -6.1800178140401840e-02 2.1111698448657990e-01</leafValues></_>
        <_>
          <internalNodes>
            0 -1 1581 -7.2817401960492134e-03</internalNodes>
          <leafValues>
            9.0179294347763062e-02 -1.3401368260383606e-01</leafValues></_>
        <_>
          <internalNodes>
            0 -1 1766 -4.8382719978690147e-03</internalNodes>
          <leafValues>
            1.5700981020927429e-01 -7.4211038649082184e-02</leafValues></_>
        <_>
          <internalNodes>
            0 -1 380 -4.2207879014313221e-03</internalNodes>
          <leafValues>
            2.5460144877433777e-01 -4.6437866985797882e-02</leafValues></_>
        <_>
          <internalNodes>
            0 -1 1752 -5.0628475844860077e-02</internalNodes>
          <leafValues>
            -5.2178639173507690e-01 2.2000642493367195e-02</leafValues></_>
        <_>
          <internalNodes>
            0 -1 2422 -5.7995744049549103e-02</internalNodes>
          <leafValues>
            -6.9931679964065552e-01 1.4129338786005974e-02</leafValues></_>
        <_>
          <internalNodes>
            0 -1 2784 -2.4711056612432003e-03</internalNodes>
          <leafValues>
            1.3264103233814240e-01 -8.7365321815013885e-02</leafValues></_>
        <_>
          <internalNodes>
            0 -1 2943 -1.3264244422316551e-02</internalNodes>
          <leafValues>
            2.0157396793365479e-01 -6.0053575783967972e-02</leafValues></_>
        <_>
          <internalNodes>
            0 -1 884 -1.1002402752637863e-02</internalNodes>
          <leafValues>
            1.2001071125268936e-01 -9.8464734852313995e-02</leafValues></_>
        <_>
          <internalNodes>
            0 -1 1098 -1.3329064473509789e-02</internalNodes>
          <leafValues>
            2.5392305850982666e-01 -4.8264585435390472e-02</leafValues></_>
        <_>
          <internalNodes>
            0 -1 1783 -4.0985427796840668e-02</internalNodes>
          <leafValues>
            -5.5079734325408936e-01 2.2795781493186951e-02</leafValues></_>
        <_>
          <internalNodes>
            0 -1 688 6.3311703503131866e-02</internalNodes>
          <leafValues>
            1.5482443384826183e-02 -6.5064930915832520e-01</leafValues></_>
        <_>
          <internalNodes>
            0 -1 990 -4.5352865708991885e-04</internalNodes>
          <leafValues>
            -1.8352259695529938e-01 6.1824236065149307e-02</leafValues></_>
        <_>
          <internalNodes>
            0 -1 2464 1.6806924249976873e-03</internalNodes>
          <leafValues>
            -5.5279612541198730e-02 2.0591425895690918e-01</leafValues></_>
        <_>
          <internalNodes>
            0 -1 1032 -7.8658654820173979e-04</internalNodes>
          <leafValues>
            8.8791541755199432e-02 -1.2528526782989502e-01</leafValues></_>
        <_>
          <internalNodes>
            0 -1 93 -4.6271550655364990e-01</internalNodes>
          <leafValues>
            -4.5155799388885498e-01 2.4596964940428734e-02</leafValues></_>
        <_>
          <internalNodes>
            0 -1 2298 4.7067310661077499e-03</internalNodes>
          <leafValues>
            4.1215278208255768e-02 -2.7896949648857117e-01</leafValues></_>
        <_>
          <internalNodes>
            0 -1 3058 5.8941042516380548e-04</internalNodes>
          <leafValues>
            6.2952145934104919e-02 -1.7812252044677734e-01</leafValues></_>
        <_>
          <internalNodes>
            0 -1 842 -4.7541032545268536e-03</internalNodes>
          <leafValues>
            1.3348107039928436e-01 -9.0475209057331085e-02</leafValues></_>
        <_>
          <internalNodes>
            0 -1 663 -3.8913465104997158e-03</internalNodes>
          <leafValues>
            3.1996664404869080e-01 -3.3069238066673279e-02</leafValues></_>
        <_>
          <internalNodes>
            0 -1 623 -5.8944202959537506e-02</internalNodes>
          <leafValues>
            -4.5860111713409424e-01 2.5161365047097206e-02</leafValues></_>
        <_>
          <internalNodes>
            0 -1 1346 -2.1295394748449326e-02</internalNodes>
          <leafValues>
            1.0684980452060699e-01 -1.0592113435268402e-01</leafValues></_>
        <_>
          <internalNodes>
            0 -1 1474 7.6334990561008453e-02</internalNodes>
          <leafValues>
            -3.5775087773799896e-02 3.4119477868080139e-01</leafValues></_>
        <_>
          <internalNodes>
            0 -1 550 -1.2625744566321373e-02</internalNodes>
          <leafValues>
            7.7573493123054504e-02 -1.6415801644325256e-01</leafValues></_>
        <_>
          <internalNodes>
            0 -1 2865 2.9730773530900478e-03</internalNodes>
          <leafValues>
            -5.4475817829370499e-02 2.1059030294418335e-01</leafValues></_>
        <_>
          <internalNodes>
            0 -1 2702 -4.3260765960440040e-04</internalNodes>
          <leafValues>
            -1.7600563168525696e-01 6.2611028552055359e-02</leafValues></_>
        <_>
          <internalNodes>
            0 -1 2649 -9.3296822160482407e-03</internalNodes>
          <leafValues>
            9.2920705676078796e-02 -1.1533323675394058e-01</leafValues></_>
        <_>
          <internalNodes>
            0 -1 2888 2.5845052674412727e-02</internalNodes>
          <leafValues>
            -2.2082507610321045e-02 5.5952829122543335e-01</leafValues></_>
        <_>
          <internalNodes>
            0 -1 2414 -1.0129341389983892e-03</internalNodes>
          <leafValues>
            -2.9686743021011353e-01 3.8182862102985382e-02</leafValues></_>
        <_>
          <internalNodes>
            0 -1 2416 -3.9906964957481250e-05</internalNodes>
          <leafValues>
            1.3935631513595581e-01 -9.9664203822612762e-02</leafValues></_>
        <_>
          <internalNodes>
            0 -1 259 4.3443581089377403e-03</internalNodes>
          <leafValues>
            -6.1672337353229523e-02 1.7539390921592712e-01</leafValues></_>
        <_>
          <internalNodes>
            0 -1 2193 -5.1563307642936707e-03</internalNodes>
          <leafValues>
            1.6710337996482849e-01 -6.6032886505126953e-02</leafValues></_>
        <_>
          <internalNodes>
            0 -1 2934 -5.3645004518330097e-03</internalNodes>
          <leafValues>
            1.5639218688011169e-01 -7.2010949254035950e-02</leafValues></_>
        <_>
          <internalNodes>
            0 -1 2327 7.6691256836056709e-03</internalNodes>
          <leafValues>
            -5.0678092986345291e-02 2.3734095692634583e-01</leafValues></_>
        <_>
          <internalNodes>
            0 -1 186 7.1942266076803207e-03</internalNodes>
          <leafValues>
            -4.8171408474445343e-02 2.2777959704399109e-01</leafValues></_>
        <_>
          <internalNodes>
            0 -1 394 1.4376507699489594e-01</internalNodes>
          <leafValues>
            1.8737727776169777e-02 -5.9735828638076782e-01</leafValues></_>
        <_>
          <internalNodes>
            0 -1 2047 1.3537724735215306e-03</internalNodes>
          <leafValues>
            3.6049902439117432e-02 -3.0009058117866516e-01</leafValues></_>
        <_>
          <internalNodes>
            0 -1 846 3.3496706746518612e-03</internalNodes>
          <leafValues>
            -3.6128472536802292e-02 3.0574938654899597e-01</leafValues></_>
        <_>
          <internalNodes>
            0 -1 3057 6.5018271561712027e-04</internalNodes>
          <leafValues>
            6.4925976097583771e-02 -1.7149037122726440e-01</leafValues></_>
        <_>
          <internalNodes>
            0 -1 1166 5.1788716518785805e-05</internalNodes>
          <leafValues>
            -8.9443832635879517e-02 1.1954367905855179e-01</leafValues></_>
        <_>
          <internalNodes>
            0 -1 1165 7.7701685950160027e-04</internalNodes>
          <leafValues>
            4.4814385473728180e-02 -2.6488646864891052e-01</leafValues></_>
        <_>
          <internalNodes>
            0 -1 346 -1.0643111541867256e-02</internalNodes>
          <leafValues>
            1.2933240830898285e-01 -8.6452268064022064e-02</leafValues></_>
