<?xml version="1.0"?>
<opencv_storage>
<stage16>
  <maxWeakCount>277</maxWeakCount>
  <stageThreshold>-1.2972294092178345e+00</stageThreshold>
  <weakClassifiers>
    <_>
      <internalNodes>
        0 -1 19833 -5.0839021801948547e-02</internalNodes>
      <leafValues>
        1.7497441172599792e-01 -1.6720212996006012e-01</leafValues></_>
    <_>
      <internalNodes>
        0 -1 106459 -1.0748782753944397e-01</internalNodes>
      <leafValues>
        3.7345564365386963e-01 -6.2462095171213150e-02</leafValues></_>
    <_>
      <internalNodes>
        0 -1 91901 -4.7372843255288899e-04</internalNodes>
      <leafValues>
        1.6975104808807373e-01 -1.1475540697574615e-01</leafValues></_>
    <_>
      <internalNodes>
        0 -1 32957 -3.9780735969543457e-03</internalNodes>
      <leafValues>
        1.4901004731655121e-01 -1.2483582645654678e-01</leafValues></_>
    <_>
      <internalNodes>
        0 -1 37758 1.0489352047443390e-01</internalNodes>
      <leafValues>
        7.6776906847953796e-02 -2.5535306334495544e-01</leafValues></_>
    <_>
      <internalNodes>
        0 -1 116204 -1.3787142932415009e-02</internalNodes>
      <leafValues>
        -1.8299628794193268e-01 9.6359923481941223e-02</leafValues></_>
    <_>
      <internalNodes>
        0 -1 62602 4.6943838242441416e-05</internalNodes>
      <leafValues>
        -8.1029370427131653e-02 1.7182128131389618e-01</leafValues></_>
    <_>
      <internalNodes>
        0 -1 100189 -8.5970731452107430e-03</internalNodes>
      <leafValues>
        1.7150151729583740e-01 -7.3801852762699127e-02</leafValues></_>
    <_>
      <internalNodes>
        0 -1 111703 -2.0429855212569237e-03</internalNodes>
      <leafValues>
        2.6310640573501587e-01 -5.8292903006076813e-02</leafValues></_>
    <_>
      <internalNodes>
        0 -1 24014 -6.7774628405459225e-05</internalNodes>
      <leafValues>
        8.2294188439846039e-02 -1.3938446342945099e-01</leafValues></_>
    <_>
      <internalNodes>
        0 -1 92532 2.0177105398033746e-05</internalNodes>
      <leafValues>
        -6.8698190152645111e-02 1.5632621943950653e-01</leafValues></_>
    <_>
      <internalNodes>
        0 -1 92532 -4.7417102905455977e-05</internalNodes>
      <leafValues>
        1.6199792921543121e-01 -8.6249530315399170e-02</leafValues></_>
    <_>
      <internalNodes>
        0 -1 60354 5.4149739444255829e-03</internalNodes>
      <leafValues>
        3.3837527036666870e-02 -2.2422361373901367e-01</leafValues></_>
    <_>
      <internalNodes>
        0 -1 43544 -4.4759221374988556e-02</internalNodes>
      <leafValues>
        1.1157765239477158e-01 -9.8770104348659515e-02</leafValues></_>
    <_>
      <internalNodes>
        0 -1 63624 7.8226933255791664e-03</internalNodes>
      <leafValues>
        -6.2765188515186310e-02 1.8707484006881714e-01</leafValues></_>
    <_>
      <internalNodes>
        0 -1 121220 -1.7754781292751431e-03</internalNodes>
      <leafValues>
        2.6101014018058777e-01 -3.7780590355396271e-02</leafValues></_>
    <_>
      <internalNodes>
        0 -1 32176 2.6004291139543056e-03</internalNodes>
      <leafValues>
        -4.0999032557010651e-02 2.8843161463737488e-01</leafValues></_>
    <_>
      <internalNodes>
        0 -1 64355 3.1287600286304951e-03</internalNodes>
      <leafValues>
        2.1360795199871063e-01 -4.9499638378620148e-02</leafValues></_>
    <_>
      <internalNodes>
        0 -1 65758 -2.2222377359867096e-02</internalNodes>
      <leafValues>
        2.7103543281555176e-01 -3.3165883272886276e-02</leafValues></_>
    <_>
      <internalNodes>
        0 -1 9043 -3.2217983156442642e-02</internalNodes>
      <leafValues>
        -2.9665172100067139e-01 2.8319818899035454e-02</leafValues></_>
    <_>
      <internalNodes>
        0 -1 106985 -2.7998022269457579e-03</internalNodes>
      <leafValues>
        3.0829542875289917e-01 -2.8209531679749489e-02</leafValues></_>
    <_>
      <internalNodes>
        0 -1 48304 -5.2186347544193268e-02</internalNodes>
      <leafValues>
        5.2580121904611588e-02 -1.6627627611160278e-01</leafValues></_>
    <_>
      <internalNodes>
        0 -1 83681 4.8263296775985509e-05</internalNodes>
      <leafValues>
        -8.1198021769523621e-02 1.3053148984909058e-01</leafValues></_>
    <_>
      <internalNodes>
        0 -1 137 -7.9979710280895233e-03</internalNodes>
      <leafValues>
        8.6893826723098755e-02 -1.1018665134906769e-01</leafValues></_>
    <_>
      <internalNodes>
        0 -1 208 -4.7457821667194366e-02</internalNodes>
      <leafValues>
        -5.0496715307235718e-01 1.6593273729085922e-02</leafValues></_>
    <_>
      <internalNodes>
        0 -1 10872 -2.7310720179229975e-04</internalNodes>
      <leafValues>
        -1.2224321812391281e-01 7.3750622570514679e-02</leafValues></_>
    <_>
      <internalNodes>
        0 -1 43119 -9.6395701169967651e-02</internalNodes>
      <leafValues>
        -6.7137670516967773e-01 1.2081654742360115e-02</leafValues></_>
    <_>
      <internalNodes>
        0 -1 33167 -1.2901124358177185e-01</internalNodes>
      <leafValues>
        -3.8412481546401978e-01 1.9346363842487335e-02</leafValues></_>
    <_>
      <internalNodes>
        0 -1 125090 2.1381652913987637e-03</internalNodes>
      <leafValues>
        -4.0875371545553207e-02 2.0918169617652893e-01</leafValues></_>
    <_>
      <internalNodes>
        0 -1 73761 4.4362256303429604e-03</internalNodes>
      <leafValues>
        -2.9231481254100800e-02 2.3782797157764435e-01</leafValues></_>
    <_>
      <internalNodes>
        0 -1 114889 -2.9341797344386578e-03</internalNodes>
      <leafValues>
        1.8780416250228882e-01 -3.9647053927183151e-02</leafValues></_>
    <_>
      <internalNodes>
        0 -1 114893 2.2522970102727413e-03</internalNodes>
      <leafValues>
        -5.6769188493490219e-02 1.6439548134803772e-01</leafValues></_>
    <_>
      <internalNodes>
        0 -1 70978 4.4795029680244625e-05</internalNodes>
      <leafValues>
        -6.7590594291687012e-02 1.0983265936374664e-01</leafValues></_>
    <_>
      <internalNodes>
        0 -1 91904 1.4323792420327663e-03</internalNodes>
      <leafValues>
        5.0056353211402893e-02 -1.8471951782703400e-01</leafValues></_>
    <_>
      <internalNodes>
        0 -1 103364 -4.6249322622315958e-05</internalNodes>
      <leafValues>
        1.1340770125389099e-01 -7.0462390780448914e-02</leafValues></_>
    <_>
      <internalNodes>
        0 -1 116144 8.4160462021827698e-02</internalNodes>
      <leafValues>
        9.9754715338349342e-03 -7.6561844348907471e-01</leafValues></_>
    <_>
      <internalNodes>
        0 -1 117471 -3.7360778078436852e-03</internalNodes>
      <leafValues>
        1.9059707224369049e-01 -3.9810094982385635e-02</leafValues></_>
    <_>
      <internalNodes>
        0 -1 75700 -1.2653363228309900e-04</internalNodes>
      <leafValues>
        -8.5618734359741211e-02 8.4123566746711731e-02</leafValues></_>
    <_>
      <internalNodes>
        0 -1 93531 3.3487903419882059e-03</internalNodes>
      <leafValues>
        -5.5919930338859558e-02 1.2815064191818237e-01</leafValues></_>
    <_>
      <internalNodes>
        0 -1 701 2.4984563887119293e-01</internalNodes>
      <leafValues>
        2.2956155240535736e-02 -3.3456292748451233e-01</leafValues></_>
    <_>
      <internalNodes>
        0 -1 113695 8.1862537190318108e-03</internalNodes>
      <leafValues>
        -1.1923143640160561e-02 6.7145329713821411e-01</leafValues></_>
    <_>
      <internalNodes>
        0 -1 32176 -1.2945632915943861e-03</internalNodes>
      <leafValues>
        1.9403176009654999e-01 -3.5314228385686874e-02</leafValues></_>
    <_>
      <internalNodes>
        0 -1 23611 -3.0770422890782356e-03</internalNodes>
      <leafValues>
        1.0206128656864166e-01 -7.8983582556247711e-02</leafValues></_>
    <_>
      <internalNodes>
        0 -1 47228 -2.5964263826608658e-02</internalNodes>
      <leafValues>
        1.4933373034000397e-01 -5.4660521447658539e-02</leafValues></_>
    <_>
      <internalNodes>
        0 -1 92232 7.1903632488101721e-04</internalNodes>
      <leafValues>
        -4.0343698114156723e-02 1.8878291547298431e-01</leafValues></_>
    <_>
      <internalNodes>
        0 -1 104467 2.1886392496526241e-03</internalNodes>
      <leafValues>
        4.8391800373792648e-02 -1.6638608276844025e-01</leafValues></_>
    <_>
      <internalNodes>
        0 -1 104467 -3.1691542826592922e-03</internalNodes>
      <leafValues>
        -1.3621772825717926e-01 5.7609204202890396e-02</leafValues></_>
    <_>
      <internalNodes>
        0 -1 11923 3.8349586538970470e-03</internalNodes>
      <leafValues>
        -3.9618149399757385e-02 1.7946802079677582e-01</leafValues></_>
    <_>
      <internalNodes>
        0 -1 111555 4.0233498439192772e-03</internalNodes>
      <leafValues>
        -1.2391723692417145e-01 5.8580584824085236e-02</leafValues></_>
    <_>
      <internalNodes>
        0 -1 112673 -8.4936052560806274e-02</internalNodes>
      <leafValues>
        -2.3716455698013306e-01 3.0280996114015579e-02</leafValues></_>
    <_>
      <internalNodes>
        0 -1 28700 -6.7746627610176802e-04</internalNodes>
      <leafValues>
        -1.4029125869274139e-01 4.7353014349937439e-02</leafValues></_>
    <_>
      <internalNodes>
        0 -1 124827 1.3728059828281403e-02</internalNodes>
      <leafValues>
        -2.3026995360851288e-02 3.1347936391830444e-01</leafValues></_>
    <_>
      <internalNodes>
        0 -1 19816 -2.7664825320243835e-01</internalNodes>
      <leafValues>
        7.2920359671115875e-02 -1.1085712909698486e-01</leafValues></_>
    <_>
      <internalNodes>
        0 -1 91555 4.2689149267971516e-04</internalNodes>
      <leafValues>
        -4.6754986047744751e-02 1.6164362430572510e-01</leafValues></_>
    <_>
      <internalNodes>
        0 -1 124125 2.0157280378043652e-03</internalNodes>
      <leafValues>
        -3.7243735045194626e-02 1.8290199339389801e-01</leafValues></_>
    <_>
      <internalNodes>
        0 -1 21421 -1.0668060928583145e-01</internalNodes>
      <leafValues>
        5.5591505765914917e-01 -1.0952735319733620e-02</leafValues></_>
    <_>
      <internalNodes>
        0 -1 79082 -9.2547237873077393e-03</internalNodes>
      <leafValues>
        1.6224154829978943e-01 -4.1291527450084686e-02</leafValues></_>
    <_>
      <internalNodes>
        0 -1 87096 -4.3105371296405792e-03</internalNodes>
      <leafValues>
        9.5478668808937073e-02 -6.8947657942771912e-02</leafValues></_>
    <_>
      <internalNodes>
        0 -1 111841 1.1971661821007729e-02</internalNodes>
      <leafValues>
        -1.7084732651710510e-02 3.5436382889747620e-01</leafValues></_>
    <_>
      <internalNodes>
        0 -1 110560 5.0775930285453796e-02</internalNodes>
      <leafValues>
        1.2735827825963497e-02 -5.6207966804504395e-01</leafValues></_>
    <_>
      <internalNodes>
        0 -1 71871 2.6211347430944443e-02</internalNodes>
      <leafValues>
        1.0975749231874943e-02 -4.9850973486900330e-01</leafValues></_>
    <_>
      <internalNodes>
        0 -1 86562 -4.7080162912607193e-03</internalNodes>
      <leafValues>
        1.6623365879058838e-01 -4.2835310101509094e-02</leafValues></_>
    <_>
      <internalNodes>
        0 -1 62361 6.5478685428388417e-05</internalNodes>
      <leafValues>
        5.5763132870197296e-02 -1.1279477179050446e-01</leafValues></_>
    <_>
      <internalNodes>
        0 -1 77846 2.4335178022738546e-04</internalNodes>
      <leafValues>
        -5.7942632585763931e-02 1.1633498221635818e-01</leafValues></_>
    <_>
      <internalNodes>
        0 -1 67116 6.4151099650189281e-05</internalNodes>
      <leafValues>
        5.9839870780706406e-02 -1.0497908294200897e-01</leafValues></_>
    <_>
      <internalNodes>
        0 -1 24315 4.5087534090271220e-05</internalNodes>
      <leafValues>
        -6.3787333667278290e-02 1.0086684674024582e-01</leafValues></_>
    <_>
      <internalNodes>
        0 -1 103008 -4.3136114254593849e-03</internalNodes>
      <leafValues>
        -1.1112651973962784e-01 6.5394461154937744e-02</leafValues></_>
    <_>
      <internalNodes>
        0 -1 58237 -7.0056365802884102e-03</internalNodes>
      <leafValues>
        2.0474192500114441e-01 -3.4277074038982391e-02</leafValues></_>
    <_>
      <internalNodes>
        0 -1 89853 4.5640664175152779e-03</internalNodes>
      <leafValues>
        6.2236376106739044e-02 -1.1339323222637177e-01</leafValues></_>
    <_>
      <internalNodes>
        0 -1 123570 -5.2523761987686157e-03</internalNodes>
      <leafValues>
        -2.1560315787792206e-01 2.9252951964735985e-02</leafValues></_>
    <_>
      <internalNodes>
        0 -1 102306 1.2598882312886417e-04</internalNodes>
      <leafValues>
        5.2553430199623108e-02 -1.2263826280832291e-01</leafValues></_>
    <_>
      <internalNodes>
        0 -1 75151 5.2158778999000788e-05</internalNodes>
      <leafValues>
        -6.7646235227584839e-02 1.1319859325885773e-01</leafValues></_>
    <_>
      <internalNodes>
        0 -1 76309 6.9814980961382389e-03</internalNodes>
      <leafValues>
        -1.4562373049557209e-02 4.2010146379470825e-01</leafValues></_>
    <_>
      <internalNodes>
        0 -1 128 -3.1796813011169434e-01</internalNodes>
      <leafValues>
        -6.6563832759857178e-01 1.0602762922644615e-02</leafValues></_>
    <_>
      <internalNodes>
        0 -1 40842 -6.8032205104827881e-02</internalNodes>
      <leafValues>
        -3.5738095641136169e-01 1.6579868271946907e-02</leafValues></_>
    <_>
      <internalNodes>
        0 -1 123649 -1.6940917819738388e-02</internalNodes>
      <leafValues>
        2.6343002915382385e-01 -2.3975407704710960e-02</leafValues></_>
    <_>
      <internalNodes>
        0 -1 121899 -6.7277937196195126e-03</internalNodes>
      <leafValues>
        8.2144074141979218e-02 -8.4128640592098236e-02</leafValues></_>
    <_>
      <internalNodes>
        0 -1 118625 -9.6580676734447479e-02</internalNodes>
      <leafValues>
        -6.5363627672195435e-01 9.7757503390312195e-03</leafValues></_>
    <_>
      <internalNodes>
        0 -1 64552 -7.7602751553058624e-03</internalNodes>
      <leafValues>
        1.1185315251350403e-01 -6.1394520103931427e-02</leafValues></_>
    <_>
      <internalNodes>
        0 -1 100753 -2.1931831724941730e-03</internalNodes>
      <leafValues>
        -6.2487613409757614e-02 1.0480886697769165e-01</leafValues></_>
    <_>
      <internalNodes>
        0 -1 2597 4.9294710159301758e-02</internalNodes>
      <leafValues>
        1.3110597617924213e-02 -5.5369639396667480e-01</leafValues></_>
    <_>
      <internalNodes>
        0 -1 76562 -4.8141200095415115e-02</internalNodes>
      <leafValues>
        -2.1309620141983032e-01 2.7896041050553322e-02</leafValues></_>
    <_>
      <internalNodes>
        0 -1 115696 -6.6599966958165169e-03</internalNodes>
      <leafValues>
        1.2713098526000977e-01 -5.7421524077653885e-02</leafValues></_>
    <_>
      <internalNodes>
        0 -1 103879 7.1387058123946190e-03</internalNodes>
      <leafValues>
        4.7694437205791473e-02 -1.7408382892608643e-01</leafValues></_>
    <_>
      <internalNodes>
        0 -1 121220 1.9765931938309222e-05</internalNodes>
      <leafValues>
        -7.3751784861087799e-02 8.8382489979267120e-02</leafValues></_>
    <_>
      <internalNodes>
        0 -1 42049 1.1043163016438484e-02</internalNodes>
      <leafValues>
        -1.0703098960220814e-02 6.9856894016265869e-01</leafValues></_>
    <_>
      <internalNodes>
        0 -1 47288 1.7887533176690340e-03</internalNodes>
      <leafValues>
        -4.9651719629764557e-02 1.2396100163459778e-01</leafValues></_>
    <_>
      <internalNodes>
        0 -1 93377 4.7647517931181937e-05</internalNodes>
      <leafValues>
        -6.1942141503095627e-02 9.9135398864746094e-02</leafValues></_>
    <_>
      <internalNodes>
        0 -1 104628 7.6420731842517853e-02</internalNodes>
      <leafValues>
        1.4714783057570457e-02 -4.5060345530509949e-01</leafValues></_>
    <_>
      <internalNodes>
        0 -1 72215 -3.1492434442043304e-02</internalNodes>
      <leafValues>
        -5.6829625368118286e-01 9.5818685367703438e-03</leafValues></_>
    <_>
      <internalNodes>
        0 -1 120667 -9.2741975095123053e-04</internalNodes>
      <leafValues>
        1.8653512001037598e-01 -3.5437610000371933e-02</leafValues></_>
    <_>
      <internalNodes>
        0 -1 84128 -1.1098282411694527e-02</internalNodes>
      <leafValues>
        8.7591119110584259e-02 -7.3241464793682098e-02</leafValues></_>
    <_>
      <internalNodes>
        0 -1 89634 8.5604805499315262e-03</internalNodes>
      <leafValues>
        5.2808020263910294e-02 -1.3656589388847351e-01</leafValues></_>
    <_>
      <internalNodes>
        0 -1 77048 5.7358085177838802e-04</internalNodes>
      <leafValues>
        -6.9640576839447021e-02 9.3197636306285858e-02</leafValues></_>
    <_>
      <internalNodes>
        0 -1 62400 2.7713302988559008e-03</internalNodes>
      <leafValues>
        3.6065950989723206e-02 -1.6547879576683044e-01</leafValues></_>
    <_>
      <internalNodes>
        0 -1 106658 -1.1244954541325569e-02</internalNodes>
      <leafValues>
        1.1500886827707291e-01 -5.1212925463914871e-02</leafValues></_>
    <_>
      <internalNodes>
        0 -1 47897 -1.1520860716700554e-02</internalNodes>
      <leafValues>
        1.0509859770536423e-01 -5.5364873260259628e-02</leafValues></_>
    <_>
      <internalNodes>
        0 -1 56520 -7.6058112084865570e-02</internalNodes>
      <leafValues>
        -4.8674923181533813e-01 1.3708268292248249e-02</leafValues></_>
    <_>
      <internalNodes>
        0 -1 73762 3.4611667506396770e-03</internalNodes>
      <leafValues>
        3.9852537214756012e-02 -1.4487090706825256e-01</leafValues></_>
    <_>
      <internalNodes>
        0 -1 94967 5.2311741746962070e-03</internalNodes>
      <leafValues>
        -3.2963499426841736e-02 2.0924212038516998e-01</leafValues></_>
    <_>
      <internalNodes>
        0 -1 124617 -1.2701898813247681e-02</internalNodes>
      <leafValues>
        -4.4129270315170288e-01 1.5326900407671928e-02</leafValues></_>
    <_>
      <internalNodes>
        0 -1 116209 -5.0947717681992799e-05</internalNodes>
      <leafValues>
        1.0413969308137894e-01 -5.6158829480409622e-02</leafValues></_>
    <_>
      <internalNodes>
        0 -1 95600 3.6951280198991299e-03</internalNodes>
      <leafValues>
        4.1004810482263565e-02 -1.4778541028499603e-01</leafValues></_>
    <_>
      <internalNodes>
        0 -1 106985 1.7171900253742933e-03</internalNodes>
      <leafValues>
        -2.8339458629488945e-02 2.2637976706027985e-01</leafValues></_>
    <_>
      <internalNodes>
        0 -1 24610 -4.6894103288650513e-03</internalNodes>
      <leafValues>
        6.2564171850681305e-02 -8.8560067117214203e-02</leafValues></_>
    <_>
      <internalNodes>
        0 -1 54340 1.6211523325182498e-04</internalNodes>
      <leafValues>
        8.5250236093997955e-02 -7.5738906860351562e-02</leafValues></_>
    <_>
      <internalNodes>
        0 -1 22726 -2.6065737009048462e-01</internalNodes>
      <leafValues>
        -5.6975573301315308e-01 1.2057263404130936e-02</leafValues></_>
    <_>
      <internalNodes>
        0 -1 112170 3.4960664808750153e-02</internalNodes>
      <leafValues>
        -1.3139989227056503e-02 4.9140244722366333e-01</leafValues></_>
    <_>
      <internalNodes>
        0 -1 80119 1.8414191901683807e-02</internalNodes>
      <leafValues>
        1.4924326911568642e-02 -4.4112327694892883e-01</leafValues></_>
    <_>
      <internalNodes>
        0 -1 72145 5.8114919811487198e-03</internalNodes>
      <leafValues>
        -3.3457633107900620e-02 2.0132206380367279e-01</leafValues></_>
    <_>
      <internalNodes>
        0 -1 65886 -5.0123520195484161e-03</internalNodes>
      <leafValues>
        7.4370048940181732e-02 -7.4733518064022064e-02</leafValues></_>
    <_>
      <internalNodes>
        0 -1 70273 4.7313468530774117e-04</internalNodes>
      <leafValues>
        -5.2419163286685944e-02 1.1236998438835144e-01</leafValues></_>
    <_>
      <internalNodes>
        0 -1 12086 -1.3860172033309937e-01</internalNodes>
      <leafValues>
        1.3216233253479004e-01 -4.9686096608638763e-02</leafValues></_>
    <_>
      <internalNodes>
        0 -1 112111 -2.4616136215627193e-03</internalNodes>
      <leafValues>
        -1.8325005471706390e-01 3.4109234809875488e-02</leafValues></_>
    <_>
      <internalNodes>
        0 -1 5876 -2.9005367308855057e-02</internalNodes>
      <leafValues>
        -3.5868248343467712e-01 1.5450896695256233e-02</leafValues></_>
    <_>
      <internalNodes>
        0 -1 46660 1.5082554891705513e-03</internalNodes>
      <leafValues>
        -3.1864691525697708e-02 1.8342907726764679e-01</leafValues></_>
    <_>
      <internalNodes>
        0 -1 39856 -4.4798068702220917e-03</internalNodes>
      <leafValues>
        -5.1054295152425766e-02 1.1580566316843033e-01</leafValues></_>
    <_>
      <internalNodes>
        0 -1 55066 7.6117925345897675e-03</internalNodes>
      <leafValues>
        -1.1948176659643650e-02 4.7871372103691101e-01</leafValues></_>
    <_>
      <internalNodes>
        0 -1 78370 -3.2806977629661560e-02</internalNodes>
      <leafValues>
        -2.4556578695774078e-01 2.4934133514761925e-02</leafValues></_>
    <_>
      <internalNodes>
        0 -1 87058 -6.3295504078269005e-03</internalNodes>
      <leafValues>
        1.3329330086708069e-01 -4.7328669577836990e-02</leafValues></_>
    <_>
      <internalNodes>
        0 -1 9135 1.2294151820242405e-03</internalNodes>
      <leafValues>
        -7.2392366826534271e-02 8.0496996641159058e-02</leafValues></_>
    <_>
      <internalNodes>
        0 -1 9218 1.3399561867117882e-02</internalNodes>
      <leafValues>
        3.1587019562721252e-02 -2.2136209905147552e-01</leafValues></_>
    <_>
      <internalNodes>
        0 -1 123189 -1.7105808481574059e-02</internalNodes>
      <leafValues>
        1.4810170233249664e-01 -4.2246244847774506e-02</leafValues></_>
    <_>
      <internalNodes>
        0 -1 120014 4.6578027307987213e-02</internalNodes>
      <leafValues>
        1.5157815068960190e-02 -4.0976688265800476e-01</leafValues></_>
    <_>
      <internalNodes>
        0 -1 118035 5.2809249609708786e-03</internalNodes>
      <leafValues>
        -2.0950330421328545e-02 3.1621471047401428e-01</leafValues></_>
    <_>
      <internalNodes>
        0 -1 79888 -1.6840600874274969e-03</internalNodes>
      <leafValues>
        1.2059105932712555e-01 -4.7799736261367798e-02</leafValues></_>
    <_>
      <internalNodes>
        0 -1 64104 -2.0625335164368153e-03</internalNodes>
      <leafValues>
        1.7121139168739319e-01 -3.6200735718011856e-02</leafValues></_>
    <_>
      <internalNodes>
        0 -1 17552 -1.5480218455195427e-02</internalNodes>
      <leafValues>
        -5.6169784069061279e-01 1.0707622393965721e-02</leafValues></_>
    <_>
      <internalNodes>
        0 -1 5155 -5.9990063309669495e-02</internalNodes>
      <leafValues>
        -1.6430367529392242e-01 3.4959226846694946e-02</leafValues></_>
    <_>
      <internalNodes>
        0 -1 67097 -7.3320213705301285e-03</internalNodes>
      <leafValues>
        3.9259588718414307e-01 -1.4702990651130676e-02</leafValues></_>
    <_>
      <internalNodes>
        0 -1 6968 3.1163413077592850e-03</internalNodes>
      <leafValues>
        -4.1485425084829330e-02 1.3643004000186920e-01</leafValues></_>
    <_>
      <internalNodes>
        0 -1 103366 -1.9874176359735429e-04</internalNodes>
      <leafValues>
        -1.1973869800567627e-01 4.8731435090303421e-02</leafValues></_>
    <_>
      <internalNodes>
        0 -1 120032 7.7608786523342133e-03</internalNodes>
      <leafValues>
        -3.4608397632837296e-02 2.1861498057842255e-01</leafValues></_>
    <_>
      <internalNodes>
        0 -1 121401 4.9863550812005997e-03</internalNodes>
      <leafValues>
        -3.0910199508070946e-02 1.7806513607501984e-01</leafValues></_>
    <_>
      <internalNodes>
        0 -1 9856 -1.5861298888921738e-03</internalNodes>
      <leafValues>
        -1.6360436379909515e-01 3.4830089658498764e-02</leafValues></_>
    <_>
      <internalNodes>
        0 -1 9872 1.7959629185497761e-03</internalNodes>
      <leafValues>
        5.0573181360960007e-02 -1.3153959810733795e-01</leafValues></_>
    <_>
      <internalNodes>
        0 -1 99721 -1.2589642778038979e-02</internalNodes>
      <leafValues>
        -3.8253632187843323e-01 1.5275104902684689e-02</leafValues></_>
    <_>
      <internalNodes>
        0 -1 110259 3.1123459339141846e-03</internalNodes>
      <leafValues>
        -2.4255653843283653e-02 2.4087819457054138e-01</leafValues></_>
    <_>
      <internalNodes>
        0 -1 114766 -1.8407089635729790e-02</internalNodes>
      <leafValues>
        -3.9062118530273438e-01 1.5388788655400276e-02</leafValues></_>
    <_>
      <internalNodes>
        0 -1 98153 -4.1084442287683487e-02</internalNodes>
      <leafValues>
        1.7682786285877228e-01 -3.4828897565603256e-02</leafValues></_>
    <_>
      <internalNodes>
        0 -1 105741 -3.6577768623828888e-02</internalNodes>
      <leafValues>
        -3.3143573999404907e-01 1.9564278423786163e-02</leafValues></_>
    <_>
      <internalNodes>
        0 -1 24605 -2.1652622148394585e-02</internalNodes>
      <leafValues>
        4.3862368911504745e-02 -1.3224363327026367e-01</leafValues></_>
    <_>
      <internalNodes>
        0 -1 33829 -3.7093754857778549e-02</internalNodes>
      <leafValues>
        -8.9822828769683838e-02 8.1152595579624176e-02</leafValues></_>
    <_>
      <internalNodes>
        0 -1 122871 2.0938990637660027e-03</internalNodes>
      <leafValues>
        -4.4504832476377487e-02 1.4034888148307800e-01</leafValues></_>
    <_>
      <internalNodes>
        0 -1 122869 -1.9792681996477768e-05</internalNodes>
      <leafValues>
        1.1942251026630402e-01 -5.5460266768932343e-02</leafValues></_>
    <_>
      <internalNodes>
        0 -1 113137 2.6335150469094515e-03</internalNodes>
      <leafValues>
        3.4441173076629639e-02 -1.8328940868377686e-01</leafValues></_>
    <_>
      <internalNodes>
        0 -1 114718 -2.6230541989207268e-03</internalNodes>
      <leafValues>
        2.4851948022842407e-01 -2.4400658905506134e-02</leafValues></_>
    <_>
      <internalNodes>
        0 -1 29283 -1.5179967880249023e-01</internalNodes>
      <leafValues>
        1.7179107666015625e-01 -3.5741720348596573e-02</leafValues></_>
    <_>
      <internalNodes>
        0 -1 66554 -8.7633286602795124e-04</internalNodes>
      <leafValues>
        1.0662170499563217e-01 -6.0814864933490753e-02</leafValues></_>
    <_>
      <internalNodes>
        0 -1 58551 1.2615775689482689e-02</internalNodes>
      <leafValues>
        -2.0110297948122025e-02 2.8793069720268250e-01</leafValues></_>
    <_>
      <internalNodes>
        0 -1 191 -8.9113757014274597e-02</internalNodes>
      <leafValues>
        1.1707739531993866e-01 -5.0418328493833542e-02</leafValues></_>
    <_>
      <internalNodes>
        0 -1 17457 4.6150944399414584e-05</internalNodes>
      <leafValues>
        -5.2776768803596497e-02 1.1664079874753952e-01</leafValues></_>
    <_>
      <internalNodes>
        0 -1 36720 2.6069581508636475e-02</internalNodes>
      <leafValues>
        -3.1322114169597626e-02 1.9015643000602722e-01</leafValues></_>
    <_>
      <internalNodes>
        0 -1 18852 -3.3998180180788040e-02</internalNodes>
      <leafValues>
        -7.2988319396972656e-01 8.6057558655738831e-03</leafValues></_>
    <_>
      <internalNodes>
        0 -1 80592 -2.1961789578199387e-02</internalNodes>
      <leafValues>
        9.4114743173122406e-02 -6.5404161810874939e-02</leafValues></_>
    <_>
      <internalNodes>
        0 -1 92533 -7.9368815931957215e-05</internalNodes>
      <leafValues>
        -7.9616345465183258e-02 7.1351416409015656e-02</leafValues></_>
    <_>
      <internalNodes>
        0 -1 97432 2.8581905644387007e-04</internalNodes>
      <leafValues>
        -4.3138477951288223e-02 1.3971151411533356e-01</leafValues></_>
    <_>
      <internalNodes>
        0 -1 113427 -5.8961817994713783e-03</internalNodes>
      <leafValues>
        6.1529654264450073e-01 -9.4299288466572762e-03</leafValues></_>
    <_>
      <internalNodes>
        0 -1 106243 -4.5641288161277771e-03</internalNodes>
      <leafValues>
        -1.8711896240711212e-01 3.1656216830015182e-02</leafValues></_>
    <_>
      <internalNodes>
        0 -1 48833 -2.3758690804243088e-03</internalNodes>
      <leafValues>
        1.5101243555545807e-01 -4.0765311568975449e-02</leafValues></_>
    <_>
      <internalNodes>
        0 -1 10435 -1.1890871077775955e-01</internalNodes>
      <leafValues>
        -5.3723090887069702e-01 1.1358648538589478e-02</leafValues></_>
    <_>
      <internalNodes>
        0 -1 24288 1.7626855522394180e-02</internalNodes>
      <leafValues>
        -1.0996636003255844e-02 5.6835311651229858e-01</leafValues></_>
    <_>
      <internalNodes>
        0 -1 114740 -1.8541060388088226e-02</internalNodes>
      <leafValues>
        -3.0812901258468628e-01 1.9231472164392471e-02</leafValues></_>
    <_>
      <internalNodes>
        0 -1 114742 -3.2102088443934917e-03</internalNodes>
      <leafValues>
        1.0849938541650772e-01 -5.5788900703191757e-02</leafValues></_>
    <_>
      <internalNodes>
        0 -1 92653 -1.1385205201804638e-02</internalNodes>
      <leafValues>
        6.7317509651184082e-01 -8.3509469404816628e-03</leafValues></_>
    <_>
      <internalNodes>
        0 -1 24962 5.9060575440526009e-03</internalNodes>
      <leafValues>
        3.0561819672584534e-02 -2.0056608319282532e-01</leafValues></_>
    <_>
      <internalNodes>
        0 -1 54124 -7.9074306413531303e-03</internalNodes>
      <leafValues>
        7.5389146804809570e-01 -7.8783659264445305e-03</leafValues></_>
    <_>
      <internalNodes>
        0 -1 71259 1.2419529957696795e-03</internalNodes>
      <leafValues>
        3.2085061073303223e-02 -1.8700401484966278e-01</leafValues></_>
    <_>
      <internalNodes>
        0 -1 121107 7.1929336991161108e-04</internalNodes>
      <leafValues>
        -4.2228486388921738e-02 1.4238455891609192e-01</leafValues></_>
    <_>
      <internalNodes>
        0 -1 109037 -6.3017465174198151e-02</internalNodes>
      <leafValues>
        4.3972963094711304e-01 -1.2029345147311687e-02</leafValues></_>
    <_>
      <internalNodes>
        0 -1 88948 3.9820433594286442e-03</internalNodes>
      <leafValues>
        4.6979058533906937e-02 -1.3191813230514526e-01</leafValues></_>
    <_>
      <internalNodes>
        0 -1 21167 2.8745990991592407e-01</internalNodes>
      <leafValues>
        -1.7616245895624161e-02 3.1527790427207947e-01</leafValues></_>
    <_>
      <internalNodes>
        0 -1 40550 3.1918953172862530e-03</internalNodes>
      <leafValues>
        -2.2587206214666367e-02 2.3605102300643921e-01</leafValues></_>
    <_>
      <internalNodes>
        0 -1 46424 2.2625287994742393e-02</internalNodes>
      <leafValues>
        1.5338202938437462e-02 -3.6642619967460632e-01</leafValues></_>
    <_>
      <internalNodes>
        0 -1 33618 4.3087014928460121e-03</internalNodes>
      <leafValues>
        -4.4660735875368118e-02 1.2368397414684296e-01</leafValues></_>
    <_>
      <internalNodes>
        0 -1 99848 -1.2078473810106516e-03</internalNodes>
      <leafValues>
        1.3752900063991547e-01 -3.9120666682720184e-02</leafValues></_>
    <_>
      <internalNodes>
        0 -1 74880 1.0312815196812153e-02</internalNodes>
      <leafValues>
        -1.3329580426216125e-01 4.4594369828701019e-02</leafValues></_>
    <_>
      <internalNodes>
        0 -1 74717 3.4368019551038742e-02</internalNodes>
      <leafValues>
        -1.0275489650666714e-02 6.2665182352066040e-01</leafValues></_>
    <_>
      <internalNodes>
        0 -1 25003 -7.0456333458423615e-02</internalNodes>
      <leafValues>
        5.5058217048645020e-01 -8.2733687013387680e-03</leafValues></_>
    <_>
      <internalNodes>
        0 -1 86434 5.4080141708254814e-03</internalNodes>
      <leafValues>
        -8.3715217188000679e-03 5.9062081575393677e-01</leafValues></_>
    <_>
      <internalNodes>
        0 -1 98941 -4.5556433498859406e-02</internalNodes>
      <leafValues>
        -7.2475337982177734e-01 8.3567928522825241e-03</leafValues></_>
    <_>
      <internalNodes>
        0 -1 99856 3.1746821478009224e-03</internalNodes>
      <leafValues>
        -4.1695971041917801e-02 1.3329136371612549e-01</leafValues></_>
    <_>
      <internalNodes>
        0 -1 121479 -2.6754830032587051e-02</internalNodes>
      <leafValues>
        -3.4276047348976135e-01 1.6915023326873779e-02</leafValues></_>
    <_>
      <internalNodes>
        0 -1 1352 7.9002767801284790e-02</internalNodes>
      <leafValues>
        -1.1952371336519718e-02 5.0442099571228027e-01</leafValues></_>
    <_>
      <internalNodes>
        0 -1 323 -3.6953926086425781e-02</internalNodes>
      <leafValues>
        8.1019803881645203e-02 -7.2837010025978088e-02</leafValues></_>
    <_>
      <internalNodes>
        0 -1 194 -2.8545345412567258e-04</internalNodes>
      <leafValues>
        -7.8051738440990448e-02 8.8929995894432068e-02</leafValues></_>
    <_>
      <internalNodes>
        0 -1 20618 5.9378836303949356e-02</internalNodes>
      <leafValues>
        1.8526557832956314e-02 -3.1325450539588928e-01</leafValues></_>
    <_>
      <internalNodes>
        0 -1 1001 -3.2994346693158150e-03</internalNodes>
      <leafValues>
        6.9852232933044434e-02 -8.1625536084175110e-02</leafValues></_>
    <_>
      <internalNodes>
        0 -1 69578 1.9050493836402893e-01</internalNodes>
      <leafValues>
        -7.6679885387420654e-03 7.0924162864685059e-01</leafValues></_>
    <_>
      <internalNodes>
        0 -1 66972 2.5541378185153008e-02</internalNodes>
      <leafValues>
        -9.8806852474808693e-03 4.7165396809577942e-01</leafValues></_>
    <_>
      <internalNodes>
        0 -1 108898 -3.6306355148553848e-02</internalNodes>
      <leafValues>
        -5.4825264215469360e-01 1.0091372765600681e-02</leafValues></_>
    <_>
      <internalNodes>
        0 -1 102048 4.6322075650095940e-03</internalNodes>
      <leafValues>
        2.6174416765570641e-02 -1.9896531105041504e-01</leafValues></_>
    <_>
      <internalNodes>
        0 -1 15391 1.8396507948637009e-03</internalNodes>
      <leafValues>
        -3.0830159783363342e-02 1.8190719187259674e-01</leafValues></_>
    <_>
      <internalNodes>
        0 -1 29422 -6.7384518682956696e-02</internalNodes>
      <leafValues>
        -3.2372102141380310e-01 1.6666986048221588e-02</leafValues></_>
    <_>
      <internalNodes>
        0 -1 9965 4.7138557420112193e-05</internalNodes>
      <leafValues>
        -6.4037248492240906e-02 9.0248554944992065e-02</leafValues></_>
    <_>
      <internalNodes>
        0 -1 1882 -2.0729958487208933e-04</internalNodes>
      <leafValues>
        -8.7892867624759674e-02 6.2890842556953430e-02</leafValues></_>
    <_>
      <internalNodes>
        0 -1 2062 -1.9617963116616011e-03</internalNodes>
      <leafValues>
        9.2782303690910339e-02 -6.0192067176103592e-02</leafValues></_>
    <_>
      <internalNodes>
        0 -1 72377 2.2668205201625824e-03</internalNodes>
      <leafValues>
        -6.6066280007362366e-02 8.4928989410400391e-02</leafValues></_>
    <_>
      <internalNodes>
        0 -1 72539 -2.2868018597364426e-02</internalNodes>
      <leafValues>
        1.5895658731460571e-01 -4.3936099857091904e-02</leafValues></_>
    <_>
      <internalNodes>
        0 -1 110845 -6.8254591897130013e-03</internalNodes>
      <leafValues>
        2.5025549530982971e-01 -2.1414080634713173e-02</leafValues></_>
    <_>
      <internalNodes>
        0 -1 74031 -8.0011290265247226e-05</internalNodes>
      <leafValues>
        3.7909239530563354e-02 -1.4197459816932678e-01</leafValues></_>
    <_>
      <internalNodes>
        0 -1 32848 6.9937378168106079e-02</internalNodes>
      <leafValues>
        -2.8022369369864464e-02 2.7309682965278625e-01</leafValues></_>
    <_>
      <internalNodes>
        0 -1 80177 -2.1133299916982651e-02</internalNodes>
      <leafValues>
        -1.0113053768873215e-01 5.9746768325567245e-02</leafValues></_>
    <_>
      <internalNodes>
        0 -1 83693 2.8332299552857876e-03</internalNodes>
      <leafValues>
        2.5972258299589157e-02 -2.3123440146446228e-01</leafValues></_>
    <_>
      <internalNodes>
        0 -1 4655 1.8138819141313434e-03</internalNodes>
      <leafValues>
        -5.0175830721855164e-02 1.1995463073253632e-01</leafValues></_>
    <_>
      <internalNodes>
        0 -1 64179 2.0405207760632038e-03</internalNodes>
      <leafValues>
        -3.9841849356889725e-02 1.3740952312946320e-01</leafValues></_>
    <_>
      <internalNodes>
        0 -1 54799 -2.6813602074980736e-02</internalNodes>
      <leafValues>
        -3.5874131321907043e-01 1.6989244148135185e-02</leafValues></_>
    <_>
      <internalNodes>
        0 -1 48266 3.3869218081235886e-02</internalNodes>
      <leafValues>
        1.0249509476125240e-02 -4.9218583106994629e-01</leafValues></_>
    <_>
      <internalNodes>
        0 -1 116469 -2.0093033090233803e-02</internalNodes>
      <leafValues>
        -3.8822743296623230e-01 1.3223188929259777e-02</leafValues></_>
    <_>
      <internalNodes>
        0 -1 37631 -3.0612545087933540e-02</internalNodes>
      <leafValues>
        -5.1306766271591187e-01 1.0219402611255646e-02</leafValues></_>
    <_>
      <internalNodes>
        0 -1 121854 4.5762993395328522e-03</internalNodes>
      <leafValues>
        -4.5807514339685440e-02 1.2533426284790039e-01</leafValues></_>
    <_>
      <internalNodes>
        0 -1 120036 -3.7191368639469147e-02</internalNodes>
      <leafValues>
        -3.5548675060272217e-01 1.6159472987055779e-02</leafValues></_>
    <_>
      <internalNodes>
        0 -1 115289 -2.4911537766456604e-02</internalNodes>
      <leafValues>
        -5.4035860300064087e-01 1.0850520804524422e-02</leafValues></_>
    <_>
      <internalNodes>
        0 -1 88068 -1.1926052160561085e-02</internalNodes>
      <leafValues>
        8.7136678397655487e-02 -6.9705970585346222e-02</leafValues></_>
    <_>
      <internalNodes>
        0 -1 71485 5.3141792304813862e-03</internalNodes>
      <leafValues>
        -1.0320737957954407e-02 5.4112154245376587e-01</leafValues></_>
    <_>
      <internalNodes>
        0 -1 122453 4.0566716052126139e-05</internalNodes>
      <leafValues>
        -6.7662470042705536e-02 8.4376186132431030e-02</leafValues></_>
    <_>
      <internalNodes>
        0 -1 38532 -2.8198719024658203e-01</internalNodes>
      <leafValues>
        -5.7505536079406738e-01 1.0510425083339214e-02</leafValues></_>
    <_>
      <internalNodes>
        0 -1 17284 -1.5241382643580437e-02</internalNodes>
      <leafValues>
        -3.8789370656013489e-01 1.2136636301875114e-02</leafValues></_>
    <_>
      <internalNodes>
        0 -1 117525 6.4132642000913620e-03</internalNodes>
      <leafValues>
        -3.4741535782814026e-02 1.6198197007179260e-01</leafValues></_>
    <_>
      <internalNodes>
        0 -1 56228 9.0961629757657647e-04</internalNodes>
      <leafValues>
        -1.4253051578998566e-01 4.1651260107755661e-02</leafValues></_>
    <_>
      <internalNodes>
        0 -1 40034 -6.2666028738021851e-02</internalNodes>
      <leafValues>
        -2.5987139344215393e-01 2.1444106474518776e-02</leafValues></_>
    <_>
      <internalNodes>
        0 -1 118391 -1.9041216000914574e-02</internalNodes>
      <leafValues>
        -2.8014165163040161e-01 1.8384017050266266e-02</leafValues></_>
    <_>
      <internalNodes>
        0 -1 111888 5.1049321889877319e-02</internalNodes>
      <leafValues>
        -1.5227057971060276e-02 3.7004509568214417e-01</leafValues></_>
    <_>
      <internalNodes>
        0 -1 84744 6.5491357818245888e-03</internalNodes>
      <leafValues>
        2.9623303562402725e-02 -2.0297272503376007e-01</leafValues></_>
    <_>
      <internalNodes>
        0 -1 109343 -4.8733912990428507e-05</internalNodes>
      <leafValues>
        1.0809432715177536e-01 -5.5871877819299698e-02</leafValues></_>
    <_>
      <internalNodes>
        0 -1 91050 -5.8368146419525146e-03</internalNodes>
      <leafValues>
        4.2084595561027527e-01 -1.2606061063706875e-02</leafValues></_>
    <_>
      <internalNodes>
        0 -1 97655 4.6160090714693069e-03</internalNodes>
      <leafValues>
        4.4033844023942947e-02 -1.4542357623577118e-01</leafValues></_>
    <_>
      <internalNodes>
        0 -1 42815 1.4813326299190521e-02</internalNodes>
      <leafValues>
        -1.6414374113082886e-02 3.6152359843254089e-01</leafValues></_>
    <_>
      <internalNodes>
        0 -1 62210 5.3984588012099266e-03</internalNodes>
      <leafValues>
        2.3608649149537086e-02 -2.7654805779457092e-01</leafValues></_>
    <_>
      <internalNodes>
        0 -1 58903 5.7064127177000046e-03</internalNodes>
      <leafValues>
        -2.6144994422793388e-02 2.4370642006397247e-01</leafValues></_>
    <_>
      <internalNodes>
        0 -1 57461 -3.2646484673023224e-02</internalNodes>
      <leafValues>
        -4.6690908074378967e-01 1.3097908347845078e-02</leafValues></_>
    <_>
      <internalNodes>
        0 -1 60166 9.2740971595048904e-03</internalNodes>
      <leafValues>
        -8.9799137786030769e-03 7.4116557836532593e-01</leafValues></_>
    <_>
      <internalNodes>
        0 -1 99444 -3.2513666898012161e-02</internalNodes>
      <leafValues>
        -3.4974482655525208e-01 1.7131553962826729e-02</leafValues></_>
    <_>
      <internalNodes>
        0 -1 117773 -5.2430909126996994e-03</internalNodes>
      <leafValues>
        4.8195424675941467e-01 -1.1577135883271694e-02</leafValues></_>
    <_>
      <internalNodes>
        0 -1 4387 -2.5415459647774696e-02</internalNodes>
      <leafValues>
        3.5021555423736572e-01 -1.5042951330542564e-02</leafValues></_>
    <_>
      <internalNodes>
        0 -1 5777 -3.9479702711105347e-02</internalNodes>
      <leafValues>
        -3.5269609093666077e-01 1.5729147940874100e-02</leafValues></_>
    <_>
      <internalNodes>
        0 -1 121044 1.3244089670479298e-02</internalNodes>
      <leafValues>
        9.3183927237987518e-03 -5.5340248346328735e-01</leafValues></_>
    <_>
      <internalNodes>
        0 -1 112472 1.8401537090539932e-03</internalNodes>
      <leafValues>
        -2.1780809387564659e-02 2.5225457549095154e-01</leafValues></_>
    <_>
      <internalNodes>
        0 -1 12409 -2.6268762350082397e-01</internalNodes>
      <leafValues>
        4.1882038116455078e-01 -1.2503561563789845e-02</leafValues></_>
    <_>
      <internalNodes>
        0 -1 824 -3.7478187680244446e-01</internalNodes>
      <leafValues>
        -1.7836982011795044e-01 3.3406365662813187e-02</leafValues></_>
    <_>
      <internalNodes>
        0 -1 59872 6.9687986979261041e-04</internalNodes>
      <leafValues>
        8.8357321918010712e-02 -6.4729839563369751e-02</leafValues></_>
    <_>
      <internalNodes>
        0 -1 100243 6.6503092646598816e-02</internalNodes>
      <leafValues>
        -6.2315572053194046e-02 1.2654151022434235e-01</leafValues></_>
    <_>
      <internalNodes>
        0 -1 55525 5.1530562341213226e-02</internalNodes>
      <leafValues>
        1.8078120425343513e-02 -3.5677215456962585e-01</leafValues></_>
    <_>
      <internalNodes>
        0 -1 37922 -6.9987531751394272e-03</internalNodes>
      <leafValues>
        1.4231491088867188e-01 -4.4479921460151672e-02</leafValues></_>
    <_>
      <internalNodes>
        0 -1 47112 4.6901321184122935e-05</internalNodes>
      <leafValues>
        -8.9659795165061951e-02 6.1994224786758423e-02</leafValues></_>
    <_>
      <internalNodes>
        0 -1 37779 6.0879229567945004e-03</internalNodes>
      <leafValues>
        -3.4112438559532166e-02 1.7983183264732361e-01</leafValues></_>
    <_>
      <internalNodes>
        0 -1 71482 7.4228467419743538e-03</internalNodes>
      <leafValues>
        -1.1840317398309708e-02 4.8038056492805481e-01</leafValues></_>
    <_>
      <internalNodes>
        0 -1 39755 2.5653136894106865e-02</internalNodes>
      <leafValues>
        -3.6900449544191360e-02 1.5007057785987854e-01</leafValues></_>
    <_>
      <internalNodes>
        0 -1 28926 -1.3866879977285862e-02</internalNodes>
      <leafValues>
        1.4178551733493805e-01 -4.1190981864929199e-02</leafValues></_>
    <_>
      <internalNodes>
        0 -1 3320 2.2049840539693832e-02</internalNodes>
      <leafValues>
        1.8830416724085808e-02 -3.0733323097229004e-01</leafValues></_>
    <_>
      <internalNodes>
        0 -1 4437 -2.8071455657482147e-02</internalNodes>
      <leafValues>
        -1.3824290037155151e-01 3.8408178836107254e-02</leafValues></_>
    <_>
      <internalNodes>
        0 -1 10873 -4.8632448306307197e-04</internalNodes>
      <leafValues>
        -9.4247691333293915e-02 5.9557881206274033e-02</leafValues></_>
    <_>
      <internalNodes>
        0 -1 10165 -5.3720101714134216e-02</internalNodes>
      <leafValues>
        -6.4330971240997314e-01 8.2787172868847847e-03</leafValues></_>
    <_>
      <internalNodes>
        0 -1 63332 -9.8008420318365097e-03</internalNodes>
      <leafValues>
        -2.7550372481346130e-01 1.7318299040198326e-02</leafValues></_>
    <_>
      <internalNodes>
        0 -1 124703 7.8131712507456541e-04</internalNodes>
      <leafValues>
        -5.4684299975633621e-02 1.0195694863796234e-01</leafValues></_>
    <_>
      <internalNodes>
        0 -1 121298 -1.2401422718539834e-03</internalNodes>
      <leafValues>
        9.5027424395084381e-02 -6.5764680504798889e-02</leafValues></_>
    <_>
      <internalNodes>
        0 -1 8075 -2.1105504035949707e-01</internalNodes>
      <leafValues>
        -7.2045683860778809e-01 7.9033859074115753e-03</leafValues></_>
    <_>
      <internalNodes>
        0 -1 12570 4.5162746682763100e-03</internalNodes>
      <leafValues>
        -2.8657725080847740e-02 1.9090571999549866e-01</leafValues></_>
    <_>
      <internalNodes>
        0 -1 29009 2.8033973649144173e-03</internalNodes>
      <leafValues>
        -1.1103823035955429e-01 4.9685303121805191e-02</leafValues></_>
    <_>
      <internalNodes>
        0 -1 10999 -5.0266244215890765e-04</internalNodes>
      <leafValues>
        8.2979984581470490e-02 -7.5480975210666656e-02</leafValues></_>
    <_>
      <internalNodes>
        0 -1 42063 -1.5298910439014435e-02</internalNodes>
      <leafValues>
        7.7825510501861572e-01 -6.4194630831480026e-03</leafValues></_>
    <_>
      <internalNodes>
        0 -1 123292 -3.6099394783377647e-03</internalNodes>
      <leafValues>
        1.4366853237152100e-01 -3.7022031843662262e-02</leafValues></_>
    <_>
      <internalNodes>
        0 -1 123174 1.0407446883618832e-02</internalNodes>
      <leafValues>
        1.1843224056065083e-02 -4.4450235366821289e-01</leafValues></_>
    <_>
      <internalNodes>
        0 -1 86003 -5.0106744311051443e-05</internalNodes>
      <leafValues>
        9.3754231929779053e-02 -5.5976126343011856e-02</leafValues></_>
    <_>
      <internalNodes>
        0 -1 86003 1.8725333575275727e-05</internalNodes>
      <leafValues>
        -6.0365550220012665e-02 1.0767785459756851e-01</leafValues></_>
    <_>
      <internalNodes>
        0 -1 58053 3.2650772482156754e-02</internalNodes>
      <leafValues>
        3.8068149238824844e-02 -1.5474738180637360e-01</leafValues></_>
    <_>
      <internalNodes>
        0 -1 59318 -7.8229401260614395e-03</internalNodes>
      <leafValues>
        -9.9197730422019958e-02 6.2881842255592346e-02</leafValues></_>
    <_>
      <internalNodes>
        0 -1 76505 -2.4580031167715788e-03</internalNodes>
      <leafValues>
        9.2930786311626434e-02 -6.1848152428865433e-02</leafValues></_>
    <_>
      <internalNodes>
        0 -1 113729 -7.8255921835079789e-05</internalNodes>
      <leafValues>
        -8.4125794470310211e-02 7.8487269580364227e-02</leafValues></_>
    <_>
      <internalNodes>
        0 -1 119888 3.5159327089786530e-03</internalNodes>
      <leafValues>
        5.0108138471841812e-02 -1.2829928100109100e-01</leafValues></_>
    <_>
      <internalNodes>
        0 -1 86678 -6.9910887395963073e-04</internalNodes>
      <leafValues>
        1.3559557497501373e-01 -4.1215371340513229e-02</leafValues></_>
    <_>
      <internalNodes>
        0 -1 63048 4.5788907445967197e-03</internalNodes>
      <leafValues>
        -5.1058705896139145e-02 1.1729016155004501e-01</leafValues></_>
    <_>
      <internalNodes>
        0 -1 109592 6.8776440457440913e-05</internalNodes>
      <leafValues>
        6.3799865543842316e-02 -8.9678429067134857e-02</leafValues></_>
    <_>
      <internalNodes>
        0 -1 108162 8.0156549811363220e-03</internalNodes>
      <leafValues>
        -9.5968293026089668e-03 5.6411391496658325e-01</leafValues></_>
    <_>
      <internalNodes>
        0 -1 113295 -8.0905057489871979e-02</internalNodes>
      <leafValues>
        -2.5051194429397583e-01 2.1487586200237274e-02</leafValues></_>
    <_>
      <internalNodes>
        0 -1 103560 1.3132137060165405e-01</internalNodes>
      <leafValues>
        4.6831849031150341e-03 -1.</leafValues></_>
    <_>
      <internalNodes>
        0 -1 88306 -1.9345009932294488e-03</internalNodes>
      <leafValues>
        1.2876397371292114e-01 -4.1212271898984909e-02</leafValues></_></weakClassifiers></stage16>
</opencv_storage>
