<?xml version="1.0"?>
<opencv_storage>
<stage11>
  <maxWeakCount>399</maxWeakCount>
  <stageThreshold>-1.3562436103820801e+00</stageThreshold>
  <weakClassifiers>
    <_>
      <internalNodes>
        0 -1 231 -1.0868187993764877e-01</internalNodes>
      <leafValues>
        2.6047515869140625e-01 -1.5351426601409912e-01</leafValues></_>
    <_>
      <internalNodes>
        0 -1 87418 -3.6263380199670792e-02</internalNodes>
      <leafValues>
        2.1467766165733337e-01 -9.9676035344600677e-02</leafValues></_>
    <_>
      <internalNodes>
        0 -1 68983 -4.9094501882791519e-03</internalNodes>
      <leafValues>
        7.0872031152248383e-02 -1.7775605618953705e-01</leafValues></_>
    <_>
      <internalNodes>
        0 -1 74526 4.7739846631884575e-03</internalNodes>
      <leafValues>
        1.3003017008304596e-01 -9.1034866869449615e-02</leafValues></_>
    <_>
      <internalNodes>
        0 -1 93563 2.2184546105563641e-03</internalNodes>
      <leafValues>
        -1.3588267564773560e-01 8.3502136170864105e-02</leafValues></_>
    <_>
      <internalNodes>
        0 -1 121693 -1.9646387547254562e-02</internalNodes>
      <leafValues>
        4.5226651430130005e-01 -1.8565488979220390e-02</leafValues></_>
    <_>
      <internalNodes>
        0 -1 9053 -2.7717766351997852e-03</internalNodes>
      <leafValues>
        2.4945154786109924e-01 -4.5228529721498489e-02</leafValues></_>
    <_>
      <internalNodes>
        0 -1 18788 4.8724864609539509e-03</internalNodes>
      <leafValues>
        -3.7340868264436722e-02 3.2788008451461792e-01</leafValues></_>
    <_>
      <internalNodes>
        0 -1 6443 1.1900817044079304e-03</internalNodes>
      <leafValues>
        6.5329641103744507e-02 -1.6218538582324982e-01</leafValues></_>
    <_>
      <internalNodes>
        0 -1 69248 -2.0602524280548096e-02</internalNodes>
      <leafValues>
        -3.5989260673522949e-01 5.2801273763179779e-02</leafValues></_>
    <_>
      <internalNodes>
        0 -1 111432 -4.8218988813459873e-03</internalNodes>
      <leafValues>
        1.1836216598749161e-01 -8.6992897093296051e-02</leafValues></_>
    <_>
      <internalNodes>
        0 -1 3574 -3.6271519493311644e-03</internalNodes>
      <leafValues>
        2.0369769632816315e-01 -4.4362567365169525e-02</leafValues></_>
    <_>
      <internalNodes>
        0 -1 3578 -3.7655350752174854e-03</internalNodes>
      <leafValues>
        2.6428920030593872e-01 -4.3584614992141724e-02</leafValues></_>
    <_>
      <internalNodes>
        0 -1 108011 5.5067794164642692e-04</internalNodes>
      <leafValues>
        -6.7896097898483276e-02 1.2655653059482574e-01</leafValues></_>
    <_>
      <internalNodes>
        0 -1 10257 -7.7518090605735779e-02</internalNodes>
      <leafValues>
        -4.8308157920837402e-01 1.8692119047045708e-02</leafValues></_>
    <_>
      <internalNodes>
        0 -1 47292 2.6406627148389816e-03</internalNodes>
      <leafValues>
        -5.9615112841129303e-02 1.3506066799163818e-01</leafValues></_>
    <_>
      <internalNodes>
        0 -1 47292 -1.1821400839835405e-03</internalNodes>
      <leafValues>
        1.2896981835365295e-01 -5.8013372123241425e-02</leafValues></_>
    <_>
      <internalNodes>
        0 -1 18527 -2.4036916438490152e-03</internalNodes>
      <leafValues>
        1.4668880403041840e-01 -4.9191586673259735e-02</leafValues></_>
    <_>
      <internalNodes>
        0 -1 93844 -3.2916464842855930e-03</internalNodes>
      <leafValues>
        1.4644137024879456e-01 -5.6495338678359985e-02</leafValues></_>
    <_>
      <internalNodes>
        0 -1 118995 5.0553316250443459e-03</internalNodes>
      <leafValues>
        -3.5547852516174316e-02 2.1497559547424316e-01</leafValues></_>
    <_>
      <internalNodes>
        0 -1 55758 1.5998426824808121e-02</internalNodes>
      <leafValues>
        -3.3291410654783249e-02 2.3091362416744232e-01</leafValues></_>
    <_>
      <internalNodes>
        0 -1 37666 -2.6104915887117386e-03</internalNodes>
      <leafValues>
        6.1350855976343155e-02 -1.2263481318950653e-01</leafValues></_>
    <_>
      <internalNodes>
        0 -1 78496 -4.7189341858029366e-03</internalNodes>
      <leafValues>
        -1.8135562539100647e-01 5.0566051155328751e-02</leafValues></_>
    <_>
      <internalNodes>
        0 -1 91459 2.2835170966573060e-04</internalNodes>
      <leafValues>
        -5.5871192365884781e-02 1.7496286332607269e-01</leafValues></_>
    <_>
      <internalNodes>
        0 -1 109451 -3.2340132165700197e-03</internalNodes>
      <leafValues>
        -1.0098232328891754e-01 8.6962066590785980e-02</leafValues></_>
    <_>
      <internalNodes>
        0 -1 91871 2.3414567112922668e-04</internalNodes>
      <leafValues>
        -5.6804109364748001e-02 1.6078576445579529e-01</leafValues></_>
    <_>
      <internalNodes>
        0 -1 103585 3.8139831740409136e-03</internalNodes>
      <leafValues>
        5.9709738940000534e-02 -1.7644330859184265e-01</leafValues></_>
    <_>
      <internalNodes>
        0 -1 91019 2.6898510986939073e-04</internalNodes>
      <leafValues>
        -6.2856994569301605e-02 1.5004563331604004e-01</leafValues></_>
    <_>
      <internalNodes>
        0 -1 19161 3.8103628903627396e-03</internalNodes>
      <leafValues>
        -3.5069946199655533e-02 1.9785821437835693e-01</leafValues></_>
    <_>
      <internalNodes>
        0 -1 102529 7.0323701947927475e-05</internalNodes>
      <leafValues>
        7.8278064727783203e-02 -9.2141352593898773e-02</leafValues></_>
    <_>
      <internalNodes>
        0 -1 93844 2.5984977837651968e-03</internalNodes>
      <leafValues>
        -5.3923673927783966e-02 1.3107414543628693e-01</leafValues></_>
    <_>
      <internalNodes>
        0 -1 70514 1.0710770264267921e-02</internalNodes>
      <leafValues>
        3.1002584844827652e-02 -2.1820445358753204e-01</leafValues></_>
    <_>
      <internalNodes>
        0 -1 70780 -4.2689433321356773e-03</internalNodes>
      <leafValues>
        -6.9122672080993652e-02 9.9829375743865967e-02</leafValues></_>
    <_>
      <internalNodes>
        0 -1 37473 7.2695398703217506e-03</internalNodes>
      <leafValues>
        -4.4070735573768616e-02 1.8991360068321228e-01</leafValues></_>
    <_>
      <internalNodes>
        0 -1 26638 3.5488340072333813e-03</internalNodes>
      <leafValues>
        3.7554785609245300e-02 -2.2116260230541229e-01</leafValues></_>
    <_>
      <internalNodes>
        0 -1 55753 -2.0881858654320240e-03</internalNodes>
      <leafValues>
        1.1937634646892548e-01 -6.5997846424579620e-02</leafValues></_>
    <_>
      <internalNodes>
        0 -1 37971 -5.2725085988640785e-03</internalNodes>
      <leafValues>
        9.7677007317543030e-02 -7.8644514083862305e-02</leafValues></_>
    <_>
      <internalNodes>
        0 -1 124757 -5.4015433415770531e-03</internalNodes>
      <leafValues>
        1.0987908393144608e-01 -6.4498580992221832e-02</leafValues></_>
    <_>
      <internalNodes>
        0 -1 124976 2.8659699484705925e-02</internalNodes>
      <leafValues>
        -3.2196935266256332e-02 2.3089377582073212e-01</leafValues></_>
    <_>
      <internalNodes>
        0 -1 53444 1.0515488684177399e-03</internalNodes>
      <leafValues>
        -7.2620689868927002e-02 9.9723137915134430e-02</leafValues></_>
    <_>
      <internalNodes>
        0 -1 4360 3.2239584252238274e-03</internalNodes>
      <leafValues>
        -4.7126330435276031e-02 1.5967307984828949e-01</leafValues></_>
    <_>
      <internalNodes>
        0 -1 118999 3.7129539996385574e-03</internalNodes>
      <leafValues>
        -3.0162818729877472e-02 2.1762159466743469e-01</leafValues></_>
    <_>
      <internalNodes>
        0 -1 71747 -4.6044133341638371e-05</internalNodes>
      <leafValues>
        5.0822369754314423e-02 -1.2092374265193939e-01</leafValues></_>
    <_>
      <internalNodes>
        0 -1 37861 -3.7040971219539642e-03</internalNodes>
      <leafValues>
        1.8371458351612091e-01 -3.3184029161930084e-02</leafValues></_>
    <_>
      <internalNodes>
        0 -1 121491 -4.1597252711653709e-03</internalNodes>
      <leafValues>
        1.4921374619007111e-01 -3.9829052984714508e-02</leafValues></_>
    <_>
      <internalNodes>
        0 -1 124970 -1.6959174536168575e-03</internalNodes>
      <leafValues>
        7.8970164060592651e-02 -7.6884217560291290e-02</leafValues></_>
    <_>
      <internalNodes>
        0 -1 124990 1.9223615527153015e-03</internalNodes>
      <leafValues>
        -4.6231798827648163e-02 1.3691595196723938e-01</leafValues></_>
    <_>
      <internalNodes>
        0 -1 110813 -7.2292163968086243e-03</internalNodes>
      <leafValues>
        6.9521531462669373e-02 -8.8124506175518036e-02</leafValues></_>
    <_>
      <internalNodes>
        0 -1 100065 -1.2443435192108154e-01</internalNodes>
      <leafValues>
        -2.4917098879814148e-01 2.9133446514606476e-02</leafValues></_>
    <_>
      <internalNodes>
        0 -1 92217 4.3222160456934944e-05</internalNodes>
      <leafValues>
        -6.8074114620685577e-02 8.6565576493740082e-02</leafValues></_>
    <_>
      <internalNodes>
        0 -1 105216 9.6228549955412745e-04</internalNodes>
      <leafValues>
        3.3906396478414536e-02 -1.6773432493209839e-01</leafValues></_>
    <_>
      <internalNodes>
        0 -1 8456 1.0658174753189087e-01</internalNodes>
      <leafValues>
        9.6511002629995346e-03 -5.4524320363998413e-01</leafValues></_>
    <_>
      <internalNodes>
        0 -1 93566 -2.1141297183930874e-03</internalNodes>
      <leafValues>
        8.6459755897521973e-02 -6.4909674227237701e-02</leafValues></_>
    <_>
      <internalNodes>
        0 -1 44945 -4.6057923464104533e-04</internalNodes>
      <leafValues>
        -1.3276849687099457e-01 3.9577927440404892e-02</leafValues></_>
    <_>
      <internalNodes>
        0 -1 78229 2.6388472178950906e-04</internalNodes>
      <leafValues>
        -4.1456811130046844e-02 1.3977304100990295e-01</leafValues></_>
    <_>
      <internalNodes>
        0 -1 121395 1.6296346439048648e-03</internalNodes>
      <leafValues>
        -6.6279731690883636e-02 8.4650911390781403e-02</leafValues></_>
    <_>
      <internalNodes>
        0 -1 36346 -1.5668177511543036e-03</internalNodes>
      <leafValues>
        -4.0943555533885956e-02 1.3677172362804413e-01</leafValues></_>
    <_>
      <internalNodes>
        0 -1 13029 -1.6025722026824951e-01</internalNodes>
      <leafValues>
        6.1849597841501236e-02 -1.1448512971401215e-01</leafValues></_>
    <_>
      <internalNodes>
        0 -1 120227 2.9734885320067406e-03</internalNodes>
      <leafValues>
        5.4960120469331741e-02 -1.0135471075773239e-01</leafValues></_>
    <_>
      <internalNodes>
        0 -1 71418 -2.1568968892097473e-02</internalNodes>
      <leafValues>
        1.5633909404277802e-01 -3.5044450312852859e-02</leafValues></_>
    <_>
      <internalNodes>
        0 -1 46718 -2.9312007245607674e-04</internalNodes>
      <leafValues>
        5.2414160221815109e-02 -1.2384451925754547e-01</leafValues></_>
    <_>
      <internalNodes>
        0 -1 29787 2.6892379391938448e-03</internalNodes>
      <leafValues>
        -3.5771396011114120e-02 1.5141345560550690e-01</leafValues></_>
    <_>
      <internalNodes>
        0 -1 37938 -5.3936005569994450e-03</internalNodes>
      <leafValues>
        1.9675008952617645e-01 -3.1665485352277756e-02</leafValues></_>
    <_>
      <internalNodes>
        0 -1 123488 -1.8864397425204515e-03</internalNodes>
      <leafValues>
        1.0118907690048218e-01 -5.0133179873228073e-02</leafValues></_>
    <_>
      <internalNodes>
        0 -1 3604 -9.1052567586302757e-04</internalNodes>
      <leafValues>
        6.0683961957693100e-02 -8.4528826177120209e-02</leafValues></_>
    <_>
      <internalNodes>
        0 -1 14076 -5.4268690291792154e-04</internalNodes>
      <leafValues>
        -8.8940471410751343e-02 6.5857388079166412e-02</leafValues></_>
    <_>
      <internalNodes>
        0 -1 4394 -1.1142982169985771e-02</internalNodes>
      <leafValues>
        1.4317111670970917e-01 -3.6545984447002411e-02</leafValues></_>
    <_>
      <internalNodes>
        0 -1 3675 -2.1756749600172043e-02</internalNodes>
      <leafValues>
        1.2244678288698196e-01 -4.1206300258636475e-02</leafValues></_>
    <_>
      <internalNodes>
        0 -1 14773 1.1975211964454502e-04</internalNodes>
      <leafValues>
        -6.8099997937679291e-02 8.8920257985591888e-02</leafValues></_>
    <_>
      <internalNodes>
        0 -1 84811 4.2442264966666698e-03</internalNodes>
      <leafValues>
        2.5308415293693542e-02 -2.0855042338371277e-01</leafValues></_>
    <_>
      <internalNodes>
        0 -1 68874 4.3382351577747613e-05</internalNodes>
      <leafValues>
        -6.0656834393739700e-02 9.3588791787624359e-02</leafValues></_>
    <_>
      <internalNodes>
        0 -1 55635 -3.1796455383300781e-02</internalNodes>
      <leafValues>
        -3.6883082985877991e-01 1.5296936966478825e-02</leafValues></_>
    <_>
      <internalNodes>
        0 -1 40654 2.3477412760257721e-02</internalNodes>
      <leafValues>
        1.2081542052328587e-02 -3.7534329295158386e-01</leafValues></_>
    <_>
      <internalNodes>
        0 -1 38434 2.1741420030593872e-02</internalNodes>
      <leafValues>
        -4.3167367577552795e-02 1.2452597171068192e-01</leafValues></_>
    <_>
      <internalNodes>
        0 -1 48552 4.5982874929904938e-02</internalNodes>
      <leafValues>
        -3.6233671009540558e-02 1.5353269875049591e-01</leafValues></_>
    <_>
      <internalNodes>
        0 -1 103836 4.7774575650691986e-03</internalNodes>
      <leafValues>
        3.3952679485082626e-02 -1.6318587958812714e-01</leafValues></_>
    <_>
      <internalNodes>
        0 -1 47000 2.6442823000252247e-03</internalNodes>
      <leafValues>
        -4.1613195091485977e-02 1.2422853708267212e-01</leafValues></_>
    <_>
      <internalNodes>
        0 -1 37899 -5.1837265491485596e-03</internalNodes>
      <leafValues>
        1.0168895125389099e-01 -5.0414394587278366e-02</leafValues></_>
    <_>
      <internalNodes>
        0 -1 46424 -1.0590810328722000e-02</internalNodes>
      <leafValues>
        -1.5446196496486664e-01 3.3236935734748840e-02</leafValues></_>
    <_>
      <internalNodes>
        0 -1 115981 -5.6224884465336800e-03</internalNodes>
      <leafValues>
        1.2129368633031845e-01 -3.9948657155036926e-02</leafValues></_>
    <_>
      <internalNodes>
        0 -1 124474 -9.4856563955545425e-03</internalNodes>
      <leafValues>
        1.6028627753257751e-01 -3.0857872217893600e-02</leafValues></_>
    <_>
      <internalNodes>
        0 -1 124143 -1.0348510928452015e-02</internalNodes>
      <leafValues>
        1.9012923538684845e-01 -2.6312874630093575e-02</leafValues></_>
    <_>
      <internalNodes>
        0 -1 12545 -2.4031591415405273e-01</internalNodes>
      <leafValues>
        1.9717794656753540e-01 -2.3958060890436172e-02</leafValues></_>
    <_>
      <internalNodes>
        0 -1 59380 -4.1187666356563568e-03</internalNodes>
      <leafValues>
        -9.4765014946460724e-02 5.3009953349828720e-02</leafValues></_>
    <_>
      <internalNodes>
        0 -1 123092 1.4063520357012749e-02</internalNodes>
      <leafValues>
        -5.2207756787538528e-02 1.0169240087270737e-01</leafValues></_>
    <_>
      <internalNodes>
        0 -1 71047 -8.2623753696680069e-03</internalNodes>
      <leafValues>
        7.0864401757717133e-02 -6.6443018615245819e-02</leafValues></_>
    <_>
      <internalNodes>
        0 -1 387 3.3721536397933960e-02</internalNodes>
      <leafValues>
        -2.4946857243776321e-02 1.9673077762126923e-01</leafValues></_>
    <_>
      <internalNodes>
        0 -1 34889 -1.9353781826794147e-03</internalNodes>
      <leafValues>
        4.7925412654876709e-02 -1.1509750038385391e-01</leafValues></_>
    <_>
      <internalNodes>
        0 -1 124595 4.8726171371527016e-05</internalNodes>
      <leafValues>
        -8.6026012897491455e-02 5.7389389723539352e-02</leafValues></_>
    <_>
      <internalNodes>
        0 -1 123916 -3.0157705768942833e-03</internalNodes>
      <leafValues>
        1.4047978818416595e-01 -3.1982906162738800e-02</leafValues></_>
    <_>
      <internalNodes>
        0 -1 111640 -6.7777089774608612e-02</internalNodes>
      <leafValues>
        -5.8632624149322510e-01 7.2100218385457993e-03</leafValues></_>
    <_>
      <internalNodes>
        0 -1 85395 1.6825132479425520e-04</internalNodes>
      <leafValues>
        -4.1544310748577118e-02 1.0942637920379639e-01</leafValues></_>
    <_>
      <internalNodes>
        0 -1 85395 1.7357226461172104e-03</internalNodes>
      <leafValues>
        1.5637721866369247e-02 -3.6484223604202271e-01</leafValues></_>
    <_>
      <internalNodes>
        0 -1 105056 -2.4334475165233016e-04</internalNodes>
      <leafValues>
        -1.0463237017393112e-01 4.0859680622816086e-02</leafValues></_>
    <_>
      <internalNodes>
        0 -1 70260 1.5522261674050242e-04</internalNodes>
      <leafValues>
        -4.6215612441301346e-02 9.5441915094852448e-02</leafValues></_>
    <_>
      <internalNodes>
        0 -1 77359 1.7577671678736806e-03</internalNodes>
      <leafValues>
        2.3040380328893661e-02 -2.1418216824531555e-01</leafValues></_>
    <_>
      <internalNodes>
        0 -1 122427 4.9567418172955513e-03</internalNodes>
      <leafValues>
        7.9448729753494263e-02 -5.8231923729181290e-02</leafValues></_>
    <_>
      <internalNodes>
        0 -1 122602 4.3678986839950085e-03</internalNodes>
      <leafValues>
        -3.0427234247326851e-02 1.6008792817592621e-01</leafValues></_>
    <_>
      <internalNodes>
        0 -1 112238 -7.4862822890281677e-02</internalNodes>
      <leafValues>
        -2.4771238863468170e-01 2.4875974282622337e-02</leafValues></_>
    <_>
      <internalNodes>
        0 -1 116530 -2.1987552754580975e-03</internalNodes>
      <leafValues>
        5.0524018704891205e-02 -9.3655675649642944e-02</leafValues></_>
    <_>
      <internalNodes>
        0 -1 119712 -2.3430690634995699e-03</internalNodes>
      <leafValues>
        8.1696018576622009e-02 -5.9412501752376556e-02</leafValues></_>
    <_>
      <internalNodes>
        0 -1 73060 -7.5532078742980957e-02</internalNodes>
      <leafValues>
        -4.7671329975128174e-01 1.0922625660896301e-02</leafValues></_>
    <_>
      <internalNodes>
        0 -1 111124 -6.0759823769330978e-02</internalNodes>
      <leafValues>
        -4.7565528750419617e-01 8.3052832633256912e-03</leafValues></_>
    <_>
      <internalNodes>
        0 -1 54527 3.2770548015832901e-02</internalNodes>
      <leafValues>
        9.6111549064517021e-03 -4.3644949793815613e-01</leafValues></_>
    <_>
      <internalNodes>
        0 -1 28537 -3.1404555775225163e-03</internalNodes>
      <leafValues>
        1.2856841087341309e-01 -3.6437075585126877e-02</leafValues></_>
    <_>
      <internalNodes>
        0 -1 8534 -1.8282288312911987e-01</internalNodes>
      <leafValues>
        -3.7907779216766357e-01 1.2626359239220619e-02</leafValues></_>
    <_>
      <internalNodes>
        0 -1 45105 5.9709735214710236e-02</internalNodes>
      <leafValues>
        -2.7658497914671898e-02 1.8519218266010284e-01</leafValues></_>
    <_>
      <internalNodes>
        0 -1 115266 -7.6749674044549465e-03</internalNodes>
      <leafValues>
        3.3887726068496704e-01 -1.2469372712075710e-02</leafValues></_>
    <_>
      <internalNodes>
        0 -1 17120 3.1802888959646225e-02</internalNodes>
      <leafValues>
        1.1653829365968704e-02 -3.6809939146041870e-01</leafValues></_>
    <_>
      <internalNodes>
        0 -1 8744 -2.8985361568629742e-03</internalNodes>
      <leafValues>
        1.5947429835796356e-01 -2.8345325961709023e-02</leafValues></_>
    <_>
      <internalNodes>
        0 -1 5249 1.8877992033958435e-01</internalNodes>
      <leafValues>
        6.5585933625698090e-03 -7.2584676742553711e-01</leafValues></_>
    <_>
      <internalNodes>
        0 -1 15959 -2.2901669144630432e-02</internalNodes>
      <leafValues>
        -2.7823415398597717e-01 1.4258137904107571e-02</leafValues></_>
    <_>
      <internalNodes>
        0 -1 9739 -4.0193897439166903e-04</internalNodes>
      <leafValues>
        -9.6447758376598358e-02 4.4478394091129303e-02</leafValues></_>
    <_>
      <internalNodes>
        0 -1 9737 3.6273768637329340e-04</internalNodes>
      <leafValues>
        4.4926557689905167e-02 -1.0328370332717896e-01</leafValues></_>
    <_>
      <internalNodes>
        0 -1 51823 -1.0548222344368696e-03</internalNodes>
      <leafValues>
        7.6324656605720520e-02 -5.9251185506582260e-02</leafValues></_>
    <_>
      <internalNodes>
        0 -1 74493 -2.6168895419687033e-03</internalNodes>
      <leafValues>
        -1.0035372525453568e-01 4.5576643198728561e-02</leafValues></_>
    <_>
      <internalNodes>
        0 -1 211 -5.1954146474599838e-03</internalNodes>
      <leafValues>
        6.0253009200096130e-02 -7.6121903955936432e-02</leafValues></_>
    <_>
      <internalNodes>
        0 -1 19575 6.4669260755181313e-03</internalNodes>
      <leafValues>
        -3.6242712289094925e-02 1.3738793134689331e-01</leafValues></_>
    <_>
      <internalNodes>
        0 -1 72359 4.2349997907876968e-02</internalNodes>
      <leafValues>
        -7.8960098326206207e-03 5.0184690952301025e-01</leafValues></_>
    <_>
      <internalNodes>
        0 -1 14332 2.9609370976686478e-02</internalNodes>
      <leafValues>
        -3.2814592123031616e-02 1.2623725831508636e-01</leafValues></_>
    <_>
      <internalNodes>
        0 -1 13420 7.3331533931195736e-03</internalNodes>
      <leafValues>
        3.8550358265638351e-02 -1.2591625750064850e-01</leafValues></_>
    <_>
      <internalNodes>
        0 -1 4531 6.6928811371326447e-02</internalNodes>
      <leafValues>
        1.1246913112699986e-02 -4.5504933595657349e-01</leafValues></_>
    <_>
      <internalNodes>
        0 -1 39362 -1.0965053737163544e-01</internalNodes>
      <leafValues>
        1.3253273069858551e-01 -3.3226501196622849e-02</leafValues></_>
    <_>
      <internalNodes>
        0 -1 79476 7.4890052201226354e-04</internalNodes>
      <leafValues>
        -4.8643872141838074e-02 9.5057725906372070e-02</leafValues></_>
    <_>
      <internalNodes>
        0 -1 86511 3.8434020243585110e-03</internalNodes>
      <leafValues>
        3.9488393813371658e-02 -1.2585584819316864e-01</leafValues></_>
    <_>
      <internalNodes>
        0 -1 107838 -2.1330430172383785e-03</internalNodes>
      <leafValues>
        7.5165890157222748e-02 -6.6203832626342773e-02</leafValues></_>
    <_>
      <internalNodes>
        0 -1 105065 1.5558367595076561e-03</internalNodes>
      <leafValues>
        2.9575150460004807e-02 -1.5520156919956207e-01</leafValues></_>
    <_>
      <internalNodes>
        0 -1 37871 -2.2034128196537495e-03</internalNodes>
      <leafValues>
        1.0683043301105499e-01 -4.2473580688238144e-02</leafValues></_>
    <_>
      <internalNodes>
        0 -1 99887 2.5848862715065479e-03</internalNodes>
      <leafValues>
        -3.5970218479633331e-02 1.2170907855033875e-01</leafValues></_>
    <_>
      <internalNodes>
        0 -1 29695 -7.9858712852001190e-03</internalNodes>
      <leafValues>
        8.3172388374805450e-02 -5.4692909121513367e-02</leafValues></_>
    <_>
      <internalNodes>
        0 -1 64175 -1.3154963031411171e-02</internalNodes>
      <leafValues>
        -2.7420106530189514e-01 1.4986459165811539e-02</leafValues></_>
    <_>
      <internalNodes>
        0 -1 46205 7.5090765953063965e-02</internalNodes>
      <leafValues>
        5.8560101315379143e-03 -7.6264286041259766e-01</leafValues></_>
    <_>
      <internalNodes>
        0 -1 52796 1.8590754189062864e-04</internalNodes>
      <leafValues>
        7.4621461331844330e-02 -5.5432617664337158e-02</leafValues></_>
    <_>
      <internalNodes>
        0 -1 26608 6.4155571162700653e-03</internalNodes>
      <leafValues>
        2.7378795668482780e-02 -1.7230057716369629e-01</leafValues></_>
    <_>
      <internalNodes>
        0 -1 91463 8.9058559387922287e-04</internalNodes>
      <leafValues>
        -4.0398519486188889e-02 1.0822642594575882e-01</leafValues></_>
    <_>
      <internalNodes>
        0 -1 116520 4.2891465127468109e-03</internalNodes>
      <leafValues>
        2.7750557288527489e-02 -1.7961770296096802e-01</leafValues></_>
    <_>
      <internalNodes>
        0 -1 69399 -4.3253079056739807e-03</internalNodes>
      <leafValues>
        1.0562876611948013e-01 -4.0815986692905426e-02</leafValues></_>
    <_>
      <internalNodes>
        0 -1 77204 1.0281730443239212e-02</internalNodes>
      <leafValues>
        5.5668137967586517e-02 -8.3828136324882507e-02</leafValues></_>
    <_>
      <internalNodes>
        0 -1 112826 -1.5992062399163842e-03</internalNodes>
      <leafValues>
        -1.5361393988132477e-01 3.2063264399766922e-02</leafValues></_>
    <_>
      <internalNodes>
        0 -1 120802 -4.1193474084138870e-02</internalNodes>
      <leafValues>
        2.6936918497085571e-01 -1.7700413241982460e-02</leafValues></_>
    <_>
      <internalNodes>
        0 -1 123465 -3.6320299841463566e-03</internalNodes>
      <leafValues>
        1.8124806880950928e-01 -2.3870302364230156e-02</leafValues></_>
    <_>
      <internalNodes>
        0 -1 86976 -1.4460517093539238e-02</internalNodes>
      <leafValues>
        -4.1649219393730164e-01 9.7539098933339119e-03</leafValues></_>
    <_>
      <internalNodes>
        0 -1 123523 2.9774545691907406e-03</internalNodes>
      <leafValues>
        -4.1517518460750580e-02 1.0243387520313263e-01</leafValues></_>
    <_>
      <internalNodes>
        0 -1 124706 -1.2506511062383652e-02</internalNodes>
      <leafValues>
        -1.9708028435707092e-01 2.2930033504962921e-02</leafValues></_>
    <_>
      <internalNodes>
        0 -1 114822 -1.4767050743103027e-03</internalNodes>
      <leafValues>
        7.6017580926418304e-02 -6.1407450586557388e-02</leafValues></_>
    <_>
      <internalNodes>
        0 -1 2565 2.7258062362670898e-01</internalNodes>
      <leafValues>
        1.4995266683399677e-02 -2.9490751028060913e-01</leafValues></_>
    <_>
      <internalNodes>
        0 -1 118271 1.5092981047928333e-03</internalNodes>
      <leafValues>
        -5.1816456019878387e-02 8.3459086716175079e-02</leafValues></_>
    <_>
      <internalNodes>
        0 -1 118287 1.5172736020758748e-03</internalNodes>
      <leafValues>
        -6.2038633972406387e-02 6.9261312484741211e-02</leafValues></_>
    <_>
      <internalNodes>
        0 -1 32895 4.0266318246722221e-03</internalNodes>
      <leafValues>
        -1.8313156440854073e-02 2.2341646254062653e-01</leafValues></_>
    <_>
      <internalNodes>
        0 -1 120054 3.5205121093895286e-05</internalNodes>
      <leafValues>
        -4.9354963004589081e-02 8.2422450184822083e-02</leafValues></_>
    <_>
      <internalNodes>
        0 -1 46828 -6.9830179214477539e-02</internalNodes>
      <leafValues>
        -4.6910285949707031e-01 8.8698323816061020e-03</leafValues></_>
    <_>
      <internalNodes>
        0 -1 6361 1.9374093972146511e-03</internalNodes>
      <leafValues>
        -2.9427053406834602e-02 1.3754943013191223e-01</leafValues></_>
    <_>
      <internalNodes>
        0 -1 7019 -3.5512563772499561e-03</internalNodes>
      <leafValues>
        9.9891550838947296e-02 -4.3496724218130112e-02</leafValues></_>
    <_>
      <internalNodes>
        0 -1 4397 -1.5238674357533455e-02</internalNodes>
      <leafValues>
        1.2672340869903564e-01 -3.3933870494365692e-02</leafValues></_>
    <_>
      <internalNodes>
        0 -1 5938 3.8101054728031158e-02</internalNodes>
      <leafValues>
        1.0011215694248676e-02 -4.2986184358596802e-01</leafValues></_>
    <_>
      <internalNodes>
        0 -1 76410 7.9037592513486743e-05</internalNodes>
      <leafValues>
        4.3618425726890564e-02 -9.3957975506782532e-02</leafValues></_>
    <_>
      <internalNodes>
        0 -1 104077 -4.7224428271874785e-05</internalNodes>
      <leafValues>
        8.8250733911991119e-02 -5.1924586296081543e-02</leafValues></_>
    <_>
      <internalNodes>
        0 -1 75922 4.7011245042085648e-03</internalNodes>
      <leafValues>
        4.9004238098859787e-02 -8.9343048632144928e-02</leafValues></_>
    <_>
      <internalNodes>
        0 -1 59181 -3.8039714563637972e-03</internalNodes>
      <leafValues>
        -1.2177626788616180e-01 3.7257120013237000e-02</leafValues></_>
    <_>
      <internalNodes>
        0 -1 65840 5.7270005345344543e-03</internalNodes>
      <leafValues>
        7.4534446001052856e-02 -6.7806445062160492e-02</leafValues></_>
    <_>
      <internalNodes>
        0 -1 58479 -1.7838699743151665e-02</internalNodes>
      <leafValues>
        1.8604429066181183e-01 -2.3284969851374626e-02</leafValues></_>
    <_>
      <internalNodes>
        0 -1 62747 -1.3757061678916216e-03</internalNodes>
      <leafValues>
        -3.9325546473264694e-02 1.0408177226781845e-01</leafValues></_>
    <_>
      <internalNodes>
        0 -1 9452 -2.1225647651590407e-04</internalNodes>
      <leafValues>
        3.3738240599632263e-02 -1.2684366106987000e-01</leafValues></_>
    <_>
      <internalNodes>
        0 -1 121747 1.8306814134120941e-02</internalNodes>
      <leafValues>
        8.1228241324424744e-03 -4.4933694601058960e-01</leafValues></_>
    <_>
      <internalNodes>
        0 -1 96510 2.9088955372571945e-02</internalNodes>
      <leafValues>
        -3.6262840032577515e-02 1.1415950208902359e-01</leafValues></_>
    <_>
      <internalNodes>
        0 -1 120832 2.1558077423833311e-04</internalNodes>
      <leafValues>
        4.5764595270156860e-02 -9.4392843544483185e-02</leafValues></_>
    <_>
      <internalNodes>
        0 -1 116762 -7.9036578536033630e-03</internalNodes>
      <leafValues>
        4.9838492274284363e-01 -9.6824429929256439e-03</leafValues></_>
    <_>
      <internalNodes>
        0 -1 11363 -7.0628631114959717e-01</internalNodes>
      <leafValues>
        1.7818222939968109e-01 -2.1563703194260597e-02</leafValues></_>
    <_>
      <internalNodes>
        0 -1 3952 -3.9081537723541260e-01</internalNodes>
      <leafValues>
        -1.9122086465358734e-01 2.4610109627246857e-02</leafValues></_>
    <_>
      <internalNodes>
        0 -1 120941 -1.0855897329747677e-02</internalNodes>
      <leafValues>
        -2.8699374198913574e-01 1.3753134757280350e-02</leafValues></_>
    <_>
      <internalNodes>
        0 -1 124125 5.4677291773259640e-03</internalNodes>
      <leafValues>
        -1.7139662057161331e-02 2.5040969252586365e-01</leafValues></_>
    <_>
      <internalNodes>
        0 -1 107235 -3.0598182231187820e-02</internalNodes>
      <leafValues>
        -2.0730659365653992e-01 2.0108999684453011e-02</leafValues></_>
    <_>
      <internalNodes>
        0 -1 80771 -3.9991132915019989e-02</internalNodes>
      <leafValues>
        -4.1037696599960327e-01 1.0136717930436134e-02</leafValues></_>
    <_>
      <internalNodes>
        0 -1 79143 8.4072768688201904e-02</internalNodes>
      <leafValues>
        9.1898953542113304e-03 -3.8351187109947205e-01</leafValues></_>
    <_>
      <internalNodes>
        0 -1 121432 -2.6282601058483124e-02</internalNodes>
      <leafValues>
        -5.3053826093673706e-01 7.5247278437018394e-03</leafValues></_>
    <_>
      <internalNodes>
        0 -1 95844 -2.5709681212902069e-02</internalNodes>
      <leafValues>
        9.5506787300109863e-02 -4.2479868978261948e-02</leafValues></_>
    <_>
      <internalNodes>
        0 -1 118352 4.5512970536947250e-03</internalNodes>
      <leafValues>
        -1.9701557233929634e-02 2.1573297679424286e-01</leafValues></_>
    <_>
      <internalNodes>
        0 -1 86333 9.9505484104156494e-03</internalNodes>
      <leafValues>
        2.8304550796747208e-02 -1.3985124230384827e-01</leafValues></_>
    <_>
      <internalNodes>
        0 -1 38383 2.5822244584560394e-02</internalNodes>
      <leafValues>
        -2.8950849547982216e-02 1.8957133591175079e-01</leafValues></_>
    <_>
      <internalNodes>
        0 -1 85809 3.5502302926033735e-03</internalNodes>
      <leafValues>
        3.0794497579336166e-02 -1.4619952440261841e-01</leafValues></_>
    <_>
      <internalNodes>
        0 -1 71361 3.0875750817358494e-03</internalNodes>
      <leafValues>
        7.8292876482009888e-02 -5.9393312782049179e-02</leafValues></_>
    <_>
      <internalNodes>
        0 -1 79430 8.7783136405050755e-04</internalNodes>
      <leafValues>
        3.4035515040159225e-02 -1.3029499351978302e-01</leafValues></_>
    <_>
      <internalNodes>
        0 -1 53187 -8.3777923136949539e-03</internalNodes>
      <leafValues>
        7.9383462667465210e-02 -5.3813640028238297e-02</leafValues></_>
    <_>
      <internalNodes>
        0 -1 69202 -2.9683178290724754e-03</internalNodes>
      <leafValues>
        7.4885107576847076e-02 -5.5045168846845627e-02</leafValues></_>
    <_>
      <internalNodes>
        0 -1 76948 4.8538167029619217e-03</internalNodes>
      <leafValues>
        -2.4184230715036392e-02 2.1855169534683228e-01</leafValues></_>
    <_>
      <internalNodes>
        0 -1 66543 -4.1835261508822441e-03</internalNodes>
      <leafValues>
        -1.7221966385841370e-01 3.0817411839962006e-02</leafValues></_>
    <_>
      <internalNodes>
        0 -1 16666 -4.1015301831066608e-03</internalNodes>
      <leafValues>
        -5.1962137222290039e-02 8.6861565709114075e-02</leafValues></_>
    <_>
      <internalNodes>
        0 -1 44116 4.2787216603755951e-02</internalNodes>
      <leafValues>
        -4.2671419680118561e-02 1.2527473270893097e-01</leafValues></_>
    <_>
      <internalNodes>
        0 -1 47286 -1.0471292771399021e-03</internalNodes>
      <leafValues>
        7.5535178184509277e-02 -5.6323587894439697e-02</leafValues></_>
    <_>
      <internalNodes>
        0 -1 42732 1.2900078436359763e-03</internalNodes>
      <leafValues>
        3.2019317150115967e-02 -1.2777015566825867e-01</leafValues></_>
    <_>
      <internalNodes>
        0 -1 50423 3.6429951433092356e-04</internalNodes>
      <leafValues>
        -4.9242965877056122e-02 1.0197252780199051e-01</leafValues></_>
    <_>
      <internalNodes>
        0 -1 85822 -7.3354113847017288e-03</internalNodes>
      <leafValues>
        -1.9444437325000763e-01 2.2086614742875099e-02</leafValues></_>
    <_>
      <internalNodes>
        0 -1 70054 -7.1366786956787109e-02</internalNodes>
      <leafValues>
        6.8744909763336182e-01 -7.5805555097758770e-03</leafValues></_>
    <_>
      <internalNodes>
        0 -1 35768 -2.5510340929031372e-02</internalNodes>
      <leafValues>
        -3.0841818451881409e-01 1.4880399219691753e-02</leafValues></_>
    <_>
      <internalNodes>
        0 -1 36885 -4.5842629333492368e-05</internalNodes>
      <leafValues>
        7.0592366158962250e-02 -5.6886009871959686e-02</leafValues></_>
    <_>
      <internalNodes>
        0 -1 9261 -9.3102792743593454e-04</internalNodes>
      <leafValues>
        1.0026809573173523e-01 -4.4195815920829773e-02</leafValues></_>
    <_>
      <internalNodes>
        0 -1 113628 -6.4562834799289703e-02</internalNodes>
      <leafValues>
        -6.0587841272354126e-01 7.5192060321569443e-03</leafValues></_>
    <_>
      <internalNodes>
        0 -1 70095 -2.5293400883674622e-01</internalNodes>
      <leafValues>
        -6.0763788223266602e-01 5.6424005888402462e-03</leafValues></_>
    <_>
      <internalNodes>
        0 -1 109494 3.3333208411931992e-02</internalNodes>
      <leafValues>
        -2.3312255740165710e-02 1.7372544109821320e-01</leafValues></_>
    <_>
      <internalNodes>
        0 -1 32176 5.2149873226881027e-03</internalNodes>
      <leafValues>
        -1.5930362045764923e-02 2.5416305661201477e-01</leafValues></_>
    <_>
      <internalNodes>
        0 -1 19024 1.6440788749605417e-03</internalNodes>
      <leafValues>
        -4.7052759677171707e-02 8.1392817199230194e-02</leafValues></_>
    <_>
      <internalNodes>
        0 -1 19091 -3.4274631179869175e-03</internalNodes>
      <leafValues>
        9.6404612064361572e-02 -5.6090299040079117e-02</leafValues></_>
    <_>
      <internalNodes>
        0 -1 35747 2.5952575728297234e-02</internalNodes>
      <leafValues>
        2.4679319933056831e-02 -1.5717387199401855e-01</leafValues></_>
    <_>
      <internalNodes>
        0 -1 33445 -1.6642069816589355e-01</internalNodes>
      <leafValues>
        7.4414288997650146e-01 -5.6684911251068115e-03</leafValues></_>
    <_>
      <internalNodes>
        0 -1 15191 1.4445954933762550e-02</internalNodes>
      <leafValues>
        -4.2815357446670532e-02 9.0540379285812378e-02</leafValues></_>
    <_>
      <internalNodes>
        0 -1 703 2.6514661312103271e-01</internalNodes>
      <leafValues>
        1.2014912441372871e-02 -3.6637729406356812e-01</leafValues></_>
    <_>
      <internalNodes>
        0 -1 124161 2.8463562484830618e-03</internalNodes>
      <leafValues>
        -6.2117312103509903e-02 6.4515709877014160e-02</leafValues></_>
    <_>
      <internalNodes>
        0 -1 117857 -3.4785498864948750e-03</internalNodes>
      <leafValues>
        -5.0530616194009781e-02 8.8426463305950165e-02</leafValues></_>
    <_>
      <internalNodes>
        0 -1 16512 -1.2490141205489635e-02</internalNodes>
      <leafValues>
        6.5860778093338013e-02 -7.4324257671833038e-02</leafValues></_>
    <_>
      <internalNodes>
        0 -1 120985 -7.9039409756660461e-03</internalNodes>
      <leafValues>
        4.0057843923568726e-01 -1.1665621772408485e-02</leafValues></_>
    <_>
      <internalNodes>
        0 -1 3896 -1.0851500928401947e-01</internalNodes>
      <leafValues>
        -3.6867630481719971e-01 1.1487606912851334e-02</leafValues></_>
    <_>
      <internalNodes>
        0 -1 107401 8.4443076048046350e-04</internalNodes>
      <leafValues>
        3.8188714534044266e-02 -1.1093734949827194e-01</leafValues></_>
    <_>
      <internalNodes>
        0 -1 95460 -1.6047254204750061e-01</internalNodes>
      <leafValues>
        1.5131796896457672e-01 -3.0694266781210899e-02</leafValues></_>
    <_>
      <internalNodes>
        0 -1 120267 1.8854748457670212e-02</internalNodes>
      <leafValues>
        -5.7606551796197891e-02 8.4798693656921387e-02</leafValues></_>
    <_>
      <internalNodes>
        0 -1 20047 -1.7574824392795563e-02</internalNodes>
      <leafValues>
        1.3296709954738617e-01 -2.9550036415457726e-02</leafValues></_>
    <_>
      <internalNodes>
        0 -1 13265 -4.7231376171112061e-02</internalNodes>
      <leafValues>
        -4.6544548869132996e-01 9.0816495940089226e-03</leafValues></_>
    <_>
      <internalNodes>
        0 -1 45775 8.2184784114360809e-03</internalNodes>
      <leafValues>
        -5.3135915659368038e-03 8.2827097177505493e-01</leafValues></_>
    <_>
      <internalNodes>
        0 -1 6960 -2.4224142543971539e-03</internalNodes>
      <leafValues>
        1.4999431371688843e-01 -2.5089891627430916e-02</leafValues></_>
    <_>
      <internalNodes>
        0 -1 32171 -2.8366380138322711e-04</internalNodes>
      <leafValues>
        -7.2350926697254181e-02 5.4245460778474808e-02</leafValues></_>
    <_>
      <internalNodes>
        0 -1 2595 6.5694088116288185e-03</internalNodes>
      <leafValues>
        -3.8320772349834442e-02 1.1505212634801865e-01</leafValues></_>
    <_>
      <internalNodes>
        0 -1 8108 -2.1519867703318596e-02</internalNodes>
      <leafValues>
        -4.5034247636795044e-01 8.3848731592297554e-03</leafValues></_>
    <_>
      <internalNodes>
        0 -1 120063 1.7443464603275061e-03</internalNodes>
      <leafValues>
        2.9554612934589386e-02 -1.2974661588668823e-01</leafValues></_>
    <_>
      <internalNodes>
        0 -1 94904 1.3527272967621684e-03</internalNodes>
      <leafValues>
        -2.7569355443120003e-02 1.3632030785083771e-01</leafValues></_>
    <_>
      <internalNodes>
        0 -1 81307 6.2130432575941086e-02</internalNodes>
      <leafValues>
        1.5478379093110561e-02 -2.8730106353759766e-01</leafValues></_>
    <_>
      <internalNodes>
        0 -1 123583 -9.0225512394681573e-04</internalNodes>
      <leafValues>
        8.0013595521450043e-02 -5.0167389214038849e-02</leafValues></_>
    <_>
      <internalNodes>
        0 -1 108291 -9.7833052277565002e-02</internalNodes>
      <leafValues>
        -5.5532163381576538e-01 7.1941642090678215e-03</leafValues></_>
    <_>
      <internalNodes>
        0 -1 123350 7.5747338123619556e-03</internalNodes>
      <leafValues>
        -2.0187107846140862e-02 2.0240166783332825e-01</leafValues></_>
    <_>
      <internalNodes>
        0 -1 19574 -6.3104010187089443e-03</internalNodes>
      <leafValues>
        4.0707126259803772e-02 -9.3941524624824524e-02</leafValues></_>
    <_>
      <internalNodes>
        0 -1 20295 -5.3814938291907310e-04</internalNodes>
      <leafValues>
        -1.0340331494808197e-01 4.8886045813560486e-02</leafValues></_>
    <_>
      <internalNodes>
        0 -1 102083 -2.4671154096722603e-04</internalNodes>
      <leafValues>
        8.9863128960132599e-02 -4.9338605254888535e-02</leafValues></_>
    <_>
      <internalNodes>
        0 -1 66042 8.3703402196988463e-05</internalNodes>
      <leafValues>
        6.9671608507633209e-02 -5.7707656174898148e-02</leafValues></_>
    <_>
      <internalNodes>
        0 -1 111226 -1.0487720370292664e-02</internalNodes>
      <leafValues>
        3.4634795039892197e-02 -1.3161818683147430e-01</leafValues></_>
    <_>
      <internalNodes>
        0 -1 22349 2.3758564144372940e-02</internalNodes>
      <leafValues>
        -2.6114106178283691e-02 2.1104994416236877e-01</leafValues></_>
    <_>
      <internalNodes>
        0 -1 12897 9.9354237318038940e-02</internalNodes>
      <leafValues>
        9.9093681201338768e-03 -4.4300594925880432e-01</leafValues></_>
    <_>
      <internalNodes>
        0 -1 114891 4.3394463136792183e-03</internalNodes>
      <leafValues>
        -2.0055120810866356e-02 2.0885680615901947e-01</leafValues></_>
    <_>
      <internalNodes>
        0 -1 114143 -7.0484494790434837e-03</internalNodes>
      <leafValues>
        5.8057725429534912e-01 -5.8392006903886795e-03</leafValues></_>
    <_>
      <internalNodes>
        0 -1 77385 -5.0108671188354492e-02</internalNodes>
      <leafValues>
        -6.0535359382629395e-01 6.7022754810750484e-03</leafValues></_>
    <_>
      <internalNodes>
        0 -1 93116 -2.6495326310396194e-03</internalNodes>
      <leafValues>
        8.3917655050754547e-02 -4.5546356588602066e-02</leafValues></_>
    <_>
      <internalNodes>
        0 -1 46014 5.2452556788921356e-02</internalNodes>
      <leafValues>
        -2.9820630326867104e-02 1.2892396748065948e-01</leafValues></_>
    <_>
      <internalNodes>
        0 -1 114325 -3.1709455652162433e-04</internalNodes>
      <leafValues>
        -1.0058432817459106e-01 4.1847407817840576e-02</leafValues></_>
    <_>
      <internalNodes>
        0 -1 49684 -2.1174903959035873e-03</internalNodes>
      <leafValues>
        6.9424986839294434e-02 -5.4838024079799652e-02</leafValues></_>
    <_>
      <internalNodes>
        0 -1 124861 -4.6276943758130074e-03</internalNodes>
      <leafValues>
        3.8081623613834381e-02 -1.0018450766801834e-01</leafValues></_>
    <_>
      <internalNodes>
        0 -1 110816 -5.9650163166224957e-04</internalNodes>
      <leafValues>
        1.3839834928512573e-01 -3.2271049916744232e-02</leafValues></_>
    <_>
      <internalNodes>
        0 -1 94905 7.7194324694573879e-04</internalNodes>
      <leafValues>
        4.0292397141456604e-02 -9.5738656818866730e-02</leafValues></_>
    <_>
      <internalNodes>
        0 -1 111940 1.4697692822664976e-03</internalNodes>
      <leafValues>
        -4.8502016812562943e-02 9.2723466455936432e-02</leafValues></_>
    <_>
      <internalNodes>
        0 -1 54496 1.5090829692780972e-03</internalNodes>
      <leafValues>
        2.9505811631679535e-02 -1.3557939231395721e-01</leafValues></_>
    <_>
      <internalNodes>
        0 -1 53777 4.9318042583763599e-03</internalNodes>
      <leafValues>
        -3.2732252031564713e-02 1.2137582898139954e-01</leafValues></_>
    <_>
      <internalNodes>
        0 -1 17947 -1.9773330539464951e-02</internalNodes>
      <leafValues>
        -5.2945917844772339e-01 7.4206162244081497e-03</leafValues></_>
    <_>
      <internalNodes>
        0 -1 54851 -3.2076039351522923e-03</internalNodes>
      <leafValues>
        8.4677942097187042e-02 -4.4614084064960480e-02</leafValues></_>
    <_>
      <internalNodes>
        0 -1 60122 -3.2282039523124695e-02</internalNodes>
      <leafValues>
        -2.0849007368087769e-01 1.8814252689480782e-02</leafValues></_>
    <_>
      <internalNodes>
        0 -1 115591 5.6630903854966164e-03</internalNodes>
      <leafValues>
        -2.0106287673115730e-02 1.8952244520187378e-01</leafValues></_>
    <_>
      <internalNodes>
        0 -1 118393 2.0256062969565392e-02</internalNodes>
      <leafValues>
        1.3878497295081615e-02 -2.9188501834869385e-01</leafValues></_>
    <_>
      <internalNodes>
        0 -1 118996 2.1571889519691467e-03</internalNodes>
      <leafValues>
        -3.3840019255876541e-02 1.2879398465156555e-01</leafValues></_>
    <_>
      <internalNodes>
        0 -1 98864 -3.5265207290649414e-02</internalNodes>
      <leafValues>
        -5.9316563606262207e-01 6.5837283618748188e-03</leafValues></_>
    <_>
      <internalNodes>
        0 -1 38087 -4.9261596053838730e-02</internalNodes>
      <leafValues>
        -4.5612314343452454e-01 7.6572485268115997e-03</leafValues></_>
    <_>
      <internalNodes>
        0 -1 72107 3.8625977467745543e-03</internalNodes>
      <leafValues>
        -2.5264868512749672e-02 1.5001054108142853e-01</leafValues></_>
    <_>
      <internalNodes>
        0 -1 119559 6.2873761635273695e-05</internalNodes>
      <leafValues>
        -4.3840561062097549e-02 8.6917251348495483e-02</leafValues></_>
    <_>
      <internalNodes>
        0 -1 124301 -4.2429784662090242e-04</internalNodes>
      <leafValues>
        -9.2103496193885803e-02 4.1834652423858643e-02</leafValues></_>
    <_>
      <internalNodes>
        0 -1 87211 4.3400755384936929e-04</internalNodes>
      <leafValues>
        8.2018569111824036e-02 -4.7996543347835541e-02</leafValues></_>
    <_>
      <internalNodes>
        0 -1 106544 -2.8475122526288033e-03</internalNodes>
      <leafValues>
        -2.1685037016868591e-01 1.8861979246139526e-02</leafValues></_>
    <_>
      <internalNodes>
        0 -1 118081 -3.2483398914337158e-02</internalNodes>
      <leafValues>
        -4.1164973378181458e-01 9.3814171850681305e-03</leafValues></_>
    <_>
      <internalNodes>
        0 -1 89205 -1.9082979857921600e-01</internalNodes>
      <leafValues>
        3.1410184502601624e-01 -1.3167539611458778e-02</leafValues></_>
    <_>
      <internalNodes>
        0 -1 50008 -2.9957305639982224e-02</internalNodes>
      <leafValues>
        1.4549353718757629e-01 -2.5529131293296814e-02</leafValues></_>
    <_>
      <internalNodes>
        0 -1 65730 4.4727306813001633e-03</internalNodes>
      <leafValues>
        2.4015305563807487e-02 -2.1000960469245911e-01</leafValues></_>
    <_>
      <internalNodes>
        0 -1 30945 2.2008104622364044e-01</internalNodes>
      <leafValues>
        -1.0004974901676178e-02 4.5690613985061646e-01</leafValues></_>
    <_>
      <internalNodes>
        0 -1 1018 -7.2155356407165527e-02</internalNodes>
      <leafValues>
        2.6719319820404053e-01 -1.4839197508990765e-02</leafValues></_>
    <_>
      <internalNodes>
        0 -1 90026 7.0912991650402546e-03</internalNodes>
      <leafValues>
        1.5419981442391872e-02 -2.3907051980495453e-01</leafValues></_>
    <_>
      <internalNodes>
        0 -1 4380 -1.0885849595069885e-02</internalNodes>
      <leafValues>
        1.5612113475799561e-01 -2.5508109480142593e-02</leafValues></_>
    <_>
      <internalNodes>
        0 -1 108810 4.5911685447208583e-05</internalNodes>
      <leafValues>
        -4.7287330031394958e-02 8.2979649305343628e-02</leafValues></_>
    <_>
      <internalNodes>
        0 -1 19961 -3.4351617097854614e-01</internalNodes>
      <leafValues>
        -5.2867138385772705e-01 7.2809183038771152e-03</leafValues></_>
    <_>
      <internalNodes>
        0 -1 93730 -6.3676119316369295e-04</internalNodes>
      <leafValues>
        6.5682277083396912e-02 -5.7458601891994476e-02</leafValues></_>
    <_>
      <internalNodes>
        0 -1 99078 2.9522119439207017e-04</internalNodes>
      <leafValues>
        4.1921094059944153e-02 -9.1672256588935852e-02</leafValues></_>
    <_>
      <internalNodes>
        0 -1 117990 -2.9945094138383865e-03</internalNodes>
      <leafValues>
        -5.1332585513591766e-02 7.3262825608253479e-02</leafValues></_>
    <_>
      <internalNodes>
        0 -1 44388 -1.6587002202868462e-02</internalNodes>
      <leafValues>
        1.1385893821716309e-01 -3.7400308996438980e-02</leafValues></_>
    <_>
      <internalNodes>
        0 -1 17510 3.1552547588944435e-03</internalNodes>
      <leafValues>
        3.4968588501214981e-02 -1.1708650738000870e-01</leafValues></_>
    <_>
      <internalNodes>
        0 -1 36156 -3.4274868667125702e-03</internalNodes>
      <leafValues>
        2.4593149125576019e-01 -1.6821354627609253e-02</leafValues></_>
    <_>
      <internalNodes>
        0 -1 76310 -3.6470251507125795e-04</internalNodes>
      <leafValues>
        9.4652339816093445e-02 -4.1134536266326904e-02</leafValues></_>
    <_>
      <internalNodes>
        0 -1 76850 4.9455491534899920e-05</internalNodes>
      <leafValues>
        -5.1789943128824234e-02 8.2561574876308441e-02</leafValues></_>
    <_>
      <internalNodes>
        0 -1 98569 -3.4209931618534029e-04</internalNodes>
      <leafValues>
        -1.0333396494388580e-01 4.3041069060564041e-02</leafValues></_>
    <_>
      <internalNodes>
        0 -1 32980 2.5893389247357845e-03</internalNodes>
      <leafValues>
        6.6739283502101898e-02 -5.9500545263290405e-02</leafValues></_>
    <_>
      <internalNodes>
        0 -1 39966 -2.1907292306423187e-02</internalNodes>
      <leafValues>
        1.1623567342758179e-01 -4.3434422463178635e-02</leafValues></_>
    <_>
      <internalNodes>
        0 -1 56215 2.7559114620089531e-02</internalNodes>
      <leafValues>
        -4.6819951385259628e-02 1.0461489856243134e-01</leafValues></_>
    <_>
      <internalNodes>
        0 -1 95725 -2.8110208222642541e-04</internalNodes>
      <leafValues>
        -6.1659492552280426e-02 6.8299122154712677e-02</leafValues></_>
    <_>
      <internalNodes>
        0 -1 30682 3.2467871904373169e-02</internalNodes>
      <leafValues>
        6.7688268609344959e-03 -5.4471391439437866e-01</leafValues></_>
    <_>
      <internalNodes>
        0 -1 79977 5.9893987781833857e-05</internalNodes>
      <leafValues>
        -7.6167881488800049e-02 5.1508571952581406e-02</leafValues></_>
    <_>
      <internalNodes>
        0 -1 382 5.8654770255088806e-02</internalNodes>
      <leafValues>
        -1.5096542425453663e-02 2.6513326168060303e-01</leafValues></_>
    <_>
      <internalNodes>
        0 -1 73088 -9.5344729721546173e-02</internalNodes>
      <leafValues>
        -3.0040913820266724e-01 1.4196244999766350e-02</leafValues></_>
    <_>
      <internalNodes>
        0 -1 87702 2.4124294519424438e-02</internalNodes>
      <leafValues>
        -2.9804509133100510e-02 1.3776297867298126e-01</leafValues></_>
    <_>
      <internalNodes>
        0 -1 30731 -2.6802530512213707e-02</internalNodes>
      <leafValues>
        -3.3132505416870117e-01 1.2363859452307224e-02</leafValues></_>
    <_>
      <internalNodes>
        0 -1 58382 -5.4050062317401171e-04</internalNodes>
      <leafValues>
        7.2560571134090424e-02 -5.4881341755390167e-02</leafValues></_>
    <_>
      <internalNodes>
        0 -1 1472 -1.4263236522674561e-01</internalNodes>
      <leafValues>
        1.4397032558917999e-01 -2.7973175048828125e-02</leafValues></_>
    <_>
      <internalNodes>
        0 -1 2565 1.0907358676195145e-01</internalNodes>
      <leafValues>
        3.6615371704101562e-02 -1.1362559348344803e-01</leafValues></_>
    <_>
      <internalNodes>
        0 -1 38019 -6.7919390276074409e-03</internalNodes>
      <leafValues>
        1.0938195139169693e-01 -3.8531847298145294e-02</leafValues></_>
    <_>
      <internalNodes>
        0 -1 5342 -1.8930958583950996e-02</internalNodes>
      <leafValues>
        -5.2288854122161865e-01 7.3630474507808685e-03</leafValues></_>
    <_>
      <internalNodes>
        0 -1 64465 6.8585395812988281e-02</internalNodes>
      <leafValues>
        1.1792927980422974e-02 -3.2657819986343384e-01</leafValues></_>
    <_>
      <internalNodes>
        0 -1 90554 3.7317611277103424e-03</internalNodes>
      <leafValues>
        -1.8154470250010490e-02 2.2393666207790375e-01</leafValues></_>
    <_>
      <internalNodes>
        0 -1 117231 1.6103944508358836e-03</internalNodes>
      <leafValues>
        2.6137154549360275e-02 -1.7855918407440186e-01</leafValues></_>
    <_>
      <internalNodes>
        0 -1 30384 -6.4702685922384262e-03</internalNodes>
      <leafValues>
        7.9639658331871033e-02 -4.7584686428308487e-02</leafValues></_>
    <_>
      <internalNodes>
        0 -1 39869 2.0524227991700172e-02</internalNodes>
      <leafValues>
        1.2678414583206177e-02 -3.0532076954841614e-01</leafValues></_>
    <_>
      <internalNodes>
        0 -1 94053 -1.4258843846619129e-02</internalNodes>
      <leafValues>
        1.3368938863277435e-01 -2.9654476791620255e-02</leafValues></_>
    <_>
      <internalNodes>
        0 -1 40858 -8.3755351603031158e-02</internalNodes>
      <leafValues>
        -5.8464884757995605e-01 7.1790860965847969e-03</leafValues></_>
    <_>
      <internalNodes>
        0 -1 6333 3.7790194153785706e-02</internalNodes>
      <leafValues>
        6.5656583756208420e-03 -4.9059134721755981e-01</leafValues></_>
    <_>
      <internalNodes>
        0 -1 121441 1.5814459184184670e-03</internalNodes>
      <leafValues>
        -3.8013935089111328e-02 9.8184913396835327e-02</leafValues></_>
    <_>
      <internalNodes>
        0 -1 118281 -4.2531313374638557e-03</internalNodes>
      <leafValues>
        7.9231485724449158e-02 -4.7775767743587494e-02</leafValues></_>
    <_>
      <internalNodes>
        0 -1 81386 6.9897100329399109e-03</internalNodes>
      <leafValues>
        1.7441164702177048e-02 -2.1581211686134338e-01</leafValues></_>
    <_>
      <internalNodes>
        0 -1 40699 4.4965833425521851e-02</internalNodes>
      <leafValues>
        -9.5355808734893799e-03 4.4068768620491028e-01</leafValues></_>
    <_>
      <internalNodes>
        0 -1 98231 -3.3424588036723435e-04</internalNodes>
      <leafValues>
        9.3153029680252075e-02 -3.8944542407989502e-02</leafValues></_>
    <_>
      <internalNodes>
        0 -1 63730 5.3195911459624767e-04</internalNodes>
      <leafValues>
        4.0471799671649933e-02 -9.6993945538997650e-02</leafValues></_>
    <_>
      <internalNodes>
        0 -1 81086 6.2955558300018311e-02</internalNodes>
      <leafValues>
        -9.8659321665763855e-03 3.6986470222473145e-01</leafValues></_>
    <_>
      <internalNodes>
        0 -1 52361 -4.0740065276622772e-02</internalNodes>
      <leafValues>
        -3.8686755299568176e-01 1.0713185183703899e-02</leafValues></_>
    <_>
      <internalNodes>
        0 -1 112462 1.9112330675125122e-01</internalNodes>
      <leafValues>
        5.3440965712070465e-03 -6.4274865388870239e-01</leafValues></_>
    <_>
      <internalNodes>
        0 -1 46674 2.9343643691390753e-03</internalNodes>
      <leafValues>
        -3.9328597486019135e-02 9.7193658351898193e-02</leafValues></_>
    <_>
      <internalNodes>
        0 -1 45456 -1.5807553427293897e-03</internalNodes>
      <leafValues>
        7.2605781257152557e-02 -6.7788399755954742e-02</leafValues></_>
    <_>
      <internalNodes>
        0 -1 29867 -7.7416570857167244e-03</internalNodes>
      <leafValues>
        8.9150846004486084e-02 -4.2021661996841431e-02</leafValues></_>
    <_>
      <internalNodes>
        0 -1 35727 6.3068093731999397e-04</internalNodes>
      <leafValues>
        3.7415403872728348e-02 -9.6040606498718262e-02</leafValues></_>
    <_>
      <internalNodes>
        0 -1 8629 2.4548780173063278e-02</internalNodes>
      <leafValues>
        5.7885885238647461e-02 -6.4093761146068573e-02</leafValues></_>
    <_>
      <internalNodes>
        0 -1 36048 -3.8274973630905151e-02</internalNodes>
      <leafValues>
        1.5352545678615570e-01 -2.4139277637004852e-02</leafValues></_>
    <_>
      <internalNodes>
        0 -1 122914 4.5755285100312904e-05</internalNodes>
      <leafValues>
        -8.8542789220809937e-02 5.1546994596719742e-02</leafValues></_>
    <_>
      <internalNodes>
        0 -1 124791 3.7812915979884565e-04</internalNodes>
      <leafValues>
        3.9992418140172958e-02 -1.0084503144025803e-01</leafValues></_>
    <_>
      <internalNodes>
        0 -1 21170 -5.8454801328480244e-03</internalNodes>
      <leafValues>
        1.8636745214462280e-01 -2.0946731790900230e-02</leafValues></_>
    <_>
      <internalNodes>
        0 -1 11732 -4.1971327736973763e-03</internalNodes>
      <leafValues>
        1.5629969537258148e-01 -2.5427402928471565e-02</leafValues></_>
    <_>
      <internalNodes>
        0 -1 114766 1.9760202616453171e-02</internalNodes>
      <leafValues>
        1.1020072735846043e-02 -3.4132397174835205e-01</leafValues></_>
    <_>
      <internalNodes>
        0 -1 71282 -3.2476447522640228e-03</internalNodes>
      <leafValues>
        3.6768641322851181e-02 -1.0393590480089188e-01</leafValues></_>
    <_>
      <internalNodes>
        0 -1 51835 5.3926844149827957e-02</internalNodes>
      <leafValues>
        -6.1858547851443291e-03 6.1305421590805054e-01</leafValues></_>
    <_>
      <internalNodes>
        0 -1 122450 -2.3006042465567589e-03</internalNodes>
      <leafValues>
        1.0490629076957703e-01 -3.4327011555433273e-02</leafValues></_>
    <_>
      <internalNodes>
        0 -1 124034 1.0210186243057251e-02</internalNodes>
      <leafValues>
        1.5021154657006264e-02 -2.7608218789100647e-01</leafValues></_>
    <_>
      <internalNodes>
        0 -1 115916 2.6887073181569576e-03</internalNodes>
      <leafValues>
        -2.5180310010910034e-02 1.6144090890884399e-01</leafValues></_>
    <_>
      <internalNodes>
        0 -1 111003 1.9692443311214447e-03</internalNodes>
      <leafValues>
        -5.4600812494754791e-02 7.3001869022846222e-02</leafValues></_>
    <_>
      <internalNodes>
        0 -1 97840 3.6922954022884369e-03</internalNodes>
      <leafValues>
        2.1171808242797852e-02 -1.8369008600711823e-01</leafValues></_>
    <_>
      <internalNodes>
        0 -1 28690 -1.5088131651282310e-02</internalNodes>
      <leafValues>
        1.3347245752811432e-01 -2.7796052396297455e-02</leafValues></_>
    <_>
      <internalNodes>
        0 -1 21496 1.0726216435432434e-01</internalNodes>
      <leafValues>
        5.9852492995560169e-03 -6.3231897354125977e-01</leafValues></_>
    <_>
      <internalNodes>
        0 -1 4031 -7.0412360131740570e-02</internalNodes>
      <leafValues>
        -7.2254753112792969e-01 4.0537263266742229e-03</leafValues></_>
    <_>
      <internalNodes>
        0 -1 2019 -1.0874840617179871e-01</internalNodes>
      <leafValues>
        -5.5264520645141602e-01 5.8006378822028637e-03</leafValues></_>
    <_>
      <internalNodes>
        0 -1 124836 -1.2432147562503815e-01</internalNodes>
      <leafValues>
        -5.2789396047592163e-01 5.6274556554853916e-03</leafValues></_>
    <_>
      <internalNodes>
        0 -1 105587 8.3047797670587897e-04</internalNodes>
      <leafValues>
        -6.0161348432302475e-02 6.0546457767486572e-02</leafValues></_>
    <_>
      <internalNodes>
        0 -1 42385 -1.8712294101715088e-01</internalNodes>
      <leafValues>
        4.3626046180725098e-01 -8.0512259155511856e-03</leafValues></_>
    <_>
      <internalNodes>
        0 -1 81586 -4.3546408414840698e-02</internalNodes>
      <leafValues>
        -2.9131278395652771e-01 1.3377590104937553e-02</leafValues></_>
    <_>
      <internalNodes>
        0 -1 55685 4.1317958384752274e-03</internalNodes>
      <leafValues>
        -4.8247005790472031e-02 7.9327814280986786e-02</leafValues></_>
    <_>
      <internalNodes>
        0 -1 55723 2.0067769582965411e-05</internalNodes>
      <leafValues>
        -7.5341001152992249e-02 4.9469720572233200e-02</leafValues></_>
    <_>
      <internalNodes>
        0 -1 48136 1.0287793353199959e-02</internalNodes>
      <leafValues>
        -1.5406370162963867e-02 2.4382832646369934e-01</leafValues></_>
    <_>
      <internalNodes>
        0 -1 60262 -3.2699666917324066e-02</internalNodes>
      <leafValues>
        -5.2132660150527954e-01 7.5012966990470886e-03</leafValues></_>
    <_>
      <internalNodes>
        0 -1 60784 -8.5000006947666407e-05</internalNodes>
      <leafValues>
        -6.8118765950202942e-02 5.3912937641143799e-02</leafValues></_>
    <_>
      <internalNodes>
        0 -1 84185 4.7454671585001051e-04</internalNodes>
      <leafValues>
        -3.3316131681203842e-02 1.1282742023468018e-01</leafValues></_>
    <_>
      <internalNodes>
        0 -1 52764 -2.2350682411342859e-04</internalNodes>
      <leafValues>
        -9.6409626305103302e-02 3.8384035229682922e-02</leafValues></_>
    <_>
      <internalNodes>
        0 -1 104120 9.6727153286337852e-03</internalNodes>
      <leafValues>
        -1.2458779849112034e-02 3.0158156156539917e-01</leafValues></_>
    <_>
      <internalNodes>
        0 -1 123964 3.2011292874813080e-02</internalNodes>
      <leafValues>
        -1.3116057030856609e-02 2.6614120602607727e-01</leafValues></_>
    <_>
      <internalNodes>
        0 -1 118895 1.1362138390541077e-01</internalNodes>
      <leafValues>
        6.3389013521373272e-03 -6.6501122713088989e-01</leafValues></_>
    <_>
      <internalNodes>
        0 -1 76297 5.4493104107677937e-04</internalNodes>
      <leafValues>
        -4.2230002582073212e-02 8.6343728005886078e-02</leafValues></_>
    <_>
      <internalNodes>
        0 -1 115640 -2.6630796492099762e-03</internalNodes>
      <leafValues>
        -1.2557072937488556e-01 2.8450319543480873e-02</leafValues></_>
    <_>
      <internalNodes>
        0 -1 58313 7.0711106061935425e-02</internalNodes>
      <leafValues>
        -1.8768919631838799e-02 2.2463020682334900e-01</leafValues></_>
    <_>
      <internalNodes>
        0 -1 44583 8.2578230649232864e-03</internalNodes>
      <leafValues>
        2.3787936195731163e-02 -1.8348737061023712e-01</leafValues></_>
    <_>
      <internalNodes>
        0 -1 97952 2.1530984668061137e-04</internalNodes>
      <leafValues>
        5.2560664713382721e-02 -8.3938561379909515e-02</leafValues></_>
    <_>
      <internalNodes>
        0 -1 44415 -4.5967260375618935e-03</internalNodes>
      <leafValues>
        9.7122885286808014e-02 -4.6443585306406021e-02</leafValues></_>
    <_>
      <internalNodes>
        0 -1 123410 1.1147721670567989e-03</internalNodes>
      <leafValues>
        -4.0811136364936829e-02 9.0619042515754700e-02</leafValues></_>
    <_>
      <internalNodes>
        0 -1 124590 1.2268694117665291e-03</internalNodes>
      <leafValues>
        -4.5098472386598587e-02 8.7695628404617310e-02</leafValues></_>
    <_>
      <internalNodes>
        0 -1 84057 -5.5787165183573961e-04</internalNodes>
      <leafValues>
        7.2977416217327118e-02 -4.9381073564291000e-02</leafValues></_>
    <_>
      <internalNodes>
        0 -1 90331 -3.3287159167230129e-03</internalNodes>
      <leafValues>
        -1.0236109048128128e-01 3.8331512361764908e-02</leafValues></_>
    <_>
      <internalNodes>
        0 -1 83188 -5.6007789680734277e-04</internalNodes>
      <leafValues>
        9.4198890030384064e-02 -3.9201807230710983e-02</leafValues></_>
    <_>
      <internalNodes>
        0 -1 18031 5.0151854753494263e-02</internalNodes>
      <leafValues>
        4.4391518458724022e-03 -9.2550748586654663e-01</leafValues></_>
    <_>
      <internalNodes>
        0 -1 122153 -2.1782651543617249e-02</internalNodes>
      <leafValues>
        -3.7860921025276184e-01 7.8974617645144463e-03</leafValues></_>
    <_>
      <internalNodes>
        0 -1 101157 4.5817048521712422e-04</internalNodes>
      <leafValues>
        6.6068358719348907e-02 -5.3936630487442017e-02</leafValues></_>
    <_>
      <internalNodes>
        0 -1 110870 -4.6165172534529120e-05</internalNodes>
      <leafValues>
        7.8640855848789215e-02 -5.0414815545082092e-02</leafValues></_>
    <_>
      <internalNodes>
        0 -1 86238 -2.5700146215967834e-04</internalNodes>
      <leafValues>
        -1.2595839798450470e-01 3.1064679846167564e-02</leafValues></_>
    <_>
      <internalNodes>
        0 -1 123797 7.7753782272338867e-02</internalNodes>
      <leafValues>
        -2.1462770178914070e-02 1.7480489611625671e-01</leafValues></_>
    <_>
      <internalNodes>
        0 -1 95381 -1.3965675234794617e-01</internalNodes>
      <leafValues>
        -3.4862378239631653e-01 1.2417918071150780e-02</leafValues></_>
    <_>
      <internalNodes>
        0 -1 118254 2.1038744598627090e-02</internalNodes>
      <leafValues>
        9.1835875064134598e-03 -3.6696580052375793e-01</leafValues></_>
    <_>
      <internalNodes>
        0 -1 30206 -1.1371490359306335e-01</internalNodes>
      <leafValues>
        -4.9647238850593567e-01 7.0088747888803482e-03</leafValues></_>
    <_>
      <internalNodes>
        0 -1 118469 -4.7282062470912933e-02</internalNodes>
      <leafValues>
        -6.4322978258132935e-01 5.3975097835063934e-03</leafValues></_>
    <_>
      <internalNodes>
        0 -1 850 -1.0073464363813400e-02</internalNodes>
      <leafValues>
        6.2219496816396713e-02 -5.5838733911514282e-02</leafValues></_>
    <_>
      <internalNodes>
        0 -1 64166 3.4732506610453129e-03</internalNodes>
      <leafValues>
        -3.1402625143527985e-02 1.2265563756227493e-01</leafValues></_>
    <_>
      <internalNodes>
        0 -1 72358 -5.2533716370817274e-05</internalNodes>
      <leafValues>
        8.9796505868434906e-02 -4.7040056437253952e-02</leafValues></_>
    <_>
      <internalNodes>
        0 -1 72775 -2.8425124473869801e-03</internalNodes>
      <leafValues>
        5.9723917394876480e-02 -6.1615362763404846e-02</leafValues></_>
    <_>
      <internalNodes>
        0 -1 64308 -9.3444451689720154e-02</internalNodes>
      <leafValues>
        -2.6657128334045410e-01 1.4809437096118927e-02</leafValues></_>
    <_>
      <internalNodes>
        0 -1 38161 7.7487803064286709e-03</internalNodes>
      <leafValues>
        -2.5426868349313736e-02 1.5005229413509369e-01</leafValues></_>
    <_>
      <internalNodes>
        0 -1 29989 1.4117091894149780e-02</internalNodes>
      <leafValues>
        1.4945108443498611e-02 -2.6543539762496948e-01</leafValues></_>
    <_>
      <internalNodes>
        0 -1 17506 -1.3881454244256020e-02</internalNodes>
      <leafValues>
        -4.9877122044563293e-01 6.7382054403424263e-03</leafValues></_>
    <_>
      <internalNodes>
        0 -1 18605 2.4541928432881832e-03</internalNodes>
      <leafValues>
        -4.0015935897827148e-02 9.1708943247795105e-02</leafValues></_>
    <_>
      <internalNodes>
        0 -1 9217 -2.2934740409255028e-03</internalNodes>
      <leafValues>
        7.9947195947170258e-02 -5.1454130560159683e-02</leafValues></_>
    <_>
      <internalNodes>
        0 -1 93030 1.7016814672388136e-04</internalNodes>
      <leafValues>
        3.8330189883708954e-02 -9.7689032554626465e-02</leafValues></_>
    <_>
      <internalNodes>
        0 -1 2002 2.1561991423368454e-02</internalNodes>
      <leafValues>
        -2.6865277439355850e-02 1.4273595809936523e-01</leafValues></_>
    <_>
      <internalNodes>
        0 -1 25550 3.1420779414474964e-03</internalNodes>
      <leafValues>
        7.1040540933609009e-02 -7.1158193051815033e-02</leafValues></_>
    <_>
      <internalNodes>
        0 -1 3024 -4.2867623269557953e-03</internalNodes>
      <leafValues>
        3.8785953074693680e-02 -1.1570360511541367e-01</leafValues></_>
    <_>
      <internalNodes>
        0 -1 22891 -3.3643178641796112e-02</internalNodes>
      <leafValues>
        -6.7512089014053345e-01 4.9512730911374092e-03</leafValues></_>
    <_>
      <internalNodes>
        0 -1 48020 -6.2857702141627669e-04</internalNodes>
      <leafValues>
        -8.8440321385860443e-02 4.1364502161741257e-02</leafValues></_>
    <_>
      <internalNodes>
        0 -1 14770 -3.5218684934079647e-03</internalNodes>
      <leafValues>
        1.1464289575815201e-01 -3.1562719494104385e-02</leafValues></_>
    <_>
      <internalNodes>
        0 -1 47339 4.4855546206235886e-02</internalNodes>
      <leafValues>
        8.6762374266982079e-03 -4.1539022326469421e-01</leafValues></_>
    <_>
      <internalNodes>
        0 -1 11144 2.1596487611532211e-02</internalNodes>
      <leafValues>
        -2.6678960770368576e-02 1.5610909461975098e-01</leafValues></_>
    <_>
      <internalNodes>
        0 -1 93593 -9.8244415130466223e-04</internalNodes>
      <leafValues>
        -1.5146718919277191e-01 2.6236820966005325e-02</leafValues></_>
    <_>
      <internalNodes>
        0 -1 85114 6.3837197376415133e-04</internalNodes>
      <leafValues>
        -5.0390962511301041e-02 7.7694781124591827e-02</leafValues></_>
    <_>
      <internalNodes>
        0 -1 113700 3.5909332800656557e-03</internalNodes>
      <leafValues>
        2.4322245270013809e-02 -1.5972855687141418e-01</leafValues></_>
    <_>
      <internalNodes>
        0 -1 68568 -1.2547168880701065e-02</internalNodes>
      <leafValues>
        1.0955084115266800e-01 -3.5111129283905029e-02</leafValues></_>
    <_>
      <internalNodes>
        0 -1 70651 3.1218251679092646e-03</internalNodes>
      <leafValues>
        2.1553803235292435e-02 -1.8164688348770142e-01</leafValues></_>
    <_>
      <internalNodes>
        0 -1 92379 -2.9007387347519398e-03</internalNodes>
      <leafValues>
        -5.1097016781568527e-02 8.1568248569965363e-02</leafValues></_>
    <_>
      <internalNodes>
        0 -1 64030 -1.9367975182831287e-03</internalNodes>
      <leafValues>
        9.1803699731826782e-02 -4.2397197335958481e-02</leafValues></_>
    <_>
      <internalNodes>
        0 -1 55768 -2.3579397238790989e-03</internalNodes>
      <leafValues>
        1.0159461200237274e-01 -3.7740562111139297e-02</leafValues></_>
    <_>
      <internalNodes>
        0 -1 89007 -2.5310006458312273e-04</internalNodes>
      <leafValues>
        -5.9183645993471146e-02 6.3326902687549591e-02</leafValues></_>
    <_>
      <internalNodes>
        0 -1 85045 2.1821449627168477e-04</internalNodes>
      <leafValues>
        -3.7334620952606201e-02 1.0398302227258682e-01</leafValues></_>
    <_>
      <internalNodes>
        0 -1 84291 -2.9905510600656271e-03</internalNodes>
      <leafValues>
        7.6425060629844666e-02 -5.2813895046710968e-02</leafValues></_>
    <_>
      <internalNodes>
        0 -1 89504 -5.5284254252910614e-02</internalNodes>
      <leafValues>
        -4.0102407336235046e-01 1.0303013026714325e-02</leafValues></_></weakClassifiers></stage11>
</opencv_storage>
