<?xml version="1.0"?>
<opencv_storage>
<stage21>
  <maxWeakCount>478</maxWeakCount>
  <stageThreshold>-1.0827450752258301e+00</stageThreshold>
  <weakClassifiers>
    <_>
      <internalNodes>
        0 -1 13073 -2.8319355100393295e-02</internalNodes>
      <leafValues>
        8.5424251854419708e-02 -1.6859243810176849e-01</leafValues></_>
    <_>
      <internalNodes>
        0 -1 47919 -1.5913414955139160e-01</internalNodes>
      <leafValues>
        -2.1243309974670410e-01 4.3999806046485901e-02</leafValues></_>
    <_>
      <internalNodes>
        0 -1 91953 1.7506006406620145e-04</internalNodes>
      <leafValues>
        -6.7600943148136139e-02 1.3221117854118347e-01</leafValues></_>
    <_>
      <internalNodes>
        0 -1 23257 -2.6957449316978455e-01</internalNodes>
      <leafValues>
        -2.2692133486270905e-01 2.4524111300706863e-02</leafValues></_>
    <_>
      <internalNodes>
        0 -1 53781 2.8147219563834369e-04</internalNodes>
      <leafValues>
        -5.8645416051149368e-02 1.2547309696674347e-01</leafValues></_>
    <_>
      <internalNodes>
        0 -1 99538 1.9086990505456924e-02</internalNodes>
      <leafValues>
        -6.7525580525398254e-02 1.0747719556093216e-01</leafValues></_>
    <_>
      <internalNodes>
        0 -1 96923 1.1444697529077530e-01</internalNodes>
      <leafValues>
        2.6283781975507736e-02 -2.4821628630161285e-01</leafValues></_>
    <_>
      <internalNodes>
        0 -1 35508 -1.0272316634654999e-02</internalNodes>
      <leafValues>
        6.3477650284767151e-02 -9.2300653457641602e-02</leafValues></_>
    <_>
      <internalNodes>
        0 -1 24967 -4.5031841727904975e-04</internalNodes>
      <leafValues>
        9.8493896424770355e-02 -5.7281445711851120e-02</leafValues></_>
    <_>
      <internalNodes>
        0 -1 400 -1.1404380947351456e-01</internalNodes>
      <leafValues>
        1.9592940807342529e-01 -2.5900244712829590e-02</leafValues></_>
    <_>
      <internalNodes>
        0 -1 115589 4.1525805136188865e-04</internalNodes>
      <leafValues>
        4.1696883738040924e-02 -1.1013453453779221e-01</leafValues></_>
    <_>
      <internalNodes>
        0 -1 63043 2.4389745667576790e-02</internalNodes>
      <leafValues>
        1.0054026497527957e-03 3.1242406368255615e-01</leafValues></_>
    <_>
      <internalNodes>
        0 -1 28384 3.3611003309488297e-03</internalNodes>
      <leafValues>
        -9.8935991525650024e-02 5.9876609593629837e-02</leafValues></_>
    <_>
      <internalNodes>
        0 -1 78245 -4.8410748131573200e-03</internalNodes>
      <leafValues>
        -4.1034552454948425e-01 1.6075726598501205e-02</leafValues></_>
    <_>
      <internalNodes>
        0 -1 53501 1.1709297541528940e-03</internalNodes>
      <leafValues>
        -6.8686649203300476e-02 7.9026110470294952e-02</leafValues></_>
    <_>
      <internalNodes>
        0 -1 78233 -2.6804482331499457e-04</internalNodes>
      <leafValues>
        1.4804570376873016e-01 -3.7413835525512695e-02</leafValues></_>
    <_>
      <internalNodes>
        0 -1 25626 -5.7245219068136066e-05</internalNodes>
      <leafValues>
        4.8190008848905563e-02 -1.0305346548557281e-01</leafValues></_>
    <_>
      <internalNodes>
        0 -1 19275 9.8138523753732443e-04</internalNodes>
      <leafValues>
        4.6187087893486023e-02 -1.1315613985061646e-01</leafValues></_>
    <_>
      <internalNodes>
        0 -1 89269 4.7676034271717072e-02</internalNodes>
      <leafValues>
        5.8336900547146797e-03 -6.1778080463409424e-01</leafValues></_>
    <_>
      <internalNodes>
        0 -1 74033 -1.5265356004238129e-01</internalNodes>
      <leafValues>
        8.4865942597389221e-02 -6.0351509600877762e-02</leafValues></_>
    <_>
      <internalNodes>
        0 -1 100562 -1.6903572250157595e-03</internalNodes>
      <leafValues>
        1.1749430745840073e-01 -4.6112500131130219e-02</leafValues></_>
    <_>
      <internalNodes>
        0 -1 83811 -5.7385200634598732e-03</internalNodes>
      <leafValues>
        -2.4467515945434570e-01 2.7687456458806992e-02</leafValues></_>
    <_>
      <internalNodes>
        0 -1 16272 2.0925831049680710e-02</internalNodes>
      <leafValues>
        -2.5631694123148918e-02 2.5091746449470520e-01</leafValues></_>
    <_>
      <internalNodes>
        0 -1 63787 -2.7152474503964186e-03</internalNodes>
      <leafValues>
        5.8697998523712158e-02 -9.8101213574409485e-02</leafValues></_>
    <_>
      <internalNodes>
        0 -1 90026 4.4427653774619102e-03</internalNodes>
      <leafValues>
        1.8172536045312881e-02 -2.2064147889614105e-01</leafValues></_>
    <_>
      <internalNodes>
        0 -1 88967 -7.8633530065417290e-03</internalNodes>
      <leafValues>
        1.0141194611787796e-01 -4.3007101863622665e-02</leafValues></_>
    <_>
      <internalNodes>
        0 -1 19270 -5.6133302859961987e-04</internalNodes>
      <leafValues>
        -9.8932668566703796e-02 4.9541264772415161e-02</leafValues></_>
    <_>
      <internalNodes>
        0 -1 96518 -2.5790114887058735e-04</internalNodes>
      <leafValues>
        -1.1106689274311066e-01 4.3246809393167496e-02</leafValues></_>
    <_>
      <internalNodes>
        0 -1 51217 -1.1051875771954656e-03</internalNodes>
      <leafValues>
        7.7393196523189545e-02 -6.0006614774465561e-02</leafValues></_>
    <_>
      <internalNodes>
        0 -1 82595 3.0753260944038630e-04</internalNodes>
      <leafValues>
        -4.4951967895030975e-02 9.7874172031879425e-02</leafValues></_>
    <_>
      <internalNodes>
        0 -1 78933 1.6010017134249210e-03</internalNodes>
      <leafValues>
        2.4920813739299774e-02 -1.5610383450984955e-01</leafValues></_>
    <_>
      <internalNodes>
        0 -1 63044 2.0167976617813110e-03</internalNodes>
      <leafValues>
        -3.6593541502952576e-02 1.2466790527105331e-01</leafValues></_>
    <_>
      <internalNodes>
        0 -1 104467 -2.3816027678549290e-03</internalNodes>
      <leafValues>
        -9.8411016166210175e-02 4.4899687170982361e-02</leafValues></_>
    <_>
      <internalNodes>
        0 -1 61805 8.4345758659765124e-04</internalNodes>
      <leafValues>
        3.4773811697959900e-02 -1.5596599876880646e-01</leafValues></_>
    <_>
      <internalNodes>
        0 -1 91211 3.2804140937514603e-04</internalNodes>
      <leafValues>
        -4.3926596641540527e-02 1.0518604516983032e-01</leafValues></_>
    <_>
      <internalNodes>
        0 -1 111 -4.4164568185806274e-02</internalNodes>
      <leafValues>
        -6.4927357435226440e-01 7.9891635105013847e-03</leafValues></_>
    <_>
      <internalNodes>
        0 -1 19161 -4.0776031091809273e-03</internalNodes>
      <leafValues>
        1.3833926618099213e-01 -3.1465157866477966e-02</leafValues></_>
    <_>
      <internalNodes>
        0 -1 1118 -1.2826696038246155e-02</internalNodes>
      <leafValues>
        5.4633390158414841e-02 -7.8492470085620880e-02</leafValues></_>
    <_>
      <internalNodes>
        0 -1 11730 -1.0050457203760743e-03</internalNodes>
      <leafValues>
        -1.0744868218898773e-01 4.0669914335012436e-02</leafValues></_>
    <_>
      <internalNodes>
        0 -1 21482 6.6451616585254669e-02</internalNodes>
      <leafValues>
        1.3170413672924042e-02 -4.6502029895782471e-01</leafValues></_>
    <_>
      <internalNodes>
        0 -1 121371 -2.3642454296350479e-02</internalNodes>
      <leafValues>
        -5.6996309757232666e-01 5.2653686143457890e-03</leafValues></_>
    <_>
      <internalNodes>
        0 -1 123465 3.1384550966322422e-03</internalNodes>
      <leafValues>
        -2.7441684156656265e-02 1.5342383086681366e-01</leafValues></_>
    <_>
      <internalNodes>
        0 -1 28701 -2.6679981965571642e-03</internalNodes>
      <leafValues>
        1.1484884470701218e-01 -3.6098178476095200e-02</leafValues></_>
    <_>
      <internalNodes>
        0 -1 9547 -1.2525073252618313e-03</internalNodes>
      <leafValues>
        -1.3280619680881500e-01 2.8976280242204666e-02</leafValues></_>
    <_>
      <internalNodes>
        0 -1 9735 -4.2709812521934509e-02</internalNodes>
      <leafValues>
        2.4183592200279236e-01 -1.7357591539621353e-02</leafValues></_>
    <_>
      <internalNodes>
        0 -1 74536 -6.6873179748654366e-03</internalNodes>
      <leafValues>
        3.7899766117334366e-02 -1.1212424933910370e-01</leafValues></_>
    <_>
      <internalNodes>
        0 -1 84878 3.2486997544765472e-02</internalNodes>
      <leafValues>
        -9.7014931961894035e-03 4.0134420990943909e-01</leafValues></_>
    <_>
      <internalNodes>
        0 -1 124819 4.5501645654439926e-03</internalNodes>
      <leafValues>
        -1.2269475311040878e-01 3.6790590733289719e-02</leafValues></_>
    <_>
      <internalNodes>
        0 -1 118367 4.8123335000127554e-04</internalNodes>
      <leafValues>
        4.5446895062923431e-02 -1.0231685638427734e-01</leafValues></_>
    <_>
      <internalNodes>
        0 -1 118367 -9.7043532878160477e-04</internalNodes>
      <leafValues>
        -1.4024558663368225e-01 3.2419435679912567e-02</leafValues></_>
    <_>
      <internalNodes>
        0 -1 29128 -4.7754296101629734e-03</internalNodes>
      <leafValues>
        8.5098810493946075e-02 -5.0765488296747208e-02</leafValues></_>
    <_>
      <internalNodes>
        0 -1 38657 -1.0563833639025688e-02</internalNodes>
      <leafValues>
        1.1165104806423187e-01 -4.1847243905067444e-02</leafValues></_>
    <_>
      <internalNodes>
        0 -1 123465 -2.5683329440653324e-03</internalNodes>
      <leafValues>
        1.3626620173454285e-01 -3.2798469066619873e-02</leafValues></_>
    <_>
      <internalNodes>
        0 -1 24916 8.3936331793665886e-03</internalNodes>
      <leafValues>
        -1.7261706292629242e-02 2.2036018967628479e-01</leafValues></_>
    <_>
      <internalNodes>
        0 -1 4585 -5.6482227519154549e-03</internalNodes>
      <leafValues>
        7.3197908699512482e-02 -5.7030942291021347e-02</leafValues></_>
    <_>
      <internalNodes>
        0 -1 14754 -3.8581530679948628e-04</internalNodes>
      <leafValues>
        -9.0066745877265930e-02 4.6372406184673309e-02</leafValues></_>
    <_>
      <internalNodes>
        0 -1 5079 -3.3600213937461376e-03</internalNodes>
      <leafValues>
        1.7510198056697845e-01 -2.3656185716390610e-02</leafValues></_>
    <_>
      <internalNodes>
        0 -1 91461 -3.0245403759181499e-03</internalNodes>
      <leafValues>
        -3.8300713896751404e-01 9.8855746909976006e-03</leafValues></_>
    <_>
      <internalNodes>
        0 -1 64941 6.7297123372554779e-02</internalNodes>
      <leafValues>
        -1.8658250570297241e-02 2.1628202497959137e-01</leafValues></_>
    <_>
      <internalNodes>
        0 -1 37980 1.1042646132409573e-02</internalNodes>
      <leafValues>
        -6.6041156649589539e-02 6.2791913747787476e-02</leafValues></_>
    <_>
      <internalNodes>
        0 -1 19481 7.9488065093755722e-03</internalNodes>
      <leafValues>
        -3.6183767020702362e-02 1.2821339070796967e-01</leafValues></_>
    <_>
      <internalNodes>
        0 -1 38084 -1.5935219824314117e-02</internalNodes>
      <leafValues>
        5.4051160812377930e-02 -9.2582374811172485e-02</leafValues></_>
    <_>
      <internalNodes>
        0 -1 98531 4.9602855142438784e-05</internalNodes>
      <leafValues>
        -5.2472621202468872e-02 7.7799849212169647e-02</leafValues></_>
    <_>
      <internalNodes>
        0 -1 39711 -1.3529502029996365e-04</internalNodes>
      <leafValues>
        -6.0440640896558762e-02 6.7811645567417145e-02</leafValues></_>
    <_>
      <internalNodes>
        0 -1 105210 7.0630200207233429e-03</internalNodes>
      <leafValues>
        -8.9687816798686981e-03 4.4268286228179932e-01</leafValues></_>
    <_>
      <internalNodes>
        0 -1 112893 -2.5317834224551916e-03</internalNodes>
      <leafValues>
        6.4413100481033325e-02 -6.1294484883546829e-02</leafValues></_>
    <_>
      <internalNodes>
        0 -1 118995 -4.6419869177043438e-03</internalNodes>
      <leafValues>
        1.5645833313465118e-01 -2.6778850704431534e-02</leafValues></_>
    <_>
      <internalNodes>
        0 -1 119461 -3.3707331749610603e-04</internalNodes>
      <leafValues>
        3.2049737870693207e-02 -1.2337422370910645e-01</leafValues></_>
    <_>
      <internalNodes>
        0 -1 106055 -4.0602911030873656e-04</internalNodes>
      <leafValues>
        1.4930573105812073e-01 -3.4746032208204269e-02</leafValues></_>
    <_>
      <internalNodes>
        0 -1 93085 -5.6043313816189766e-03</internalNodes>
      <leafValues>
        3.1167137622833252e-01 -1.1615967378020287e-02</leafValues></_>
    <_>
      <internalNodes>
        0 -1 86033 1.7763252835720778e-03</internalNodes>
      <leafValues>
        2.6119384914636612e-02 -1.6306404769420624e-01</leafValues></_>
    <_>
      <internalNodes>
        0 -1 85450 7.5830554123967886e-04</internalNodes>
      <leafValues>
        -4.1089031845331192e-02 9.7243040800094604e-02</leafValues></_>
    <_>
      <internalNodes>
        0 -1 86112 7.0339050143957138e-03</internalNodes>
      <leafValues>
        2.7666082605719566e-02 -1.4119736850261688e-01</leafValues></_>
    <_>
      <internalNodes>
        0 -1 71327 4.5080795884132385e-02</internalNodes>
      <leafValues>
        6.2362980097532272e-03 -5.8293795585632324e-01</leafValues></_>
    <_>
      <internalNodes>
        0 -1 53178 8.8281378149986267e-02</internalNodes>
      <leafValues>
        -8.9400485157966614e-03 5.5829071998596191e-01</leafValues></_>
    <_>
      <internalNodes>
        0 -1 88520 5.8940462768077850e-03</internalNodes>
      <leafValues>
        2.6250286027789116e-02 -1.5182749927043915e-01</leafValues></_>
    <_>
      <internalNodes>
        0 -1 84175 -5.1115101086907089e-05</internalNodes>
      <leafValues>
        7.8214310109615326e-02 -5.1544286310672760e-02</leafValues></_>
    <_>
      <internalNodes>
        0 -1 31428 7.0361152756959200e-04</internalNodes>
      <leafValues>
        2.9521347954869270e-02 -1.2949733436107635e-01</leafValues></_>
    <_>
      <internalNodes>
        0 -1 31483 4.8862602852750570e-05</internalNodes>
      <leafValues>
        -4.8292811959981918e-02 1.0284318029880524e-01</leafValues></_>
    <_>
      <internalNodes>
        0 -1 76965 -8.6238440126180649e-03</internalNodes>
      <leafValues>
        4.9849919974803925e-02 -7.8162975609302521e-02</leafValues></_>
    <_>
      <internalNodes>
        0 -1 65811 1.8841609125956893e-03</internalNodes>
      <leafValues>
        -3.5276763141155243e-02 1.1138264089822769e-01</leafValues></_>
    <_>
      <internalNodes>
        0 -1 88379 1.0290461068507284e-04</internalNodes>
      <leafValues>
        4.9508024007081985e-02 -9.5510683953762054e-02</leafValues></_>
    <_>
      <internalNodes>
        0 -1 96828 5.4748979164287448e-04</internalNodes>
      <leafValues>
        -4.8859920352697372e-02 8.3931118249893188e-02</leafValues></_>
    <_>
      <internalNodes>
        0 -1 18782 9.1060809791088104e-03</internalNodes>
      <leafValues>
        -8.0802710726857185e-03 5.2694106101989746e-01</leafValues></_>
    <_>
      <internalNodes>
        0 -1 10401 -2.2823405265808105e-01</internalNodes>
      <leafValues>
        1.9941878318786621e-01 -1.8774205818772316e-02</leafValues></_>
    <_>
      <internalNodes>
        0 -1 1326 9.0569801628589630e-02</internalNodes>
      <leafValues>
        -1.6420101746916771e-02 2.6568999886512756e-01</leafValues></_>
    <_>
      <internalNodes>
        0 -1 16063 6.1715785413980484e-03</internalNodes>
      <leafValues>
        2.8474494814872742e-02 -1.4643910527229309e-01</leafValues></_>
    <_>
      <internalNodes>
        0 -1 61030 3.7266455590724945e-02</internalNodes>
      <leafValues>
        -3.0207663774490356e-02 1.6025035083293915e-01</leafValues></_>
    <_>
      <internalNodes>
        0 -1 98052 -9.6941795200109482e-03</internalNodes>
      <leafValues>
        -1.8190082907676697e-01 2.9075531288981438e-02</leafValues></_>
    <_>
      <internalNodes>
        0 -1 113136 3.9643659256398678e-03</internalNodes>
      <leafValues>
        -1.2595815584063530e-02 3.5609170794487000e-01</leafValues></_>
    <_>
      <internalNodes>
        0 -1 113137 2.5622767861932516e-03</internalNodes>
      <leafValues>
        2.7735831215977669e-02 -1.5586273372173309e-01</leafValues></_>
    <_>
      <internalNodes>
        0 -1 59231 7.1529760956764221e-02</internalNodes>
      <leafValues>
        -1.6943538561463356e-02 2.4897605180740356e-01</leafValues></_>
    <_>
      <internalNodes>
        0 -1 105149 -1.5568921808153391e-03</internalNodes>
      <leafValues>
        3.8058049976825714e-02 -1.1083872616291046e-01</leafValues></_>
    <_>
      <internalNodes>
        0 -1 123232 -1.7117912648245692e-04</internalNodes>
      <leafValues>
        -4.5343637466430664e-02 1.0129148513078690e-01</leafValues></_>
    <_>
      <internalNodes>
        0 -1 120947 1.8079979345202446e-03</internalNodes>
      <leafValues>
        -4.7308612614870071e-02 8.1643320620059967e-02</leafValues></_>
    <_>
      <internalNodes>
        0 -1 28275 -2.8166570700705051e-03</internalNodes>
      <leafValues>
        7.7147848904132843e-02 -5.2843764424324036e-02</leafValues></_>
    <_>
      <internalNodes>
        0 -1 18679 3.1212484464049339e-03</internalNodes>
      <leafValues>
        -4.3228924274444580e-02 1.1468636989593506e-01</leafValues></_>
    <_>
      <internalNodes>
        0 -1 122285 2.6894155889749527e-03</internalNodes>
      <leafValues>
        -3.5355042666196823e-02 1.1269908398389816e-01</leafValues></_>
    <_>
      <internalNodes>
        0 -1 122285 -1.1655829148367047e-03</internalNodes>
      <leafValues>
        9.9461749196052551e-02 -5.0814535468816757e-02</leafValues></_>
    <_>
      <internalNodes>
        0 -1 86157 -5.7103037834167480e-03</internalNodes>
      <leafValues>
        -1.5947717428207397e-01 2.3086028173565865e-02</leafValues></_>
    <_>
      <internalNodes>
        0 -1 118779 -3.0620340257883072e-02</internalNodes>
      <leafValues>
        -2.6393622159957886e-01 1.5040775761008263e-02</leafValues></_>
    <_>
      <internalNodes>
        0 -1 99640 -1.9495410844683647e-02</internalNodes>
      <leafValues>
        -2.3004837334156036e-01 1.5131624415516853e-02</leafValues></_>
    <_>
      <internalNodes>
        0 -1 9335 1.2088182847946882e-04</internalNodes>
      <leafValues>
        4.5312944799661636e-02 -8.5579089820384979e-02</leafValues></_>
    <_>
      <internalNodes>
        0 -1 116209 -1.7671713067102246e-05</internalNodes>
      <leafValues>
        8.6255513131618500e-02 -4.7024983912706375e-02</leafValues></_>
    <_>
      <internalNodes>
        0 -1 122120 1.9111283472739160e-04</internalNodes>
      <leafValues>
        4.3224226683378220e-02 -8.4494873881340027e-02</leafValues></_>
    <_>
      <internalNodes>
        0 -1 116762 -6.2431078404188156e-03</internalNodes>
      <leafValues>
        3.8730508089065552e-01 -1.1256074532866478e-02</leafValues></_>
    <_>
      <internalNodes>
        0 -1 63015 -3.1703058630228043e-04</internalNodes>
      <leafValues>
        -8.7310180068016052e-02 4.1725065559148788e-02</leafValues></_>
    <_>
      <internalNodes>
        0 -1 91019 2.8329389169812202e-04</internalNodes>
      <leafValues>
        -3.6874614655971527e-02 1.0759989172220230e-01</leafValues></_>
    <_>
      <internalNodes>
        0 -1 66555 -5.1582526793936267e-05</internalNodes>
      <leafValues>
        4.1455566883087158e-02 -9.0685673058032990e-02</leafValues></_>
    <_>
      <internalNodes>
        0 -1 83161 -3.6044942680746317e-04</internalNodes>
      <leafValues>
        -7.1924380958080292e-02 5.4793447256088257e-02</leafValues></_>
    <_>
      <internalNodes>
        0 -1 83708 -4.0087674278765917e-04</internalNodes>
      <leafValues>
        1.1062578856945038e-01 -4.3533522635698318e-02</leafValues></_>
    <_>
      <internalNodes>
        0 -1 60782 -1.2469134526327252e-03</internalNodes>
      <leafValues>
        -1.2382279336452484e-01 3.0612770467996597e-02</leafValues></_>
    <_>
      <internalNodes>
        0 -1 675 8.1926785409450531e-02</internalNodes>
      <leafValues>
        -6.3741374760866165e-03 5.5422025918960571e-01</leafValues></_>
    <_>
      <internalNodes>
        0 -1 121694 -1.1894487775862217e-02</internalNodes>
      <leafValues>
        9.4662584364414215e-02 -3.7841249257326126e-02</leafValues></_>
    <_>
      <internalNodes>
        0 -1 111124 -7.5642228126525879e-02</internalNodes>
      <leafValues>
        -6.4752650260925293e-01 6.2318667769432068e-03</leafValues></_>
    <_>
      <internalNodes>
        0 -1 11639 9.3956090509891510e-02</internalNodes>
      <leafValues>
        8.0939754843711853e-03 -3.9687263965606689e-01</leafValues></_>
    <_>
      <internalNodes>
        0 -1 7959 1.4796722680330276e-02</internalNodes>
      <leafValues>
        -1.5340687707066536e-02 2.3068954050540924e-01</leafValues></_>
    <_>
      <internalNodes>
        0 -1 28926 -5.3479224443435669e-02</internalNodes>
      <leafValues>
        -4.9049007892608643e-01 7.9565877094864845e-03</leafValues></_>
    <_>
      <internalNodes>
        0 -1 37418 7.5589930638670921e-03</internalNodes>
      <leafValues>
        1.9564332440495491e-02 -1.8833376467227936e-01</leafValues></_>
    <_>
      <internalNodes>
        0 -1 121733 8.6032249964773655e-04</internalNodes>
      <leafValues>
        3.6342676728963852e-02 -9.1675259172916412e-02</leafValues></_>
    <_>
      <internalNodes>
        0 -1 71027 9.8395161330699921e-03</internalNodes>
      <leafValues>
        -8.0386456102132797e-03 4.5664259791374207e-01</leafValues></_>
    <_>
      <internalNodes>
        0 -1 84044 -1.0295017063617706e-01</internalNodes>
      <leafValues>
        -3.5896009206771851e-01 9.7470320761203766e-03</leafValues></_>
    <_>
      <internalNodes>
        0 -1 103942 -4.1863187216222286e-03</internalNodes>
      <leafValues>
        -1.4070227742195129e-01 2.4683168157935143e-02</leafValues></_>
    <_>
      <internalNodes>
        0 -1 108994 1.4802347868680954e-03</internalNodes>
      <leafValues>
        8.5732303559780121e-02 -4.9412950873374939e-02</leafValues></_>
    <_>
      <internalNodes>
        0 -1 123088 -9.4121061265468597e-03</internalNodes>
      <leafValues>
        1.3180427253246307e-01 -4.1289266198873520e-02</leafValues></_>
    <_>
      <internalNodes>
        0 -1 107361 -1.5638737380504608e-01</internalNodes>
      <leafValues>
        2.0187301933765411e-01 -1.8269406631588936e-02</leafValues></_>
    <_>
      <internalNodes>
        0 -1 105994 -1.4622037112712860e-01</internalNodes>
      <leafValues>
        -4.5913606882095337e-01 8.5282456129789352e-03</leafValues></_>
    <_>
      <internalNodes>
        0 -1 78604 -3.9147962525021285e-05</internalNodes>
      <leafValues>
        7.9944960772991180e-02 -4.6029508113861084e-02</leafValues></_>
    <_>
      <internalNodes>
        0 -1 1970 4.6166181564331055e-03</internalNodes>
      <leafValues>
        2.0264320075511932e-02 -1.7822195589542389e-01</leafValues></_>
    <_>
      <internalNodes>
        0 -1 77833 6.2468587420880795e-03</internalNodes>
      <leafValues>
        1.1821069754660130e-02 -2.9763972759246826e-01</leafValues></_>
    <_>
      <internalNodes>
        0 -1 91023 -4.2671882547438145e-03</internalNodes>
      <leafValues>
        1.7282646894454956e-01 -2.3433146998286247e-02</leafValues></_>
    <_>
      <internalNodes>
        0 -1 39951 -6.5027168020606041e-03</internalNodes>
      <leafValues>
        3.7789333611726761e-02 -9.8174698650836945e-02</leafValues></_>
    <_>
      <internalNodes>
        0 -1 47101 1.0497968178242445e-03</internalNodes>
      <leafValues>
        -4.4581655412912369e-02 8.8657297194004059e-02</leafValues></_>
    <_>
      <internalNodes>
        0 -1 4360 -6.9759925827383995e-03</internalNodes>
      <leafValues>
        1.6597823798656464e-01 -2.4521881714463234e-02</leafValues></_>
    <_>
      <internalNodes>
        0 -1 4360 3.5580366966314614e-04</internalNodes>
      <leafValues>
        -5.2862361073493958e-02 9.0199366211891174e-02</leafValues></_>
    <_>
      <internalNodes>
        0 -1 14985 -4.5600668527185917e-03</internalNodes>
      <leafValues>
        -4.0208891034126282e-02 9.4234317541122437e-02</leafValues></_>
    <_>
      <internalNodes>
        0 -1 103184 -5.1103662699460983e-03</internalNodes>
      <leafValues>
        -1.9586144387722015e-01 2.2471519187092781e-02</leafValues></_>
    <_>
      <internalNodes>
        0 -1 47102 1.4570195227861404e-02</internalNodes>
      <leafValues>
        1.0874085128307343e-02 -3.4322828054428101e-01</leafValues></_>
    <_>
      <internalNodes>
        0 -1 55751 3.1150658614933491e-03</internalNodes>
      <leafValues>
        -2.8860453516244888e-02 1.6056710481643677e-01</leafValues></_>
    <_>
      <internalNodes>
        0 -1 53100 -1.5391720226034522e-03</internalNodes>
      <leafValues>
        9.8341539502143860e-02 -3.6498282104730606e-02</leafValues></_>
    <_>
      <internalNodes>
        0 -1 52224 -2.6060620439238846e-04</internalNodes>
      <leafValues>
        -9.7819715738296509e-02 3.9376776665449142e-02</leafValues></_>
    <_>
      <internalNodes>
        0 -1 78604 4.7212910430971533e-05</internalNodes>
      <leafValues>
        -5.1973309367895126e-02 7.5430274009704590e-02</leafValues></_>
    <_>
      <internalNodes>
        0 -1 80847 -4.6738306991755962e-04</internalNodes>
      <leafValues>
        -4.4445700943470001e-02 8.0628000199794769e-02</leafValues></_>
    <_>
      <internalNodes>
        0 -1 87110 -1.9410140812397003e-02</internalNodes>
      <leafValues>
        8.0054141581058502e-02 -4.6021740883588791e-02</leafValues></_>
    <_>
      <internalNodes>
        0 -1 66273 -3.0288428068161011e-02</internalNodes>
      <leafValues>
        -1.1482319235801697e-01 3.6769047379493713e-02</leafValues></_>
    <_>
      <internalNodes>
        0 -1 96280 -3.0365839600563049e-01</internalNodes>
      <leafValues>
        -6.0375875234603882e-01 4.6489546075463295e-03</leafValues></_>
    <_>
      <internalNodes>
        0 -1 80473 -9.6556663513183594e-02</internalNodes>
      <leafValues>
        4.0573936700820923e-01 -9.2093469575047493e-03</leafValues></_>
    <_>
      <internalNodes>
        0 -1 100523 -2.6944279670715332e-02</internalNodes>
      <leafValues>
        -6.1601483821868896e-01 6.7359409295022488e-03</leafValues></_>
    <_>
      <internalNodes>
        0 -1 36169 4.3973475694656372e-03</internalNodes>
      <leafValues>
        -1.8290800973773003e-02 1.9204427301883698e-01</leafValues></_>
    <_>
      <internalNodes>
        0 -1 18982 4.4664449524134398e-04</internalNodes>
      <leafValues>
        4.4477649033069611e-02 -7.5637497007846832e-02</leafValues></_>
    <_>
      <internalNodes>
        0 -1 92222 2.9170676134526730e-03</internalNodes>
      <leafValues>
        1.4377550221979618e-02 -2.2930851578712463e-01</leafValues></_>
    <_>
      <internalNodes>
        0 -1 52615 2.9462147504091263e-03</internalNodes>
      <leafValues>
        -3.3403079956769943e-02 1.0604858398437500e-01</leafValues></_>
    <_>
      <internalNodes>
        0 -1 120452 1.9511174410581589e-02</internalNodes>
      <leafValues>
        8.2654422149062157e-03 -4.6050864458084106e-01</leafValues></_>
    <_>
      <internalNodes>
        0 -1 74749 -1.7299842089414597e-02</internalNodes>
      <leafValues>
        1.0282004624605179e-01 -3.6730073392391205e-02</leafValues></_>
    <_>
      <internalNodes>
        0 -1 112150 -8.1715181469917297e-02</internalNodes>
      <leafValues>
        -1.6794088482856750e-01 2.3732760921120644e-02</leafValues></_>
    <_>
      <internalNodes>
        0 -1 52091 5.4151974618434906e-02</internalNodes>
      <leafValues>
        -6.9996491074562073e-02 5.0167914479970932e-02</leafValues></_>
    <_>
      <internalNodes>
        0 -1 104759 9.3790382379665971e-04</internalNodes>
      <leafValues>
        6.0967940837144852e-02 -7.1970529854297638e-02</leafValues></_>
    <_>
      <internalNodes>
        0 -1 92526 -2.4208173272199929e-04</internalNodes>
      <leafValues>
        1.2960183620452881e-01 -3.2812085002660751e-02</leafValues></_>
    <_>
      <internalNodes>
        0 -1 30990 -1.8683603405952454e-01</internalNodes>
      <leafValues>
        1.7754165828227997e-01 -2.2413995116949081e-02</leafValues></_>
    <_>
      <internalNodes>
        0 -1 123082 -2.4305112659931183e-02</internalNodes>
      <leafValues>
        -4.4519525766372681e-01 9.6326442435383797e-03</leafValues></_>
    <_>
      <internalNodes>
        0 -1 64050 6.0205748304724693e-03</internalNodes>
      <leafValues>
        -2.9716294258832932e-02 1.2613597512245178e-01</leafValues></_>
    <_>
      <internalNodes>
        0 -1 102981 -5.8226431719958782e-03</internalNodes>
      <leafValues>
        -2.5140285491943359e-01 1.4840046875178814e-02</leafValues></_>
    <_>
      <internalNodes>
        0 -1 92123 1.2496506795287132e-02</internalNodes>
      <leafValues>
        -1.5939570963382721e-02 2.4401238560676575e-01</leafValues></_>
    <_>
      <internalNodes>
        0 -1 18517 4.1300700977444649e-03</internalNodes>
      <leafValues>
        -1.9687596708536148e-02 1.7283514142036438e-01</leafValues></_>
    <_>
      <internalNodes>
        0 -1 18523 2.7590413810685277e-04</internalNodes>
      <leafValues>
        -6.7956946790218353e-02 5.4237872362136841e-02</leafValues></_>
    <_>
      <internalNodes>
        0 -1 94118 2.9335377737879753e-02</internalNodes>
      <leafValues>
        -4.6948354691267014e-02 7.6834611594676971e-02</leafValues></_>
    <_>
      <internalNodes>
        0 -1 1424 -3.7489145994186401e-01</internalNodes>
      <leafValues>
        7.3209963738918304e-02 -4.8294544219970703e-02</leafValues></_>
    <_>
      <internalNodes>
        0 -1 57469 3.7232246249914169e-03</internalNodes>
      <leafValues>
        -3.8275063037872314e-02 9.1978542506694794e-02</leafValues></_>
    <_>
      <internalNodes>
        0 -1 42860 -2.8526075766421854e-04</internalNodes>
      <leafValues>
        -5.2345201373100281e-02 6.8358413875102997e-02</leafValues></_>
    <_>
      <internalNodes>
        0 -1 55702 -6.2120235525071621e-03</internalNodes>
      <leafValues>
        2.3451773822307587e-01 -1.4533922076225281e-02</leafValues></_>
    <_>
      <internalNodes>
        0 -1 42977 -3.9851620793342590e-02</internalNodes>
      <leafValues>
        2.1220846474170685e-01 -1.6730127856135368e-02</leafValues></_>
    <_>
      <internalNodes>
        0 -1 25630 1.0536208748817444e-02</internalNodes>
      <leafValues>
        -3.3077068626880646e-02 1.1972220242023468e-01</leafValues></_>
    <_>
      <internalNodes>
        0 -1 5352 -2.8033409267663956e-02</internalNodes>
      <leafValues>
        -2.2229170799255371e-01 1.8536504358053207e-02</leafValues></_>
    <_>
      <internalNodes>
        0 -1 53287 -4.9691007006913424e-04</internalNodes>
      <leafValues>
        -8.9443720877170563e-02 4.1013937443494797e-02</leafValues></_>
    <_>
      <internalNodes>
        0 -1 76249 -1.8745374679565430e-01</internalNodes>
      <leafValues>
        8.2161396741867065e-01 -5.2245748229324818e-03</leafValues></_>
    <_>
      <internalNodes>
        0 -1 23271 -4.2156666517257690e-02</internalNodes>
      <leafValues>
        -3.4000000357627869e-01 1.1666084639728069e-02</leafValues></_>
    <_>
      <internalNodes>
        0 -1 47173 3.2366618979722261e-03</internalNodes>
      <leafValues>
        -3.2766371965408325e-02 1.0269067436456680e-01</leafValues></_>
    <_>
      <internalNodes>
        0 -1 30109 -3.3477820456027985e-02</internalNodes>
      <leafValues>
        -1.3736596703529358e-01 2.9969403520226479e-02</leafValues></_>
    <_>
      <internalNodes>
        0 -1 29132 -1.0741092264652252e-02</internalNodes>
      <leafValues>
        3.2765410840511322e-02 -1.1913868039846420e-01</leafValues></_>
    <_>
      <internalNodes>
        0 -1 22980 2.7851996128447354e-04</internalNodes>
      <leafValues>
        -4.4984288513660431e-02 9.4406753778457642e-02</leafValues></_>
    <_>
      <internalNodes>
        0 -1 4770 -3.0664277076721191e-01</internalNodes>
      <leafValues>
        -1.4645308256149292e-01 2.8841784223914146e-02</leafValues></_>
    <_>
      <internalNodes>
        0 -1 38875 -6.1445031315088272e-03</internalNodes>
      <leafValues>
        1.5449616312980652e-01 -2.3091787472367287e-02</leafValues></_>
    <_>
      <internalNodes>
        0 -1 31723 4.2800523340702057e-02</internalNodes>
      <leafValues>
        6.7664785310626030e-03 -5.1528590917587280e-01</leafValues></_>
    <_>
      <internalNodes>
        0 -1 19605 -1.3634751737117767e-01</internalNodes>
      <leafValues>
        4.1563230752944946e-01 -9.5499875023961067e-03</leafValues></_>
    <_>
      <internalNodes>
        0 -1 55484 1.0715262964367867e-02</internalNodes>
      <leafValues>
        1.3897902332246304e-02 -2.6021400094032288e-01</leafValues></_>
    <_>
      <internalNodes>
        0 -1 18698 -3.5330742597579956e-02</internalNodes>
      <leafValues>
        -3.9928352832794189e-01 8.6656492203474045e-03</leafValues></_>
    <_>
      <internalNodes>
        0 -1 61887 -1.9476633518934250e-02</internalNodes>
      <leafValues>
        2.3332293331623077e-01 -1.4790887013077736e-02</leafValues></_>
    <_>
      <internalNodes>
        0 -1 62605 -3.5124807618558407e-04</internalNodes>
      <leafValues>
        -1.1484193056821823e-01 3.3082243055105209e-02</leafValues></_>
    <_>
      <internalNodes>
        0 -1 35853 -1.7516902880743146e-03</internalNodes>
      <leafValues>
        4.2834199965000153e-02 -8.1709519028663635e-02</leafValues></_>
    <_>
      <internalNodes>
        0 -1 120479 -7.8235035762190819e-03</internalNodes>
      <leafValues>
        5.1889002323150635e-01 -7.1963691152632236e-03</leafValues></_>
    <_>
      <internalNodes>
        0 -1 48217 -4.7288227826356888e-02</internalNodes>
      <leafValues>
        -3.2932481169700623e-01 1.0714601725339890e-02</leafValues></_>
    <_>
      <internalNodes>
        0 -1 91221 -1.7926793079823256e-03</internalNodes>
      <leafValues>
        8.3932936191558838e-02 -4.5092128217220306e-02</leafValues></_>
    <_>
      <internalNodes>
        0 -1 31431 -3.0939740827307105e-04</internalNodes>
      <leafValues>
        -7.0682309567928314e-02 5.3194917738437653e-02</leafValues></_>
    <_>
      <internalNodes>
        0 -1 64050 -2.6663988828659058e-03</internalNodes>
      <leafValues>
        9.2309445142745972e-02 -3.7638187408447266e-02</leafValues></_>
    <_>
      <internalNodes>
        0 -1 106599 -8.9561315253376961e-03</internalNodes>
      <leafValues>
        1.4438086748123169e-01 -2.3801850154995918e-02</leafValues></_>
    <_>
      <internalNodes>
        0 -1 82150 -4.9603255465626717e-03</internalNodes>
      <leafValues>
        -8.3945192396640778e-02 4.3715957552194595e-02</leafValues></_>
    <_>
      <internalNodes>
        0 -1 90550 -3.4279120154678822e-04</internalNodes>
      <leafValues>
        7.7042065560817719e-02 -5.2197095006704330e-02</leafValues></_>
    <_>
      <internalNodes>
        0 -1 0 6.1144982464611530e-04</internalNodes>
      <leafValues>
        3.0027883127331734e-02 -1.1418546736240387e-01</leafValues></_>
    <_>
      <internalNodes>
        0 -1 313 -9.8508924245834351e-02</internalNodes>
      <leafValues>
        -5.3351277112960815e-01 6.7988098599016666e-03</leafValues></_>
    <_>
      <internalNodes>
        0 -1 65312 -2.6132203638553619e-02</internalNodes>
      <leafValues>
        1.0415263473987579e-01 -3.5867143422365189e-02</leafValues></_>
    <_>
      <internalNodes>
        0 -1 24246 2.7282577939331532e-03</internalNodes>
      <leafValues>
        -1.9302403554320335e-02 1.7481571435928345e-01</leafValues></_>
    <_>
      <internalNodes>
        0 -1 125003 -2.1604396402835846e-02</internalNodes>
      <leafValues>
        1.1945841461420059e-01 -3.0318584293127060e-02</leafValues></_>
    <_>
      <internalNodes>
        0 -1 47178 1.0222323471680284e-03</internalNodes>
      <leafValues>
        -7.2365202009677887e-02 4.7683350741863251e-02</leafValues></_>
    <_>
      <internalNodes>
        0 -1 119072 -5.0244427256984636e-05</internalNodes>
      <leafValues>
        8.8859334588050842e-02 -3.9353836327791214e-02</leafValues></_>
    <_>
      <internalNodes>
        0 -1 119954 3.7055178545415401e-03</internalNodes>
      <leafValues>
        4.7982007265090942e-02 -7.7125065028667450e-02</leafValues></_>
    <_>
      <internalNodes>
        0 -1 112422 -7.3700339999049902e-04</internalNodes>
      <leafValues>
        5.5237922817468643e-02 -8.4095060825347900e-02</leafValues></_>
    <_>
      <internalNodes>
        0 -1 21160 -3.3169630169868469e-01</internalNodes>
      <leafValues>
        -1.9645731151103973e-01 1.8895667046308517e-02</leafValues></_>
    <_>
      <internalNodes>
        0 -1 57520 3.3715520985424519e-03</internalNodes>
      <leafValues>
        -4.7544308006763458e-02 7.8926935791969299e-02</leafValues></_>
    <_>
      <internalNodes>
        0 -1 65877 -3.2856002449989319e-02</internalNodes>
      <leafValues>
        -2.9714480042457581e-01 1.0275137610733509e-02</leafValues></_>
    <_>
      <internalNodes>
        0 -1 64614 3.5655304789543152e-02</internalNodes>
      <leafValues>
        -3.9909351617097855e-02 9.8452284932136536e-02</leafValues></_>
    <_>
      <internalNodes>
        0 -1 77602 4.6860920265316963e-03</internalNodes>
      <leafValues>
        2.5699576362967491e-02 -1.5401819348335266e-01</leafValues></_>
    <_>
      <internalNodes>
        0 -1 108493 3.4128360450267792e-02</internalNodes>
      <leafValues>
        -3.4438300877809525e-02 1.0732939094305038e-01</leafValues></_>
    <_>
      <internalNodes>
        0 -1 121196 -2.6934057474136353e-02</internalNodes>
      <leafValues>
        -5.8859050273895264e-01 6.3409442082047462e-03</leafValues></_>
    <_>
      <internalNodes>
        0 -1 124845 -3.5647142212837934e-03</internalNodes>
      <leafValues>
        -1.4474835991859436e-01 2.4100195616483688e-02</leafValues></_>
    <_>
      <internalNodes>
        0 -1 7934 1.5355374198406935e-03</internalNodes>
      <leafValues>
        -3.0119797214865685e-02 1.1280827224254608e-01</leafValues></_>
    <_>
      <internalNodes>
        0 -1 7934 -2.9164652805775404e-03</internalNodes>
      <leafValues>
        1.3818943500518799e-01 -2.7825646102428436e-02</leafValues></_>
    <_>
      <internalNodes>
        0 -1 124795 1.1024777777493000e-03</internalNodes>
      <leafValues>
        4.2334131896495819e-02 -7.8830040991306305e-02</leafValues></_>
    <_>
      <internalNodes>
        0 -1 114227 -3.5782836377620697e-02</internalNodes>
      <leafValues>
        -1.3381670415401459e-01 2.8039980679750443e-02</leafValues></_>
    <_>
      <internalNodes>
        0 -1 114215 -2.3968385066837072e-03</internalNodes>
      <leafValues>
        5.9455260634422302e-02 -8.3076670765876770e-02</leafValues></_>
    <_>
      <internalNodes>
        0 -1 118039 -2.6143153663724661e-03</internalNodes>
      <leafValues>
        2.1678730845451355e-01 -1.7410432919859886e-02</leafValues></_>
    <_>
      <internalNodes>
        0 -1 117967 -3.8099996745586395e-02</internalNodes>
      <leafValues>
        -4.6820446848869324e-01 8.0022150650620461e-03</leafValues></_>
    <_>
      <internalNodes>
        0 -1 72659 -8.1091091036796570e-02</internalNodes>
      <leafValues>
        4.2511975765228271e-01 -8.7298955768346786e-03</leafValues></_>
    <_>
      <internalNodes>
        0 -1 120010 7.3418326675891876e-02</internalNodes>
      <leafValues>
        4.6307141892611980e-03 -7.1380448341369629e-01</leafValues></_>
    <_>
      <internalNodes>
        0 -1 79845 8.6346119642257690e-03</internalNodes>
      <leafValues>
        -2.6664018630981445e-02 1.2344902753829956e-01</leafValues></_>
    <_>
      <internalNodes>
        0 -1 124457 1.2934601400047541e-03</internalNodes>
      <leafValues>
        -2.8421968221664429e-02 1.1108923703432083e-01</leafValues></_>
    <_>
      <internalNodes>
        0 -1 122718 1.4355632476508617e-02</internalNodes>
      <leafValues>
        1.0784793645143509e-02 -3.1645861268043518e-01</leafValues></_>
    <_>
      <internalNodes>
        0 -1 124216 1.3477635569870472e-02</internalNodes>
      <leafValues>
        -5.2074543200433254e-03 6.6798490285873413e-01</leafValues></_>
    <_>
      <internalNodes>
        0 -1 79622 -3.1150766881182790e-04</internalNodes>
      <leafValues>
        -9.4985477626323700e-02 3.5096932202577591e-02</leafValues></_>
    <_>
      <internalNodes>
        0 -1 79083 3.1421438325196505e-03</internalNodes>
      <leafValues>
        -3.1330574303865433e-02 1.1026279628276825e-01</leafValues></_>
    <_>
      <internalNodes>
        0 -1 99460 8.6707754235249013e-05</internalNodes>
      <leafValues>
        4.2951684445142746e-02 -8.4638029336929321e-02</leafValues></_>
    <_>
      <internalNodes>
        0 -1 28315 -5.7711943984031677e-02</internalNodes>
      <leafValues>
        2.7332821488380432e-01 -1.4233727939426899e-02</leafValues></_>
    <_>
      <internalNodes>
        0 -1 118264 2.3243393748998642e-02</internalNodes>
      <leafValues>
        6.7877285182476044e-03 -5.2728807926177979e-01</leafValues></_>
    <_>
      <internalNodes>
        0 -1 90306 -1.4555335510522127e-03</internalNodes>
      <leafValues>
        -8.6913794279098511e-02 3.6741647869348526e-02</leafValues></_>
    <_>
      <internalNodes>
        0 -1 106798 2.0354292355477810e-03</internalNodes>
      <leafValues>
        7.2856158018112183e-02 -5.2300635725259781e-02</leafValues></_>
    <_>
      <internalNodes>
        0 -1 72370 -9.1025501489639282e-02</internalNodes>
      <leafValues>
        -1.2102162092924118e-01 3.0419768765568733e-02</leafValues></_>
    <_>
      <internalNodes>
        0 -1 73352 -6.2692682258784771e-03</internalNodes>
      <leafValues>
        9.7349196672439575e-02 -3.7942729890346527e-02</leafValues></_>
    <_>
      <internalNodes>
        0 -1 72094 -8.3871483802795410e-03</internalNodes>
      <leafValues>
        2.2794081270694733e-01 -1.6070414334535599e-02</leafValues></_>
    <_>
      <internalNodes>
        0 -1 88263 4.0395553223788738e-03</internalNodes>
      <leafValues>
        1.3464986346662045e-02 -2.5825944542884827e-01</leafValues></_>
    <_>
      <internalNodes>
        0 -1 101017 2.0796707831323147e-03</internalNodes>
      <leafValues>
        -2.3496627807617188e-02 1.5291637182235718e-01</leafValues></_>
    <_>
      <internalNodes>
        0 -1 115600 1.0320680215954781e-02</internalNodes>
      <leafValues>
        1.4344490133225918e-02 -2.4128592014312744e-01</leafValues></_>
    <_>
      <internalNodes>
        0 -1 14704 -6.8347781896591187e-02</internalNodes>
      <leafValues>
        1.1867905408143997e-01 -2.9401266947388649e-02</leafValues></_>
    <_>
      <internalNodes>
        0 -1 24111 -5.6051060557365417e-02</internalNodes>
      <leafValues>
        -1.6627815365791321e-01 2.3660801351070404e-02</leafValues></_>
    <_>
      <internalNodes>
        0 -1 24205 -1.3880318403244019e-01</internalNodes>
      <leafValues>
        1.6438251733779907e-01 -2.2903209552168846e-02</leafValues></_>
    <_>
      <internalNodes>
        0 -1 123589 -1.8850862979888916e-02</internalNodes>
      <leafValues>
        8.5051052272319794e-02 -4.2734757065773010e-02</leafValues></_>
    <_>
      <internalNodes>
        0 -1 95244 5.1574572920799255e-02</internalNodes>
      <leafValues>
        -3.7674199789762497e-02 9.0250700712203979e-02</leafValues></_>
    <_>
      <internalNodes>
        0 -1 42617 -1.2602556962519884e-03</internalNodes>
      <leafValues>
        -6.1139315366744995e-02 7.0249468088150024e-02</leafValues></_>
    <_>
      <internalNodes>
        0 -1 68879 5.2173236326780170e-05</internalNodes>
      <leafValues>
        -4.7292526811361313e-02 7.8955173492431641e-02</leafValues></_>
    <_>
      <internalNodes>
        0 -1 21510 6.0299336910247803e-02</internalNodes>
      <leafValues>
        -2.6435473933815956e-02 1.3248117268085480e-01</leafValues></_>
    <_>
      <internalNodes>
        0 -1 64457 2.1677556633949280e-01</internalNodes>
      <leafValues>
        -9.3579534441232681e-03 4.2099100351333618e-01</leafValues></_>
    <_>
      <internalNodes>
        0 -1 52762 -5.8348849415779114e-04</internalNodes>
      <leafValues>
        -1.4475511014461517e-01 2.5673249736428261e-02</leafValues></_>
    <_>
      <internalNodes>
        0 -1 40618 1.2934770435094833e-02</internalNodes>
      <leafValues>
        -1.7677105963230133e-02 2.0886421203613281e-01</leafValues></_>
    <_>
      <internalNodes>
        0 -1 6481 -1.0966917499899864e-02</internalNodes>
      <leafValues>
        -2.5141334533691406e-01 1.4064594171941280e-02</leafValues></_>
    <_>
      <internalNodes>
        0 -1 48256 -1.5369899570941925e-02</internalNodes>
      <leafValues>
        -9.5402218401432037e-02 3.6876685917377472e-02</leafValues></_>
    <_>
      <internalNodes>
        0 -1 110967 3.5065457224845886e-02</internalNodes>
      <leafValues>
        1.2496676295995712e-02 -3.0598604679107666e-01</leafValues></_>
    <_>
      <internalNodes>
        0 -1 29016 1.6679835971444845e-03</internalNodes>
      <leafValues>
        -4.7933284193277359e-02 7.1291275322437286e-02</leafValues></_>
    <_>
      <internalNodes>
        0 -1 6364 4.1857659816741943e-03</internalNodes>
      <leafValues>
        -1.6697153449058533e-02 1.9149693846702576e-01</leafValues></_>
    <_>
      <internalNodes>
        0 -1 2957 1.8559342250227928e-02</internalNodes>
      <leafValues>
        -4.0063079446554184e-02 8.1279993057250977e-02</leafValues></_>
    <_>
      <internalNodes>
        0 -1 5280 2.2057496011257172e-02</internalNodes>
      <leafValues>
        4.6463739126920700e-03 -6.7946809530258179e-01</leafValues></_>
    <_>
      <internalNodes>
        0 -1 1389 -3.5951852798461914e-01</internalNodes>
      <leafValues>
        -3.9681965112686157e-01 7.7224466949701309e-03</leafValues></_>
    <_>
      <internalNodes>
        0 -1 124073 -1.5632580965757370e-02</internalNodes>
      <leafValues>
        1.1403829604387283e-01 -2.8610078617930412e-02</leafValues></_>
    <_>
      <internalNodes>
        0 -1 123000 -8.0224790144711733e-04</internalNodes>
      <leafValues>
        -8.6577728390693665e-02 4.0588352829217911e-02</leafValues></_>
    <_>
      <internalNodes>
        0 -1 102744 -1.1390239000320435e-01</internalNodes>
      <leafValues>
        5.7522720098495483e-01 -7.1539548225700855e-03</leafValues></_>
    <_>
      <internalNodes>
        0 -1 12642 4.8650674521923065e-02</internalNodes>
      <leafValues>
        6.2902639620006084e-03 -5.8778673410415649e-01</leafValues></_>
    <_>
      <internalNodes>
        0 -1 17199 -1.7995497584342957e-01</internalNodes>
      <leafValues>
        2.2506248950958252e-01 -1.5920439735054970e-02</leafValues></_>
    <_>
      <internalNodes>
        0 -1 91231 -7.6935335993766785e-02</internalNodes>
      <leafValues>
        -5.2628856897354126e-01 6.7446813918650150e-03</leafValues></_>
    <_>
      <internalNodes>
        0 -1 19274 -2.5093259755522013e-03</internalNodes>
      <leafValues>
        -1.5228946506977081e-01 2.0039997994899750e-02</leafValues></_>
    <_>
      <internalNodes>
        0 -1 108272 -3.9761528372764587e-02</internalNodes>
      <leafValues>
        -3.7168380618095398e-01 9.7245834767818451e-03</leafValues></_>
    <_>
      <internalNodes>
        0 -1 92218 1.5405735757667571e-04</internalNodes>
      <leafValues>
        -3.3511295914649963e-02 9.5800444483757019e-02</leafValues></_>
    <_>
      <internalNodes>
        0 -1 93030 2.7982401661574841e-04</internalNodes>
      <leafValues>
        3.0107783153653145e-02 -1.0957980901002884e-01</leafValues></_>
    <_>
      <internalNodes>
        0 -1 83727 -5.0857128371717408e-05</internalNodes>
      <leafValues>
        3.9763152599334717e-02 -9.1517038643360138e-02</leafValues></_>
    <_>
      <internalNodes>
        0 -1 92217 1.6934261657297611e-04</internalNodes>
      <leafValues>
        -4.4249393045902252e-02 8.9339658617973328e-02</leafValues></_>
    <_>
      <internalNodes>
        0 -1 54199 -2.0496234355960041e-05</internalNodes>
      <leafValues>
        -7.0136412978172302e-02 4.7265741974115372e-02</leafValues></_>
    <_>
      <internalNodes>
        0 -1 62744 1.4121896820142865e-03</internalNodes>
      <leafValues>
        -4.1125923395156860e-02 9.2185288667678833e-02</leafValues></_>
    <_>
      <internalNodes>
        0 -1 98392 -3.1872054096311331e-03</internalNodes>
      <leafValues>
        3.6355007439851761e-02 -9.4591900706291199e-02</leafValues></_>
    <_>
      <internalNodes>
        0 -1 102031 3.5062223672866821e-02</internalNodes>
      <leafValues>
        -2.2837828844785690e-02 1.6623744368553162e-01</leafValues></_>
    <_>
      <internalNodes>
        0 -1 60743 5.8700953377410769e-04</internalNodes>
      <leafValues>
        2.3623192682862282e-02 -1.6672894358634949e-01</leafValues></_>
    <_>
      <internalNodes>
        0 -1 55817 3.1118127517402172e-03</internalNodes>
      <leafValues>
        -3.2950986176729202e-02 1.0102719813585281e-01</leafValues></_>
    <_>
      <internalNodes>
        0 -1 72257 -5.6923711672425270e-03</internalNodes>
      <leafValues>
        9.8051577806472778e-02 -4.0566582232713699e-02</leafValues></_>
    <_>
      <internalNodes>
        0 -1 38658 4.6700112521648407e-02</internalNodes>
      <leafValues>
        5.9675043448805809e-03 -5.7902449369430542e-01</leafValues></_>
    <_>
      <internalNodes>
        0 -1 84124 -4.5059200376272202e-02</internalNodes>
      <leafValues>
        -4.3757134675979614e-01 7.0656328462064266e-03</leafValues></_>
    <_>
      <internalNodes>
        0 -1 123337 3.1891153194010258e-03</internalNodes>
      <leafValues>
        -3.3055715262889862e-02 1.0679886490106583e-01</leafValues></_>
    <_>
      <internalNodes>
        0 -1 107398 7.8882817178964615e-03</internalNodes>
      <leafValues>
        -6.3031380996108055e-03 4.7437524795532227e-01</leafValues></_>
    <_>
      <internalNodes>
        0 -1 49558 8.6715832352638245e-02</internalNodes>
      <leafValues>
        7.0920009166002274e-03 -4.7756782174110413e-01</leafValues></_>
    <_>
      <internalNodes>
        0 -1 32179 -2.6426627300679684e-03</internalNodes>
      <leafValues>
        -9.4170309603214264e-02 3.4317318350076675e-02</leafValues></_>
    <_>
      <internalNodes>
        0 -1 29382 1.0789295658469200e-02</internalNodes>
      <leafValues>
        -3.6969624459743500e-02 1.0087734460830688e-01</leafValues></_>
    <_>
      <internalNodes>
        0 -1 95038 2.4611882399767637e-03</internalNodes>
      <leafValues>
        4.1664745658636093e-02 -8.1723995506763458e-02</leafValues></_>
    <_>
      <internalNodes>
        0 -1 56865 -1.2783178687095642e-01</internalNodes>
      <leafValues>
        1.9615736603736877e-01 -2.2135203704237938e-02</leafValues></_>
    <_>
      <internalNodes>
        0 -1 102530 2.0582112483680248e-03</internalNodes>
      <leafValues>
        2.1128244698047638e-02 -1.5748238563537598e-01</leafValues></_>
    <_>
      <internalNodes>
        0 -1 96764 -1.6467472538352013e-02</internalNodes>
      <leafValues>
        2.1251122653484344e-01 -1.6547555103898048e-02</leafValues></_>
    <_>
      <internalNodes>
        0 -1 72838 7.7432446181774139e-02</internalNodes>
      <leafValues>
        1.3259822502732277e-02 -2.5281825661659241e-01</leafValues></_>
    <_>
      <internalNodes>
        0 -1 40209 7.2032385505735874e-03</internalNodes>
      <leafValues>
        -3.4293480217456818e-02 9.7863003611564636e-02</leafValues></_>
    <_>
      <internalNodes>
        0 -1 104340 -8.2711353898048401e-02</internalNodes>
      <leafValues>
        4.6127295494079590e-01 -6.4614568836987019e-03</leafValues></_>
    <_>
      <internalNodes>
        0 -1 69940 -3.0699001625180244e-02</internalNodes>
      <leafValues>
        -5.7989501953125000e-01 5.8733243495225906e-03</leafValues></_>
    <_>
      <internalNodes>
        0 -1 22014 2.6326492428779602e-01</internalNodes>
      <leafValues>
        4.4311354868113995e-03 -6.5742659568786621e-01</leafValues></_>
    <_>
      <internalNodes>
        0 -1 1010 2.4376041255891323e-03</internalNodes>
      <leafValues>
        -4.6623341739177704e-02 7.2857603430747986e-02</leafValues></_>
    <_>
      <internalNodes>
        0 -1 31288 -6.4829164184629917e-03</internalNodes>
      <leafValues>
        7.5979076325893402e-02 -5.1049005240201950e-02</leafValues></_>
    <_>
      <internalNodes>
        0 -1 33551 5.2809044718742371e-03</internalNodes>
      <leafValues>
        -1.0600121691823006e-02 3.0535188317298889e-01</leafValues></_>
    <_>
      <internalNodes>
        0 -1 124060 -4.7598727047443390e-02</internalNodes>
      <leafValues>
        7.2276031970977783e-01 -4.2148232460021973e-03</leafValues></_>
    <_>
      <internalNodes>
        0 -1 31524 -1.3566492125391960e-02</internalNodes>
      <leafValues>
        -2.3370374739170074e-01 1.5318464487791061e-02</leafValues></_>
    <_>
      <internalNodes>
        0 -1 58710 -2.3977382108569145e-02</internalNodes>
      <leafValues>
        -2.3946030437946320e-01 1.4118354767560959e-02</leafValues></_>
    <_>
      <internalNodes>
        0 -1 92214 1.6255814989563078e-04</internalNodes>
      <leafValues>
        -4.0170773863792419e-02 8.5354983806610107e-02</leafValues></_>
    <_>
      <internalNodes>
        0 -1 77977 -2.5395233024028130e-05</internalNodes>
      <leafValues>
        4.5163273811340332e-02 -7.6700061559677124e-02</leafValues></_>
    <_>
      <internalNodes>
        0 -1 71992 -2.9619283974170685e-02</internalNodes>
      <leafValues>
        -2.0142965018749237e-01 2.1285630762577057e-02</leafValues></_>
    <_>
      <internalNodes>
        0 -1 99607 -4.2841359972953796e-03</internalNodes>
      <leafValues>
        9.1407448053359985e-02 -3.7211440503597260e-02</leafValues></_>
    <_>
      <internalNodes>
        0 -1 33484 -3.3109830692410469e-03</internalNodes>
      <leafValues>
        -1.0674955695867538e-01 3.0849030241370201e-02</leafValues></_>
    <_>
      <internalNodes>
        0 -1 42471 1.0343667119741440e-02</internalNodes>
      <leafValues>
        -2.9902439564466476e-02 1.2377455830574036e-01</leafValues></_>
    <_>
      <internalNodes>
        0 -1 109575 2.4819106329232454e-03</internalNodes>
      <leafValues>
        2.4054072797298431e-02 -1.3663481175899506e-01</leafValues></_>
    <_>
      <internalNodes>
        0 -1 109765 1.0936381295323372e-02</internalNodes>
      <leafValues>
        -6.1649144627153873e-03 6.0746914148330688e-01</leafValues></_>
    <_>
      <internalNodes>
        0 -1 74161 -1.1708219349384308e-01</internalNodes>
      <leafValues>
        -7.0663774013519287e-01 5.5419839918613434e-03</leafValues></_>
    <_>
      <internalNodes>
        0 -1 60968 -6.6429212689399719e-02</internalNodes>
      <leafValues>
        5.4834067821502686e-01 -7.1603325195610523e-03</leafValues></_>
    <_>
      <internalNodes>
        0 -1 29787 3.1028848607093096e-03</internalNodes>
      <leafValues>
        -2.5106372311711311e-02 1.2326574325561523e-01</leafValues></_>
    <_>
      <internalNodes>
        0 -1 124521 2.9011648148298264e-03</internalNodes>
      <leafValues>
        -2.1448398008942604e-02 1.5753659605979919e-01</leafValues></_>
    <_>
      <internalNodes>
        0 -1 85720 1.9054780714213848e-03</internalNodes>
      <leafValues>
        1.2238597497344017e-02 -2.6029568910598755e-01</leafValues></_>
    <_>
      <internalNodes>
        0 -1 85399 -1.5390443149954081e-04</internalNodes>
      <leafValues>
        9.1496363282203674e-02 -3.4671325236558914e-02</leafValues></_>
    <_>
      <internalNodes>
        0 -1 69231 3.3516019582748413e-02</internalNodes>
      <leafValues>
        4.2046979069709778e-03 -6.3698971271514893e-01</leafValues></_>
    <_>
      <internalNodes>
        0 -1 112268 -1.7157422378659248e-02</internalNodes>
      <leafValues>
        1.2917941808700562e-01 -2.5834012776613235e-02</leafValues></_>
    <_>
      <internalNodes>
        0 -1 113166 4.3382504954934120e-03</internalNodes>
      <leafValues>
        1.7793152481317520e-02 -1.9275361299514771e-01</leafValues></_>
    <_>
      <internalNodes>
        0 -1 1857 1.7773665487766266e-02</internalNodes>
      <leafValues>
        -2.2010203450918198e-02 1.7071074247360229e-01</leafValues></_>
    <_>
      <internalNodes>
        0 -1 121590 6.6130971536040306e-03</internalNodes>
      <leafValues>
        -1.1750172823667526e-01 4.0678858757019043e-02</leafValues></_>
    <_>
      <internalNodes>
        0 -1 77036 1.7833001911640167e-02</internalNodes>
      <leafValues>
        -9.0232975780963898e-03 4.7129127383232117e-01</leafValues></_>
    <_>
      <internalNodes>
        0 -1 2840 -1.5332493931055069e-02</internalNodes>
      <leafValues>
        6.6620342433452606e-02 -4.7471560537815094e-02</leafValues></_>
    <_>
      <internalNodes>
        0 -1 8764 1.6032686457037926e-02</internalNodes>
      <leafValues>
        -1.6642356291413307e-02 2.1975781023502350e-01</leafValues></_>
    <_>
      <internalNodes>
        0 -1 25374 -1.1581662110984325e-03</internalNodes>
      <leafValues>
        -3.5446714609861374e-02 9.5166139304637909e-02</leafValues></_>
    <_>
      <internalNodes>
        0 -1 85470 -1.1097831651568413e-02</internalNodes>
      <leafValues>
        -1.7081625759601593e-01 1.9530069082975388e-02</leafValues></_>
    <_>
      <internalNodes>
        0 -1 79903 1.6326634213328362e-03</internalNodes>
      <leafValues>
        -3.8809094578027725e-02 9.3257695436477661e-02</leafValues></_>
    <_>
      <internalNodes>
        0 -1 64117 2.0067769582965411e-05</internalNodes>
      <leafValues>
        -7.3783218860626221e-02 4.7853000462055206e-02</leafValues></_>
    <_>
      <internalNodes>
        0 -1 19190 5.6797987781465054e-03</internalNodes>
      <leafValues>
        -3.2135371118783951e-02 1.2535977363586426e-01</leafValues></_>
    <_>
      <internalNodes>
        0 -1 55473 -2.7042051078751683e-04</internalNodes>
      <leafValues>
        4.7607876360416412e-02 -7.9162657260894775e-02</leafValues></_>
    <_>
      <internalNodes>
        0 -1 37173 4.1899429634213448e-03</internalNodes>
      <leafValues>
        -2.8672751039266586e-02 1.4096450805664062e-01</leafValues></_>
    <_>
      <internalNodes>
        0 -1 79212 -1.2844633311033249e-02</internalNodes>
      <leafValues>
        -2.7400648593902588e-01 1.4709359034895897e-02</leafValues></_>
    <_>
      <internalNodes>
        0 -1 88038 -5.3943376988172531e-03</internalNodes>
      <leafValues>
        1.1052080243825912e-01 -3.1696129590272903e-02</leafValues></_>
    <_>
      <internalNodes>
        0 -1 119939 2.4581211619079113e-04</internalNodes>
      <leafValues>
        -7.8187860548496246e-02 4.3756548315286636e-02</leafValues></_>
    <_>
      <internalNodes>
        0 -1 122286 -2.4266142281703651e-04</internalNodes>
      <leafValues>
        -6.9047741591930389e-02 5.0956480205059052e-02</leafValues></_>
    <_>
      <internalNodes>
        0 -1 73038 2.7226213365793228e-02</internalNodes>
      <leafValues>
        5.7912231422960758e-03 -5.4342645406723022e-01</leafValues></_>
    <_>
      <internalNodes>
        0 -1 9552 -6.7721283994615078e-04</internalNodes>
      <leafValues>
        -9.8916262388229370e-02 3.4481152892112732e-02</leafValues></_>
    <_>
      <internalNodes>
        0 -1 101142 -2.1649068221449852e-03</internalNodes>
      <leafValues>
        9.5122419297695160e-02 -3.4381140023469925e-02</leafValues></_>
    <_>
      <internalNodes>
        0 -1 109987 -1.4735718723386526e-03</internalNodes>
      <leafValues>
        -1.0040235519409180e-01 3.3939752727746964e-02</leafValues></_>
    <_>
      <internalNodes>
        0 -1 79171 -8.1170357763767242e-02</internalNodes>
      <leafValues>
        4.5753559470176697e-01 -8.1492131575942039e-03</leafValues></_>
    <_>
      <internalNodes>
        0 -1 15965 -2.8288495540618896e-01</internalNodes>
      <leafValues>
        -5.2124863862991333e-01 8.9695807546377182e-03</leafValues></_>
    <_>
      <internalNodes>
        0 -1 119823 1.6953200101852417e-03</internalNodes>
      <leafValues>
        -2.8036074712872505e-02 1.2792545557022095e-01</leafValues></_>
    <_>
      <internalNodes>
        0 -1 99494 1.7357425764203072e-02</internalNodes>
      <leafValues>
        -4.7953347675502300e-03 6.4247030019760132e-01</leafValues></_>
    <_>
      <internalNodes>
        0 -1 80798 2.4321243166923523e-02</internalNodes>
      <leafValues>
        5.1847696304321289e-03 -7.5591492652893066e-01</leafValues></_>
    <_>
      <internalNodes>
        0 -1 101029 -1.1862523853778839e-02</internalNodes>
      <leafValues>
        -3.3128377795219421e-01 9.4079170376062393e-03</leafValues></_>
    <_>
      <internalNodes>
        0 -1 118137 -1.4076763764023781e-03</internalNodes>
      <leafValues>
        1.3172207772731781e-01 -2.5754734873771667e-02</leafValues></_>
    <_>
      <internalNodes>
        0 -1 21992 -3.5705876350402832e-01</internalNodes>
      <leafValues>
        -4.0386897325515747e-01 8.3352429792284966e-03</leafValues></_>
    <_>
      <internalNodes>
        0 -1 49568 -2.9299986362457275e-01</internalNodes>
      <leafValues>
        3.7754884362220764e-01 -1.0795615613460541e-02</leafValues></_>
    <_>
      <internalNodes>
        0 -1 59544 8.5266341920942068e-04</internalNodes>
      <leafValues>
        2.3434368893504143e-02 -1.4981092512607574e-01</leafValues></_>
    <_>
      <internalNodes>
        0 -1 51640 -3.3436368685215712e-03</internalNodes>
      <leafValues>
        3.3924275636672974e-01 -1.3079977594316006e-02</leafValues></_>
    <_>
      <internalNodes>
        0 -1 71739 5.2678495645523071e-02</internalNodes>
      <leafValues>
        6.0654175467789173e-03 -5.8553165197372437e-01</leafValues></_>
    <_>
      <internalNodes>
        0 -1 8741 2.6462478563189507e-03</internalNodes>
      <leafValues>
        -2.8000937774777412e-02 1.2022677063941956e-01</leafValues></_>
    <_>
      <internalNodes>
        0 -1 361 -2.8386056423187256e-02</internalNodes>
      <leafValues>
        3.2580532133579254e-02 -9.9941112101078033e-02</leafValues></_>
    <_>
      <internalNodes>
        0 -1 116869 -5.8244819229003042e-05</internalNodes>
      <leafValues>
        8.7881751358509064e-02 -3.7437904626131058e-02</leafValues></_>
    <_>
      <internalNodes>
        0 -1 122602 1.5838516410440207e-03</internalNodes>
      <leafValues>
        -3.7647899240255356e-02 9.5598407089710236e-02</leafValues></_>
    <_>
      <internalNodes>
        0 -1 102974 -4.3843491584993899e-04</internalNodes>
      <leafValues>
        -9.4578780233860016e-02 4.0923304855823517e-02</leafValues></_>
    <_>
      <internalNodes>
        0 -1 114267 -3.1350933015346527e-02</internalNodes>
      <leafValues>
        -3.9203432202339172e-01 9.0213464573025703e-03</leafValues></_>
    <_>
      <internalNodes>
        0 -1 92862 7.7988617122173309e-03</internalNodes>
      <leafValues>
        -6.9977613165974617e-03 4.6307548880577087e-01</leafValues></_>
    <_>
      <internalNodes>
        0 -1 104870 1.3236980885267258e-03</internalNodes>
      <leafValues>
        2.6967125013470650e-02 -1.4413538575172424e-01</leafValues></_>
    <_>
      <internalNodes>
        0 -1 77929 -9.6639653202146292e-04</internalNodes>
      <leafValues>
        5.3297504782676697e-02 -6.5379679203033447e-02</leafValues></_>
    <_>
      <internalNodes>
        0 -1 78693 6.9320492912083864e-04</internalNodes>
      <leafValues>
        -4.4283133000135422e-02 8.2657612860202789e-02</leafValues></_>
    <_>
      <internalNodes>
        0 -1 68557 1.0279097477905452e-04</internalNodes>
      <leafValues>
        6.0970276594161987e-02 -6.9864727556705475e-02</leafValues></_>
    <_>
      <internalNodes>
        0 -1 83813 1.0041625937446952e-03</internalNodes>
      <leafValues>
        -3.9768666028976440e-02 9.1707654297351837e-02</leafValues></_>
    <_>
      <internalNodes>
        0 -1 83681 -9.2584465164691210e-05</internalNodes>
      <leafValues>
        -8.3910092711448669e-02 4.1519593447446823e-02</leafValues></_>
    <_>
      <internalNodes>
        0 -1 51204 -1.3454703148454428e-03</internalNodes>
      <leafValues>
        6.9646298885345459e-02 -5.8129068464040756e-02</leafValues></_>
    <_>
      <internalNodes>
        0 -1 49607 3.1264089047908783e-03</internalNodes>
      <leafValues>
        2.3947028443217278e-02 -1.5277241170406342e-01</leafValues></_>
    <_>
      <internalNodes>
        0 -1 67735 -5.4422016255557537e-03</internalNodes>
      <leafValues>
        3.9428800344467163e-01 -9.5001943409442902e-03</leafValues></_>
    <_>
      <internalNodes>
        0 -1 45551 9.8808231996372342e-05</internalNodes>
      <leafValues>
        4.6075068414211273e-02 -7.4974343180656433e-02</leafValues></_>
    <_>
      <internalNodes>
        0 -1 55875 -4.2921910062432289e-03</internalNodes>
      <leafValues>
        8.0587171018123627e-02 -4.4188167899847031e-02</leafValues></_>
    <_>
      <internalNodes>
        0 -1 36528 -2.1923713386058807e-02</internalNodes>
      <leafValues>
        -2.8508934378623962e-01 1.2181291356682777e-02</leafValues></_>
    <_>
      <internalNodes>
        0 -1 8739 -8.3323623985052109e-03</internalNodes>
      <leafValues>
        4.4568917155265808e-01 -8.4275407716631889e-03</leafValues></_>
    <_>
      <internalNodes>
        0 -1 110531 8.3302343264222145e-03</internalNodes>
      <leafValues>
        -2.9313283041119576e-02 1.1247131973505020e-01</leafValues></_>
    <_>
      <internalNodes>
        0 -1 112211 -1.2548485770821571e-02</internalNodes>
      <leafValues>
        1.2783865630626678e-01 -3.3926635980606079e-02</leafValues></_>
    <_>
      <internalNodes>
        0 -1 14439 1.7639715969562531e-01</internalNodes>
      <leafValues>
        -2.6244733016937971e-03 9.8062187433242798e-01</leafValues></_>
    <_>
      <internalNodes>
        0 -1 113140 -8.6212484166026115e-04</internalNodes>
      <leafValues>
        -9.9030323326587677e-02 3.4602634608745575e-02</leafValues></_>
    <_>
      <internalNodes>
        0 -1 112149 2.8833257965743542e-04</internalNodes>
      <leafValues>
        -5.0064973533153534e-02 6.8711079657077789e-02</leafValues></_>
    <_>
      <internalNodes>
        0 -1 114324 5.9364992193877697e-04</internalNodes>
      <leafValues>
        2.7236519381403923e-02 -1.2727312743663788e-01</leafValues></_>
    <_>
      <internalNodes>
        0 -1 113440 2.8902158373966813e-04</internalNodes>
      <leafValues>
        -4.3752312660217285e-02 9.1365396976470947e-02</leafValues></_>
    <_>
      <internalNodes>
        0 -1 90982 -1.6704512760043144e-02</internalNodes>
      <leafValues>
        -3.0188351869583130e-01 1.1393614113330841e-02</leafValues></_>
    <_>
      <internalNodes>
        0 -1 124337 2.3178016766905785e-02</internalNodes>
      <leafValues>
        -6.8157957866787910e-03 4.8999825119972229e-01</leafValues></_>
    <_>
      <internalNodes>
        0 -1 84389 -6.0741039924323559e-03</internalNodes>
      <leafValues>
        3.9631240069866180e-02 -9.0412698686122894e-02</leafValues></_>
    <_>
      <internalNodes>
        0 -1 9922 -4.7195819206535816e-03</internalNodes>
      <leafValues>
        1.0703381150960922e-01 -3.3728800714015961e-02</leafValues></_>
    <_>
      <internalNodes>
        0 -1 123591 -3.0831390991806984e-02</internalNodes>
      <leafValues>
        8.4695369005203247e-02 -4.1299905627965927e-02</leafValues></_>
    <_>
      <internalNodes>
        0 -1 118373 2.5816497509367764e-04</internalNodes>
      <leafValues>
        4.6734172850847244e-02 -7.4873268604278564e-02</leafValues></_>
    <_>
      <internalNodes>
        0 -1 31420 -3.0595308542251587e-01</internalNodes>
      <leafValues>
        -2.4118502438068390e-01 1.4285720884799957e-02</leafValues></_>
    <_>
      <internalNodes>
        0 -1 22240 -1.9707602262496948e-01</internalNodes>
      <leafValues>
        1.7125190794467926e-01 -2.1766405552625656e-02</leafValues></_>
    <_>
      <internalNodes>
        0 -1 55344 -2.5024052709341049e-02</internalNodes>
      <leafValues>
        -3.6715042591094971e-01 1.0383102111518383e-02</leafValues></_>
    <_>
      <internalNodes>
        0 -1 64022 3.3238080795854330e-03</internalNodes>
      <leafValues>
        -1.9616926088929176e-02 1.7447897791862488e-01</leafValues></_>
    <_>
      <internalNodes>
        0 -1 99119 3.8847111864015460e-04</internalNodes>
      <leafValues>
        -5.7724058628082275e-02 6.3256710767745972e-02</leafValues></_>
    <_>
      <internalNodes>
        0 -1 65073 4.0314327925443649e-03</internalNodes>
      <leafValues>
        -2.7870779857039452e-02 1.2079041451215744e-01</leafValues></_>
    <_>
      <internalNodes>
        0 -1 72888 -1.0348537762183696e-04</internalNodes>
      <leafValues>
        -5.5794160813093185e-02 7.0134468376636505e-02</leafValues></_>
    <_>
      <internalNodes>
        0 -1 103387 2.6637981645762920e-03</internalNodes>
      <leafValues>
        2.6146382093429565e-02 -1.3970509171485901e-01</leafValues></_>
    <_>
      <internalNodes>
        0 -1 75086 -5.3476658649742603e-04</internalNodes>
      <leafValues>
        8.2543514668941498e-02 -4.4509511440992355e-02</leafValues></_>
    <_>
      <internalNodes>
        0 -1 78229 -1.0025470692198724e-04</internalNodes>
      <leafValues>
        -7.6839692890644073e-02 4.8156797885894775e-02</leafValues></_>
    <_>
      <internalNodes>
        0 -1 59671 -4.6464239858323708e-05</internalNodes>
      <leafValues>
        4.2833514511585236e-02 -9.4889499247074127e-02</leafValues></_>
    <_>
      <internalNodes>
        0 -1 84621 3.4263520501554012e-04</internalNodes>
      <leafValues>
        -3.3554337918758392e-02 1.4613239467144012e-01</leafValues></_>
    <_>
      <internalNodes>
        0 -1 124809 1.5846902970224619e-03</internalNodes>
      <leafValues>
        -5.5269375443458557e-02 6.8503767251968384e-02</leafValues></_>
    <_>
      <internalNodes>
        0 -1 100625 -8.1476859748363495e-02</internalNodes>
      <leafValues>
        -2.1013915538787842e-01 1.7615474760532379e-02</leafValues></_>
    <_>
      <internalNodes>
        0 -1 85400 -8.2908110925927758e-05</internalNodes>
      <leafValues>
        -6.4524613320827484e-02 5.9710033237934113e-02</leafValues></_>
    <_>
      <internalNodes>
        0 -1 94283 -3.9912341162562370e-03</internalNodes>
      <leafValues>
        5.7498347014188766e-02 -6.3836283981800079e-02</leafValues></_>
    <_>
      <internalNodes>
        0 -1 38480 3.1964235007762909e-02</internalNodes>
      <leafValues>
        -1.5215829946100712e-02 2.6228448748588562e-01</leafValues></_>
    <_>
      <internalNodes>
        0 -1 124805 -2.5238713715225458e-04</internalNodes>
      <leafValues>
        -7.5868740677833557e-02 4.6039916574954987e-02</leafValues></_>
    <_>
      <internalNodes>
        0 -1 118656 -7.0927321910858154e-02</internalNodes>
      <leafValues>
        -5.3942465782165527e-01 6.7140804603695869e-03</leafValues></_>
    <_>
      <internalNodes>
        0 -1 19862 -1.1058346927165985e-01</internalNodes>
      <leafValues>
        -3.1003925204277039e-01 1.0777224786579609e-02</leafValues></_>
    <_>
      <internalNodes>
        0 -1 115304 -1.4811630826443434e-03</internalNodes>
      <leafValues>
        6.8590328097343445e-02 -4.9248356372117996e-02</leafValues></_>
    <_>
      <internalNodes>
        0 -1 8581 1.5269394963979721e-02</internalNodes>
      <leafValues>
        1.4220881275832653e-02 -2.3767787218093872e-01</leafValues></_>
    <_>
      <internalNodes>
        0 -1 40826 -2.6800893247127533e-02</internalNodes>
      <leafValues>
        7.4791766703128815e-02 -4.6756323426961899e-02</leafValues></_>
    <_>
      <internalNodes>
        0 -1 33826 -7.4648894369602203e-03</internalNodes>
      <leafValues>
        -6.7065820097923279e-02 6.4947471022605896e-02</leafValues></_>
    <_>
      <internalNodes>
        0 -1 69021 -1.8430203199386597e-03</internalNodes>
      <leafValues>
        6.6392019391059875e-02 -5.8395989239215851e-02</leafValues></_>
    <_>
      <internalNodes>
        0 -1 18605 -2.5761707220226526e-03</internalNodes>
      <leafValues>
        8.2026377320289612e-02 -4.4659722596406937e-02</leafValues></_>
    <_>
      <internalNodes>
        0 -1 9736 3.8486748235300183e-04</internalNodes>
      <leafValues>
        4.0278032422065735e-02 -9.3962393701076508e-02</leafValues></_>
    <_>
      <internalNodes>
        0 -1 8372 7.5254659168422222e-04</internalNodes>
      <leafValues>
        -5.0696879625320435e-02 6.9542631506919861e-02</leafValues></_>
    <_>
      <internalNodes>
        0 -1 79577 6.1171196401119232e-02</internalNodes>
      <leafValues>
        8.4928032010793686e-03 -4.2411836981773376e-01</leafValues></_>
    <_>
      <internalNodes>
        0 -1 46958 -3.4815045073628426e-03</internalNodes>
      <leafValues>
        6.5192334353923798e-02 -5.4544955492019653e-02</leafValues></_>
    <_>
      <internalNodes>
        0 -1 37748 3.5686921328306198e-03</internalNodes>
      <leafValues>
        -4.4710308313369751e-02 7.7304452657699585e-02</leafValues></_>
    <_>
      <internalNodes>
        0 -1 114791 1.3027701526880264e-02</internalNodes>
      <leafValues>
        8.8325394317507744e-03 -3.9861309528350830e-01</leafValues></_>
    <_>
      <internalNodes>
        0 -1 18895 1.2412991374731064e-02</internalNodes>
      <leafValues>
        2.6296127587556839e-02 -1.3562376797199249e-01</leafValues></_>
    <_>
      <internalNodes>
        0 -1 38753 -4.9539551138877869e-02</internalNodes>
      <leafValues>
        -2.0167367160320282e-01 1.7678130418062210e-02</leafValues></_>
    <_>
      <internalNodes>
        0 -1 87382 -4.4199626892805099e-02</internalNodes>
      <leafValues>
        4.8213097453117371e-01 -8.4674172103404999e-03</leafValues></_>
    <_>
      <internalNodes>
        0 -1 76851 -1.4837462455034256e-02</internalNodes>
      <leafValues>
        -5.1149940490722656e-01 7.5313001871109009e-03</leafValues></_>
    <_>
      <internalNodes>
        0 -1 85042 3.0058366246521473e-04</internalNodes>
      <leafValues>
        -3.0687235295772552e-02 1.1887095868587494e-01</leafValues></_>
    <_>
      <internalNodes>
        0 -1 43928 -3.3308999263681471e-04</internalNodes>
      <leafValues>
        -1.0231231153011322e-01 3.5073991864919662e-02</leafValues></_>
    <_>
      <internalNodes>
        0 -1 109600 -2.1558755543082952e-04</internalNodes>
      <leafValues>
        -5.8998100459575653e-02 5.7548508048057556e-02</leafValues></_>
    <_>
      <internalNodes>
        0 -1 110396 2.7210418134927750e-02</internalNodes>
      <leafValues>
        3.9058700203895569e-03 -7.7707260847091675e-01</leafValues></_>
    <_>
      <internalNodes>
        0 -1 115066 6.5793916583061218e-03</internalNodes>
      <leafValues>
        -3.9185382425785065e-02 8.6966700851917267e-02</leafValues></_>
    <_>
      <internalNodes>
        0 -1 83493 -1.7372971773147583e-01</internalNodes>
      <leafValues>
        -5.6205385923385620e-01 6.1413384974002838e-03</leafValues></_>
    <_>
      <internalNodes>
        0 -1 14798 5.1841881126165390e-02</internalNodes>
      <leafValues>
        1.2716758064925671e-02 -2.5750496983528137e-01</leafValues></_>
    <_>
      <internalNodes>
        0 -1 54812 5.6362310424447060e-03</internalNodes>
      <leafValues>
        1.8937410786747932e-02 -1.7573691904544830e-01</leafValues></_>
    <_>
      <internalNodes>
        0 -1 4340 3.2816365361213684e-01</internalNodes>
      <leafValues>
        -2.6588030159473419e-02 1.3217565417289734e-01</leafValues></_>
    <_>
      <internalNodes>
        0 -1 72764 -2.1130925416946411e-01</internalNodes>
      <leafValues>
        -1.1362400650978088e-01 3.4697759896516800e-02</leafValues></_>
    <_>
      <internalNodes>
        0 -1 59348 8.6443237960338593e-03</internalNodes>
      <leafValues>
        -2.4416103959083557e-02 1.5720920264720917e-01</leafValues></_>
    <_>
      <internalNodes>
        0 -1 114642 -1.5794670209288597e-02</internalNodes>
      <leafValues>
        -2.2357086837291718e-01 1.6959657892584801e-02</leafValues></_>
    <_>
      <internalNodes>
        0 -1 77032 1.0314235463738441e-02</internalNodes>
      <leafValues>
        1.3036866672337055e-02 -2.5299528241157532e-01</leafValues></_>
    <_>
      <internalNodes>
        0 -1 72408 1.8132218718528748e-01</internalNodes>
      <leafValues>
        -1.1179598048329353e-02 3.5113033652305603e-01</leafValues></_>
    <_>
      <internalNodes>
        0 -1 101005 2.1504691243171692e-01</internalNodes>
      <leafValues>
        8.0873817205429077e-03 -4.8361092805862427e-01</leafValues></_>
    <_>
      <internalNodes>
        0 -1 11363 -6.6786378622055054e-01</internalNodes>
      <leafValues>
        1.5128979086875916e-01 -2.3718202486634254e-02</leafValues></_>
    <_>
      <internalNodes>
        0 -1 3949 -2.8629049658775330e-01</internalNodes>
      <leafValues>
        -1.0409276187419891e-01 3.7748511880636215e-02</leafValues></_>
    <_>
      <internalNodes>
        0 -1 4242 -3.5618390887975693e-02</internalNodes>
      <leafValues>
        -1.2842144072055817e-01 2.8722686693072319e-02</leafValues></_>
    <_>
      <internalNodes>
        0 -1 80139 -3.4771036356687546e-02</internalNodes>
      <leafValues>
        -6.4859002828598022e-01 4.7149593010544777e-03</leafValues></_>
    <_>
      <internalNodes>
        0 -1 41476 -7.0348614826798439e-03</internalNodes>
      <leafValues>
        7.5554855167865753e-02 -4.3493665754795074e-02</leafValues></_>
    <_>
      <internalNodes>
        0 -1 43350 -3.1376761035062373e-04</internalNodes>
      <leafValues>
        -9.7652047872543335e-02 3.5396020859479904e-02</leafValues></_>
    <_>
      <internalNodes>
        0 -1 42053 -6.8938145413994789e-03</internalNodes>
      <leafValues>
        4.2474904656410217e-01 -7.2159999981522560e-03</leafValues></_>
    <_>
      <internalNodes>
        0 -1 88107 -3.9475791156291962e-02</internalNodes>
      <leafValues>
        -1. 3.4730269107967615e-03</leafValues></_>
    <_>
      <internalNodes>
        0 -1 51006 -3.1398353166878223e-04</internalNodes>
      <leafValues>
        -9.1644473373889923e-02 3.4456081688404083e-02</leafValues></_>
    <_>
      <internalNodes>
        0 -1 59902 9.3254889361560345e-04</internalNodes>
      <leafValues>
        -3.9918851107358932e-02 8.9925415813922882e-02</leafValues></_>
    <_>
      <internalNodes>
        0 -1 41813 6.2435120344161987e-02</internalNodes>
      <leafValues>
        5.0670513883233070e-03 -7.7902483940124512e-01</leafValues></_>
    <_>
      <internalNodes>
        0 -1 93379 -1.7227913485839963e-04</internalNodes>
      <leafValues>
        -8.2970045506954193e-02 3.9341293275356293e-02</leafValues></_>
    <_>
      <internalNodes>
        0 -1 110179 -3.5560354590415955e-03</internalNodes>
      <leafValues>
        2.2404499351978302e-01 -1.4385221526026726e-02</leafValues></_>
    <_>
      <internalNodes>
        0 -1 114744 -2.0159301348030567e-03</internalNodes>
      <leafValues>
        -1.5969616174697876e-01 2.4665083736181259e-02</leafValues></_>
    <_>
      <internalNodes>
        0 -1 43594 1.5955821145325899e-03</internalNodes>
      <leafValues>
        -3.5887155681848526e-02 9.8506316542625427e-02</leafValues></_>
    <_>
      <internalNodes>
        0 -1 42903 -1.2882505543529987e-03</internalNodes>
      <leafValues>
        7.3586627840995789e-02 -5.3230151534080505e-02</leafValues></_>
    <_>
      <internalNodes>
        0 -1 46407 9.4935072411317378e-05</internalNodes>
      <leafValues>
        4.0749594569206238e-02 -8.4526866674423218e-02</leafValues></_>
    <_>
      <internalNodes>
        0 -1 46407 4.3886821717023849e-02</internalNodes>
      <leafValues>
        -7.2139222174882889e-03 5.7812863588333130e-01</leafValues></_>
    <_>
      <internalNodes>
        0 -1 124769 -2.4612733977846801e-04</internalNodes>
      <leafValues>
        -8.0303721129894257e-02 4.0643785148859024e-02</leafValues></_>
    <_>
      <internalNodes>
        0 -1 125086 -7.8075053170323372e-03</internalNodes>
      <leafValues>
        9.5299787819385529e-02 -3.5302471369504929e-02</leafValues></_>
    <_>
      <internalNodes>
        0 -1 115546 -1.6175375878810883e-01</internalNodes>
      <leafValues>
        3.2952982187271118e-01 -1.0112100280821323e-02</leafValues></_>
    <_>
      <internalNodes>
        0 -1 73305 1.7636254429817200e-01</internalNodes>
      <leafValues>
        4.2332937009632587e-03 -9.0181082487106323e-01</leafValues></_>
    <_>
      <internalNodes>
        0 -1 52321 -7.8226986806839705e-04</internalNodes>
      <leafValues>
        6.3733503222465515e-02 -5.4253764450550079e-02</leafValues></_>
    <_>
      <internalNodes>
        0 -1 124644 -4.3966048397123814e-03</internalNodes>
      <leafValues>
        1.2065915018320084e-01 -2.8771085664629936e-02</leafValues></_>
    <_>
      <internalNodes>
        0 -1 23638 3.9551578811369836e-04</internalNodes>
      <leafValues>
        3.6048628389835358e-02 -9.1941080987453461e-02</leafValues></_>
    <_>
      <internalNodes>
        0 -1 16492 1.9012711942195892e-01</internalNodes>
      <leafValues>
        1.4582431875169277e-02 -2.1939192712306976e-01</leafValues></_>
    <_>
      <internalNodes>
        0 -1 33444 -9.8941534757614136e-02</internalNodes>
      <leafValues>
        5.1056110858917236e-01 -6.4955591224133968e-03</leafValues></_>
    <_>
      <internalNodes>
        0 -1 52100 -1.6164947301149368e-02</internalNodes>
      <leafValues>
        -1.9428889453411102e-01 1.9050640985369682e-02</leafValues></_>
    <_>
      <internalNodes>
        0 -1 73602 1.0659949481487274e-01</internalNodes>
      <leafValues>
        -1.6319621354341507e-02 2.2581005096435547e-01</leafValues></_>
    <_>
      <internalNodes>
        0 -1 119340 -2.4858652977854945e-05</internalNodes>
      <leafValues>
        3.0995650216937065e-02 -1.2044109404087067e-01</leafValues></_>
    <_>
      <internalNodes>
        0 -1 88806 1.0768115520477295e-02</internalNodes>
      <leafValues>
        5.3085759282112122e-02 -7.0573143661022186e-02</leafValues></_>
    <_>
      <internalNodes>
        0 -1 41962 2.5775259360671043e-02</internalNodes>
      <leafValues>
        -1.8178582191467285e-02 2.1599552035331726e-01</leafValues></_>
    <_>
      <internalNodes>
        0 -1 75313 4.5775291509926319e-03</internalNodes>
      <leafValues>
        3.4040927886962891e-02 -1.0429202020168304e-01</leafValues></_>
    <_>
      <internalNodes>
        0 -1 51221 -1.5375569928437471e-03</internalNodes>
      <leafValues>
        -3.2821573317050934e-02 1.3165408372879028e-01</leafValues></_>
    <_>
      <internalNodes>
        0 -1 13653 -1.3257417082786560e-01</internalNodes>
      <leafValues>
        9.3360699713230133e-02 -4.1276264935731888e-02</leafValues></_>
    <_>
      <internalNodes>
        0 -1 22930 -9.4417546642944217e-04</internalNodes>
      <leafValues>
        -4.7370214015245438e-02 7.7102705836296082e-02</leafValues></_>
    <_>
      <internalNodes>
        0 -1 48108 -2.9907673597335815e-02</internalNodes>
      <leafValues>
        -5.1642686128616333e-01 5.9463162906467915e-03</leafValues></_>
    <_>
      <internalNodes>
        0 -1 28946 -2.2048810496926308e-03</internalNodes>
      <leafValues>
        7.1962833404541016e-02 -4.7836750745773315e-02</leafValues></_>
    <_>
      <internalNodes>
        0 -1 64176 -1.1934535577893257e-02</internalNodes>
      <leafValues>
        -2.0766615867614746e-01 1.6901174560189247e-02</leafValues></_>
    <_>
      <internalNodes>
        0 -1 665 -2.7080834843218327e-03</internalNodes>
      <leafValues>
        5.1526885479688644e-02 -6.8508572876453400e-02</leafValues></_>
    <_>
      <internalNodes>
        0 -1 72094 1.7519472166895866e-03</internalNodes>
      <leafValues>
        -3.6819525063037872e-02 1.0472579300403595e-01</leafValues></_>
    <_>
      <internalNodes>
        0 -1 98920 -3.4337490797042847e-02</internalNodes>
      <leafValues>
        1.5525962412357330e-01 -2.4012155830860138e-02</leafValues></_>
    <_>
      <internalNodes>
        0 -1 18848 6.3676826655864716e-02</internalNodes>
      <leafValues>
        1.0834006592631340e-02 -3.7235403060913086e-01</leafValues></_>
    <_>
      <internalNodes>
        0 -1 121571 -8.6403727531433105e-02</internalNodes>
      <leafValues>
        -4.6531939506530762e-01 7.1539380587637424e-03</leafValues></_>
    <_>
      <internalNodes>
        0 -1 116438 1.2067331001162529e-02</internalNodes>
      <leafValues>
        8.3760023117065430e-03 -3.8332945108413696e-01</leafValues></_></weakClassifiers></stage21>
</opencv_storage>
