<?xml version="1.0"?>
<opencv_storage>
<stage6>
  <maxWeakCount>133</maxWeakCount>
  <stageThreshold>-1.7824394702911377e+00</stageThreshold>
  <weakClassifiers>
    <_>
      <internalNodes>
        0 -1 11363 -3.9724159240722656e-01</internalNodes>
      <leafValues>
        1.7559626698493958e-01 -4.0818524360656738e-01</leafValues></_>
    <_>
      <internalNodes>
        0 -1 10383 2.9086068272590637e-02</internalNodes>
      <leafValues>
        -1.7938028275966644e-01 2.7376124262809753e-01</leafValues></_>
    <_>
      <internalNodes>
        0 -1 70477 -1.3983756303787231e-02</internalNodes>
      <leafValues>
        1.7944529652595520e-01 -2.0078355073928833e-01</leafValues></_>
    <_>
      <internalNodes>
        0 -1 4360 -3.6679422482848167e-03</internalNodes>
      <leafValues>
        4.2454141378402710e-01 -3.4230850636959076e-02</leafValues></_>
    <_>
      <internalNodes>
        0 -1 4360 2.4431669153273106e-03</internalNodes>
      <leafValues>
        -1.5519744157791138e-01 2.7167168259620667e-01</leafValues></_>
    <_>
      <internalNodes>
        0 -1 111997 3.5205535590648651e-02</internalNodes>
      <leafValues>
        -1.7541158199310303e-01 1.8822123110294342e-01</leafValues></_>
    <_>
      <internalNodes>
        0 -1 47173 -5.1477905362844467e-03</internalNodes>
      <leafValues>
        4.3630152940750122e-01 -7.4225150048732758e-02</leafValues></_>
    <_>
      <internalNodes>
        0 -1 47173 3.1889041420072317e-03</internalNodes>
      <leafValues>
        -1.1021637171506882e-01 3.0860427021980286e-01</leafValues></_>
    <_>
      <internalNodes>
        0 -1 93672 -4.7849565744400024e-03</internalNodes>
      <leafValues>
        3.1771796941757202e-01 -5.8477725833654404e-02</leafValues></_>
    <_>
      <internalNodes>
        0 -1 99856 3.1298957765102386e-03</internalNodes>
      <leafValues>
        -8.4462299942970276e-02 3.6146584153175354e-01</leafValues></_>
    <_>
      <internalNodes>
        0 -1 59864 -1.8476803600788116e-01</internalNodes>
      <leafValues>
        -4.8098075389862061e-01 4.2773745954036713e-02</leafValues></_>
    <_>
      <internalNodes>
        0 -1 93844 -5.3151594474911690e-03</internalNodes>
      <leafValues>
        3.4703275561332703e-01 -7.2104737162590027e-02</leafValues></_>
    <_>
      <internalNodes>
        0 -1 93844 2.9943753033876419e-03</internalNodes>
      <leafValues>
        -1.0173059254884720e-01 2.5631421804428101e-01</leafValues></_>
    <_>
      <internalNodes>
        0 -1 32837 9.0834321454167366e-03</internalNodes>
      <leafValues>
        -2.1231117844581604e-01 1.1210421472787857e-01</leafValues></_>
    <_>
      <internalNodes>
        0 -1 37002 -1.4199024997651577e-02</internalNodes>
      <leafValues>
        2.6660749316215515e-01 -9.6546851098537445e-02</leafValues></_>
    <_>
      <internalNodes>
        0 -1 28155 1.6113087534904480e-02</internalNodes>
      <leafValues>
        -4.4336330145597458e-02 4.7859403491020203e-01</leafValues></_>
    <_>
      <internalNodes>
        0 -1 48019 2.8144130110740662e-01</internalNodes>
      <leafValues>
        4.9291674047708511e-02 -4.4572114944458008e-01</leafValues></_>
    <_>
      <internalNodes>
        0 -1 32379 -9.3460962176322937e-02</internalNodes>
      <leafValues>
        -4.5360094308853149e-01 3.7418719381093979e-02</leafValues></_>
    <_>
      <internalNodes>
        0 -1 119637 -5.6110229343175888e-03</internalNodes>
      <leafValues>
        1.8609091639518738e-01 -1.0714512318372726e-01</leafValues></_>
    <_>
      <internalNodes>
        0 -1 3269 -4.0176123380661011e-02</internalNodes>
      <leafValues>
        9.8941035568714142e-02 -1.9373986124992371e-01</leafValues></_>
    <_>
      <internalNodes>
        0 -1 4062 -3.2816505432128906e-01</internalNodes>
      <leafValues>
        -5.0593417882919312e-01 4.3285004794597626e-02</leafValues></_>
    <_>
      <internalNodes>
        0 -1 121693 -2.0063208416104317e-02</internalNodes>
      <leafValues>
        5.1771038770675659e-01 -3.6920201033353806e-02</leafValues></_>
    <_>
      <internalNodes>
        0 -1 112475 1.0607189033180475e-03</internalNodes>
      <leafValues>
        8.3476766943931580e-02 -2.3014226555824280e-01</leafValues></_>
    <_>
      <internalNodes>
        0 -1 55382 -3.4040943719446659e-03</internalNodes>
      <leafValues>
        9.3273460865020752e-02 -1.8747508525848389e-01</leafValues></_>
    <_>
      <internalNodes>
        0 -1 7047 -2.6224186643958092e-02</internalNodes>
      <leafValues>
        1.7596426606178284e-01 -1.0804934054613113e-01</leafValues></_>
    <_>
      <internalNodes>
        0 -1 121854 -1.2445263564586639e-02</internalNodes>
      <leafValues>
        2.9161095619201660e-01 -6.6687539219856262e-02</leafValues></_>
    <_>
      <internalNodes>
        0 -1 123465 -2.7457631658762693e-03</internalNodes>
      <leafValues>
        3.3300551772117615e-01 -5.4294995963573456e-02</leafValues></_>
    <_>
      <internalNodes>
        0 -1 123465 2.1987685468047857e-03</internalNodes>
      <leafValues>
        -6.5846018493175507e-02 3.5977336764335632e-01</leafValues></_>
    <_>
      <internalNodes>
        0 -1 59548 4.4833174906671047e-03</internalNodes>
      <leafValues>
        5.5422775447368622e-02 -2.9708003997802734e-01</leafValues></_>
    <_>
      <internalNodes>
        0 -1 67731 4.7070709115359932e-05</internalNodes>
      <leafValues>
        -1.1077449470758438e-01 1.5769422054290771e-01</leafValues></_>
    <_>
      <internalNodes>
        0 -1 50538 -2.4380842660320923e-05</internalNodes>
      <leafValues>
        8.7074540555477142e-02 -1.8202434480190277e-01</leafValues></_>
    <_>
      <internalNodes>
        0 -1 9049 5.1213349215686321e-03</internalNodes>
      <leafValues>
        -5.1797170192003250e-02 3.0695745348930359e-01</leafValues></_>
    <_>
      <internalNodes>
        0 -1 69857 4.9117632443085313e-05</internalNodes>
      <leafValues>
        -1.0481135547161102e-01 1.4808322489261627e-01</leafValues></_>
    <_>
      <internalNodes>
        0 -1 68983 -6.2233857810497284e-02</internalNodes>
      <leafValues>
        -8.8388276100158691e-01 1.7354061827063560e-02</leafValues></_>
    <_>
      <internalNodes>
        0 -1 9049 -2.7096904814243317e-03</internalNodes>
      <leafValues>
        2.2214941680431366e-01 -7.5225502252578735e-02</leafValues></_>
    <_>
      <internalNodes>
        0 -1 102965 3.8601716514676809e-03</internalNodes>
      <leafValues>
        5.4622337222099304e-02 -2.9042968153953552e-01</leafValues></_>
    <_>
      <internalNodes>
        0 -1 118999 -4.4598039239645004e-03</internalNodes>
      <leafValues>
        3.7437826395034790e-01 -4.4841855764389038e-02</leafValues></_>
    <_>
      <internalNodes>
        0 -1 38899 -1.4747388660907745e-02</internalNodes>
      <leafValues>
        2.1279516816139221e-01 -7.0917584002017975e-02</leafValues></_>
    <_>
      <internalNodes>
        0 -1 38899 1.2712267227470875e-02</internalNodes>
      <leafValues>
        -6.7654997110366821e-02 2.3256322741508484e-01</leafValues></_>
    <_>
      <internalNodes>
        0 -1 124249 5.2922135218977928e-03</internalNodes>
      <leafValues>
        -6.8352028727531433e-02 1.9090145826339722e-01</leafValues></_>
    <_>
      <internalNodes>
        0 -1 123362 5.2483715116977692e-03</internalNodes>
      <leafValues>
        -6.4060948789119720e-02 2.6519268751144409e-01</leafValues></_>
    <_>
      <internalNodes>
        0 -1 115107 -1.0368883609771729e-02</internalNodes>
      <leafValues>
        1.1115960776805878e-01 -1.4247639477252960e-01</leafValues></_>
    <_>
      <internalNodes>
        0 -1 54493 3.5683559253811836e-03</internalNodes>
      <leafValues>
        5.0117488950490952e-02 -2.7264648675918579e-01</leafValues></_>
    <_>
      <internalNodes>
        0 -1 77832 -4.7678706323495135e-05</internalNodes>
      <leafValues>
        1.4622122049331665e-01 -9.8948158323764801e-02</leafValues></_>
    <_>
      <internalNodes>
        0 -1 77832 5.1682654884643853e-05</internalNodes>
      <leafValues>
        -1.0057584196329117e-01 1.5726806223392487e-01</leafValues></_>
    <_>
      <internalNodes>
        0 -1 103364 -8.3791406359523535e-04</internalNodes>
      <leafValues>
        -2.9947289824485779e-01 4.9070496112108231e-02</leafValues></_>
    <_>
      <internalNodes>
        0 -1 13764 4.6551749110221863e-02</internalNodes>
      <leafValues>
        -5.4627515375614166e-02 2.9253864288330078e-01</leafValues></_>
    <_>
      <internalNodes>
        0 -1 69385 4.1489922441542149e-03</internalNodes>
      <leafValues>
        5.0510324537754059e-02 -3.0715951323509216e-01</leafValues></_>
    <_>
      <internalNodes>
        0 -1 46696 1.1233552359044552e-02</internalNodes>
      <leafValues>
        -6.2865659594535828e-02 2.2183752059936523e-01</leafValues></_>
    <_>
      <internalNodes>
        0 -1 9948 -7.0745043922215700e-04</internalNodes>
      <leafValues>
        -1.8852134048938751e-01 6.6370062530040741e-02</leafValues></_>
    <_>
      <internalNodes>
        0 -1 38164 -1.8600327894091606e-03</internalNodes>
      <leafValues>
        1.4607101678848267e-01 -8.7405741214752197e-02</leafValues></_>
    <_>
      <internalNodes>
        0 -1 47408 -6.7783077247440815e-03</internalNodes>
      <leafValues>
        2.4656940996646881e-01 -5.7692121714353561e-02</leafValues></_>
    <_>
      <internalNodes>
        0 -1 95628 -1.0629571974277496e-01</internalNodes>
      <leafValues>
        -5.9311753511428833e-01 2.4578940123319626e-02</leafValues></_>
    <_>
      <internalNodes>
        0 -1 30196 -1.9512556027621031e-03</internalNodes>
      <leafValues>
        1.2967820465564728e-01 -9.8576396703720093e-02</leafValues></_>
    <_>
      <internalNodes>
        0 -1 9948 8.9094892609864473e-04</internalNodes>
      <leafValues>
        6.1353605240583420e-02 -2.2842122614383698e-01</leafValues></_>
    <_>
      <internalNodes>
        0 -1 122450 -2.7494751848280430e-03</internalNodes>
      <leafValues>
        2.1677401661872864e-01 -6.1707187443971634e-02</leafValues></_>
    <_>
      <internalNodes>
        0 -1 122450 1.9267118768766522e-03</internalNodes>
      <leafValues>
        -6.9946773350238800e-02 2.0771047472953796e-01</leafValues></_>
    <_>
      <internalNodes>
        0 -1 85047 7.3485281318426132e-03</internalNodes>
      <leafValues>
        2.5637805461883545e-02 -5.5338549613952637e-01</leafValues></_>
    <_>
      <internalNodes>
        0 -1 110322 1.6439461614936590e-03</internalNodes>
      <leafValues>
        -7.8226722776889801e-02 1.8883064389228821e-01</leafValues></_>
    <_>
      <internalNodes>
        0 -1 99837 -4.8754429444670677e-03</internalNodes>
      <leafValues>
        2.1125952899456024e-01 -8.8050141930580139e-02</leafValues></_>
    <_>
      <internalNodes>
        0 -1 79209 2.5462736375629902e-03</internalNodes>
      <leafValues>
        5.1570389419794083e-02 -2.8923052549362183e-01</leafValues></_>
    <_>
      <internalNodes>
        0 -1 21174 -4.2131468653678894e-03</internalNodes>
      <leafValues>
        3.4895858168601990e-01 -3.7355955690145493e-02</leafValues></_>
    <_>
      <internalNodes>
        0 -1 49913 -5.4184608161449432e-03</internalNodes>
      <leafValues>
        8.0551251769065857e-02 -1.6143026947975159e-01</leafValues></_>
    <_>
      <internalNodes>
        0 -1 28859 -1.0099058039486408e-02</internalNodes>
      <leafValues>
        1.9481855630874634e-01 -7.0223830640316010e-02</leafValues></_>
    <_>
      <internalNodes>
        0 -1 51995 -2.9645010828971863e-02</internalNodes>
      <leafValues>
        2.0436093211174011e-01 -6.9815270602703094e-02</leafValues></_>
    <_>
      <internalNodes>
        0 -1 755 -3.5932707786560059e-01</internalNodes>
      <leafValues>
        -4.9824589490890503e-01 2.9022028669714928e-02</leafValues></_>
    <_>
      <internalNodes>
        0 -1 98535 5.8357645757496357e-03</internalNodes>
      <leafValues>
        3.5614974796772003e-02 -3.4724488854408264e-01</leafValues></_>
    <_>
      <internalNodes>
        0 -1 64020 2.3558181710541248e-03</internalNodes>
      <leafValues>
        -6.3009031116962433e-02 2.0208872854709625e-01</leafValues></_>
    <_>
      <internalNodes>
        0 -1 9785 -1.1127862147986889e-02</internalNodes>
      <leafValues>
        1.3037443161010742e-01 -1.1244403570890427e-01</leafValues></_>
    <_>
      <internalNodes>
        0 -1 28328 2.5962642394006252e-03</internalNodes>
      <leafValues>
        -4.6571116894483566e-02 2.7157914638519287e-01</leafValues></_>
    <_>
      <internalNodes>
        0 -1 87314 -3.0266030225902796e-03</internalNodes>
      <leafValues>
        1.6003395617008209e-01 -7.5472421944141388e-02</leafValues></_>
    <_>
      <internalNodes>
        0 -1 6932 -7.8230991959571838e-02</internalNodes>
      <leafValues>
        -6.2219750881195068e-01 1.9264459609985352e-02</leafValues></_>
    <_>
      <internalNodes>
        0 -1 123207 -5.7356236502528191e-03</internalNodes>
      <leafValues>
        2.6811537146568298e-01 -4.8168275505304337e-02</leafValues></_>
    <_>
      <internalNodes>
        0 -1 6380 8.2073062658309937e-03</internalNodes>
      <leafValues>
        -4.5835692435503006e-02 2.5374981760978699e-01</leafValues></_>
    <_>
      <internalNodes>
        0 -1 78243 2.6995528023689985e-03</internalNodes>
      <leafValues>
        3.4352384507656097e-02 -3.7431800365447998e-01</leafValues></_>
    <_>
      <internalNodes>
        0 -1 105407 7.5599448755383492e-03</internalNodes>
      <leafValues>
        -6.4845725893974304e-02 1.9630175828933716e-01</leafValues></_>
    <_>
      <internalNodes>
        0 -1 56126 -1.4412090182304382e-01</internalNodes>
      <leafValues>
        -5.0645554065704346e-01 2.5420216843485832e-02</leafValues></_>
    <_>
      <internalNodes>
        0 -1 111703 -2.9503577388823032e-03</internalNodes>
      <leafValues>
        2.9420557618141174e-01 -4.2242351919412613e-02</leafValues></_>
    <_>
      <internalNodes>
        0 -1 92528 2.2775027900934219e-03</internalNodes>
      <leafValues>
        2.8758659958839417e-02 -4.2005601525306702e-01</leafValues></_>
    <_>
      <internalNodes>
        0 -1 92218 5.0859951443271711e-05</internalNodes>
      <leafValues>
        -9.5269411802291870e-02 1.4800246059894562e-01</leafValues></_>
    <_>
      <internalNodes>
        0 -1 92218 -1.9870387404807843e-05</internalNodes>
      <leafValues>
        1.3942137360572815e-01 -9.3853093683719635e-02</leafValues></_>
    <_>
      <internalNodes>
        0 -1 86436 -2.0212000235915184e-03</internalNodes>
      <leafValues>
        -2.3905903100967407e-01 4.4681556522846222e-02</leafValues></_>
    <_>
      <internalNodes>
        0 -1 64123 7.9909628257155418e-03</internalNodes>
      <leafValues>
        -7.0902504026889801e-02 1.5860356390476227e-01</leafValues></_>
    <_>
      <internalNodes>
        0 -1 34889 -1.1588495224714279e-02</internalNodes>
      <leafValues>
        8.9721865952014923e-02 -1.2540596723556519e-01</leafValues></_>
    <_>
      <internalNodes>
        0 -1 53277 -4.2265857337042689e-04</internalNodes>
      <leafValues>
        -2.0635731518268585e-01 5.9300873428583145e-02</leafValues></_>
    <_>
      <internalNodes>
        0 -1 22337 4.3279360979795456e-02</internalNodes>
      <leafValues>
        -6.1800178140401840e-02 2.1111698448657990e-01</leafValues></_>
    <_>
      <internalNodes>
        0 -1 71593 -7.2817401960492134e-03</internalNodes>
      <leafValues>
        9.0179294347763062e-02 -1.3401368260383606e-01</leafValues></_>
    <_>
      <internalNodes>
        0 -1 79844 -4.8382719978690147e-03</internalNodes>
      <leafValues>
        1.5700981020927429e-01 -7.4211038649082184e-02</leafValues></_>
    <_>
      <internalNodes>
        0 -1 12569 -4.2207879014313221e-03</internalNodes>
      <leafValues>
        2.5460144877433777e-01 -4.6437866985797882e-02</leafValues></_>
    <_>
      <internalNodes>
        0 -1 79442 -5.0628475844860077e-02</internalNodes>
      <leafValues>
        -5.2178639173507690e-01 2.2000642493367195e-02</leafValues></_>
    <_>
      <internalNodes>
        0 -1 109562 -5.7995744049549103e-02</internalNodes>
      <leafValues>
        -6.9931679964065552e-01 1.4129338786005974e-02</leafValues></_>
    <_>
      <internalNodes>
        0 -1 121021 -2.4711056612432003e-03</internalNodes>
      <leafValues>
        1.3264103233814240e-01 -8.7365321815013885e-02</leafValues></_>
    <_>
      <internalNodes>
        0 -1 123615 -1.3264244422316551e-02</internalNodes>
      <leafValues>
        2.0157396793365479e-01 -6.0053575783967972e-02</leafValues></_>
    <_>
      <internalNodes>
        0 -1 38072 -1.1002402752637863e-02</internalNodes>
      <leafValues>
        1.2001071125268936e-01 -9.8464734852313995e-02</leafValues></_>
    <_>
      <internalNodes>
        0 -1 47614 -1.3329064473509789e-02</internalNodes>
      <leafValues>
        2.5392305850982666e-01 -4.8264585435390472e-02</leafValues></_>
    <_>
      <internalNodes>
        0 -1 80205 -4.0985427796840668e-02</internalNodes>
      <leafValues>
        -5.5079734325408936e-01 2.2795781493186951e-02</leafValues></_>
    <_>
      <internalNodes>
        0 -1 29225 6.3311703503131866e-02</internalNodes>
      <leafValues>
        1.5482443384826183e-02 -6.5064930915832520e-01</leafValues></_>
    <_>
      <internalNodes>
        0 -1 44479 -4.5352865708991885e-04</internalNodes>
      <leafValues>
        -1.8352259695529938e-01 6.1824236065149307e-02</leafValues></_>
    <_>
      <internalNodes>
        0 -1 110848 1.6806924249976873e-03</internalNodes>
      <leafValues>
        -5.5279612541198730e-02 2.0591425895690918e-01</leafValues></_>
    <_>
      <internalNodes>
        0 -1 46214 -7.8658654820173979e-04</internalNodes>
      <leafValues>
        8.8791541755199432e-02 -1.2528526782989502e-01</leafValues></_>
    <_>
      <internalNodes>
        0 -1 2308 -4.6271550655364990e-01</internalNodes>
      <leafValues>
        -4.5155799388885498e-01 2.4596964940428734e-02</leafValues></_>
    <_>
      <internalNodes>
        0 -1 104639 4.7067310661077499e-03</internalNodes>
      <leafValues>
        4.1215278208255768e-02 -2.7896949648857117e-01</leafValues></_>
    <_>
      <internalNodes>
        0 -1 125198 5.8941042516380548e-04</internalNodes>
      <leafValues>
        6.2952145934104919e-02 -1.7812252044677734e-01</leafValues></_>
    <_>
      <internalNodes>
        0 -1 37240 -4.7541032545268536e-03</internalNodes>
      <leafValues>
        1.3348107039928436e-01 -9.0475209057331085e-02</leafValues></_>
    <_>
      <internalNodes>
        0 -1 28704 -3.8913465104997158e-03</internalNodes>
      <leafValues>
        3.1996664404869080e-01 -3.3069238066673279e-02</leafValues></_>
    <_>
      <internalNodes>
        0 -1 26500 -5.8944202959537506e-02</internalNodes>
      <leafValues>
        -4.5860111713409424e-01 2.5161365047097206e-02</leafValues></_>
    <_>
      <internalNodes>
        0 -1 60380 -2.1295394748449326e-02</internalNodes>
      <leafValues>
        1.0684980452060699e-01 -1.0592113435268402e-01</leafValues></_>
    <_>
      <internalNodes>
        0 -1 66075 7.6334990561008453e-02</internalNodes>
      <leafValues>
        -3.5775087773799896e-02 3.4119477868080139e-01</leafValues></_>
    <_>
      <internalNodes>
        0 -1 21396 -1.2625744566321373e-02</internalNodes>
      <leafValues>
        7.7573493123054504e-02 -1.6415801644325256e-01</leafValues></_>
    <_>
      <internalNodes>
        0 -1 122602 2.9730773530900478e-03</internalNodes>
      <leafValues>
        -5.4475817829370499e-02 2.1059030294418335e-01</leafValues></_>
    <_>
      <internalNodes>
        0 -1 118367 -4.3260765960440040e-04</internalNodes>
      <leafValues>
        -1.7600563168525696e-01 6.2611028552055359e-02</leafValues></_>
    <_>
      <internalNodes>
        0 -1 117046 -9.3296822160482407e-03</internalNodes>
      <leafValues>
        9.2920705676078796e-02 -1.1533323675394058e-01</leafValues></_>
    <_>
      <internalNodes>
        0 -1 123115 2.5845052674412727e-02</internalNodes>
      <leafValues>
        -2.2082507610321045e-02 5.5952829122543335e-01</leafValues></_>
    <_>
      <internalNodes>
        0 -1 109098 -1.0129341389983892e-03</internalNodes>
      <leafValues>
        -2.9686743021011353e-01 3.8182862102985382e-02</leafValues></_>
    <_>
      <internalNodes>
        0 -1 109112 -3.9906964957481250e-05</internalNodes>
      <leafValues>
        1.3935631513595581e-01 -9.9664203822612762e-02</leafValues></_>
    <_>
      <internalNodes>
        0 -1 7952 4.3443581089377403e-03</internalNodes>
      <leafValues>
        -6.1672337353229523e-02 1.7539390921592712e-01</leafValues></_>
    <_>
      <internalNodes>
        0 -1 99696 -5.1563307642936707e-03</internalNodes>
      <leafValues>
        1.6710337996482849e-01 -6.6032886505126953e-02</leafValues></_>
    <_>
      <internalNodes>
        0 -1 123512 -5.3645004518330097e-03</internalNodes>
      <leafValues>
        1.5639218688011169e-01 -7.2010949254035950e-02</leafValues></_>
    <_>
      <internalNodes>
        0 -1 105588 7.6691256836056709e-03</internalNodes>
      <leafValues>
        -5.0678092986345291e-02 2.3734095692634583e-01</leafValues></_>
    <_>
      <internalNodes>
        0 -1 5095 7.1942266076803207e-03</internalNodes>
      <leafValues>
        -4.8171408474445343e-02 2.2777959704399109e-01</leafValues></_>
    <_>
      <internalNodes>
        0 -1 13009 1.4376507699489594e-01</internalNodes>
      <leafValues>
        1.8737727776169777e-02 -5.9735828638076782e-01</leafValues></_>
    <_>
      <internalNodes>
        0 -1 93494 1.3537724735215306e-03</internalNodes>
      <leafValues>
        3.6049902439117432e-02 -3.0009058117866516e-01</leafValues></_>
    <_>
      <internalNodes>
        0 -1 37416 3.3496706746518612e-03</internalNodes>
      <leafValues>
        -3.6128472536802292e-02 3.0574938654899597e-01</leafValues></_>
    <_>
      <internalNodes>
        0 -1 125195 6.5018271561712027e-04</internalNodes>
      <leafValues>
        6.4925976097583771e-02 -1.7149037122726440e-01</leafValues></_>
    <_>
      <internalNodes>
        0 -1 52303 5.1788716518785805e-05</internalNodes>
      <leafValues>
        -8.9443832635879517e-02 1.1954367905855179e-01</leafValues></_>
    <_>
      <internalNodes>
        0 -1 52222 7.7701685950160027e-04</internalNodes>
      <leafValues>
        4.4814385473728180e-02 -2.6488646864891052e-01</leafValues></_>
    <_>
      <internalNodes>
        0 -1 10746 -1.0643111541867256e-02</internalNodes>
      <leafValues>
        1.2933240830898285e-01 -8.6452268064022064e-02</leafValues></_>
    <_>
      <internalNodes>
        0 -1 12304 -5.1637813448905945e-02</internalNodes>
      <leafValues>
        2.0237331092357635e-01 -5.1231212913990021e-02</leafValues></_>
    <_>
      <internalNodes>
        0 -1 31434 4.0332311764359474e-03</internalNodes>
      <leafValues>
        -3.0578052625060081e-02 3.4555208683013916e-01</leafValues></_>
    <_>
      <internalNodes>
        0 -1 55949 -4.8996925354003906e-02</internalNodes>
      <leafValues>
        -5.9634268283843994e-01 2.0679427310824394e-02</leafValues></_>
    <_>
      <internalNodes>
        0 -1 40977 -1.6837924718856812e-02</internalNodes>
      <leafValues>
        1.1991778016090393e-01 -8.8853120803833008e-02</leafValues></_>
    <_>
      <internalNodes>
        0 -1 50742 4.9932956695556641e-02</internalNodes>
      <leafValues>
        -6.0394950211048126e-02 1.9657623767852783e-01</leafValues></_>
    <_>
      <internalNodes>
        0 -1 79888 2.4537816643714905e-03</internalNodes>
      <leafValues>
        -5.3345795720815659e-02 2.0322874188423157e-01</leafValues></_></weakClassifiers></stage6>
</opencv_storage>
