<?xml version="1.0"?>
<opencv_storage>
<stage27>
  <maxWeakCount>113</maxWeakCount>
  <stageThreshold>-1.3540961742401123e+00</stageThreshold>
  <weakClassifiers>
    <_>
      <internalNodes>
        0 -1 21079 -1.6857157647609711e-01</internalNodes>
      <leafValues>
        -4.0270552039146423e-01 4.3501716852188110e-01</leafValues></_>
    <_>
      <internalNodes>
        0 -1 100447 -1.8839532136917114e-01</internalNodes>
      <leafValues>
        -3.3477386832237244e-01 1.7832598090171814e-01</leafValues></_>
    <_>
      <internalNodes>
        0 -1 43813 1.0431394726037979e-01</internalNodes>
      <leafValues>
        2.1611750125885010e-01 -1.9636958837509155e-01</leafValues></_>
    <_>
      <internalNodes>
        0 -1 104875 -1.8742068277788348e-05</internalNodes>
      <leafValues>
        3.0453360080718994e-01 -9.6451699733734131e-02</leafValues></_>
    <_>
      <internalNodes>
        0 -1 98990 -5.0220481352880597e-04</internalNodes>
      <leafValues>
        1.4081570506095886e-01 -2.0167550444602966e-01</leafValues></_>
    <_>
      <internalNodes>
        0 -1 68874 1.7119016774813645e-05</internalNodes>
      <leafValues>
        -5.3827647119760513e-02 2.5733402371406555e-01</leafValues></_>
    <_>
      <internalNodes>
        0 -1 25 2.1336654201149940e-02</internalNodes>
      <leafValues>
        -4.3543633073568344e-03 -5.7676923274993896e-01</leafValues></_>
    <_>
      <internalNodes>
        0 -1 23099 -6.3349768519401550e-02</internalNodes>
      <leafValues>
        1.7573140561580658e-01 -9.3324311077594757e-02</leafValues></_>
    <_>
      <internalNodes>
        0 -1 82083 -1.9011152908205986e-02</internalNodes>
      <leafValues>
        -2.2002084553241730e-01 9.1924943029880524e-02</leafValues></_>
    <_>
      <internalNodes>
        0 -1 94503 -5.1776606589555740e-02</internalNodes>
      <leafValues>
        -6.3334047794342041e-01 1.7549443989992142e-02</leafValues></_>
    <_>
      <internalNodes>
        0 -1 33721 -7.8518038208130747e-05</internalNodes>
      <leafValues>
        8.1184506416320801e-02 -2.0157012343406677e-01</leafValues></_>
    <_>
      <internalNodes>
        0 -1 102986 -4.4420077756512910e-05</internalNodes>
      <leafValues>
        1.7143985629081726e-01 -9.0943925082683563e-02</leafValues></_>
    <_>
      <internalNodes>
        0 -1 68577 -5.4337801411747932e-03</internalNodes>
      <leafValues>
        1.1320849508047104e-01 -1.2539950013160706e-01</leafValues></_>
    <_>
      <internalNodes>
        0 -1 60141 -9.2469856142997742e-02</internalNodes>
      <leafValues>
        -3.7618693709373474e-01 4.7222513705492020e-02</leafValues></_>
    <_>
      <internalNodes>
        0 -1 9859 -1.7729062528815120e-04</internalNodes>
      <leafValues>
        -1.7318935692310333e-01 6.8880096077919006e-02</leafValues></_>
    <_>
      <internalNodes>
        0 -1 9859 8.7084779806900769e-05</internalNodes>
      <leafValues>
        9.0206980705261230e-02 -1.5253800153732300e-01</leafValues></_>
    <_>
      <internalNodes>
        0 -1 48368 -1.2893225252628326e-01</internalNodes>
      <leafValues>
        -2.3525086045265198e-01 5.0725068897008896e-02</leafValues></_>
    <_>
      <internalNodes>
        0 -1 21059 -1.5363240242004395e-01</internalNodes>
      <leafValues>
        1.5569390356540680e-01 -8.2469552755355835e-02</leafValues></_>
    <_>
      <internalNodes>
        0 -1 11645 -3.3961233496665955e-01</internalNodes>
      <leafValues>
        -7.5256037712097168e-01 2.1644344553351402e-02</leafValues></_>
    <_>
      <internalNodes>
        0 -1 18579 3.2447711564600468e-03</internalNodes>
      <leafValues>
        -5.7402152568101883e-02 2.2766129672527313e-01</leafValues></_>
    <_>
      <internalNodes>
        0 -1 28091 -3.1749098561704159e-03</internalNodes>
      <leafValues>
        2.4246205389499664e-01 -6.1118584126234055e-02</leafValues></_>
    <_>
      <internalNodes>
        0 -1 37456 -3.4241750836372375e-02</internalNodes>
      <leafValues>
        -6.0148727893829346e-01 2.3038143292069435e-02</leafValues></_>
    <_>
      <internalNodes>
        0 -1 47002 2.6882870588451624e-03</internalNodes>
      <leafValues>
        -3.6506675183773041e-02 3.0955985188484192e-01</leafValues></_>
    <_>
      <internalNodes>
        0 -1 69953 2.5907336384989321e-04</internalNodes>
      <leafValues>
        -9.7110778093338013e-02 1.2666928768157959e-01</leafValues></_>
    <_>
      <internalNodes>
        0 -1 17012 -5.5098030716180801e-03</internalNodes>
      <leafValues>
        1.5786741673946381e-01 -7.4698053300380707e-02</leafValues></_>
    <_>
      <internalNodes>
        0 -1 9053 6.4861262217164040e-03</internalNodes>
      <leafValues>
        -1.9744865596294403e-02 5.8463311195373535e-01</leafValues></_>
    <_>
      <internalNodes>
        0 -1 23576 2.0196901459712535e-05</internalNodes>
      <leafValues>
        -8.0554708838462830e-02 1.4094319939613342e-01</leafValues></_>
    <_>
      <internalNodes>
        0 -1 45498 -1.5980026219040155e-03</internalNodes>
      <leafValues>
        -1.9092570245265961e-01 5.9333831071853638e-02</leafValues></_>
    <_>
      <internalNodes>
        0 -1 53900 4.6782213030382991e-04</internalNodes>
      <leafValues>
        -6.6504530608654022e-02 1.5930160880088806e-01</leafValues></_>
    <_>
      <internalNodes>
        0 -1 105608 -5.7793655432760715e-03</internalNodes>
      <leafValues>
        5.0338208675384521e-01 -3.0028076842427254e-02</leafValues></_>
    <_>
      <internalNodes>
        0 -1 103756 -2.9834823217242956e-03</internalNodes>
      <leafValues>
        -2.6965698599815369e-01 4.3682646006345749e-02</leafValues></_>
    <_>
      <internalNodes>
        0 -1 64936 -3.2012552022933960e-02</internalNodes>
      <leafValues>
        2.1449038386344910e-01 -5.6356534361839294e-02</leafValues></_>
    <_>
      <internalNodes>
        0 -1 19359 1.3023784849792719e-03</internalNodes>
      <leafValues>
        5.0206299871206284e-02 -1.8904499709606171e-01</leafValues></_>
    <_>
      <internalNodes>
        0 -1 52923 -3.5798038879875094e-05</internalNodes>
      <leafValues>
        1.1620923876762390e-01 -8.1928968429565430e-02</leafValues></_>
    <_>
      <internalNodes>
        0 -1 21170 4.9524828791618347e-03</internalNodes>
      <leafValues>
        -3.2847523689270020e-02 3.3036601543426514e-01</leafValues></_>
    <_>
      <internalNodes>
        0 -1 683 1.1126272380352020e-01</internalNodes>
      <leafValues>
        3.5807684063911438e-02 -2.6719781756401062e-01</leafValues></_>
    <_>
      <internalNodes>
        0 -1 38856 3.8321223109960556e-03</internalNodes>
      <leafValues>
        -4.5447405427694321e-02 2.5125557184219360e-01</leafValues></_>
    <_>
      <internalNodes>
        0 -1 99471 2.1981244906783104e-02</internalNodes>
      <leafValues>
        2.2814312949776649e-02 -3.9446428418159485e-01</leafValues></_>
    <_>
      <internalNodes>
        0 -1 69262 -6.1857279390096664e-02</internalNodes>
      <leafValues>
        2.6247870922088623e-01 -4.7612234950065613e-02</leafValues></_>
    <_>
      <internalNodes>
        0 -1 97494 1.9502167124301195e-03</internalNodes>
      <leafValues>
        -6.5848328173160553e-02 1.5905340015888214e-01</leafValues></_>
    <_>
      <internalNodes>
        0 -1 29924 -4.1158262640237808e-02</internalNodes>
      <leafValues>
        -4.6117785573005676e-01 2.2196561098098755e-02</leafValues></_>
    <_>
      <internalNodes>
        0 -1 5079 -4.9214409664273262e-03</internalNodes>
      <leafValues>
        3.8052448630332947e-01 -2.8753446415066719e-02</leafValues></_>
    <_>
      <internalNodes>
        0 -1 38031 -5.8647524565458298e-03</internalNodes>
      <leafValues>
        1.4740300178527832e-01 -6.4797319471836090e-02</leafValues></_>
    <_>
      <internalNodes>
        0 -1 91874 1.8142674889531918e-05</internalNodes>
      <leafValues>
        -6.8717271089553833e-02 1.3058118522167206e-01</leafValues></_>
    <_>
      <internalNodes>
        0 -1 51728 7.2299700696021318e-04</internalNodes>
      <leafValues>
        8.5983045399188995e-02 -1.0985596477985382e-01</leafValues></_>
    <_>
      <internalNodes>
        0 -1 39767 4.8543615266680717e-03</internalNodes>
      <leafValues>
        -4.3795175850391388e-02 2.3861728608608246e-01</leafValues></_>
    <_>
      <internalNodes>
        0 -1 41245 -1.9032013416290283e-01</internalNodes>
      <leafValues>
        5.8802998065948486e-01 -1.3516748324036598e-02</leafValues></_>
    <_>
      <internalNodes>
        0 -1 43051 -5.9102028608322144e-03</internalNodes>
      <leafValues>
        -1.6464562714099884e-01 7.3396116495132446e-02</leafValues></_>
    <_>
      <internalNodes>
        0 -1 95236 9.6519656479358673e-02</internalNodes>
      <leafValues>
        1.5074661932885647e-02 -5.5762797594070435e-01</leafValues></_>
    <_>
      <internalNodes>
        0 -1 63283 2.8562737628817558e-02</internalNodes>
      <leafValues>
        3.0676206573843956e-02 -2.9682812094688416e-01</leafValues></_>
    <_>
      <internalNodes>
        0 -1 47097 -1.6991274897009134e-03</internalNodes>
      <leafValues>
        1.7924854159355164e-01 -4.8016533255577087e-02</leafValues></_>
    <_>
      <internalNodes>
        0 -1 52772 -1.1116896057501435e-03</internalNodes>
      <leafValues>
        -1.5917214751243591e-01 5.6030683219432831e-02</leafValues></_>
    <_>
      <internalNodes>
        0 -1 91874 -1.6588168364251032e-05</internalNodes>
      <leafValues>
        1.2947857379913330e-01 -7.3825351893901825e-02</leafValues></_>
    <_>
      <internalNodes>
        0 -1 91023 5.0078351050615311e-03</internalNodes>
      <leafValues>
        2.5806089863181114e-02 -3.3303800225257874e-01</leafValues></_>
    <_>
      <internalNodes>
        0 -1 119835 -7.3490664362907410e-03</internalNodes>
      <leafValues>
        2.2239080071449280e-01 -4.2180534452199936e-02</leafValues></_>
    <_>
      <internalNodes>
        0 -1 123927 -5.9438729658722878e-03</internalNodes>
      <leafValues>
        2.8802901506423950e-01 -2.8245421126484871e-02</leafValues></_>
    <_>
      <internalNodes>
        0 -1 8740 -4.3084151111543179e-03</internalNodes>
      <leafValues>
        2.3137556016445160e-01 -4.0019977837800980e-02</leafValues></_>
    <_>
      <internalNodes>
        0 -1 1714 1.0576115548610687e-01</internalNodes>
      <leafValues>
        1.8447890877723694e-02 -4.7355553507804871e-01</leafValues></_>
    <_>
      <internalNodes>
        0 -1 2440 3.4442092874087393e-04</internalNodes>
      <leafValues>
        -8.7987110018730164e-02 1.1134752631187439e-01</leafValues></_>
    <_>
      <internalNodes>
        0 -1 73074 -3.8976706564426422e-02</internalNodes>
      <leafValues>
        -4.4966888427734375e-01 1.6643451526761055e-02</leafValues></_>
    <_>
      <internalNodes>
        0 -1 124125 3.6222997587174177e-03</internalNodes>
      <leafValues>
        -2.9460893943905830e-02 2.9699686169624329e-01</leafValues></_>
    <_>
      <internalNodes>
        0 -1 108156 1.1010849475860596e-01</internalNodes>
      <leafValues>
        -1.3418831862509251e-02 6.4566338062286377e-01</leafValues></_>
    <_>
      <internalNodes>
        0 -1 110841 1.6993501782417297e-01</internalNodes>
      <leafValues>
        2.5199281051754951e-02 -3.7975198030471802e-01</leafValues></_>
    <_>
      <internalNodes>
        0 -1 16443 -3.1716343946754932e-03</internalNodes>
      <leafValues>
        1.3017559051513672e-01 -6.1916995793581009e-02</leafValues></_>
    <_>
      <internalNodes>
        0 -1 6103 -1.8263855949044228e-02</internalNodes>
      <leafValues>
        -4.8041087388992310e-01 1.8223248422145844e-02</leafValues></_>
    <_>
      <internalNodes>
        0 -1 5075 -3.2096384093165398e-03</internalNodes>
      <leafValues>
        1.8012583255767822e-01 -4.8143934458494186e-02</leafValues></_>
    <_>
      <internalNodes>
        0 -1 50047 8.5202626883983612e-02</internalNodes>
      <leafValues>
        -2.3024560883641243e-02 2.9949358105659485e-01</leafValues></_>
    <_>
      <internalNodes>
        0 -1 112170 -2.8875111602246761e-03</internalNodes>
      <leafValues>
        5.3078059107065201e-02 -1.8135617673397064e-01</leafValues></_>
    <_>
      <internalNodes>
        0 -1 11162 -9.8262093961238861e-03</internalNodes>
      <leafValues>
        4.0667331218719482e-01 -2.3342851549386978e-02</leafValues></_>
    <_>
      <internalNodes>
        0 -1 45251 -1.4921145047992468e-03</internalNodes>
      <leafValues>
        -1.5323533117771149e-01 5.7206749916076660e-02</leafValues></_>
    <_>
      <internalNodes>
        0 -1 76895 -1.8530785382608883e-05</internalNodes>
      <leafValues>
        1.0646890848875046e-01 -8.8741727173328400e-02</leafValues></_>
    <_>
      <internalNodes>
        0 -1 124675 7.8716035932302475e-03</internalNodes>
      <leafValues>
        -1.6076363623142242e-02 5.2773410081863403e-01</leafValues></_>
    <_>
      <internalNodes>
        0 -1 124142 3.2103419303894043e-02</internalNodes>
      <leafValues>
        1.6471663489937782e-02 -5.7236969470977783e-01</leafValues></_>
    <_>
      <internalNodes>
        0 -1 77208 3.8769446313381195e-02</internalNodes>
      <leafValues>
        -5.6947555392980576e-02 1.5874268114566803e-01</leafValues></_>
    <_>
      <internalNodes>
        0 -1 99945 3.6349259316921234e-03</internalNodes>
      <leafValues>
        -4.5432932674884796e-02 1.7604993283748627e-01</leafValues></_>
    <_>
      <internalNodes>
        0 -1 99956 -1.1939690448343754e-03</internalNodes>
      <leafValues>
        1.0777928680181503e-01 -7.8620731830596924e-02</leafValues></_>
    <_>
      <internalNodes>
        0 -1 100466 3.0512330704368651e-04</internalNodes>
      <leafValues>
        6.7786917090415955e-02 -1.2757843732833862e-01</leafValues></_>
    <_>
      <internalNodes>
        0 -1 196 -3.0433885753154755e-02</internalNodes>
      <leafValues>
        -5.2952861785888672e-01 1.6295267269015312e-02</leafValues></_>
    <_>
      <internalNodes>
        0 -1 79284 -3.0121915042400360e-02</internalNodes>
      <leafValues>
        -3.8330423831939697e-01 1.7802955582737923e-02</leafValues></_>
    <_>
      <internalNodes>
        0 -1 113946 1.4389972202479839e-03</internalNodes>
      <leafValues>
        3.5372793674468994e-02 -2.1444417536258698e-01</leafValues></_>
    <_>
      <internalNodes>
        0 -1 63355 -6.8574692122638226e-03</internalNodes>
      <leafValues>
        4.1690817475318909e-01 -2.0839201286435127e-02</leafValues></_>
    <_>
      <internalNodes>
        0 -1 9271 1.5692980587482452e-01</internalNodes>
      <leafValues>
        1.2095403857529163e-02 -6.9807595014572144e-01</leafValues></_>
    <_>
      <internalNodes>
        0 -1 108924 -3.7506496300920844e-04</internalNodes>
      <leafValues>
        -8.3022497594356537e-02 1.0241830348968506e-01</leafValues></_>
    <_>
      <internalNodes>
        0 -1 96941 8.0670760944485664e-03</internalNodes>
      <leafValues>
        -4.0170822292566299e-02 2.1337845921516418e-01</leafValues></_>
    <_>
      <internalNodes>
        0 -1 60749 -1.6588168364251032e-05</internalNodes>
      <leafValues>
        1.1791779100894928e-01 -7.4651688337326050e-02</leafValues></_>
    <_>
      <internalNodes>
        0 -1 84679 1.0466645471751690e-04</internalNodes>
      <leafValues>
        -1.6708455979824066e-01 4.9563974142074585e-02</leafValues></_>
    <_>
      <internalNodes>
        0 -1 81341 -2.3291650414466858e-01</internalNodes>
      <leafValues>
        -8.3907586336135864e-01 8.4681343287229538e-03</leafValues></_>
    <_>
      <internalNodes>
        0 -1 101011 -3.2985968573484570e-05</internalNodes>
      <leafValues>
        1.2337689101696014e-01 -7.2460792958736420e-02</leafValues></_>
    <_>
      <internalNodes>
        0 -1 100494 3.2771246042102575e-03</internalNodes>
      <leafValues>
        -4.8044621944427490e-02 1.8379533290863037e-01</leafValues></_>
    <_>
      <internalNodes>
        0 -1 104884 8.7786800577305257e-05</internalNodes>
      <leafValues>
        6.8848572671413422e-02 -1.1724524199962616e-01</leafValues></_>
    <_>
      <internalNodes>
        0 -1 94343 -1.4559242408722639e-03</internalNodes>
      <leafValues>
        -6.6206358373165131e-02 1.2089897692203522e-01</leafValues></_>
    <_>
      <internalNodes>
        0 -1 56563 -2.2087219357490540e-01</internalNodes>
      <leafValues>
        2.5572714209556580e-01 -3.3342178910970688e-02</leafValues></_>
    <_>
      <internalNodes>
        0 -1 110360 -1.1035155039280653e-03</internalNodes>
      <leafValues>
        1.6004148125648499e-01 -5.3092036396265030e-02</leafValues></_>
    <_>
      <internalNodes>
        0 -1 121522 -5.4493127390742302e-04</internalNodes>
      <leafValues>
        -1.4976261556148529e-01 5.9549208730459213e-02</leafValues></_>
    <_>
      <internalNodes>
        0 -1 122742 8.6233206093311310e-03</internalNodes>
      <leafValues>
        -1.9131233915686607e-02 4.1773942112922668e-01</leafValues></_>
    <_>
      <internalNodes>
        0 -1 42589 -3.3283138182014227e-03</internalNodes>
      <leafValues>
        9.1554522514343262e-02 -8.3117946982383728e-02</leafValues></_>
    <_>
      <internalNodes>
        0 -1 36745 -2.1421205019578338e-04</internalNodes>
      <leafValues>
        1.3424476981163025e-01 -6.0550592839717865e-02</leafValues></_>
    <_>
      <internalNodes>
        0 -1 17688 2.0551465451717377e-02</internalNodes>
      <leafValues>
        -4.9011681228876114e-02 1.5667168796062469e-01</leafValues></_>
    <_>
      <internalNodes>
        0 -1 45517 -9.1452062129974365e-02</internalNodes>
      <leafValues>
        -4.3562796711921692e-01 2.0251350477337837e-02</leafValues></_>
    <_>
      <internalNodes>
        0 -1 105638 -1.8662072718143463e-02</internalNodes>
      <leafValues>
        -5.8749371767044067e-01 1.1761898174881935e-02</leafValues></_>
    <_>
      <internalNodes>
        0 -1 73189 1.1335482820868492e-02</internalNodes>
      <leafValues>
        -5.8945152908563614e-02 1.4520123600959778e-01</leafValues></_>
    <_>
      <internalNodes>
        0 -1 122088 4.1120380163192749e-02</internalNodes>
      <leafValues>
        1.9051730632781982e-02 -5.3898972272872925e-01</leafValues></_>
    <_>
      <internalNodes>
        0 -1 18788 -4.4347885996103287e-03</internalNodes>
      <leafValues>
        3.5037112236022949e-01 -2.5045994669198990e-02</leafValues></_>
    <_>
      <internalNodes>
        0 -1 116111 -2.8350085020065308e-02</internalNodes>
      <leafValues>
        1.7255376279354095e-01 -4.6055037528276443e-02</leafValues></_>
    <_>
      <internalNodes>
        0 -1 110275 4.0185665711760521e-03</internalNodes>
      <leafValues>
        -4.7065343707799911e-02 1.7594744265079498e-01</leafValues></_>
    <_>
      <internalNodes>
        0 -1 9739 -1.4442107640206814e-03</internalNodes>
      <leafValues>
        -1.8757329881191254e-01 4.0636226534843445e-02</leafValues></_>
    <_>
      <internalNodes>
        0 -1 4924 -2.6030842214822769e-02</internalNodes>
      <leafValues>
        -4.1451680660247803e-01 1.7761357128620148e-02</leafValues></_>
    <_>
      <internalNodes>
        0 -1 80039 1.4470764435827732e-03</internalNodes>
      <leafValues>
        1.0495827347040176e-01 -7.6084472239017487e-02</leafValues></_>
    <_>
      <internalNodes>
        0 -1 119209 -8.2502797245979309e-02</internalNodes>
      <leafValues>
        -6.5968060493469238e-01 5.9804655611515045e-03</leafValues></_>
    <_>
      <internalNodes>
        0 -1 23559 -2.9139674734324217e-04</internalNodes>
      <leafValues>
        7.3430821299552917e-02 -1.0406643897294998e-01</leafValues></_>
    <_>
      <internalNodes>
        0 -1 122285 5.9765302576124668e-03</internalNodes>
      <leafValues>
        -2.4383800104260445e-02 3.1478857994079590e-01</leafValues></_>
    <_>
      <internalNodes>
        0 -1 110558 5.2099011838436127e-02</internalNodes>
      <leafValues>
        1.1266233399510384e-02 -6.3949847221374512e-01</leafValues></_>
    <_>
      <internalNodes>
        0 -1 65696 3.9042755961418152e-03</internalNodes>
      <leafValues>
        -2.8562482446432114e-02 2.8980067372322083e-01</leafValues></_></weakClassifiers></stage27>
</opencv_storage>
