<?xml version="1.0"?>
<opencv_storage>
<stage31>
  <maxWeakCount>178</maxWeakCount>
  <stageThreshold>-1.2455570697784424e+00</stageThreshold>
  <weakClassifiers>
    <_>
      <internalNodes>
        0 -1 12348 8.0049447715282440e-02</internalNodes>
      <leafValues>
        1.6371913254261017e-01 -5.5133080482482910e-01</leafValues></_>
    <_>
      <internalNodes>
        0 -1 123570 -4.4364605855662376e-05</internalNodes>
      <leafValues>
        -1.8912793695926666e-01 1.3561853766441345e-01</leafValues></_>
    <_>
      <internalNodes>
        0 -1 714 1.1036937683820724e-01</internalNodes>
      <leafValues>
        -2.2181581705808640e-02 5.1457333564758301e-01</leafValues></_>
    <_>
      <internalNodes>
        0 -1 73762 9.3902135267853737e-04</internalNodes>
      <leafValues>
        6.9649226963520050e-02 -2.2660522162914276e-01</leafValues></_>
    <_>
      <internalNodes>
        0 -1 15525 -2.5515530258417130e-02</internalNodes>
      <leafValues>
        -1.3860976696014404e-01 1.4101417362689972e-01</leafValues></_>
    <_>
      <internalNodes>
        0 -1 123679 -3.3841628581285477e-02</internalNodes>
      <leafValues>
        -1.8181145191192627e-01 9.6028447151184082e-02</leafValues></_>
    <_>
      <internalNodes>
        0 -1 81370 -9.6713338280096650e-04</internalNodes>
      <leafValues>
        -1.1984159052371979e-01 1.4752456545829773e-01</leafValues></_>
    <_>
      <internalNodes>
        0 -1 119595 -2.3270971723832190e-04</internalNodes>
      <leafValues>
        -2.5256615877151489e-01 6.5547503530979156e-02</leafValues></_>
    <_>
      <internalNodes>
        0 -1 96344 2.1934844553470612e-02</internalNodes>
      <leafValues>
        -2.0050982013344765e-02 5.4736244678497314e-01</leafValues></_>
    <_>
      <internalNodes>
        0 -1 97239 -1.9693961739540100e-01</internalNodes>
      <leafValues>
        -2.7729731798171997e-01 5.2703328430652618e-02</leafValues></_>
    <_>
      <internalNodes>
        0 -1 48067 -3.5920530557632446e-02</internalNodes>
      <leafValues>
        -3.6295238137245178e-01 4.3668318539857864e-02</leafValues></_>
    <_>
      <internalNodes>
        0 -1 30521 7.1269206702709198e-02</internalNodes>
      <leafValues>
        2.4438261985778809e-02 -6.1239159107208252e-01</leafValues></_>
    <_>
      <internalNodes>
        0 -1 121694 -4.6378606930375099e-03</internalNodes>
      <leafValues>
        1.8780900537967682e-01 -8.9141227304935455e-02</leafValues></_>
    <_>
      <internalNodes>
        0 -1 85500 -2.3302683257497847e-04</internalNodes>
      <leafValues>
        -1.5352140367031097e-01 9.8265856504440308e-02</leafValues></_>
    <_>
      <internalNodes>
        0 -1 92214 1.6353325918316841e-04</internalNodes>
      <leafValues>
        -8.1326663494110107e-02 1.7855726182460785e-01</leafValues></_>
    <_>
      <internalNodes>
        0 -1 122591 -6.6687881946563721e-02</internalNodes>
      <leafValues>
        4.0228912234306335e-01 -2.7855096384882927e-02</leafValues></_>
    <_>
      <internalNodes>
        0 -1 125198 1.0135523916687816e-04</internalNodes>
      <leafValues>
        8.6677052080631256e-02 -1.5797942876815796e-01</leafValues></_>
    <_>
      <internalNodes>
        0 -1 125198 -5.7647212088340893e-05</internalNodes>
      <leafValues>
        -1.9907130300998688e-01 1.3054862618446350e-01</leafValues></_>
    <_>
      <internalNodes>
        0 -1 113595 8.6115649901330471e-04</internalNodes>
      <leafValues>
        -8.2480497658252716e-02 1.8684478104114532e-01</leafValues></_>
    <_>
      <internalNodes>
        0 -1 295 -4.6930801123380661e-02</internalNodes>
      <leafValues>
        6.2016820907592773e-01 -1.6060788184404373e-02</leafValues></_>
    <_>
      <internalNodes>
        0 -1 30681 6.4969640225172043e-03</internalNodes>
      <leafValues>
        -4.9208916723728180e-02 2.4607826769351959e-01</leafValues></_>
    <_>
      <internalNodes>
        0 -1 53444 -1.4726396650075912e-02</internalNodes>
      <leafValues>
        4.2258727550506592e-01 -3.0592491850256920e-02</leafValues></_>
    <_>
      <internalNodes>
        0 -1 109212 3.3041443675756454e-02</internalNodes>
      <leafValues>
        5.7845361530780792e-02 -2.1161848306655884e-01</leafValues></_>
    <_>
      <internalNodes>
        0 -1 112673 -3.8480393588542938e-02</internalNodes>
      <leafValues>
        -1.8133322894573212e-01 7.4538543820381165e-02</leafValues></_>
    <_>
      <internalNodes>
        0 -1 72036 8.0369861098006368e-04</internalNodes>
      <leafValues>
        7.4286729097366333e-02 -1.7216381430625916e-01</leafValues></_>
    <_>
      <internalNodes>
        0 -1 125198 6.1781269323546439e-05</internalNodes>
      <leafValues>
        8.9756362140178680e-02 -1.3207854330539703e-01</leafValues></_>
    <_>
      <internalNodes>
        0 -1 89002 6.4220009371638298e-03</internalNodes>
      <leafValues>
        -3.2808773219585419e-02 3.8495531678199768e-01</leafValues></_>
    <_>
      <internalNodes>
        0 -1 65662 -1.6252982616424561e-01</internalNodes>
      <leafValues>
        -1.6930720210075378e-01 7.6495043933391571e-02</leafValues></_>
    <_>
      <internalNodes>
        0 -1 108610 4.5175170525908470e-03</internalNodes>
      <leafValues>
        6.2575422227382660e-02 -2.0951864123344421e-01</leafValues></_>
    <_>
      <internalNodes>
        0 -1 118984 1.4985650777816772e-01</internalNodes>
      <leafValues>
        -2.4447109550237656e-02 4.6908622980117798e-01</leafValues></_>
    <_>
      <internalNodes>
        0 -1 123408 -8.6108309915289283e-05</internalNodes>
      <leafValues>
        -1.3771489262580872e-01 7.9724758863449097e-02</leafValues></_>
    <_>
      <internalNodes>
        0 -1 70483 -1.9604569673538208e-01</internalNodes>
      <leafValues>
        -2.6120978593826294e-01 4.4567696750164032e-02</leafValues></_>
    <_>
      <internalNodes>
        0 -1 56764 -1.1205235868692398e-01</internalNodes>
      <leafValues>
        -7.4347221851348877e-01 1.1776586994528770e-02</leafValues></_>
    <_>
      <internalNodes>
        0 -1 106349 2.4292608723044395e-03</internalNodes>
      <leafValues>
        1.4109440147876740e-01 -7.7309027314186096e-02</leafValues></_>
    <_>
      <internalNodes>
        0 -1 66092 1.4085792005062103e-02</internalNodes>
      <leafValues>
        -7.3076888918876648e-02 1.5188333392143250e-01</leafValues></_>
    <_>
      <internalNodes>
        0 -1 119535 -6.5821399912238121e-03</internalNodes>
      <leafValues>
        1.3161137700080872e-01 -8.0093860626220703e-02</leafValues></_>
    <_>
      <internalNodes>
        0 -1 9551 7.5417061452753842e-05</internalNodes>
      <leafValues>
        9.1553218662738800e-02 -1.1106313765048981e-01</leafValues></_>
    <_>
      <internalNodes>
        0 -1 9549 -9.2081878392491490e-05</internalNodes>
      <leafValues>
        -1.2318661808967590e-01 8.1548079848289490e-02</leafValues></_>
    <_>
      <internalNodes>
        0 -1 61782 2.8183616814203560e-04</internalNodes>
      <leafValues>
        -6.0612592846155167e-02 1.6789036989212036e-01</leafValues></_>
    <_>
      <internalNodes>
        0 -1 95728 2.2998955100774765e-03</internalNodes>
      <leafValues>
        5.0122488290071487e-02 -2.2434593737125397e-01</leafValues></_>
    <_>
      <internalNodes>
        0 -1 52340 -2.8593007475137711e-02</internalNodes>
      <leafValues>
        6.2015056610107422e-01 -1.6916153952479362e-02</leafValues></_>
    <_>
      <internalNodes>
        0 -1 91492 7.2095164796337485e-05</internalNodes>
      <leafValues>
        1.0684277862310410e-01 -9.5459178090095520e-02</leafValues></_>
    <_>
      <internalNodes>
        0 -1 5818 -6.2665358185768127e-02</internalNodes>
      <leafValues>
        -2.2116832435131073e-01 4.6050924807786942e-02</leafValues></_>
    <_>
      <internalNodes>
        0 -1 19772 -1.9497610628604889e-02</internalNodes>
      <leafValues>
        3.8803839683532715e-01 -2.8413869440555573e-02</leafValues></_>
    <_>
      <internalNodes>
        0 -1 61363 -3.4957623574882746e-04</internalNodes>
      <leafValues>
        1.6603851318359375e-01 -6.0939367860555649e-02</leafValues></_>
    <_>
      <internalNodes>
        0 -1 32896 6.3843256793916225e-04</internalNodes>
      <leafValues>
        6.6261835396289825e-02 -1.4735043048858643e-01</leafValues></_>
    <_>
      <internalNodes>
        0 -1 42586 9.2925745993852615e-03</internalNodes>
      <leafValues>
        -3.1586263328790665e-02 3.3052292466163635e-01</leafValues></_>
    <_>
      <internalNodes>
        0 -1 305 -3.7951983511447906e-02</internalNodes>
      <leafValues>
        -3.1047853827476501e-01 3.3077362924814224e-02</leafValues></_>
    <_>
      <internalNodes>
        0 -1 121659 -6.9825705140829086e-03</internalNodes>
      <leafValues>
        1.7578570544719696e-01 -5.5072188377380371e-02</leafValues></_>
    <_>
      <internalNodes>
        0 -1 77828 1.6532704466953874e-04</internalNodes>
      <leafValues>
        -5.8404009789228439e-02 1.6162243485450745e-01</leafValues></_>
    <_>
      <internalNodes>
        0 -1 14076 2.0881433738395572e-04</internalNodes>
      <leafValues>
        6.0145735740661621e-02 -1.6357237100601196e-01</leafValues></_>
    <_>
      <internalNodes>
        0 -1 111419 9.4986194744706154e-04</internalNodes>
      <leafValues>
        4.8274155706167221e-02 -1.9326053559780121e-01</leafValues></_>
    <_>
      <internalNodes>
        0 -1 121847 3.4245900809764862e-02</internalNodes>
      <leafValues>
        3.5703621804714203e-02 -2.4129082262516022e-01</leafValues></_>
    <_>
      <internalNodes>
        0 -1 93080 -5.0696532707661390e-04</internalNodes>
      <leafValues>
        -1.7680892348289490e-01 4.8807360231876373e-02</leafValues></_>
    <_>
      <internalNodes>
        0 -1 61800 -4.3036582064814866e-04</internalNodes>
      <leafValues>
        1.5921910107135773e-01 -6.2626525759696960e-02</leafValues></_>
    <_>
      <internalNodes>
        0 -1 98234 -2.7443049475550652e-03</internalNodes>
      <leafValues>
        -1.9589006900787354e-01 5.1007099449634552e-02</leafValues></_>
    <_>
      <internalNodes>
        0 -1 54247 3.2735425978899002e-02</internalNodes>
      <leafValues>
        -2.0747680217027664e-02 4.9714103341102600e-01</leafValues></_>
    <_>
      <internalNodes>
        0 -1 53016 1.0096689686179161e-02</internalNodes>
      <leafValues>
        3.8107480853796005e-02 -2.7775940299034119e-01</leafValues></_>
    <_>
      <internalNodes>
        0 -1 77392 -6.9817097391933203e-04</internalNodes>
      <leafValues>
        1.5265572071075439e-01 -6.4772963523864746e-02</leafValues></_>
    <_>
      <internalNodes>
        0 -1 125195 -8.1827776739373803e-05</internalNodes>
      <leafValues>
        -1.1670927703380585e-01 7.7316813170909882e-02</leafValues></_>
    <_>
      <internalNodes>
        0 -1 60632 -1.5443221200257540e-03</internalNodes>
      <leafValues>
        9.9791444838047028e-02 -8.8409863412380219e-02</leafValues></_>
    <_>
      <internalNodes>
        0 -1 81659 -9.0235084295272827e-02</internalNodes>
      <leafValues>
        -2.3739010095596313e-01 3.6778889596462250e-02</leafValues></_>
    <_>
      <internalNodes>
        0 -1 36118 1.6534325480461121e-01</internalNodes>
      <leafValues>
        -2.3357352241873741e-02 5.2272140979766846e-01</leafValues></_>
    <_>
      <internalNodes>
        0 -1 18688 7.5748220086097717e-02</internalNodes>
      <leafValues>
        -2.6168446987867355e-02 3.2745063304901123e-01</leafValues></_>
    <_>
      <internalNodes>
        0 -1 38772 -3.9030563831329346e-01</internalNodes>
      <leafValues>
        7.3077052831649780e-01 -1.2289168313145638e-02</leafValues></_>
    <_>
      <internalNodes>
        0 -1 43849 1.6170877963304520e-02</internalNodes>
      <leafValues>
        -1.8577426671981812e-02 4.3251687288284302e-01</leafValues></_>
    <_>
      <internalNodes>
        0 -1 49602 2.4298713542521000e-03</internalNodes>
      <leafValues>
        5.1397725939750671e-02 -1.6578423976898193e-01</leafValues></_>
    <_>
      <internalNodes>
        0 -1 93847 2.4419612600468099e-04</internalNodes>
      <leafValues>
        1.1981164664030075e-01 -7.6394215226173401e-02</leafValues></_>
    <_>
      <internalNodes>
        0 -1 98304 1.9191869068890810e-04</internalNodes>
      <leafValues>
        6.9378912448883057e-02 -1.2524935603141785e-01</leafValues></_>
    <_>
      <internalNodes>
        0 -1 78227 1.8124925554729998e-04</internalNodes>
      <leafValues>
        -4.6886924654245377e-02 2.0160518586635590e-01</leafValues></_>
    <_>
      <internalNodes>
        0 -1 84296 4.0023280307650566e-03</internalNodes>
      <leafValues>
        4.2442504316568375e-02 -2.5367629528045654e-01</leafValues></_>
    <_>
      <internalNodes>
        0 -1 111519 -2.1248657256364822e-02</internalNodes>
      <leafValues>
        1.9641657173633575e-01 -5.5874049663543701e-02</leafValues></_>
    <_>
      <internalNodes>
        0 -1 15483 -1.3433557748794556e-01</internalNodes>
      <leafValues>
        -1.9072897732257843e-01 5.1683206111192703e-02</leafValues></_>
    <_>
      <internalNodes>
        0 -1 17935 3.0371405184268951e-02</internalNodes>
      <leafValues>
        3.2086856663227081e-02 -3.1224301457405090e-01</leafValues></_>
    <_>
      <internalNodes>
        0 -1 115258 -2.3780673742294312e-01</internalNodes>
      <leafValues>
        -4.7884798049926758e-01 2.0094413310289383e-02</leafValues></_>
    <_>
      <internalNodes>
        0 -1 99109 2.0246597006917000e-02</internalNodes>
      <leafValues>
        2.5249181315302849e-02 -3.4500336647033691e-01</leafValues></_>
    <_>
      <internalNodes>
        0 -1 62504 -1.3408149592578411e-02</internalNodes>
      <leafValues>
        4.6168005466461182e-01 -1.9081866368651390e-02</leafValues></_>
    <_>
      <internalNodes>
        0 -1 32466 1.7055265605449677e-02</internalNodes>
      <leafValues>
        4.2831376194953918e-02 -2.6471084356307983e-01</leafValues></_>
    <_>
      <internalNodes>
        0 -1 49810 -2.5971755385398865e-03</internalNodes>
      <leafValues>
        -9.4360336661338806e-02 1.0549834370613098e-01</leafValues></_>
    <_>
      <internalNodes>
        0 -1 93770 1.4416056685149670e-02</internalNodes>
      <leafValues>
        -5.7903025299310684e-02 1.6247104108333588e-01</leafValues></_>
    <_>
      <internalNodes>
        0 -1 99068 -6.2337769195437431e-03</internalNodes>
      <leafValues>
        8.5939997434616089e-01 -6.7780683748424053e-03</leafValues></_>
    <_>
      <internalNodes>
        0 -1 36293 -6.2150459736585617e-02</internalNodes>
      <leafValues>
        4.5442298054695129e-01 -1.4800475910305977e-02</leafValues></_>
    <_>
      <internalNodes>
        0 -1 76595 -8.4581300616264343e-03</internalNodes>
      <leafValues>
        -1.3706111907958984e-01 6.1164285987615585e-02</leafValues></_>
    <_>
      <internalNodes>
        0 -1 103516 1.9111301004886627e-01</internalNodes>
      <leafValues>
        -1.2890013866126537e-02 7.6025825738906860e-01</leafValues></_>
    <_>
      <internalNodes>
        0 -1 13694 -1.3066637516021729e-01</internalNodes>
      <leafValues>
        -7.0281946659088135e-01 1.6064811497926712e-02</leafValues></_>
    <_>
      <internalNodes>
        0 -1 116791 3.8629341870546341e-03</internalNodes>
      <leafValues>
        5.3869955241680145e-02 -1.5909814834594727e-01</leafValues></_>
    <_>
      <internalNodes>
        0 -1 69857 2.2565833933185786e-04</internalNodes>
      <leafValues>
        -5.8150917291641235e-02 1.6162955760955811e-01</leafValues></_>
    <_>
      <internalNodes>
        0 -1 53027 -1.8209778936579823e-03</internalNodes>
      <leafValues>
        -9.1724097728729248e-02 9.8774634301662445e-02</leafValues></_>
    <_>
      <internalNodes>
        0 -1 41530 2.0926844328641891e-02</internalNodes>
      <leafValues>
        1.1582445353269577e-01 -8.8971629738807678e-02</leafValues></_>
    <_>
      <internalNodes>
        0 -1 38497 1.5713334083557129e-01</internalNodes>
      <leafValues>
        -3.5862855613231659e-02 3.6640313267707825e-01</leafValues></_>
    <_>
      <internalNodes>
        0 -1 110390 1.0144744301214814e-03</internalNodes>
      <leafValues>
        5.8437008410692215e-02 -1.5949185192584991e-01</leafValues></_>
    <_>
      <internalNodes>
        0 -1 38979 -1.5033124014735222e-02</internalNodes>
      <leafValues>
        -1.6721157729625702e-01 5.2694994956254959e-02</leafValues></_>
    <_>
      <internalNodes>
        0 -1 47533 -5.7426244020462036e-03</internalNodes>
      <leafValues>
        1.0409396886825562e-01 -8.5888817906379700e-02</leafValues></_>
    <_>
      <internalNodes>
        0 -1 67093 -6.4555518329143524e-03</internalNodes>
      <leafValues>
        3.3354765176773071e-01 -2.4627868086099625e-02</leafValues></_>
    <_>
      <internalNodes>
        0 -1 57041 5.1649548113346100e-02</internalNodes>
      <leafValues>
        1.7603268846869469e-02 -5.6442964076995850e-01</leafValues></_>
    <_>
      <internalNodes>
        0 -1 121402 2.7447424829006195e-02</internalNodes>
      <leafValues>
        1.1750008910894394e-02 -5.7085716724395752e-01</leafValues></_>
    <_>
      <internalNodes>
        0 -1 56028 -1.3645906746387482e-01</internalNodes>
      <leafValues>
        -3.6558610200881958e-01 2.0510995760560036e-02</leafValues></_>
    <_>
      <internalNodes>
        0 -1 114025 2.9657613486051559e-02</internalNodes>
      <leafValues>
        -2.0109653472900391e-02 4.3063625693321228e-01</leafValues></_>
    <_>
      <internalNodes>
        0 -1 71132 -2.7437537908554077e-02</internalNodes>
      <leafValues>
        -5.7372200489044189e-01 1.7573662102222443e-02</leafValues></_>
    <_>
      <internalNodes>
        0 -1 124769 -4.1175411752192304e-05</internalNodes>
      <leafValues>
        -1.1269276589155197e-01 7.1408882737159729e-02</leafValues></_>
    <_>
      <internalNodes>
        0 -1 64936 7.1602135896682739e-02</internalNodes>
      <leafValues>
        -3.8118358701467514e-02 2.0961195230484009e-01</leafValues></_>
    <_>
      <internalNodes>
        0 -1 102398 -2.0345182716846466e-01</internalNodes>
      <leafValues>
        4.9550026655197144e-01 -1.6724886372685432e-02</leafValues></_>
    <_>
      <internalNodes>
        0 -1 118681 -2.3889178037643433e-01</internalNodes>
      <leafValues>
        7.0818257331848145e-01 -9.6549605950713158e-03</leafValues></_>
    <_>
      <internalNodes>
        0 -1 60205 1.0661449283361435e-02</internalNodes>
      <leafValues>
        -1.1586735025048256e-02 5.9604585170745850e-01</leafValues></_>
    <_>
      <internalNodes>
        0 -1 38247 6.8676061928272247e-02</internalNodes>
      <leafValues>
        1.4430596493184566e-02 -6.0863035917282104e-01</leafValues></_>
    <_>
      <internalNodes>
        0 -1 96048 -7.0334123447537422e-03</internalNodes>
      <leafValues>
        4.3236312270164490e-01 -2.0377121865749359e-02</leafValues></_>
    <_>
      <internalNodes>
        0 -1 55830 9.8316092044115067e-03</internalNodes>
      <leafValues>
        -2.3384081199765205e-02 3.3718544244766235e-01</leafValues></_>
    <_>
      <internalNodes>
        0 -1 117755 -1.6978245228528976e-02</internalNodes>
      <leafValues>
        -4.5516800880432129e-01 1.7797501757740974e-02</leafValues></_>
    <_>
      <internalNodes>
        0 -1 1923 -3.3894907683134079e-03</internalNodes>
      <leafValues>
        -7.8507944941520691e-02 9.5540873706340790e-02</leafValues></_>
    <_>
      <internalNodes>
        0 -1 8434 -2.0538430660963058e-02</internalNodes>
      <leafValues>
        -2.9444658756256104e-01 2.7786618098616600e-02</leafValues></_>
    <_>
      <internalNodes>
        0 -1 23564 4.4311658712103963e-04</internalNodes>
      <leafValues>
        5.1470845937728882e-02 -1.5604345500469208e-01</leafValues></_>
    <_>
      <internalNodes>
        0 -1 8063 2.8153571765869856e-03</internalNodes>
      <leafValues>
        -4.8890776932239532e-02 1.5667913854122162e-01</leafValues></_>
    <_>
      <internalNodes>
        0 -1 78690 -1.6316215042024851e-03</internalNodes>
      <leafValues>
        -7.5744576752185822e-02 1.0003876686096191e-01</leafValues></_>
    <_>
      <internalNodes>
        0 -1 92313 2.9171449132263660e-03</internalNodes>
      <leafValues>
        4.8418197780847549e-02 -2.1263542771339417e-01</leafValues></_>
    <_>
      <internalNodes>
        0 -1 64106 -2.1762903779745102e-03</internalNodes>
      <leafValues>
        1.6682383418083191e-01 -5.2129548043012619e-02</leafValues></_>
    <_>
      <internalNodes>
        0 -1 17707 -1.4479842502623796e-04</internalNodes>
      <leafValues>
        8.4112226963043213e-02 -9.1672874987125397e-02</leafValues></_>
    <_>
      <internalNodes>
        0 -1 69989 5.2394960075616837e-03</internalNodes>
      <leafValues>
        -4.1486214846372604e-02 2.0538941025733948e-01</leafValues></_>
    <_>
      <internalNodes>
        0 -1 60128 -8.6387887597084045e-02</internalNodes>
      <leafValues>
        -1.5014347434043884e-01 5.1967240869998932e-02</leafValues></_>
    <_>
      <internalNodes>
        0 -1 104984 -2.6704262942075729e-02</internalNodes>
      <leafValues>
        2.7556756138801575e-01 -3.5998571664094925e-02</leafValues></_>
    <_>
      <internalNodes>
        0 -1 109925 -4.2575757950544357e-02</internalNodes>
      <leafValues>
        -2.6144459843635559e-01 3.0395124107599258e-02</leafValues></_>
    <_>
      <internalNodes>
        0 -1 75093 3.2141036354005337e-03</internalNodes>
      <leafValues>
        4.1199471801519394e-02 -1.9428783655166626e-01</leafValues></_>
    <_>
      <internalNodes>
        0 -1 66693 -4.8193596303462982e-02</internalNodes>
      <leafValues>
        6.0864222049713135e-01 -1.4535985887050629e-02</leafValues></_>
    <_>
      <internalNodes>
        0 -1 85046 2.2740337590221316e-04</internalNodes>
      <leafValues>
        -4.3775979429483414e-02 1.7415325343608856e-01</leafValues></_>
    <_>
      <internalNodes>
        0 -1 95476 3.1397189013659954e-03</internalNodes>
      <leafValues>
        4.1465546935796738e-02 -1.9300667941570282e-01</leafValues></_>
    <_>
      <internalNodes>
        0 -1 115364 7.0639923214912415e-03</internalNodes>
      <leafValues>
        -4.5423217117786407e-02 1.6495098173618317e-01</leafValues></_>
    <_>
      <internalNodes>
        0 -1 119892 -2.0654937252402306e-02</internalNodes>
      <leafValues>
        -2.7768605947494507e-01 2.8455175459384918e-02</leafValues></_>
    <_>
      <internalNodes>
        0 -1 122058 -5.5376850068569183e-02</internalNodes>
      <leafValues>
        -4.7220349311828613e-01 1.6245117411017418e-02</leafValues></_>
    <_>
      <internalNodes>
        0 -1 37863 2.5176932103931904e-04</internalNodes>
      <leafValues>
        6.8619184195995331e-02 -1.1394774168729782e-01</leafValues></_>
    <_>
      <internalNodes>
        0 -1 124936 -9.6632782369852066e-03</internalNodes>
      <leafValues>
        1.3776643574237823e-01 -5.9035766869783401e-02</leafValues></_>
    <_>
      <internalNodes>
        0 -1 124958 -4.2148327338509262e-05</internalNodes>
      <leafValues>
        -7.5095154345035553e-02 1.0740850865840912e-01</leafValues></_>
    <_>
      <internalNodes>
        0 -1 55366 3.4089434891939163e-02</internalNodes>
      <leafValues>
        1.3093807734549046e-02 -5.6482499837875366e-01</leafValues></_>
    <_>
      <internalNodes>
        0 -1 28777 6.9514162838459015e-02</internalNodes>
      <leafValues>
        -1.3677896000444889e-02 5.8436703681945801e-01</leafValues></_>
    <_>
      <internalNodes>
        0 -1 30252 1.4307321608066559e-01</internalNodes>
      <leafValues>
        2.2195000201463699e-02 -3.6196988821029663e-01</leafValues></_>
    <_>
      <internalNodes>
        0 -1 39215 -1.2248860299587250e-01</internalNodes>
      <leafValues>
        2.7840420603752136e-01 -2.8935367241501808e-02</leafValues></_>
    <_>
      <internalNodes>
        0 -1 94390 -3.6901726853102446e-03</internalNodes>
      <leafValues>
        1.5299399197101593e-01 -4.9771234393119812e-02</leafValues></_>
    <_>
      <internalNodes>
        0 -1 124301 -1.7341198690701276e-04</internalNodes>
      <leafValues>
        -1.0394372045993805e-01 7.8033633530139923e-02</leafValues></_>
    <_>
      <internalNodes>
        0 -1 48823 1.7661915626376867e-04</internalNodes>
      <leafValues>
        7.1667253971099854e-02 -1.1074955761432648e-01</leafValues></_>
    <_>
      <internalNodes>
        0 -1 73154 -1.0913361608982086e-01</internalNodes>
      <leafValues>
        -2.5698319077491760e-01 3.0267456546425819e-02</leafValues></_>
    <_>
      <internalNodes>
        0 -1 117610 -5.8044316247105598e-03</internalNodes>
      <leafValues>
        6.2117266654968262e-01 -1.2472514063119888e-02</leafValues></_>
    <_>
      <internalNodes>
        0 -1 15464 3.3432155847549438e-02</internalNodes>
      <leafValues>
        1.2666115537285805e-02 -6.6732174158096313e-01</leafValues></_>
    <_>
      <internalNodes>
        0 -1 3362 -7.2352360002696514e-03</internalNodes>
      <leafValues>
        1.4028839766979218e-01 -5.5299598723649979e-02</leafValues></_>
    <_>
      <internalNodes>
        0 -1 27765 -1.3443264178931713e-02</internalNodes>
      <leafValues>
        -3.2122135162353516e-01 2.5289960205554962e-02</leafValues></_>
    <_>
      <internalNodes>
        0 -1 120034 2.7967475354671478e-02</internalNodes>
      <leafValues>
        1.3858245685696602e-02 -5.4778903722763062e-01</leafValues></_>
    <_>
      <internalNodes>
        0 -1 17466 -1.0613953694701195e-02</internalNodes>
      <leafValues>
        -2.5910794734954834e-01 2.7886269614100456e-02</leafValues></_>
    <_>
      <internalNodes>
        0 -1 124213 -6.9753201678395271e-03</internalNodes>
      <leafValues>
        4.9688866734504700e-01 -1.6330495476722717e-02</leafValues></_>
    <_>
      <internalNodes>
        0 -1 124800 -7.4551564466673881e-05</internalNodes>
      <leafValues>
        -1.0672751069068909e-01 6.9604568183422089e-02</leafValues></_>
    <_>
      <internalNodes>
        0 -1 115122 -7.9677939414978027e-02</internalNodes>
      <leafValues>
        -5.9360665082931519e-01 1.1304826475679874e-02</leafValues></_>
    <_>
      <internalNodes>
        0 -1 10788 -1.2917932122945786e-02</internalNodes>
      <leafValues>
        1.1334530264139175e-01 -6.4776360988616943e-02</leafValues></_>
    <_>
      <internalNodes>
        0 -1 99892 1.0513463057577610e-03</internalNodes>
      <leafValues>
        7.8693479299545288e-02 -1.0164179652929306e-01</leafValues></_>
    <_>
      <internalNodes>
        0 -1 121581 -5.0388481467962265e-03</internalNodes>
      <leafValues>
        1.0749221593141556e-01 -7.1272678673267365e-02</leafValues></_>
    <_>
      <internalNodes>
        0 -1 111300 -1.3693938031792641e-02</internalNodes>
      <leafValues>
        -2.7723777294158936e-01 2.9839465394616127e-02</leafValues></_>
    <_>
      <internalNodes>
        0 -1 82873 5.9706062078475952e-02</internalNodes>
      <leafValues>
        -2.4186745285987854e-02 3.5515597462654114e-01</leafValues></_>
    <_>
      <internalNodes>
        0 -1 90166 -5.6208325549960136e-03</internalNodes>
      <leafValues>
        7.6490201056003571e-02 -1.1085426062345505e-01</leafValues></_>
    <_>
      <internalNodes>
        0 -1 18505 2.1064415574073792e-02</internalNodes>
      <leafValues>
        2.9385296627879143e-02 -2.8464683890342712e-01</leafValues></_>
    <_>
      <internalNodes>
        0 -1 91967 -7.1473914431408048e-05</internalNodes>
      <leafValues>
        -1.1542239785194397e-01 6.7279070615768433e-02</leafValues></_>
    <_>
      <internalNodes>
        0 -1 91459 2.0041326934006065e-04</internalNodes>
      <leafValues>
        -5.5972356349229813e-02 1.8324908614158630e-01</leafValues></_>
    <_>
      <internalNodes>
        0 -1 47100 -4.1778862942010164e-04</internalNodes>
      <leafValues>
        1.0746042430400848e-01 -7.6176531612873077e-02</leafValues></_>
    <_>
      <internalNodes>
        0 -1 22022 9.3257641419768333e-03</internalNodes>
      <leafValues>
        -1.4607770368456841e-02 5.2345216274261475e-01</leafValues></_>
    <_>
      <internalNodes>
        0 -1 53668 -3.0604759231209755e-03</internalNodes>
      <leafValues>
        -1.2380576133728027e-01 6.1383847147226334e-02</leafValues></_>
    <_>
      <internalNodes>
        0 -1 14715 -6.8203501403331757e-02</internalNodes>
      <leafValues>
        -1.6447596251964569e-01 4.8599254339933395e-02</leafValues></_>
    <_>
      <internalNodes>
        0 -1 30491 -1.5119957923889160e-01</internalNodes>
      <leafValues>
        2.2544869780540466e-01 -3.7608128041028976e-02</leafValues></_>
    <_>
      <internalNodes>
        0 -1 19201 -1.9590850919485092e-02</internalNodes>
      <leafValues>
        -1.7391489446163177e-01 4.8167012631893158e-02</leafValues></_>
    <_>
      <internalNodes>
        0 -1 30736 -7.7642031013965607e-02</internalNodes>
      <leafValues>
        -3.1832379102706909e-01 2.2331878542900085e-02</leafValues></_>
    <_>
      <internalNodes>
        0 -1 40583 -3.3086009789258242e-03</internalNodes>
      <leafValues>
        1.5355071425437927e-01 -5.2147280424833298e-02</leafValues></_>
    <_>
      <internalNodes>
        0 -1 120352 2.8919924050569534e-02</internalNodes>
      <leafValues>
        2.9522301629185677e-02 -2.4026498198509216e-01</leafValues></_>
    <_>
      <internalNodes>
        0 -1 124745 -7.6932096853852272e-03</internalNodes>
      <leafValues>
        6.1000031232833862e-01 -1.3226003386080265e-02</leafValues></_>
    <_>
      <internalNodes>
        0 -1 98908 2.8193779289722443e-03</internalNodes>
      <leafValues>
        4.2683523148298264e-02 -1.7455306649208069e-01</leafValues></_>
    <_>
      <internalNodes>
        0 -1 61655 1.6450161114335060e-02</internalNodes>
      <leafValues>
        -2.2005323320627213e-02 3.5756435990333557e-01</leafValues></_>
    <_>
      <internalNodes>
        0 -1 91586 -7.5356074376031756e-04</internalNodes>
      <leafValues>
        1.0999040305614471e-01 -6.8367488682270050e-02</leafValues></_>
    <_>
      <internalNodes>
        0 -1 103733 7.5094219937454909e-05</internalNodes>
      <leafValues>
        7.0684008300304413e-02 -1.2806800007820129e-01</leafValues></_>
    <_>
      <internalNodes>
        0 -1 28958 -7.3798634111881256e-03</internalNodes>
      <leafValues>
        1.6177962720394135e-01 -5.4157361388206482e-02</leafValues></_>
    <_>
      <internalNodes>
        0 -1 21270 -2.8503268957138062e-02</internalNodes>
      <leafValues>
        -1.6686595976352692e-01 4.9105510115623474e-02</leafValues></_>
    <_>
      <internalNodes>
        0 -1 123712 2.7589805424213409e-02</internalNodes>
      <leafValues>
        9.5541970804333687e-03 -6.9385600090026855e-01</leafValues></_>
    <_>
      <internalNodes>
        0 -1 47231 -3.6450065672397614e-03</internalNodes>
      <leafValues>
        1.4147101342678070e-01 -5.4840888828039169e-02</leafValues></_>
    <_>
      <internalNodes>
        0 -1 58187 1.8740005325525999e-03</internalNodes>
      <leafValues>
        9.8875015974044800e-02 -7.6665855944156647e-02</leafValues></_>
    <_>
      <internalNodes>
        0 -1 3427 6.6820144653320312e-02</internalNodes>
      <leafValues>
        2.4352399632334709e-02 -3.3810177445411682e-01</leafValues></_>
    <_>
      <internalNodes>
        0 -1 40830 -1.3937881588935852e-01</internalNodes>
      <leafValues>
        7.9663658142089844e-01 -7.3894052766263485e-03</leafValues></_>
    <_>
      <internalNodes>
        0 -1 123688 1.2084397487342358e-02</internalNodes>
      <leafValues>
        -2.3168200626969337e-02 2.9491737484931946e-01</leafValues></_></weakClassifiers></stage31>
</opencv_storage>
