<?xml version="1.0"?>
<opencv_storage>
<stage18>
  <maxWeakCount>422</maxWeakCount>
  <stageThreshold>-1.0127383470535278e+00</stageThreshold>
  <weakClassifiers>
    <_>
      <internalNodes>
        0 -1 1424 -3.6202389001846313e-01</internalNodes>
      <leafValues>
        3.1915846467018127e-01 7.6208181679248810e-02</leafValues></_>
    <_>
      <internalNodes>
        0 -1 121336 1.6175655648112297e-02</internalNodes>
      <leafValues>
        -4.2829394340515137e-02 2.1359825134277344e-01</leafValues></_>
    <_>
      <internalNodes>
        0 -1 19336 1.0508659761399031e-04</internalNodes>
      <leafValues>
        3.5010330379009247e-02 -1.8237468600273132e-01</leafValues></_>
    <_>
      <internalNodes>
        0 -1 4017 -3.3376252651214600e-01</internalNodes>
      <leafValues>
        -2.2811749577522278e-01 3.9306994527578354e-02</leafValues></_>
    <_>
      <internalNodes>
        0 -1 1 1.2363418936729431e-03</internalNodes>
      <leafValues>
        4.3588869273662567e-02 -2.2786004841327667e-01</leafValues></_>
    <_>
      <internalNodes>
        0 -1 49904 -3.6039529368281364e-04</internalNodes>
      <leafValues>
        4.7193001955747604e-02 -1.5928953886032104e-01</leafValues></_>
    <_>
      <internalNodes>
        0 -1 121336 1.6085140407085419e-02</internalNodes>
      <leafValues>
        2.0937377586960793e-02 -3.1803923845291138e-01</leafValues></_>
    <_>
      <internalNodes>
        0 -1 121336 1.6153335571289062e-02</internalNodes>
      <leafValues>
        -3.1462183687835932e-04 3.3194240927696228e-01</leafValues></_>
    <_>
      <internalNodes>
        0 -1 121336 1.6173006966710091e-02</internalNodes>
      <leafValues>
        2.1924749307800084e-04 -3.3092680573463440e-01</leafValues></_>
    <_>
      <internalNodes>
        0 -1 121336 1.6167020425200462e-02</internalNodes>
      <leafValues>
        -2.4019280681386590e-04 3.3085975050926208e-01</leafValues></_>
    <_>
      <internalNodes>
        0 -1 121336 1.6085140407085419e-02</internalNodes>
      <leafValues>
        3.3862740383483469e-04 -3.3005568385124207e-01</leafValues></_>
    <_>
      <internalNodes>
        0 -1 121336 1.6050830483436584e-02</internalNodes>
      <leafValues>
        -4.8433092888444662e-04 3.3042189478874207e-01</leafValues></_>
    <_>
      <internalNodes>
        0 -1 121336 1.5956740826368332e-02</internalNodes>
      <leafValues>
        5.3342146566137671e-04 -3.3066645264625549e-01</leafValues></_>
    <_>
      <internalNodes>
        0 -1 121336 1.5986558049917221e-02</internalNodes>
      <leafValues>
        -2.9318023007363081e-04 3.3042380213737488e-01</leafValues></_>
    <_>
      <internalNodes>
        0 -1 121336 1.5956740826368332e-02</internalNodes>
      <leafValues>
        2.9318028828129172e-04 -3.2998529076576233e-01</leafValues></_>
    <_>
      <internalNodes>
        0 -1 121336 1.5931593254208565e-02</internalNodes>
      <leafValues>
        -2.5657130754552782e-04 3.2988142967224121e-01</leafValues></_>
    <_>
      <internalNodes>
        0 -1 121336 1.5101143158972263e-02</internalNodes>
      <leafValues>
        1.9461225019767880e-03 -3.2096090912818909e-01</leafValues></_>
    <_>
      <internalNodes>
        0 -1 121336 1.4722741208970547e-02</internalNodes>
      <leafValues>
        -2.1993108093738556e-03 3.1731560826301575e-01</leafValues></_>
    <_>
      <internalNodes>
        0 -1 121336 1.4575762674212456e-02</internalNodes>
      <leafValues>
        8.2894193474203348e-04 -3.1996542215347290e-01</leafValues></_>
    <_>
      <internalNodes>
        0 -1 121336 1.4384100213646889e-02</internalNodes>
      <leafValues>
        -1.4594014501199126e-03 3.1810915470123291e-01</leafValues></_>
    <_>
      <internalNodes>
        0 -1 75694 -2.4132961698342115e-04</internalNodes>
      <leafValues>
        -1.6362772881984711e-01 4.0607579052448273e-02</leafValues></_>
    <_>
      <internalNodes>
        0 -1 118058 -3.4389756619930267e-03</internalNodes>
      <leafValues>
        8.6630403995513916e-02 -9.7584284842014313e-02</leafValues></_>
    <_>
      <internalNodes>
        0 -1 46462 7.7063962817192078e-03</internalNodes>
      <leafValues>
        -5.1052417606115341e-02 1.8525438010692596e-01</leafValues></_>
    <_>
      <internalNodes>
        0 -1 63043 -1.3271752744913101e-02</internalNodes>
      <leafValues>
        9.2220678925514221e-02 -1.2799136340618134e-01</leafValues></_>
    <_>
      <internalNodes>
        0 -1 125189 3.2041285885497928e-04</internalNodes>
      <leafValues>
        4.9840364605188370e-02 -1.4848858118057251e-01</leafValues></_>
    <_>
      <internalNodes>
        0 -1 125189 -8.7587104644626379e-05</internalNodes>
      <leafValues>
        -1.1750445514917374e-01 5.4847326129674911e-02</leafValues></_>
    <_>
      <internalNodes>
        0 -1 38888 -2.5572530925273895e-02</internalNodes>
      <leafValues>
        2.7566584944725037e-01 -2.1529318764805794e-02</leafValues></_>
    <_>
      <internalNodes>
        0 -1 123397 -3.5342155024409294e-03</internalNodes>
      <leafValues>
        1.2078736722469330e-01 -5.8184180408716202e-02</leafValues></_>
    <_>
      <internalNodes>
        0 -1 104867 3.2960902899503708e-03</internalNodes>
      <leafValues>
        2.9253730550408363e-02 -1.9385409355163574e-01</leafValues></_>
    <_>
      <internalNodes>
        0 -1 91462 4.3003215978387743e-05</internalNodes>
      <leafValues>
        -6.1144474893808365e-02 9.8520517349243164e-02</leafValues></_>
    <_>
      <internalNodes>
        0 -1 91462 -5.3462463256437331e-05</internalNodes>
      <leafValues>
        9.7132086753845215e-02 -6.9544367492198944e-02</leafValues></_>
    <_>
      <internalNodes>
        0 -1 75043 -3.0018787947483361e-04</internalNodes>
      <leafValues>
        -1.1039316654205322e-01 5.8189734816551208e-02</leafValues></_>
    <_>
      <internalNodes>
        0 -1 56291 6.8326890468597412e-03</internalNodes>
      <leafValues>
        -1.0645152628421783e-01 6.1038758605718613e-02</leafValues></_>
    <_>
      <internalNodes>
        0 -1 28141 5.4649179801344872e-03</internalNodes>
      <leafValues>
        -4.4388018548488617e-02 1.3256438076496124e-01</leafValues></_>
    <_>
      <internalNodes>
        0 -1 71703 -2.4757792707532644e-03</internalNodes>
      <leafValues>
        7.0314019918441772e-02 -9.1481976211071014e-02</leafValues></_>
    <_>
      <internalNodes>
        0 -1 19337 -3.4102349309250712e-04</internalNodes>
      <leafValues>
        -1.2771116197109222e-01 5.1206570118665695e-02</leafValues></_>
    <_>
      <internalNodes>
        0 -1 9988 3.3453620970249176e-02</internalNodes>
      <leafValues>
        -1.8768766894936562e-02 3.1385043263435364e-01</leafValues></_>
    <_>
      <internalNodes>
        0 -1 106538 -4.8043937422335148e-03</internalNodes>
      <leafValues>
        2.1729290485382080e-01 -2.7135176584124565e-02</leafValues></_>
    <_>
      <internalNodes>
        0 -1 91973 -4.5578501885756850e-04</internalNodes>
      <leafValues>
        9.4408579170703888e-02 -6.3214391469955444e-02</leafValues></_>
    <_>
      <internalNodes>
        0 -1 29327 -6.5084144473075867e-02</internalNodes>
      <leafValues>
        4.6625921130180359e-01 -1.0090435855090618e-02</leafValues></_>
    <_>
      <internalNodes>
        0 -1 5 -5.5694655748084188e-04</internalNodes>
      <leafValues>
        -1.2713561952114105e-01 4.4968504458665848e-02</leafValues></_>
    <_>
      <internalNodes>
        0 -1 12569 -4.5978487469255924e-03</internalNodes>
      <leafValues>
        2.0534560084342957e-01 -2.8783878311514854e-02</leafValues></_>
    <_>
      <internalNodes>
        0 -1 101011 -4.4044907554052770e-05</internalNodes>
      <leafValues>
        9.2495039105415344e-02 -5.8181039988994598e-02</leafValues></_>
    <_>
      <internalNodes>
        0 -1 54129 3.9911922067403793e-03</internalNodes>
      <leafValues>
        2.9390133917331696e-02 -2.0729066431522369e-01</leafValues></_>
    <_>
      <internalNodes>
        0 -1 61854 4.3561249185586348e-05</internalNodes>
      <leafValues>
        -6.4873754978179932e-02 8.7897449731826782e-02</leafValues></_>
    <_>
      <internalNodes>
        0 -1 8744 4.0198708884418011e-03</internalNodes>
      <leafValues>
        -2.0553495734930038e-02 2.4575257301330566e-01</leafValues></_>
    <_>
      <internalNodes>
        0 -1 55825 -9.6544669941067696e-03</internalNodes>
      <leafValues>
        8.4539607167243958e-02 -6.3177406787872314e-02</leafValues></_>
    <_>
      <internalNodes>
        0 -1 10974 -2.9133856296539307e-03</internalNodes>
      <leafValues>
        1.3984383642673492e-01 -3.9587724953889847e-02</leafValues></_>
    <_>
      <internalNodes>
        0 -1 103892 -9.8055712878704071e-03</internalNodes>
      <leafValues>
        7.4513845145702362e-02 -7.4086733162403107e-02</leafValues></_>
    <_>
      <internalNodes>
        0 -1 118890 -2.2812448441982269e-02</internalNodes>
      <leafValues>
        1.5855923295021057e-01 -3.8385555148124695e-02</leafValues></_>
    <_>
      <internalNodes>
        0 -1 123803 2.8158444911241531e-04</internalNodes>
      <leafValues>
        5.6065849959850311e-02 -1.0697969049215317e-01</leafValues></_>
    <_>
      <internalNodes>
        0 -1 77385 4.5628501102328300e-03</internalNodes>
      <leafValues>
        3.8665097206830978e-02 -1.4931002259254456e-01</leafValues></_>
    <_>
      <internalNodes>
        0 -1 63171 -6.6112959757447243e-03</internalNodes>
      <leafValues>
        7.1445979177951813e-02 -7.8399077057838440e-02</leafValues></_>
    <_>
      <internalNodes>
        0 -1 35114 1.9166182726621628e-02</internalNodes>
      <leafValues>
        -2.9453804716467857e-02 1.9988843798637390e-01</leafValues></_>
    <_>
      <internalNodes>
        0 -1 70964 4.6508277591783553e-05</internalNodes>
      <leafValues>
        -5.8670844882726669e-02 9.0551108121871948e-02</leafValues></_>
    <_>
      <internalNodes>
        0 -1 8474 -2.9382674023509026e-02</internalNodes>
      <leafValues>
        -3.7696462869644165e-01 1.5699680894613266e-02</leafValues></_>
    <_>
      <internalNodes>
        0 -1 36895 1.3184316921979189e-03</internalNodes>
      <leafValues>
        -4.7962184995412827e-02 1.1524392664432526e-01</leafValues></_>
    <_>
      <internalNodes>
        0 -1 80224 5.4159006103873253e-03</internalNodes>
      <leafValues>
        -5.2931353449821472e-02 9.5664799213409424e-02</leafValues></_>
    <_>
      <internalNodes>
        0 -1 111710 5.0275732064619660e-04</internalNodes>
      <leafValues>
        4.8601031303405762e-02 -1.2117633223533630e-01</leafValues></_>
    <_>
      <internalNodes>
        0 -1 72156 2.5987937115132809e-03</internalNodes>
      <leafValues>
        -4.4678885489702225e-02 1.2493421882390976e-01</leafValues></_>
    <_>
      <internalNodes>
        0 -1 100821 -4.5172098907642066e-05</internalNodes>
      <leafValues>
        1.0952764004468918e-01 -4.7435812652111053e-02</leafValues></_>
    <_>
      <internalNodes>
        0 -1 11068 3.3862120471894741e-03</internalNodes>
      <leafValues>
        -1.2263359874486923e-01 4.3982431292533875e-02</leafValues></_>
    <_>
      <internalNodes>
        0 -1 121693 -5.3148204460740089e-03</internalNodes>
      <leafValues>
        1.7009611427783966e-01 -3.6476530134677887e-02</leafValues></_>
    <_>
      <internalNodes>
        0 -1 121658 -2.4370271712541580e-03</internalNodes>
      <leafValues>
        1.0060416907072067e-01 -7.2437770664691925e-02</leafValues></_>
    <_>
      <internalNodes>
        0 -1 8602 3.4127268008887768e-03</internalNodes>
      <leafValues>
        -4.6492327004671097e-02 1.1200421303510666e-01</leafValues></_>
    <_>
      <internalNodes>
        0 -1 53301 7.4529508128762245e-04</internalNodes>
      <leafValues>
        4.5295093208551407e-02 -1.1353969573974609e-01</leafValues></_>
    <_>
      <internalNodes>
        0 -1 20611 5.0466589629650116e-02</internalNodes>
      <leafValues>
        -1.5538461506366730e-02 3.0935397744178772e-01</leafValues></_>
    <_>
      <internalNodes>
        0 -1 40856 -9.0178772807121277e-03</internalNodes>
      <leafValues>
        5.2977468818426132e-02 -1.2322750687599182e-01</leafValues></_>
    <_>
      <internalNodes>
        0 -1 76049 1.0441088117659092e-02</internalNodes>
      <leafValues>
        -5.5024385452270508e-02 9.4569653272628784e-02</leafValues></_>
    <_>
      <internalNodes>
        0 -1 114215 -1.4433955075219274e-03</internalNodes>
      <leafValues>
        7.2604842483997345e-02 -8.4375739097595215e-02</leafValues></_>
    <_>
      <internalNodes>
        0 -1 52630 2.0860098302364349e-03</internalNodes>
      <leafValues>
        -1.0774576663970947e-01 5.2864193916320801e-02</leafValues></_>
    <_>
      <internalNodes>
        0 -1 121224 4.0861624293029308e-03</internalNodes>
      <leafValues>
        -3.9556156843900681e-02 1.3724401593208313e-01</leafValues></_>
    <_>
      <internalNodes>
        0 -1 28051 -3.5792039707303047e-03</internalNodes>
      <leafValues>
        1.6876837611198425e-01 -2.9689071699976921e-02</leafValues></_>
    <_>
      <internalNodes>
        0 -1 110215 2.1870013326406479e-02</internalNodes>
      <leafValues>
        1.2698294594883919e-02 -4.0815004706382751e-01</leafValues></_>
    <_>
      <internalNodes>
        0 -1 121482 -7.3063839226961136e-03</internalNodes>
      <leafValues>
        4.4661402702331543e-01 -1.2333051301538944e-02</leafValues></_>
    <_>
      <internalNodes>
        0 -1 52784 1.0947680566459894e-03</internalNodes>
      <leafValues>
        5.4468359798192978e-02 -8.6789697408676147e-02</leafValues></_>
    <_>
      <internalNodes>
        0 -1 73391 2.8012166731059551e-03</internalNodes>
      <leafValues>
        -1.0676336288452148e-01 5.0658259540796280e-02</leafValues></_>
    <_>
      <internalNodes>
        0 -1 4791 1.3366805389523506e-02</internalNodes>
      <leafValues>
        -4.7337535768747330e-02 1.1605737358331680e-01</leafValues></_>
    <_>
      <internalNodes>
        0 -1 14404 -3.0701801180839539e-02</internalNodes>
      <leafValues>
        1.3646914064884186e-01 -5.1585916429758072e-02</leafValues></_>
    <_>
      <internalNodes>
        0 -1 111948 -6.0724170180037618e-04</internalNodes>
      <leafValues>
        8.0476902425289154e-02 -6.6178783774375916e-02</leafValues></_>
    <_>
      <internalNodes>
        0 -1 1925 2.2530686110258102e-02</internalNodes>
      <leafValues>
        -1.9566493108868599e-02 2.5583270192146301e-01</leafValues></_>
    <_>
      <internalNodes>
        0 -1 62000 1.8004854209721088e-03</internalNodes>
      <leafValues>
        -4.8321556299924850e-02 9.6025675535202026e-02</leafValues></_>
    <_>
      <internalNodes>
        0 -1 70265 4.9045085906982422e-03</internalNodes>
      <leafValues>
        2.1864030510187149e-02 -2.4821124970912933e-01</leafValues></_>
    <_>
      <internalNodes>
        0 -1 16286 4.7647744417190552e-02</internalNodes>
      <leafValues>
        -2.4406636133790016e-02 2.4666884541511536e-01</leafValues></_>
    <_>
      <internalNodes>
        0 -1 102572 -7.1289567276835442e-03</internalNodes>
      <leafValues>
        5.4767034947872162e-02 -1.0693941265344620e-01</leafValues></_>
    <_>
      <internalNodes>
        0 -1 8441 -4.3529570102691650e-02</internalNodes>
      <leafValues>
        -1.5916812419891357e-01 3.3895980566740036e-02</leafValues></_>
    <_>
      <internalNodes>
        0 -1 58980 -4.7522713430225849e-05</internalNodes>
      <leafValues>
        7.5731538236141205e-02 -6.6356584429740906e-02</leafValues></_>
    <_>
      <internalNodes>
        0 -1 124803 -1.6460338883916847e-05</internalNodes>
      <leafValues>
        -9.2016920447349548e-02 5.3393419831991196e-02</leafValues></_>
    <_>
      <internalNodes>
        0 -1 124803 1.9357823766767979e-03</internalNodes>
      <leafValues>
        2.2887513041496277e-02 -2.2122851014137268e-01</leafValues></_>
    <_>
      <internalNodes>
        0 -1 72197 -2.5264862924814224e-03</internalNodes>
      <leafValues>
        8.6581960320472717e-02 -5.3698427975177765e-02</leafValues></_>
    <_>
      <internalNodes>
        0 -1 60171 4.6750111505389214e-03</internalNodes>
      <leafValues>
        2.3347737267613411e-02 -2.0529696345329285e-01</leafValues></_>
    <_>
      <internalNodes>
        0 -1 124168 1.6158139333128929e-02</internalNodes>
      <leafValues>
        -2.4713505059480667e-02 1.9453266263008118e-01</leafValues></_>
    <_>
      <internalNodes>
        0 -1 110362 4.2618466541171074e-03</internalNodes>
      <leafValues>
        -1.8609771504998207e-02 2.4354812502861023e-01</leafValues></_>
    <_>
      <internalNodes>
        0 -1 120395 4.5218039304018021e-03</internalNodes>
      <leafValues>
        -7.2106331586837769e-02 6.5791733562946320e-02</leafValues></_>
    <_>
      <internalNodes>
        0 -1 101273 1.7261207103729248e-02</internalNodes>
      <leafValues>
        -4.5258261263370514e-02 1.1457374691963196e-01</leafValues></_>
    <_>
      <internalNodes>
        0 -1 109820 2.9330102726817131e-02</internalNodes>
      <leafValues>
        1.0684044100344181e-02 -5.4609900712966919e-01</leafValues></_>
    <_>
      <internalNodes>
        0 -1 122998 1.2952010147273540e-03</internalNodes>
      <leafValues>
        4.3625026941299438e-02 -1.1012056469917297e-01</leafValues></_>
    <_>
      <internalNodes>
        0 -1 112922 -4.2466269806027412e-03</internalNodes>
      <leafValues>
        8.5777021944522858e-02 -5.7765882462263107e-02</leafValues></_>
    <_>
      <internalNodes>
        0 -1 9695 1.9563265144824982e-01</internalNodes>
      <leafValues>
        9.5495665445923805e-03 -5.1727116107940674e-01</leafValues></_>
    <_>
      <internalNodes>
        0 -1 115977 -1.8944270777865313e-05</internalNodes>
      <leafValues>
        9.2975832521915436e-02 -5.0609737634658813e-02</leafValues></_>
    <_>
      <internalNodes>
        0 -1 95733 -3.7282854318618774e-02</internalNodes>
      <leafValues>
        7.8261949121952057e-02 -6.2110420316457748e-02</leafValues></_>
    <_>
      <internalNodes>
        0 -1 94904 2.9465816915035248e-03</internalNodes>
      <leafValues>
        -2.2521702572703362e-02 2.0409902930259705e-01</leafValues></_>
    <_>
      <internalNodes>
        0 -1 84625 1.0620109736919403e-02</internalNodes>
      <leafValues>
        1.2834263965487480e-02 -3.9730358123779297e-01</leafValues></_>
    <_>
      <internalNodes>
        0 -1 8740 2.5185705162584782e-03</internalNodes>
      <leafValues>
        -3.8274120539426804e-02 1.3180157542228699e-01</leafValues></_>
    <_>
      <internalNodes>
        0 -1 28773 3.8109824061393738e-02</internalNodes>
      <leafValues>
        -1.0628138668835163e-02 4.6119102835655212e-01</leafValues></_>
    <_>
      <internalNodes>
        0 -1 47823 -5.8325543068349361e-04</internalNodes>
      <leafValues>
        8.7872833013534546e-02 -5.5071722716093063e-02</leafValues></_>
    <_>
      <internalNodes>
        0 -1 120842 4.8093930818140507e-03</internalNodes>
      <leafValues>
        -2.6046721264719963e-02 1.8380896747112274e-01</leafValues></_>
    <_>
      <internalNodes>
        0 -1 5748 -5.4378109052777290e-03</internalNodes>
      <leafValues>
        9.6655562520027161e-02 -5.0034772604703903e-02</leafValues></_>
    <_>
      <internalNodes>
        0 -1 37987 -2.2367965430021286e-02</internalNodes>
      <leafValues>
        -4.5109847187995911e-01 1.1701262556016445e-02</leafValues></_>
    <_>
      <internalNodes>
        0 -1 81145 1.0122497379779816e-01</internalNodes>
      <leafValues>
        6.9326320663094521e-03 -6.3100665807723999e-01</leafValues></_>
    <_>
      <internalNodes>
        0 -1 1344 3.3782742917537689e-02</internalNodes>
      <leafValues>
        -1.7852498218417168e-02 3.3113682270050049e-01</leafValues></_>
    <_>
      <internalNodes>
        0 -1 105149 -1.5928628854453564e-03</internalNodes>
      <leafValues>
        4.9326736479997635e-02 -1.0372260212898254e-01</leafValues></_>
    <_>
      <internalNodes>
        0 -1 85818 -1.0645587742328644e-01</internalNodes>
      <leafValues>
        -2.7143940329551697e-01 2.0297067239880562e-02</leafValues></_>
    <_>
      <internalNodes>
        0 -1 122905 -1.0483312653377652e-03</internalNodes>
      <leafValues>
        9.1891542077064514e-02 -5.9101693332195282e-02</leafValues></_>
    <_>
      <internalNodes>
        0 -1 99704 -2.3339488543570042e-03</internalNodes>
      <leafValues>
        1.3084445893764496e-01 -3.8014937192201614e-02</leafValues></_>
    <_>
      <internalNodes>
        0 -1 55654 -4.8370175063610077e-03</internalNodes>
      <leafValues>
        1.1821673065423965e-01 -4.0034528821706772e-02</leafValues></_>
    <_>
      <internalNodes>
        0 -1 121943 -1.6842929646372795e-02</internalNodes>
      <leafValues>
        -2.8972333669662476e-01 1.5668474137783051e-02</leafValues></_>
    <_>
      <internalNodes>
        0 -1 45047 -4.3726138770580292e-02</internalNodes>
      <leafValues>
        -3.6324340105056763e-01 1.3122460804879665e-02</leafValues></_>
    <_>
      <internalNodes>
        0 -1 63762 -3.1663995468989015e-04</internalNodes>
      <leafValues>
        5.1740925759077072e-02 -8.5408389568328857e-02</leafValues></_>
    <_>
      <internalNodes>
        0 -1 63668 -1.5646856278181076e-02</internalNodes>
      <leafValues>
        2.5944867730140686e-01 -2.1146200597286224e-02</leafValues></_>
    <_>
      <internalNodes>
        0 -1 60335 -2.3667115718126297e-02</internalNodes>
      <leafValues>
        -1.9339989125728607e-01 2.6030188426375389e-02</leafValues></_>
    <_>
      <internalNodes>
        0 -1 37387 6.1109103262424469e-03</internalNodes>
      <leafValues>
        -4.3108090758323669e-02 1.2295693159103394e-01</leafValues></_>
    <_>
      <internalNodes>
        0 -1 99067 1.5421076386701316e-04</internalNodes>
      <leafValues>
        4.8473484814167023e-02 -1.0748717933893204e-01</leafValues></_>
    <_>
      <internalNodes>
        0 -1 78703 1.9331885268911719e-03</internalNodes>
      <leafValues>
        -4.7698266804218292e-02 1.0894119739532471e-01</leafValues></_>
    <_>
      <internalNodes>
        0 -1 91287 -8.5805408889427781e-04</internalNodes>
      <leafValues>
        8.3747334778308868e-02 -6.6581182181835175e-02</leafValues></_>
    <_>
      <internalNodes>
        0 -1 114333 5.1932991482317448e-04</internalNodes>
      <leafValues>
        4.5441292226314545e-02 -1.2059802561998367e-01</leafValues></_>
    <_>
      <internalNodes>
        0 -1 122622 2.6524751447141171e-03</internalNodes>
      <leafValues>
        3.4742224961519241e-02 -1.4702084660530090e-01</leafValues></_>
    <_>
      <internalNodes>
        0 -1 92444 1.3615007046610117e-03</internalNodes>
      <leafValues>
        -5.0003919750452042e-02 1.0094280540943146e-01</leafValues></_>
    <_>
      <internalNodes>
        0 -1 51857 3.2849393784999847e-02</internalNodes>
      <leafValues>
        -2.7739042416214943e-02 1.6946117579936981e-01</leafValues></_>
    <_>
      <internalNodes>
        0 -1 113021 -1.5265804249793291e-03</internalNodes>
      <leafValues>
        7.8595787286758423e-02 -6.1430539935827255e-02</leafValues></_>
    <_>
      <internalNodes>
        0 -1 89477 -3.7456512451171875e-02</internalNodes>
      <leafValues>
        -4.9041092395782471e-01 1.0396256111562252e-02</leafValues></_>
    <_>
      <internalNodes>
        0 -1 30291 4.5665003359317780e-02</internalNodes>
      <leafValues>
        -2.9610596597194672e-02 1.7356345057487488e-01</leafValues></_>
    <_>
      <internalNodes>
        0 -1 25478 9.1313077136874199e-03</internalNodes>
      <leafValues>
        -1.2804842554032803e-02 3.5905411839485168e-01</leafValues></_>
    <_>
      <internalNodes>
        0 -1 2244 -4.4668585062026978e-02</internalNodes>
      <leafValues>
        -2.8394520282745361e-01 1.7880531027913094e-02</leafValues></_>
    <_>
      <internalNodes>
        0 -1 29034 -1.4001923613250256e-02</internalNodes>
      <leafValues>
        7.9943589866161346e-02 -6.6732935607433319e-02</leafValues></_>
    <_>
      <internalNodes>
        0 -1 118373 4.2064348235726357e-04</internalNodes>
      <leafValues>
        4.2865291237831116e-02 -1.1254033446311951e-01</leafValues></_>
    <_>
      <internalNodes>
        0 -1 124885 9.0833159629255533e-04</internalNodes>
      <leafValues>
        -6.9131880998611450e-02 7.1090653538703918e-02</leafValues></_>
    <_>
      <internalNodes>
        0 -1 67360 -5.0434106960892677e-03</internalNodes>
      <leafValues>
        5.9682000428438187e-02 -7.6976843178272247e-02</leafValues></_>
    <_>
      <internalNodes>
        0 -1 31632 -4.4503365643322468e-03</internalNodes>
      <leafValues>
        5.2002478390932083e-02 -1.0719300806522369e-01</leafValues></_>
    <_>
      <internalNodes>
        0 -1 69949 1.6522048972547054e-03</internalNodes>
      <leafValues>
        -3.5842590034008026e-02 1.5568666160106659e-01</leafValues></_>
    <_>
      <internalNodes>
        0 -1 96991 -3.1527978717349470e-04</internalNodes>
      <leafValues>
        -1.1411622911691666e-01 4.5548766851425171e-02</leafValues></_>
    <_>
      <internalNodes>
        0 -1 3038 -1.6366876661777496e-02</internalNodes>
      <leafValues>
        1.0563971102237701e-01 -4.3774306774139404e-02</leafValues></_>
    <_>
      <internalNodes>
        0 -1 85053 -1.2323914095759392e-02</internalNodes>
      <leafValues>
        -5.8543765544891357e-01 8.1209409981966019e-03</leafValues></_>
    <_>
      <internalNodes>
        0 -1 37381 -2.2125991526991129e-03</internalNodes>
      <leafValues>
        7.2759091854095459e-02 -6.6047750413417816e-02</leafValues></_>
    <_>
      <internalNodes>
        0 -1 28813 -7.2677584830671549e-04</internalNodes>
      <leafValues>
        -1.3273818790912628e-01 3.4703630954027176e-02</leafValues></_>
    <_>
      <internalNodes>
        0 -1 18983 -5.4451897740364075e-03</internalNodes>
      <leafValues>
        2.1167132258415222e-01 -2.1812509745359421e-02</leafValues></_>
    <_>
      <internalNodes>
        0 -1 123462 -7.1888179518282413e-03</internalNodes>
      <leafValues>
        2.5105208158493042e-01 -1.7886267974972725e-02</leafValues></_>
    <_>
      <internalNodes>
        0 -1 123462 4.9049472436308861e-03</internalNodes>
      <leafValues>
        -2.8408998623490334e-02 1.9358350336551666e-01</leafValues></_>
    <_>
      <internalNodes>
        0 -1 61730 -1.4110500342212617e-04</internalNodes>
      <leafValues>
        5.7942818850278854e-02 -9.0821281075477600e-02</leafValues></_>
    <_>
      <internalNodes>
        0 -1 78307 9.0214685769751668e-05</internalNodes>
      <leafValues>
        -5.8519866317510605e-02 8.7636232376098633e-02</leafValues></_>
    <_>
      <internalNodes>
        0 -1 92252 3.2861731597222388e-04</internalNodes>
      <leafValues>
        -5.4388109594583511e-02 8.6282193660736084e-02</leafValues></_>
    <_>
      <internalNodes>
        0 -1 123339 -2.3085564374923706e-02</internalNodes>
      <leafValues>
        -5.7060068845748901e-01 8.2083828747272491e-03</leafValues></_>
    <_>
      <internalNodes>
        0 -1 3038 -1.0264892876148224e-01</internalNodes>
      <leafValues>
        -6.5421789884567261e-01 6.1766812577843666e-03</leafValues></_>
    <_>
      <internalNodes>
        0 -1 9954 2.5984062813222408e-04</internalNodes>
      <leafValues>
        3.8956463336944580e-02 -1.1411452293395996e-01</leafValues></_>
    <_>
      <internalNodes>
        0 -1 9954 -6.1564391944557428e-04</internalNodes>
      <leafValues>
        -1.3059741258621216e-01 3.3956147730350494e-02</leafValues></_>
    <_>
      <internalNodes>
        0 -1 55828 -3.2267018686980009e-03</internalNodes>
      <leafValues>
        1.0265275835990906e-01 -4.4260554015636444e-02</leafValues></_>
    <_>
      <internalNodes>
        0 -1 4405 -1.5024730004370213e-02</internalNodes>
      <leafValues>
        1.8089681863784790e-01 -2.4543160572648048e-02</leafValues></_>
    <_>
      <internalNodes>
        0 -1 62210 2.1168417297303677e-03</internalNodes>
      <leafValues>
        2.9902324080467224e-02 -1.4821031689643860e-01</leafValues></_>
    <_>
      <internalNodes>
        0 -1 55869 3.2429373823106289e-03</internalNodes>
      <leafValues>
        -4.5040514320135117e-02 1.0772587358951569e-01</leafValues></_>
    <_>
      <internalNodes>
        0 -1 119564 -7.2755278088152409e-03</internalNodes>
      <leafValues>
        4.0756919980049133e-01 -9.7073120996356010e-03</leafValues></_>
    <_>
      <internalNodes>
        0 -1 37599 4.0848315693438053e-03</internalNodes>
      <leafValues>
        -2.7419297024607658e-02 1.5776641666889191e-01</leafValues></_>
    <_>
      <internalNodes>
        0 -1 114588 -3.3464353531599045e-02</internalNodes>
      <leafValues>
        -5.6080174446105957e-01 8.5664251819252968e-03</leafValues></_>
    <_>
      <internalNodes>
        0 -1 73023 -2.4267081171274185e-02</internalNodes>
      <leafValues>
        -5.2404594421386719e-01 7.0390184409916401e-03</leafValues></_>
    <_>
      <internalNodes>
        0 -1 106982 -7.2042914107441902e-03</internalNodes>
      <leafValues>
        2.9987120628356934e-01 -1.4363544061779976e-02</leafValues></_>
    <_>
      <internalNodes>
        0 -1 73008 -4.1471190750598907e-02</internalNodes>
      <leafValues>
        -8.3755993843078613e-01 6.0947346501052380e-03</leafValues></_>
    <_>
      <internalNodes>
        0 -1 99702 -8.8592246174812317e-03</internalNodes>
      <leafValues>
        6.8505322933197021e-01 -7.1494239382445812e-03</leafValues></_>
    <_>
      <internalNodes>
        0 -1 99766 2.5048782117664814e-03</internalNodes>
      <leafValues>
        -7.6222948729991913e-02 5.9974376112222672e-02</leafValues></_>
    <_>
      <internalNodes>
        0 -1 120306 -1.1952782049775124e-02</internalNodes>
      <leafValues>
        2.7088078856468201e-01 -1.7424684017896652e-02</leafValues></_>
    <_>
      <internalNodes>
        0 -1 55317 -1.1901713907718658e-02</internalNodes>
      <leafValues>
        -1.9470059871673584e-01 2.2462837398052216e-02</leafValues></_>
    <_>
      <internalNodes>
        0 -1 37480 -6.9726161658763885e-02</internalNodes>
      <leafValues>
        -7.4405664205551147e-01 5.3286305628716946e-03</leafValues></_>
    <_>
      <internalNodes>
        0 -1 28294 5.0800126045942307e-03</internalNodes>
      <leafValues>
        -4.4757198542356491e-02 1.0023424029350281e-01</leafValues></_>
    <_>
      <internalNodes>
        0 -1 8941 -2.4342723190784454e-02</internalNodes>
      <leafValues>
        -4.1105344891548157e-01 1.2481951154768467e-02</leafValues></_>
    <_>
      <internalNodes>
        0 -1 99453 -5.0029116682708263e-03</internalNodes>
      <leafValues>
        4.0882343053817749e-01 -1.0594882071018219e-02</leafValues></_>
    <_>
      <internalNodes>
        0 -1 86599 -5.4727512178942561e-04</internalNodes>
      <leafValues>
        -1.2686569988727570e-01 3.7114676088094711e-02</leafValues></_>
    <_>
      <internalNodes>
        0 -1 86435 6.1646878020837903e-04</internalNodes>
      <leafValues>
        5.3339108824729919e-02 -1.2022791802883148e-01</leafValues></_>
    <_>
      <internalNodes>
        0 -1 35746 -5.8785108849406242e-03</internalNodes>
      <leafValues>
        1.5317346155643463e-01 -2.8480755165219307e-02</leafValues></_>
    <_>
      <internalNodes>
        0 -1 99787 -5.3650707006454468e-02</internalNodes>
      <leafValues>
        -5.4575830698013306e-01 7.9582370817661285e-03</leafValues></_>
    <_>
      <internalNodes>
        0 -1 114915 -8.4204152226448059e-03</internalNodes>
      <leafValues>
        3.7680572271347046e-01 -1.2182192876935005e-02</leafValues></_>
    <_>
      <internalNodes>
        0 -1 29526 6.5535726025700569e-03</internalNodes>
      <leafValues>
        -4.6328295022249222e-02 9.3477018177509308e-02</leafValues></_>
    <_>
      <internalNodes>
        0 -1 28020 -6.0185976326465607e-03</internalNodes>
      <leafValues>
        9.7593329846858978e-02 -4.4158920645713806e-02</leafValues></_>
    <_>
      <internalNodes>
        0 -1 55046 1.1348085477948189e-02</internalNodes>
      <leafValues>
        -2.6778424158692360e-02 1.6936784982681274e-01</leafValues></_>
    <_>
      <internalNodes>
        0 -1 94359 1.6769772395491600e-02</internalNodes>
      <leafValues>
        1.1169051751494408e-02 -4.0089362859725952e-01</leafValues></_>
    <_>
      <internalNodes>
        0 -1 104209 -6.0764405876398087e-02</internalNodes>
      <leafValues>
        -2.4592061340808868e-01 1.7643382772803307e-02</leafValues></_>
    <_>
      <internalNodes>
        0 -1 56130 3.4168888814747334e-03</internalNodes>
      <leafValues>
        -4.2709309607744217e-02 1.0003161430358887e-01</leafValues></_>
    <_>
      <internalNodes>
        0 -1 6536 -1.8926501274108887e-02</internalNodes>
      <leafValues>
        -7.1677935123443604e-01 5.4935128428041935e-03</leafValues></_>
    <_>
      <internalNodes>
        0 -1 57024 -4.3586611747741699e-02</internalNodes>
      <leafValues>
        1.3353368639945984e-01 -3.3031143248081207e-02</leafValues></_>
    <_>
      <internalNodes>
        0 -1 71793 -3.7312018685042858e-03</internalNodes>
      <leafValues>
        8.7523348629474640e-02 -4.6625453978776932e-02</leafValues></_>
    <_>
      <internalNodes>
        0 -1 52714 -3.8141604512929916e-02</internalNodes>
      <leafValues>
        -2.6046955585479736e-01 1.5773653984069824e-02</leafValues></_>
    <_>
      <internalNodes>
        0 -1 22721 -2.2443845868110657e-01</internalNodes>
      <leafValues>
        3.2939797639846802e-01 -1.3518575578927994e-02</leafValues></_>
    <_>
      <internalNodes>
        0 -1 88911 3.5092844627797604e-03</internalNodes>
      <leafValues>
        4.9208778887987137e-02 -1.1275810748338699e-01</leafValues></_>
    <_>
      <internalNodes>
        0 -1 43665 2.0112615078687668e-02</internalNodes>
      <leafValues>
        -1.6882285475730896e-02 2.5794917345046997e-01</leafValues></_>
    <_>
      <internalNodes>
        0 -1 41419 2.2593631874769926e-03</internalNodes>
      <leafValues>
        3.9422258734703064e-02 -1.2254762649536133e-01</leafValues></_>
    <_>
      <internalNodes>
        0 -1 83374 -3.4964606165885925e-02</internalNodes>
      <leafValues>
        -1.4830124378204346e-01 2.8406085446476936e-02</leafValues></_>
    <_>
      <internalNodes>
        0 -1 122608 4.2993175156880170e-05</internalNodes>
      <leafValues>
        -8.0888137221336365e-02 5.5023264139890671e-02</leafValues></_>
    <_>
      <internalNodes>
        0 -1 121521 -1.6018464521039277e-04</internalNodes>
      <leafValues>
        -8.8102295994758606e-02 4.8127066344022751e-02</leafValues></_>
    <_>
      <internalNodes>
        0 -1 123546 -1.0394183918833733e-03</internalNodes>
      <leafValues>
        -1.2601470947265625e-01 3.5684756934642792e-02</leafValues></_>
    <_>
      <internalNodes>
        0 -1 121484 5.6898649781942368e-03</internalNodes>
      <leafValues>
        -2.3830337449908257e-02 2.0953644812107086e-01</leafValues></_>
    <_>
      <internalNodes>
        0 -1 109988 2.6677129790186882e-03</internalNodes>
      <leafValues>
        -5.3469110280275345e-02 8.8286980986595154e-02</leafValues></_>
    <_>
      <internalNodes>
        0 -1 27743 2.1002492308616638e-01</internalNodes>
      <leafValues>
        5.2270009182393551e-03 -7.8433030843734741e-01</leafValues></_>
    <_>
      <internalNodes>
        0 -1 55612 -9.0477233752608299e-03</internalNodes>
      <leafValues>
        3.4122470021247864e-01 -1.4476422220468521e-02</leafValues></_>
    <_>
      <internalNodes>
        0 -1 60150 -6.1452728696167469e-03</internalNodes>
      <leafValues>
        1.0018604993820190e-01 -4.4086799025535583e-02</leafValues></_>
    <_>
      <internalNodes>
        0 -1 86741 1.2969476170837879e-02</internalNodes>
      <leafValues>
        1.3608126901090145e-02 -3.0599355697631836e-01</leafValues></_>
    <_>
      <internalNodes>
        0 -1 93532 -1.0440923506394029e-03</internalNodes>
      <leafValues>
        8.2853153347969055e-02 -5.2592910826206207e-02</leafValues></_>
    <_>
      <internalNodes>
        0 -1 60321 3.7834040820598602e-02</internalNodes>
      <leafValues>
        3.8426697254180908e-02 -1.3024410605430603e-01</leafValues></_>
    <_>
      <internalNodes>
        0 -1 83157 -2.3921416141092777e-04</internalNodes>
      <leafValues>
        -9.7799114882946014e-02 4.5277867466211319e-02</leafValues></_>
    <_>
      <internalNodes>
        0 -1 51115 -5.3864950314164162e-03</internalNodes>
      <leafValues>
        7.1230985224246979e-02 -6.5683484077453613e-02</leafValues></_>
    <_>
      <internalNodes>
        0 -1 68983 8.5173293948173523e-02</internalNodes>
      <leafValues>
        6.0870754532516003e-03 -8.1147646903991699e-01</leafValues></_>
    <_>
      <internalNodes>
        0 -1 22920 -6.4705004915595055e-03</internalNodes>
      <leafValues>
        3.9559911936521530e-02 -1.0811366885900497e-01</leafValues></_>
    <_>
      <internalNodes>
        0 -1 40970 3.0304446816444397e-02</internalNodes>
      <leafValues>
        -2.7263911440968513e-02 1.6809761524200439e-01</leafValues></_>
    <_>
      <internalNodes>
        0 -1 75700 5.5139157921075821e-03</internalNodes>
      <leafValues>
        2.1940667182207108e-02 -2.0809355378150940e-01</leafValues></_>
    <_>
      <internalNodes>
        0 -1 70781 -9.5019526779651642e-02</internalNodes>
      <leafValues>
        -5.9293353557586670e-01 7.1022259071469307e-03</leafValues></_>
    <_>
      <internalNodes>
        0 -1 96826 2.8989445418119431e-02</internalNodes>
      <leafValues>
        -9.4463974237442017e-03 4.5731699466705322e-01</leafValues></_>
    <_>
      <internalNodes>
        0 -1 95063 -2.5651436299085617e-02</internalNodes>
      <leafValues>
        -3.9464128017425537e-01 1.1053839698433876e-02</leafValues></_>
    <_>
      <internalNodes>
        0 -1 1393 -3.0200219154357910e-01</internalNodes>
      <leafValues>
        -5.5735373497009277e-01 8.0901989713311195e-03</leafValues></_>
    <_>
      <internalNodes>
        0 -1 109353 -6.6010048612952232e-04</internalNodes>
      <leafValues>
        -9.9035002291202545e-02 4.3980576097965240e-02</leafValues></_>
    <_>
      <internalNodes>
        0 -1 107101 1.0751817375421524e-02</internalNodes>
      <leafValues>
        -2.8658621013164520e-02 1.7209821939468384e-01</leafValues></_>
    <_>
      <internalNodes>
        0 -1 106188 -4.3425131589174271e-03</internalNodes>
      <leafValues>
        9.6292883157730103e-02 -4.7164339572191238e-02</leafValues></_>
    <_>
      <internalNodes>
        0 -1 111697 3.3659749897196889e-04</internalNodes>
      <leafValues>
        5.2030272781848907e-02 -8.6170531809329987e-02</leafValues></_>
    <_>
      <internalNodes>
        0 -1 123576 2.5274381041526794e-03</internalNodes>
      <leafValues>
        -1.2077540904283524e-01 4.0925007313489914e-02</leafValues></_>
    <_>
      <internalNodes>
        0 -1 121547 5.2759125828742981e-03</internalNodes>
      <leafValues>
        -4.0256693959236145e-02 1.4555022120475769e-01</leafValues></_>
    <_>
      <internalNodes>
        0 -1 58182 -1.5073502436280251e-02</internalNodes>
      <leafValues>
        -2.6574862003326416e-01 1.6484620049595833e-02</leafValues></_>
    <_>
      <internalNodes>
        0 -1 49227 -3.1043947674334049e-03</internalNodes>
      <leafValues>
        9.8670117557048798e-02 -5.0835557281970978e-02</leafValues></_>
    <_>
      <internalNodes>
        0 -1 120275 -3.5594386281445622e-04</internalNodes>
      <leafValues>
        -9.1270148754119873e-02 4.7984521836042404e-02</leafValues></_>
    <_>
      <internalNodes>
        0 -1 100584 -3.4306887537240982e-03</internalNodes>
      <leafValues>
        8.7504640221595764e-02 -5.2222598344087601e-02</leafValues></_>
    <_>
      <internalNodes>
        0 -1 107111 3.4651376307010651e-02</internalNodes>
      <leafValues>
        1.4553802087903023e-02 -3.8468682765960693e-01</leafValues></_>
    <_>
      <internalNodes>
        0 -1 93710 6.2495302408933640e-03</internalNodes>
      <leafValues>
        2.7256820350885391e-02 -1.7214378714561462e-01</leafValues></_>
    <_>
      <internalNodes>
        0 -1 101548 -6.2863677740097046e-03</internalNodes>
      <leafValues>
        2.8350746631622314e-01 -1.5044842846691608e-02</leafValues></_>
    <_>
      <internalNodes>
        0 -1 118003 -1.9284050911664963e-02</internalNodes>
      <leafValues>
        -3.5926276445388794e-01 1.2569922953844070e-02</leafValues></_>
    <_>
      <internalNodes>
        0 -1 69625 4.6588174882344902e-04</internalNodes>
      <leafValues>
        -4.8837043344974518e-02 8.8304914534091949e-02</leafValues></_>
    <_>
      <internalNodes>
        0 -1 80093 -2.3865798721089959e-04</internalNodes>
      <leafValues>
        6.3278213143348694e-02 -6.8239875137805939e-02</leafValues></_>
    <_>
      <internalNodes>
        0 -1 116982 4.0297590196132660e-02</internalNodes>
      <leafValues>
        1.1918178759515285e-02 -3.7973633408546448e-01</leafValues></_>
    <_>
      <internalNodes>
        0 -1 124868 6.4565059728920460e-03</internalNodes>
      <leafValues>
        -3.5035427659749985e-02 1.2527716159820557e-01</leafValues></_>
    <_>
      <internalNodes>
        0 -1 12659 6.2501421198248863e-03</internalNodes>
      <leafValues>
        -7.0239089429378510e-02 6.0218974947929382e-02</leafValues></_>
    <_>
      <internalNodes>
        0 -1 101282 6.0411188751459122e-02</internalNodes>
      <leafValues>
        -2.5530014187097549e-02 1.7500023543834686e-01</leafValues></_>
    <_>
      <internalNodes>
        0 -1 40627 -7.5812106952071190e-03</internalNodes>
      <leafValues>
        1.1265067011117935e-01 -3.8737166672945023e-02</leafValues></_>
    <_>
      <internalNodes>
        0 -1 45777 -3.7310575135052204e-04</internalNodes>
      <leafValues>
        -1.0543943196535110e-01 4.5967314392328262e-02</leafValues></_>
    <_>
      <internalNodes>
        0 -1 117241 5.7390904985368252e-03</internalNodes>
      <leafValues>
        3.4663446247577667e-02 -1.2083950638771057e-01</leafValues></_>
    <_>
      <internalNodes>
        0 -1 118078 -2.9907575808465481e-03</internalNodes>
      <leafValues>
        8.6410827934741974e-02 -4.7962218523025513e-02</leafValues></_>
    <_>
      <internalNodes>
        0 -1 117503 5.5514574050903320e-03</internalNodes>
      <leafValues>
        -4.2914014309644699e-02 1.2451028078794479e-01</leafValues></_>
    <_>
      <internalNodes>
        0 -1 118364 -2.3088081798050553e-04</internalNodes>
      <leafValues>
        -9.6478670835494995e-02 5.1486145704984665e-02</leafValues></_>
    <_>
      <internalNodes>
        0 -1 103367 4.5420707465382293e-05</internalNodes>
      <leafValues>
        -5.2248537540435791e-02 8.0670394003391266e-02</leafValues></_>
    <_>
      <internalNodes>
        0 -1 125182 -1.0489773558219895e-04</internalNodes>
      <leafValues>
        -7.9992301762104034e-02 5.3640447556972504e-02</leafValues></_>
    <_>
      <internalNodes>
        0 -1 95481 2.6850898284465075e-03</internalNodes>
      <leafValues>
        2.5841189548373222e-02 -1.6082927584648132e-01</leafValues></_>
    <_>
      <internalNodes>
        0 -1 80316 8.8910549879074097e-02</internalNodes>
      <leafValues>
        -1.0848039761185646e-02 4.9830460548400879e-01</leafValues></_>
    <_>
      <internalNodes>
        0 -1 49511 3.4638650715351105e-02</internalNodes>
      <leafValues>
        1.6160536557435989e-02 -3.0049505829811096e-01</leafValues></_>
    <_>
      <internalNodes>
        0 -1 49465 1.2479895958676934e-03</internalNodes>
      <leafValues>
        -4.1332747787237167e-02 1.2229905277490616e-01</leafValues></_>
    <_>
      <internalNodes>
        0 -1 76728 2.7441810816526413e-02</internalNodes>
      <leafValues>
        -8.4628477692604065e-02 5.5871952325105667e-02</leafValues></_>
    <_>
      <internalNodes>
        0 -1 118421 3.4542206674814224e-02</internalNodes>
      <leafValues>
        8.4943100810050964e-03 -5.2278304100036621e-01</leafValues></_>
    <_>
      <internalNodes>
        0 -1 93718 -1.3593512121587992e-03</internalNodes>
      <leafValues>
        1.0341630876064301e-01 -4.1292823851108551e-02</leafValues></_>
    <_>
      <internalNodes>
        0 -1 99320 -9.8220109939575195e-03</internalNodes>
      <leafValues>
        -2.0306248962879181e-01 2.0629905164241791e-02</leafValues></_>
    <_>
      <internalNodes>
        0 -1 18990 -8.5685786325484514e-04</internalNodes>
      <leafValues>
        -8.9022651314735413e-02 4.8622224479913712e-02</leafValues></_>
    <_>
      <internalNodes>
        0 -1 21174 -4.7044865787029266e-03</internalNodes>
      <leafValues>
        2.3910877108573914e-01 -1.9062768667936325e-02</leafValues></_>
    <_>
      <internalNodes>
        0 -1 64952 8.3420649170875549e-03</internalNodes>
      <leafValues>
        -1.4987209811806679e-02 2.7685192227363586e-01</leafValues></_>
    <_>
      <internalNodes>
        0 -1 55480 -1.5855999663472176e-03</internalNodes>
      <leafValues>
        1.0354480892419815e-01 -4.0653496980667114e-02</leafValues></_>
    <_>
      <internalNodes>
        0 -1 114914 -3.3135514240711927e-04</internalNodes>
      <leafValues>
        -1.1279405653476715e-01 3.5528860986232758e-02</leafValues></_>
    <_>
      <internalNodes>
        0 -1 124633 1.8987227231264114e-03</internalNodes>
      <leafValues>
        -2.7339797466993332e-02 1.4460539817810059e-01</leafValues></_>
    <_>
      <internalNodes>
        0 -1 104611 -2.5363999884575605e-04</internalNodes>
      <leafValues>
        6.0982607305049896e-02 -6.8949356675148010e-02</leafValues></_>
    <_>
      <internalNodes>
        0 -1 116777 -2.2178373183123767e-04</internalNodes>
      <leafValues>
        4.8854280263185501e-02 -8.0804489552974701e-02</leafValues></_>
    <_>
      <internalNodes>
        0 -1 77220 8.7820307817310095e-04</internalNodes>
      <leafValues>
        -5.1948633044958115e-02 8.4552265703678131e-02</leafValues></_>
    <_>
      <internalNodes>
        0 -1 124323 -1.7475782442488708e-05</internalNodes>
      <leafValues>
        -5.3797688335180283e-02 8.2109868526458740e-02</leafValues></_>
    <_>
      <internalNodes>
        0 -1 108692 -2.3062560707330704e-02</internalNodes>
      <leafValues>
        -3.5328203439712524e-01 1.2266008183360100e-02</leafValues></_>
    <_>
      <internalNodes>
        0 -1 96051 7.7737786341458559e-04</internalNodes>
      <leafValues>
        5.2699230611324310e-02 -8.3106622099876404e-02</leafValues></_>
    <_>
      <internalNodes>
        0 -1 57326 3.4269906580448151e-02</internalNodes>
      <leafValues>
        -3.6560930311679840e-02 1.1989992856979370e-01</leafValues></_>
    <_>
      <internalNodes>
        0 -1 124664 -8.9335069060325623e-03</internalNodes>
      <leafValues>
        -2.2347481548786163e-01 1.9374495372176170e-02</leafValues></_>
    <_>
      <internalNodes>
        0 -1 123278 -4.5404613047139719e-05</internalNodes>
      <leafValues>
        6.5626479685306549e-02 -6.3096463680267334e-02</leafValues></_>
    <_>
      <internalNodes>
        0 -1 64557 7.5303167104721069e-02</internalNodes>
      <leafValues>
        8.1823552027344704e-03 -4.6632170677185059e-01</leafValues></_>
    <_>
      <internalNodes>
        0 -1 93791 -4.4344882480800152e-03</internalNodes>
      <leafValues>
        1.0081528872251511e-01 -4.0517505258321762e-02</leafValues></_>
    <_>
      <internalNodes>
        0 -1 96003 -3.5950465826317668e-04</internalNodes>
      <leafValues>
        -9.5129087567329407e-02 4.5989125967025757e-02</leafValues></_>
    <_>
      <internalNodes>
        0 -1 71173 3.7832789123058319e-02</internalNodes>
      <leafValues>
        4.8441579565405846e-03 -8.6061656475067139e-01</leafValues></_>
    <_>
      <internalNodes>
        0 -1 120406 -1.1355412192642689e-02</internalNodes>
      <leafValues>
        9.8648652434349060e-02 -4.2407341301441193e-02</leafValues></_>
    <_>
      <internalNodes>
        0 -1 6458 -1.2312217615544796e-02</internalNodes>
      <leafValues>
        5.5851317942142487e-02 -7.1602888405323029e-02</leafValues></_>
    <_>
      <internalNodes>
        0 -1 27497 -1.0776452720165253e-01</internalNodes>
      <leafValues>
        -2.4839998781681061e-01 1.6507497057318687e-02</leafValues></_>
    <_>
      <internalNodes>
        0 -1 45301 1.6069072484970093e-01</internalNodes>
      <leafValues>
        2.7230793610215187e-02 -1.5612372756004333e-01</leafValues></_>
    <_>
      <internalNodes>
        0 -1 121524 -8.0615852493792772e-04</internalNodes>
      <leafValues>
        -1.4604790508747101e-01 2.8028411790728569e-02</leafValues></_>
    <_>
      <internalNodes>
        0 -1 115084 7.3850648477673531e-03</internalNodes>
      <leafValues>
        -3.8786914199590683e-02 1.1295007914304733e-01</leafValues></_>
    <_>
      <internalNodes>
        0 -1 121591 4.2555150575935841e-03</internalNodes>
      <leafValues>
        -4.4948685914278030e-02 1.0461186617612839e-01</leafValues></_>
    <_>
      <internalNodes>
        0 -1 123913 -1.0088558495044708e-01</internalNodes>
      <leafValues>
        -3.0597957968711853e-01 1.3282835483551025e-02</leafValues></_>
    <_>
      <internalNodes>
        0 -1 57241 -3.3334396779537201e-02</internalNodes>
      <leafValues>
        -4.0465757250785828e-01 9.9580399692058563e-03</leafValues></_>
    <_>
      <internalNodes>
        0 -1 121678 -1.2301994860172272e-01</internalNodes>
      <leafValues>
        -4.0687194466590881e-01 9.5224538818001747e-03</leafValues></_>
    <_>
      <internalNodes>
        0 -1 124648 -1.0823549702763557e-02</internalNodes>
      <leafValues>
        1.9669359922409058e-01 -2.0354166626930237e-02</leafValues></_>
    <_>
      <internalNodes>
        0 -1 123350 1.1629014043137431e-03</internalNodes>
      <leafValues>
        -4.2315412312746048e-02 9.7324483096599579e-02</leafValues></_>
    <_>
      <internalNodes>
        0 -1 54812 2.3103402927517891e-03</internalNodes>
      <leafValues>
        3.3249381929636002e-02 -1.2825721502304077e-01</leafValues></_>
    <_>
      <internalNodes>
        0 -1 54811 5.1872115582227707e-03</internalNodes>
      <leafValues>
        -1.1328706517815590e-02 3.7900441884994507e-01</leafValues></_>
    <_>
      <internalNodes>
        0 -1 69857 1.2831704225391150e-04</internalNodes>
      <leafValues>
        -4.6421185135841370e-02 8.9797809720039368e-02</leafValues></_>
    <_>
      <internalNodes>
        0 -1 97508 -2.1889157593250275e-02</internalNodes>
      <leafValues>
        -2.7736082673072815e-01 1.5887599438428879e-02</leafValues></_>
    <_>
      <internalNodes>
        0 -1 67558 -1.9261160492897034e-01</internalNodes>
      <leafValues>
        5.3977072238922119e-01 -8.3098169416189194e-03</leafValues></_>
    <_>
      <internalNodes>
        0 -1 22139 1.5459273708984256e-03</internalNodes>
      <leafValues>
        -4.1579455137252808e-02 9.7724907100200653e-02</leafValues></_>
    <_>
      <internalNodes>
        0 -1 50895 -9.6553772687911987e-02</internalNodes>
      <leafValues>
        -4.5030269026756287e-01 1.0509062558412552e-02</leafValues></_>
    <_>
      <internalNodes>
        0 -1 44596 6.9864951074123383e-02</internalNodes>
      <leafValues>
        -6.4592962153255939e-03 7.8047573566436768e-01</leafValues></_>
    <_>
      <internalNodes>
        0 -1 55101 1.3869351707398891e-02</internalNodes>
      <leafValues>
        1.6326799988746643e-02 -3.0742847919464111e-01</leafValues></_>
    <_>
      <internalNodes>
        0 -1 54181 1.6546179540455341e-03</internalNodes>
      <leafValues>
        -4.3163966387510300e-02 1.0431597381830215e-01</leafValues></_>
    <_>
      <internalNodes>
        0 -1 32422 5.8185942471027374e-02</internalNodes>
      <leafValues>
        1.1500422842800617e-02 -3.8405808806419373e-01</leafValues></_>
    <_>
      <internalNodes>
        0 -1 118741 -4.9789794720709324e-03</internalNodes>
      <leafValues>
        8.8314317166805267e-02 -4.7951467335224152e-02</leafValues></_>
    <_>
      <internalNodes>
        0 -1 118713 -1.6569081693887711e-02</internalNodes>
      <leafValues>
        -2.8585806488990784e-01 1.6856841742992401e-02</leafValues></_>
    <_>
      <internalNodes>
        0 -1 37818 -1.4320686459541321e-01</internalNodes>
      <leafValues>
        2.8628727793693542e-01 -1.5136486850678921e-02</leafValues></_>
    <_>
      <internalNodes>
        0 -1 99192 -1.0688425600528717e-01</internalNodes>
      <leafValues>
        -2.0423346757888794e-01 2.1449806168675423e-02</leafValues></_>
    <_>
      <internalNodes>
        0 -1 123680 -1.1692461557686329e-03</internalNodes>
      <leafValues>
        -1.6670140624046326e-01 2.4139067158102989e-02</leafValues></_>
    <_>
      <internalNodes>
        0 -1 121358 -3.9407223463058472e-02</internalNodes>
      <leafValues>
        -5.7333767414093018e-01 8.1029599532485008e-03</leafValues></_>
    <_>
      <internalNodes>
        0 -1 121216 1.6433387063443661e-03</internalNodes>
      <leafValues>
        -3.6851037293672562e-02 1.1747951060533524e-01</leafValues></_>
    <_>
      <internalNodes>
        0 -1 125148 -7.3962723836302757e-03</internalNodes>
      <leafValues>
        -2.7556893229484558e-01 1.6925595700740814e-02</leafValues></_>
    <_>
      <internalNodes>
        0 -1 451 1.4570140838623047e-01</internalNodes>
      <leafValues>
        1.9129019230604172e-02 -2.2331118583679199e-01</leafValues></_>
    <_>
      <internalNodes>
        0 -1 110994 -2.3698518052697182e-03</internalNodes>
      <leafValues>
        1.2164258956909180e-01 -3.5577669739723206e-02</leafValues></_>
    <_>
      <internalNodes>
        0 -1 111140 1.1356681585311890e-01</internalNodes>
      <leafValues>
        6.1687272973358631e-03 -6.4617025852203369e-01</leafValues></_>
    <_>
      <internalNodes>
        0 -1 108034 -2.3633390665054321e-02</internalNodes>
      <leafValues>
        1.3931018114089966e-01 -3.3047150820493698e-02</leafValues></_>
    <_>
      <internalNodes>
        0 -1 653 3.2689380645751953e-01</internalNodes>
      <leafValues>
        1.1809329502284527e-02 -3.8486152887344360e-01</leafValues></_>
    <_>
      <internalNodes>
        0 -1 113424 1.3242242857813835e-03</internalNodes>
      <leafValues>
        2.1126147359609604e-02 -2.0164011418819427e-01</leafValues></_>
    <_>
      <internalNodes>
        0 -1 117408 5.1339587662369013e-04</internalNodes>
      <leafValues>
        -5.4010037332773209e-02 8.6564235389232635e-02</leafValues></_>
    <_>
      <internalNodes>
        0 -1 74761 -2.5848593562841415e-02</internalNodes>
      <leafValues>
        1.0475283116102219e-01 -4.1182287037372589e-02</leafValues></_>
    <_>
      <internalNodes>
        0 -1 107406 -6.0531112831085920e-04</internalNodes>
      <leafValues>
        -8.4948077797889709e-02 5.6706670671701431e-02</leafValues></_>
    <_>
      <internalNodes>
        0 -1 77828 1.1804286623373628e-04</internalNodes>
      <leafValues>
        -4.1633125394582748e-02 9.8502762615680695e-02</leafValues></_>
    <_>
      <internalNodes>
        0 -1 71252 -6.3124584266915917e-04</internalNodes>
      <leafValues>
        -1.4723448455333710e-01 2.9445357620716095e-02</leafValues></_>
    <_>
      <internalNodes>
        0 -1 71252 4.8912037163972855e-04</internalNodes>
      <leafValues>
        3.4428924322128296e-02 -1.6214652359485626e-01</leafValues></_>
    <_>
      <internalNodes>
        0 -1 85521 6.0995863750576973e-03</internalNodes>
      <leafValues>
        -4.4951394200325012e-02 1.0334753990173340e-01</leafValues></_>
    <_>
      <internalNodes>
        0 -1 84624 2.5893718702718616e-04</internalNodes>
      <leafValues>
        -3.6489684134721756e-02 1.2408867478370667e-01</leafValues></_>
    <_>
      <internalNodes>
        0 -1 69381 -3.1128339469432831e-04</internalNodes>
      <leafValues>
        -1.1201526224613190e-01 3.7257570773363113e-02</leafValues></_>
    <_>
      <internalNodes>
        0 -1 99334 -7.6605370268225670e-03</internalNodes>
      <leafValues>
        3.5719767212867737e-01 -1.1156816966831684e-02</leafValues></_>
    <_>
      <internalNodes>
        0 -1 86628 -1.7969710752367973e-02</internalNodes>
      <leafValues>
        -4.4555884599685669e-01 1.0365081951022148e-02</leafValues></_>
    <_>
      <internalNodes>
        0 -1 90129 -5.1875342614948750e-03</internalNodes>
      <leafValues>
        1.0583005845546722e-01 -4.2418885976076126e-02</leafValues></_>
    <_>
      <internalNodes>
        0 -1 97761 -1.4242064207792282e-02</internalNodes>
      <leafValues>
        -4.5670825242996216e-01 8.3182072266936302e-03</leafValues></_>
    <_>
      <internalNodes>
        0 -1 59753 -5.6478747865185142e-04</internalNodes>
      <leafValues>
        8.3437763154506683e-02 -5.4569840431213379e-02</leafValues></_>
    <_>
      <internalNodes>
        0 -1 33232 -7.9685472883284092e-04</internalNodes>
      <leafValues>
        5.5198643356561661e-02 -8.5883349180221558e-02</leafValues></_>
    <_>
      <internalNodes>
        0 -1 103082 -4.4282418093644083e-04</internalNodes>
      <leafValues>
        -8.6155109107494354e-02 5.3400922566652298e-02</leafValues></_>
    <_>
      <internalNodes>
        0 -1 34209 2.0346984267234802e-02</internalNodes>
      <leafValues>
        -1.4689777046442032e-02 3.0259540677070618e-01</leafValues></_>
    <_>
      <internalNodes>
        0 -1 102958 7.5460942462086678e-03</internalNodes>
      <leafValues>
        -5.6301360018551350e-03 6.8668270111083984e-01</leafValues></_>
    <_>
      <internalNodes>
        0 -1 9551 4.1306432103738189e-04</internalNodes>
      <leafValues>
        4.4846162199974060e-02 -9.4631448388099670e-02</leafValues></_>
    <_>
      <internalNodes>
        0 -1 122219 -9.9480878561735153e-03</internalNodes>
      <leafValues>
        1.0210283845663071e-01 -4.2033921927213669e-02</leafValues></_>
    <_>
      <internalNodes>
        0 -1 58732 -2.5643264874815941e-02</internalNodes>
      <leafValues>
        -3.3098810911178589e-01 1.3146852143108845e-02</leafValues></_>
    <_>
      <internalNodes>
        0 -1 1884 -4.9054046394303441e-04</internalNodes>
      <leafValues>
        -9.9880352616310120e-02 4.0080446749925613e-02</leafValues></_>
    <_>
      <internalNodes>
        0 -1 1250 -5.5619463091716170e-04</internalNodes>
      <leafValues>
        7.0527404546737671e-02 -5.9970751404762268e-02</leafValues></_>
    <_>
      <internalNodes>
        0 -1 14078 3.0634459108114243e-03</internalNodes>
      <leafValues>
        -3.0044468119740486e-02 1.3244743645191193e-01</leafValues></_>
    <_>
      <internalNodes>
        0 -1 23431 -2.5917850434780121e-03</internalNodes>
      <leafValues>
        7.4831217527389526e-02 -5.7722344994544983e-02</leafValues></_>
    <_>
      <internalNodes>
        0 -1 41403 -1.9886824884451926e-04</internalNodes>
      <leafValues>
        -7.1046404540538788e-02 6.8615809082984924e-02</leafValues></_>
    <_>
      <internalNodes>
        0 -1 55821 4.9097277224063873e-03</internalNodes>
      <leafValues>
        -3.5064268857240677e-02 1.2437754124403000e-01</leafValues></_>
    <_>
      <internalNodes>
        0 -1 55794 -1.4750258997082710e-02</internalNodes>
      <leafValues>
        -4.2772200703620911e-01 1.1408359743654728e-02</leafValues></_>
    <_>
      <internalNodes>
        0 -1 76126 1.9247538875788450e-03</internalNodes>
      <leafValues>
        -4.8141323029994965e-02 9.1862566769123077e-02</leafValues></_>
    <_>
      <internalNodes>
        0 -1 116476 2.4841099977493286e-02</internalNodes>
      <leafValues>
        2.3102110251784325e-02 -1.9110497832298279e-01</leafValues></_>
    <_>
      <internalNodes>
        0 -1 94708 -3.4029852598905563e-02</internalNodes>
      <leafValues>
        1.5320663154125214e-01 -2.8882093727588654e-02</leafValues></_>
    <_>
      <internalNodes>
        0 -1 91641 2.2084829397499561e-03</internalNodes>
      <leafValues>
        3.3366367220878601e-02 -1.3682755827903748e-01</leafValues></_>
    <_>
      <internalNodes>
        0 -1 68006 -1.4544976875185966e-04</internalNodes>
      <leafValues>
        -4.0144082158803940e-02 1.1343025416135788e-01</leafValues></_>
    <_>
      <internalNodes>
        0 -1 75186 -1.1095666559413075e-03</internalNodes>
      <leafValues>
        -1.1930724233388901e-01 4.4489059597253799e-02</leafValues></_>
    <_>
      <internalNodes>
        0 -1 71352 -3.2996602356433868e-02</internalNodes>
      <leafValues>
        7.4329549074172974e-01 -6.1584697104990482e-03</leafValues></_>
    <_>
      <internalNodes>
        0 -1 113442 -5.5400829296559095e-04</internalNodes>
      <leafValues>
        5.3050220012664795e-02 -8.2603067159652710e-02</leafValues></_>
    <_>
      <internalNodes>
        0 -1 120825 -2.8921032208018005e-04</internalNodes>
      <leafValues>
        -8.8196448981761932e-02 5.0111889839172363e-02</leafValues></_>
    <_>
      <internalNodes>
        0 -1 60744 4.4980741222389042e-05</internalNodes>
      <leafValues>
        -5.2152436226606369e-02 8.3855874836444855e-02</leafValues></_>
    <_>
      <internalNodes>
        0 -1 60167 -3.8374506402760744e-04</internalNodes>
      <leafValues>
        -1.0669149458408356e-01 4.2647048830986023e-02</leafValues></_>
    <_>
      <internalNodes>
        0 -1 102319 8.4611251950263977e-02</internalNodes>
      <leafValues>
        5.8651217259466648e-03 -6.2927550077438354e-01</leafValues></_>
    <_>
      <internalNodes>
        0 -1 18131 -4.3218739330768585e-02</internalNodes>
      <leafValues>
        1.2483132630586624e-01 -3.7288777530193329e-02</leafValues></_>
    <_>
      <internalNodes>
        0 -1 103433 1.5789922326803207e-02</internalNodes>
      <leafValues>
        -1.8485980108380318e-02 2.1328885853290558e-01</leafValues></_>
    <_>
      <internalNodes>
        0 -1 75939 -2.6211438700556755e-02</internalNodes>
      <leafValues>
        6.0642108321189880e-02 -7.9537376761436462e-02</leafValues></_>
    <_>
      <internalNodes>
        0 -1 91668 -1.4249274972826242e-03</internalNodes>
      <leafValues>
        7.6314136385917664e-02 -5.4648481309413910e-02</leafValues></_>
    <_>
      <internalNodes>
        0 -1 114943 -1.0068073170259595e-03</internalNodes>
      <leafValues>
        4.8811718821525574e-02 -8.8357143104076385e-02</leafValues></_>
    <_>
      <internalNodes>
        0 -1 40120 -3.4091067314147949e-01</internalNodes>
      <leafValues>
        -2.4419310688972473e-01 1.9636584445834160e-02</leafValues></_>
    <_>
      <internalNodes>
        0 -1 122871 2.6039681397378445e-03</internalNodes>
      <leafValues>
        -3.6814354360103607e-02 1.2721627950668335e-01</leafValues></_>
    <_>
      <internalNodes>
        0 -1 3808 -2.4301182478666306e-02</internalNodes>
      <leafValues>
        -1.6379383206367493e-01 2.6160012930631638e-02</leafValues></_>
    <_>
      <internalNodes>
        0 -1 58842 -4.2347952723503113e-02</internalNodes>
      <leafValues>
        -6.9584393501281738e-01 5.8760377578437328e-03</leafValues></_>
    <_>
      <internalNodes>
        0 -1 105905 -1.4688998460769653e-01</internalNodes>
      <leafValues>
        -3.2203683257102966e-01 1.1883222497999668e-02</leafValues></_>
    <_>
      <internalNodes>
        0 -1 116348 7.8665697947144508e-04</internalNodes>
      <leafValues>
        3.9341386407613754e-02 -1.0272739082574844e-01</leafValues></_>
    <_>
      <internalNodes>
        0 -1 49192 2.1059315651655197e-02</internalNodes>
      <leafValues>
        -3.3201958984136581e-02 1.2790684401988983e-01</leafValues></_>
    <_>
      <internalNodes>
        0 -1 19359 -1.9715086091309786e-03</internalNodes>
      <leafValues>
        -1.4168418943881989e-01 2.9514539986848831e-02</leafValues></_>
    <_>
      <internalNodes>
        0 -1 93595 -5.7918735546991229e-04</internalNodes>
      <leafValues>
        -1.0125935822725296e-01 4.0103241801261902e-02</leafValues></_>
    <_>
      <internalNodes>
        0 -1 70141 1.2627812102437019e-02</internalNodes>
      <leafValues>
        -4.6986017376184464e-02 8.4794647991657257e-02</leafValues></_>
    <_>
      <internalNodes>
        0 -1 121060 7.5958985835313797e-03</internalNodes>
      <leafValues>
        -3.8770299404859543e-02 1.1751897633075714e-01</leafValues></_>
    <_>
      <internalNodes>
        0 -1 60018 1.3164556585252285e-03</internalNodes>
      <leafValues>
        -1.1042092740535736e-01 3.7174660712480545e-02</leafValues></_>
    <_>
      <internalNodes>
        0 -1 50036 -2.6308612897992134e-02</internalNodes>
      <leafValues>
        1.0126460343599319e-01 -4.7216385602951050e-02</leafValues></_>
    <_>
      <internalNodes>
        0 -1 41661 8.3086136728525162e-03</internalNodes>
      <leafValues>
        -3.0685761943459511e-02 1.4876098930835724e-01</leafValues></_>
    <_>
      <internalNodes>
        0 -1 35892 1.7424375982955098e-04</internalNodes>
      <leafValues>
        3.8181100040674210e-02 -1.2569093704223633e-01</leafValues></_>
    <_>
      <internalNodes>
        0 -1 123102 9.2971092090010643e-04</internalNodes>
      <leafValues>
        4.4192135334014893e-02 -9.3466348946094513e-02</leafValues></_>
    <_>
      <internalNodes>
        0 -1 62562 -2.0666769705712795e-03</internalNodes>
      <leafValues>
        1.2009027600288391e-01 -3.8802661001682281e-02</leafValues></_>
    <_>
      <internalNodes>
        0 -1 76045 2.8239544481039047e-02</internalNodes>
      <leafValues>
        3.5851147025823593e-02 -1.3248716294765472e-01</leafValues></_>
    <_>
      <internalNodes>
        0 -1 41845 2.5536301732063293e-01</internalNodes>
      <leafValues>
        1.2322839349508286e-02 -3.4535363316535950e-01</leafValues></_>
    <_>
      <internalNodes>
        0 -1 41707 -2.4786674976348877e-01</internalNodes>
      <leafValues>
        2.9158210754394531e-01 -1.4975994825363159e-02</leafValues></_>
    <_>
      <internalNodes>
        0 -1 8707 3.7895467132329941e-02</internalNodes>
      <leafValues>
        9.0379081666469574e-03 -4.8706799745559692e-01</leafValues></_>
    <_>
      <internalNodes>
        0 -1 48057 1.2887957505881786e-02</internalNodes>
      <leafValues>
        8.1834048032760620e-03 -4.8837655782699585e-01</leafValues></_>
    <_>
      <internalNodes>
        0 -1 62871 3.9522284641861916e-03</internalNodes>
      <leafValues>
        -3.9155602455139160e-02 1.0957553982734680e-01</leafValues></_>
    <_>
      <internalNodes>
        0 -1 36527 -8.1988563761115074e-04</internalNodes>
      <leafValues>
        8.8566258549690247e-02 -5.6963253766298294e-02</leafValues></_>
    <_>
      <internalNodes>
        0 -1 51626 7.3946177959442139e-02</internalNodes>
      <leafValues>
        1.9512258470058441e-02 -2.7988192439079285e-01</leafValues></_>
    <_>
      <internalNodes>
        0 -1 8287 7.9926392063498497e-03</internalNodes>
      <leafValues>
        -2.9367065057158470e-02 1.4315953850746155e-01</leafValues></_>
    <_>
      <internalNodes>
        0 -1 8323 -3.4540770575404167e-03</internalNodes>
      <leafValues>
        8.4902025759220123e-02 -5.6084722280502319e-02</leafValues></_>
    <_>
      <internalNodes>
        0 -1 82813 2.3107542656362057e-03</internalNodes>
      <leafValues>
        2.7674768120050430e-02 -1.4486883580684662e-01</leafValues></_>
    <_>
      <internalNodes>
        0 -1 14339 -2.2635955363512039e-02</internalNodes>
      <leafValues>
        1.1002971976995468e-01 -4.0390826761722565e-02</leafValues></_>
    <_>
      <internalNodes>
        0 -1 12056 3.4640036523342133e-02</internalNodes>
      <leafValues>
        -5.0342332571744919e-02 1.0841644555330276e-01</leafValues></_>
    <_>
      <internalNodes>
        0 -1 2774 5.4308521794155240e-04</internalNodes>
      <leafValues>
        -4.2230937629938126e-02 1.0285882651805878e-01</leafValues></_>
    <_>
      <internalNodes>
        0 -1 102980 9.3757396098226309e-04</internalNodes>
      <leafValues>
        -3.9060600101947784e-02 1.0815999656915665e-01</leafValues></_>
    <_>
      <internalNodes>
        0 -1 84319 -7.0286653935909271e-03</internalNodes>
      <leafValues>
        -2.1154417097568512e-01 2.1060246974229813e-02</leafValues></_>
    <_>
      <internalNodes>
        0 -1 1470 -1.7870899289846420e-02</internalNodes>
      <leafValues>
        -2.5095947086811066e-02 1.7962919175624847e-01</leafValues></_>
    <_>
      <internalNodes>
        0 -1 119342 -1.1465055868029594e-02</internalNodes>
      <leafValues>
        4.5644052326679230e-02 -1.1783487349748611e-01</leafValues></_>
    <_>
      <internalNodes>
        0 -1 9052 8.6296047084033489e-04</internalNodes>
      <leafValues>
        4.1544958949089050e-02 -1.0521057993173599e-01</leafValues></_>
    <_>
      <internalNodes>
        0 -1 9111 -5.7449052110314369e-04</internalNodes>
      <leafValues>
        8.3536148071289062e-02 -5.8835476636886597e-02</leafValues></_>
    <_>
      <internalNodes>
        0 -1 19294 4.3230000883340836e-03</internalNodes>
      <leafValues>
        -3.6262411624193192e-02 1.1745451390743256e-01</leafValues></_>
    <_>
      <internalNodes>
        0 -1 57563 -1.5092785656452179e-01</internalNodes>
      <leafValues>
        -1.2477744370698929e-01 3.6621280014514923e-02</leafValues></_>
    <_>
      <internalNodes>
        0 -1 31219 3.8272131234407425e-02</internalNodes>
      <leafValues>
        -4.5133925974369049e-02 1.0064788162708282e-01</leafValues></_>
    <_>
      <internalNodes>
        0 -1 11526 1.9623860716819763e-01</internalNodes>
      <leafValues>
        2.3312058299779892e-02 -2.2639805078506470e-01</leafValues></_>
    <_>
      <internalNodes>
        0 -1 94888 -1.7126244306564331e-01</internalNodes>
      <leafValues>
        1.5470309555530548e-01 -3.0647667124867439e-02</leafValues></_>
    <_>
      <internalNodes>
        0 -1 33549 -8.6444765329360962e-03</internalNodes>
      <leafValues>
        4.7869855165481567e-01 -8.0645373091101646e-03</leafValues></_>
    <_>
      <internalNodes>
        0 -1 45005 -2.3798914626240730e-02</internalNodes>
      <leafValues>
        -3.0796700716018677e-01 1.3538510538637638e-02</leafValues></_>
    <_>
      <internalNodes>
        0 -1 122958 5.7826939970254898e-02</internalNodes>
      <leafValues>
        7.3735080659389496e-03 -5.0409245491027832e-01</leafValues></_>
    <_>
      <internalNodes>
        0 -1 72687 3.7362769246101379e-02</internalNodes>
      <leafValues>
        -4.3055213987827301e-02 9.3952082097530365e-02</leafValues></_>
    <_>
      <internalNodes>
        0 -1 95838 5.5176280438899994e-02</internalNodes>
      <leafValues>
        1.5840398147702217e-02 -3.0952546000480652e-01</leafValues></_>
    <_>
      <internalNodes>
        0 -1 88003 -2.2299479693174362e-02</internalNodes>
      <leafValues>
        1.0715183615684509e-01 -3.9354238659143448e-02</leafValues></_>
    <_>
      <internalNodes>
        0 -1 35349 2.2211410105228424e-03</internalNodes>
      <leafValues>
        3.5776171833276749e-02 -1.1987560987472534e-01</leafValues></_>
    <_>
      <internalNodes>
        0 -1 33670 -9.6898768097162247e-03</internalNodes>
      <leafValues>
        -9.8584972321987152e-02 4.8258420079946518e-02</leafValues></_>
    <_>
      <internalNodes>
        0 -1 86821 6.4155254513025284e-03</internalNodes>
      <leafValues>
        -8.9658526703715324e-03 5.0357335805892944e-01</leafValues></_>
    <_>
      <internalNodes>
        0 -1 5980 -2.7686071395874023e-01</internalNodes>
      <leafValues>
        5.3025001287460327e-01 -6.4845816232264042e-03</leafValues></_>
    <_>
      <internalNodes>
        0 -1 125195 -3.3339194487780333e-03</internalNodes>
      <leafValues>
        -2.3048779368400574e-01 1.7539983615279198e-02</leafValues></_>
    <_>
      <internalNodes>
        0 -1 14210 -1.0354629158973694e-01</internalNodes>
      <leafValues>
        -2.8984722495079041e-01 1.3514383696019650e-02</leafValues></_>
    <_>
      <internalNodes>
        0 -1 26988 -5.6530870497226715e-03</internalNodes>
      <leafValues>
        2.4702703952789307e-01 -2.1762156859040260e-02</leafValues></_>
    <_>
      <internalNodes>
        0 -1 118770 -3.0179955065250397e-03</internalNodes>
      <leafValues>
        8.4796734154224396e-02 -4.7807399183511734e-02</leafValues></_>
    <_>
      <internalNodes>
        0 -1 100683 5.0125956535339355e-02</internalNodes>
      <leafValues>
        1.3166466727852821e-02 -3.1797599792480469e-01</leafValues></_>
    <_>
      <internalNodes>
        0 -1 114995 -4.0018856525421143e-03</internalNodes>
      <leafValues>
        1.0092470794916153e-01 -4.9000531435012817e-02</leafValues></_>
    <_>
      <internalNodes>
        0 -1 99280 -3.3768222783692181e-04</internalNodes>
      <leafValues>
        -1.0642834752798080e-01 3.9367418736219406e-02</leafValues></_>
    <_>
      <internalNodes>
        0 -1 53994 1.7775406595319510e-03</internalNodes>
      <leafValues>
        -5.5527020245790482e-02 7.5543619692325592e-02</leafValues></_>
    <_>
      <internalNodes>
        0 -1 55740 -1.1047324165701866e-02</internalNodes>
      <leafValues>
        1.2032160907983780e-01 -3.5069014877080917e-02</leafValues></_>
    <_>
      <internalNodes>
        0 -1 5024 -6.8846583366394043e-02</internalNodes>
      <leafValues>
        1.1426468193531036e-01 -3.7012379616498947e-02</leafValues></_>
    <_>
      <internalNodes>
        0 -1 14781 5.9576332569122314e-04</internalNodes>
      <leafValues>
        -6.2400814145803452e-02 7.7538438141345978e-02</leafValues></_>
    <_>
      <internalNodes>
        0 -1 4646 -1.6601141542196274e-03</internalNodes>
      <leafValues>
        4.3101474642753601e-02 -1.0148683935403824e-01</leafValues></_>
    <_>
      <internalNodes>
        0 -1 116202 4.8133026808500290e-02</internalNodes>
      <leafValues>
        -2.1208465099334717e-02 2.0714607834815979e-01</leafValues></_>
    <_>
      <internalNodes>
        0 -1 106985 -4.1403062641620636e-03</internalNodes>
      <leafValues>
        2.4375027418136597e-01 -1.6407087445259094e-02</leafValues></_>
    <_>
      <internalNodes>
        0 -1 122058 -2.2704610601067543e-03</internalNodes>
      <leafValues>
        4.9179725348949432e-02 -8.5492230951786041e-02</leafValues></_>
    <_>
      <internalNodes>
        0 -1 123348 -8.3063524216413498e-03</internalNodes>
      <leafValues>
        5.1454800367355347e-01 -7.8617623075842857e-03</leafValues></_>
    <_>
      <internalNodes>
        0 -1 106985 4.8984214663505554e-03</internalNodes>
      <leafValues>
        -1.4657338149845600e-02 2.6232501864433289e-01</leafValues></_>
    <_>
      <internalNodes>
        0 -1 9546 2.5440548779442906e-04</internalNodes>
      <leafValues>
        3.9548203349113464e-02 -1.0527069121599197e-01</leafValues></_>
    <_>
      <internalNodes>
        0 -1 8014 3.6107935011386871e-02</internalNodes>
      <leafValues>
        -1.7503164708614349e-02 2.4016764760017395e-01</leafValues></_></weakClassifiers></stage18>
</opencv_storage>
