<?xml version="1.0"?>
<opencv_storage>
<cascade>
  <stageType>BOOST</stageType>
  <featureType>LBP</featureType>
  <height>20</height>
  <width>20</width>
  <stageParams>
    <boostType>GAB</boostType>
    <minHitRate>9.9900001287460327e-01</minHitRate>
    <maxFalseAlarm>5.0000000000000000e-01</maxFalseAlarm>
    <weightTrimRate>9.4999999999999996e-01</weightTrimRate>
    <maxDepth>1</maxDepth>
    <maxWeakCount>1000</maxWeakCount></stageParams>
  <featureParams>
    <maxCatCount>256</maxCatCount>
    <featSize>1</featSize></featureParams>
  <stageNum>15</stageNum>
  <stages>
    <!-- stage 0 -->
    <_>
      <maxWeakCount>19</maxWeakCount>
      <stageThreshold>-2.1225824356079102e+00</stageThreshold>
      <weakClassifiers>
        <_>
          <internalNodes>
            0 -1 34 -1025 -547368641 1359696379 1366511831 -212880469
            50528256 1937732603 290681171</internalNodes>
          <leafValues>
            -7.1120572090148926e-01 5.5680757761001587e-01</leafValues></_>
        <_>
          <internalNodes>
            0 -1 753 -72355077 2555904 1011282429 19072023 -919937569
            135988388 67355903 36686047</internalNodes>
          <leafValues>
            -4.8700872063636780e-01 3.6054775118827820e-01</leafValues></_>
        <_>
          <internalNodes>
            0 -1 54 -634650725 -545538785 217340305 286363921 1280
            422188821 1339 52647703</internalNodes>
          <leafValues>
            -4.5157632231712341e-01 2.6951315999031067e-01</leafValues></_>
        <_>
          <internalNodes>
            0 -1 30 -1051701 -675547640 547500209 -216531151 -539231349
            -917281532 1104541631 -716967679</internalNodes>
          <leafValues>
            -2.5231334567070007e-01 4.1404971480369568e-01</leafValues></_>
        <_>
          <internalNodes>
            0 -1 572 -1573706240 3276800 -1566933456 270678178 12805120
            1748968565 310592964 -83888157</internalNodes>
          <leafValues>
            -2.9291859269142151e-01 3.1040307879447937e-01</leafValues></_>
        <_>
          <internalNodes>
            0 -1 132 -201329701 1473718143 -159502093 855830608
            1288635083 156044233 1691287759 172978654</internalNodes>
          <leafValues>
            -3.7622711062431335e-01 2.3913173377513885e-01</leafValues></_>
        <_>
          <internalNodes>
            0 -1 977 -87307638 175244290 545541128 1344520430 -765509120
            67109888 1145102572 -261103485</internalNodes>
          <leafValues>
            -2.6888525485992432e-01 3.1115129590034485e-01</leafValues></_>
        <_>
          <internalNodes>
            0 -1 136 -254820214 -1874975650 280018968 1883991706
            1276776448 809502296 -232552766 -771491245</internalNodes>
          <leafValues>
            -2.5914642214775085e-01 2.8464475274085999e-01</leafValues></_>
        <_>
          <internalNodes>
            0 -1 142 -696827832 -42513855 -1401814466 277696190
            1383464968 -25926819 -187023650 -234182785</internalNodes>
          <leafValues>
            -2.9034507274627686e-01 2.3169624805450439e-01</leafValues></_>
        <_>
          <internalNodes>
            0 -1 852 -799407016 -673188323 -825287432 974280502
            1914113546 -25911490 -565249398 -531971510</internalNodes>
          <leafValues>
            -2.7133250236511230e-01 2.3879964649677277e-01</leafValues></_>
        <_>
          <internalNodes>
            0 -1 991 -1968460118 42109484 684993616 -1869363056
            -1553221698 477171060 1699193521 -941111407</internalNodes>
          <leafValues>
            -2.7720028162002563e-01 2.2267422080039978e-01</leafValues></_>
        <_>
          <internalNodes>
            0 -1 436 -2147483440 289145372 740047099 812979100
            -1810235384 -1099428559 -385218422 -1692790038</internalNodes>
          <leafValues>
            -2.7078294754028320e-01 2.2867068648338318e-01</leafValues></_>
        <_>
          <internalNodes>
            0 -1 705 -1474828206 326772100 473303317 1068963477 70650972
            -1367915177 136727804 138101775</internalNodes>
          <leafValues>
            -3.4142348170280457e-01 1.7868074774742126e-01</leafValues></_>
        <_>
          <internalNodes>
            0 -1 3 -1977360190 -1304285056 456219735 -201863982
            381142411 -563391071 1330496924 -10234607</internalNodes>
          <leafValues>
            -2.1453587710857391e-01 2.9080063104629517e-01</leafValues></_>
        <_>
          <internalNodes>
            0 -1 537 -355998941 1379051043 -1045530218 -36375512
            1613959968 -395174607 -385168406 -310313712</internalNodes>
          <leafValues>
            -2.1283511817455292e-01 2.8457829356193542e-01</leafValues></_>
        <_>
          <internalNodes>
            0 -1 310 193696479 321856591 46574094 856686102 19649228
            503530626 173482396 2053100421</internalNodes>
          <leafValues>
            -2.7389124035835266e-01 2.2296471893787384e-01</leafValues></_>
        <_>
          <internalNodes>
            0 -1 192 -1372592593 659523317 -1984021127 289124151
            1350501509 -1970060485 -1192072024 -666373393</internalNodes>
          <leafValues>
            -1.9856852293014526e-01 3.0076706409454346e-01</leafValues></_>
        <_>
          <internalNodes>
            0 -1 371 -355761446 -1325765997 1209553659 36245502
            -922188788 -1695540398 -364197154 -636225381</internalNodes>
          <leafValues>
            -1.7802198231220245e-01 3.0742418766021729e-01</leafValues></_>
        <_>
          <internalNodes>
            0 -1 56 -140528082 401859418 -1038678735 345437971 405734788
            137831697 636424428 1618469639</internalNodes>
          <leafValues>
            -3.1881362199783325e-01 1.7896315455436707e-01</leafValues></_></weakClassifiers></_>
    <!-- stage 1 -->
    <_>
      <maxWeakCount>28</maxWeakCount>
      <stageThreshold>-2.0060544013977051e+00</stageThreshold>
      <weakClassifiers>
        <_>
          <internalNodes>
            0 -1 246 -1 -71305217 -67109377 -1569 -68157441 687485617
            -1275330561 16470751</internalNodes>
          <leafValues>
            -5.7009047269821167e-01 4.6177524328231812e-01</leafValues></_>
        <_>
          <internalNodes>
            0 -1 132 1405047635 1398735743 -672172037 1939714519
            13570303 469725151 1140790015 1541370843</internalNodes>
          <leafValues>
            -3.8214308023452759e-01 3.0724743008613586e-01</leafValues></_>
        <_>
          <internalNodes>
            0 -1 31 -146800641 1462994295 807550037 1964209425
            -273678338 -2011163644 1358430207 1095845120</internalNodes>
          <leafValues>
            -3.6320400238037109e-01 2.6390922069549561e-01</leafValues></_>
        <_>
          <internalNodes>
            0 -1 742 -265629616 -220849954 342023231 1351631580
            -1526592504 -121977766 -1425483382 -2013126629</internalNodes>
          <leafValues>
            -2.9130369424819946e-01 2.6439961791038513e-01</leafValues></_>
        <_>
          <internalNodes>
            0 -1 313 -789446512 -682098671 541071481 353374307
            -2113929208 -114685948 -369083766 -83131733</internalNodes>
          <leafValues>
            -2.0683820545673370e-01 3.4322834014892578e-01</leafValues></_>
        <_>
          <internalNodes>
            0 -1 22 -1043411233 153181189 1328434677 1143034897 28479930
            75637815 1658995131 1936942899</internalNodes>
          <leafValues>
            -3.2785442471504211e-01 2.1569614112377167e-01</leafValues></_>
        <_>
          <internalNodes>
            0 -1 897 -2122142800 159416464 487997425 501585013
            -1950434823 -1414218600 1834220499 -1717742127</internalNodes>
          <leafValues>
            -3.0654025077819824e-01 2.1861246228218079e-01</leafValues></_>
        <_>
          <internalNodes>
            0 -1 394 1077134388 497978645 -1950646540 260449372 53216145
            -1657528879 82850064 -937369056</internalNodes>
          <leafValues>
            -3.1408366560935974e-01 2.0853370428085327e-01</leafValues></_>
        <_>
          <internalNodes>
            0 -1 975 -27278646 7211202 4981270 1342792788 -666185592
            -532670460 -666836230 -78909217</internalNodes>
          <leafValues>
            -2.1666026115417480e-01 2.8814983367919922e-01</leafValues></_>
        <_>
          <internalNodes>
            0 -1 7 -2111657504 -1344164384 -1211380129 -539637950
            389276602 -1141405776 -577251408 -406629312</internalNodes>
          <leafValues>
            -2.5938659906387329e-01 2.4867731332778931e-01</leafValues></_>
        <_>
          <internalNodes>
            0 -1 374 -1832779584 -210235316 4197471 269484056
            -1084618616 -1101119483 137636863 -1156929026</internalNodes>
          <leafValues>
            -2.6964798569679260e-01 2.2124186158180237e-01</leafValues></_>
        <_>
          <internalNodes>
            0 -1 865 -595209761 33555631 712029951 859286195 -1153105921
            -1926992515 637580761 159634483</internalNodes>
          <leafValues>
            -2.3931205272674561e-01 2.4106280505657196e-01</leafValues></_>
        <_>
          <internalNodes>
            0 -1 439 -1870626672 -543942512 777794321 1560622556
            -1974558534 -1901556584 205558778 -1970667384</internalNodes>
          <leafValues>
            -2.3454198241233826e-01 2.4973054230213165e-01</leafValues></_>
        <_>
          <internalNodes>
            0 -1 783 -2146959216 -620230504 23335645 -1660085219
            -1457512246 -342425351 304760985 -1693777906</internalNodes>
          <leafValues>
            -2.3879316449165344e-01 2.3401534557342529e-01</leafValues></_>
        <_>
          <internalNodes>
            0 -1 852 1075462168 1415459036 2103934973 1350064247
            73141262 -122233764 -26416370 134374954</internalNodes>
          <leafValues>
            -3.4144416451454163e-01 1.6361579298973083e-01</leafValues></_>
        <_>
          <internalNodes>
            0 -1 109 -71319422 -682000768 2328576 1375068696 -1037070078
            570765380 1110569603 -748948481</internalNodes>
          <leafValues>
            -2.0348174870014191e-01 2.7535885572433472e-01</leafValues></_>
        <_>
          <internalNodes>
            0 -1 522 1878094711 70417139 -1610776835 1001581888
            927298793 -285773071 1453535368 -531982</internalNodes>
          <leafValues>
            -1.8019692599773407e-01 2.9388412833213806e-01</leafValues></_>
        <_>
          <internalNodes>
            0 -1 862 -254370600 1507787274 405821279 1494028501
            946739400 -1100475296 146865914 -83149670</internalNodes>
          <leafValues>
            -1.6201452910900116e-01 3.2783564925193787e-01</leafValues></_>
        <_>
          <internalNodes>
            0 -1 55 -806691086 -705660577 -1665147627 159651904
            270140851 368141137 1240662323 161678339</internalNodes>
          <leafValues>
            -3.4626734256744385e-01 1.6345116496086121e-01</leafValues></_>
        <_>
          <internalNodes>
            0 -1 348 -1389940957 190068786 -1989066899 -1422675081
            -1176567580 -339960519 -1526910335 -923801568</internalNodes>
          <leafValues>
            -2.3061217367649078e-01 2.2735549509525299e-01</leafValues></_>
        <_>
          <internalNodes>
            0 -1 506 -2147352432 -1680338760 403970591 386011375
            -133398520 -1735063508 -2108155218 402785499</internalNodes>
          <leafValues>
            -3.0458271503448486e-01 1.5658062696456909e-01</leafValues></_>
        <_>
          <internalNodes>
            0 -1 140 -567590784 1477189640 67373730 1543520024 33555008
            1614940241 607150470 839643151</internalNodes>
          <leafValues>
            -3.2928529381752014e-01 1.4822000265121460e-01</leafValues></_>
        <_>
          <internalNodes>
            0 -1 300 -489700674 286090597 -1078986498 825353457
            101554139 295130613 -237652790 1879360909</internalNodes>
          <leafValues>
            -2.7884939312934875e-01 1.7138502001762390e-01</leafValues></_>
        <_>
          <internalNodes>
            0 -1 702 -249902960 -137224584 607133695 496834012
            -1700222276 -1172567992 -58155270 -1081468856</internalNodes>
          <leafValues>
            -1.8887467682361603e-01 2.6006269454956055e-01</leafValues></_>
        <_>
          <internalNodes>
            0 -1 848 -1845329744 -819429216 358962259 -10545939
            -1369789268 -1429683572 278147263 453181568</internalNodes>
          <leafValues>
            -2.4091807007789612e-01 1.9557790458202362e-01</leafValues></_>
        <_>
          <internalNodes>
            0 -1 153 -94448801 -248668462 610927839 4822106 1080305696
            -11528650 737433530 -1972485285</internalNodes>
          <leafValues>
            -1.9214546680450439e-01 2.4195405840873718e-01</leafValues></_>
        <_>
          <internalNodes>
            0 -1 413 -487067881 278278081 -47276623 -318589041
            -135323081 -68013399 -1731200625 -370082493</internalNodes>
          <leafValues>
            -1.6445715725421906e-01 2.8417548537254333e-01</leafValues></_>
        <_>
          <internalNodes>
            0 -1 85 -788545661 1362548651 1573976053 -201458213
            367318926 282329375 1171080525 1334263948</internalNodes>
          <leafValues>
            -2.3745872080326080e-01 1.9657355546951294e-01</leafValues></_></weakClassifiers></_>
    <!-- stage 2 -->
    <_>
      <maxWeakCount>38</maxWeakCount>
      <stageThreshold>-2.0263545513153076e+00</stageThreshold>
      <weakClassifiers>
        <_>
          <internalNodes>
            0 -1 174 -67108865 -10241 -679225633 2013221855 -69222485
            3867267 -202906625 872379359</internalNodes>
          <leafValues>
            -5.0129473209381104e-01 3.2629719376564026e-01</leafValues></_>
        <_>
          <internalNodes>
            0 -1 242 -1057 -1025 1347948625 -171969699 -536939013
            -1941900224 -789384449 -1069091633</internalNodes>
          <leafValues>
            -2.6785352826118469e-01 4.3571257591247559e-01</leafValues></_>
        <_>
          <internalNodes>
            0 -1 41 -680009765 -551826991 1413567825 1963021585 50337026
            675483411 85005075 -214739181</internalNodes>
          <leafValues>
            -2.7747160196304321e-01 3.6101377010345459e-01</leafValues></_>
        <_>
          <internalNodes>
            0 -1 897 -1433670742 2099232 63508480 -1683783568
            -1880376321 144767981 2013262803 -71305257</internalNodes>
          <leafValues>
            -2.9564565420150757e-01 2.9712745547294617e-01</leafValues></_>
        <_>
          <internalNodes>
            0 -1 982 -368055638 -1073083862 541089858 -804550546
            -59259898 4683332 1893463243 -707791105</internalNodes>
          <leafValues>
            -2.6773768663406372e-01 2.8512758016586304e-01</leafValues></_>
        <_>
          <internalNodes>
            0 -1 142 -135315456 -76605653 6292578 672561199 1343488000
            1063015004 813057710 -158400513</internalNodes>
          <leafValues>
            -2.7961865067481995e-01 2.5155720114707947e-01</leafValues></_>
        <_>
          <internalNodes>
            0 -1 93 -738198910 -494162422 1074219008 1900540626
            1075544576 28976 269862528 -773850113</internalNodes>
          <leafValues>
            -2.5287142395973206e-01 2.4025727808475494e-01</leafValues></_>
        <_>
          <internalNodes>
            0 -1 7 -2097087520 159567360 -1213205872 -548407584
            355201261 263423364 1410422721 -406620863</internalNodes>
          <leafValues>
            -2.6297861337661743e-01 2.2173669934272766e-01</leafValues></_>
        <_>
          <internalNodes>
            0 -1 746 -30934274 2108751896 -1134889763 289097272
            -1002926433 238504317 201387485 7324751</internalNodes>
          <leafValues>
            -2.8789994120597839e-01 1.8248629570007324e-01</leafValues></_>
        <_>
          <internalNodes>
            0 -1 123 -923811774 -2100823389 -1070849518 1354496591
            39288832 1287200 -767060861 -220988477</internalNodes>
          <leafValues>
            -2.0602309703826904e-01 2.4334947764873505e-01</leafValues></_>
        <_>
          <internalNodes>
            0 -1 302 -82857333 319232319 811497693 287412316 51120010
            512524279 1912279260 156599213</internalNodes>
          <leafValues>
            -3.0388784408569336e-01 1.6544784605503082e-01</leafValues></_>
        <_>
          <internalNodes>
            0 -1 343 -285300445 729220631 45752823 -1601198947
            -1325464440 -333635398 -990117640 -855644434</internalNodes>
          <leafValues>
            -1.8111458420753479e-01 2.7056291699409485e-01</leafValues></_>
        <_>
          <internalNodes>
            0 -1 923 -656521074 1934802543 -28828550 2071588350
            -999774710 1584171114 947561198 -2012555766</internalNodes>
          <leafValues>
            -2.2236013412475586e-01 2.0473046600818634e-01</leafValues></_>
        <_>
          <internalNodes>
            0 -1 30 -202645334 865189955 -1602190800 -1214520991
            -611254307 -1960677593 -795414024 1998796304</internalNodes>
          <leafValues>
            -2.6083204150199890e-01 1.8386958539485931e-01</leafValues></_>
        <_>
          <internalNodes>
            0 -1 813 -628682336 -83655966 1416712752 -609226432
            -1081142905 -2004098354 1433778095 -541601453</internalNodes>
          <leafValues>
            -1.6571405529975891e-01 2.7138683199882507e-01</leafValues></_>
        <_>
          <internalNodes>
            0 -1 872 -1049865 27723336 -1699450625 1413444859 -40108561
            73083124 1143525565 -797976065</internalNodes>
          <leafValues>
            -1.3897792994976044e-01 3.0177885293960571e-01</leafValues></_>
        <_>
          <internalNodes>
            0 -1 146 2045727511 2010061613 2144318976 325727278 97461386
            168189839 361567967 174023935</internalNodes>
          <leafValues>
            -2.4258847534656525e-01 1.8771006166934967e-01</leafValues></_>
        <_>
          <internalNodes>
            0 -1 201 -407526621 303198519 -2120220743 28311447
            1104642199 2085540770 -926952487 -994840137</internalNodes>
          <leafValues>
            -1.9065839052200317e-01 2.3456430435180664e-01</leafValues></_>
        <_>
          <internalNodes>
            0 -1 892 -1566312222 8643202 -1333929260 -723137418 92266712
            12943588 5702759 1348980804</internalNodes>
          <leafValues>
            -2.8502047061920166e-01 1.5726457536220551e-01</leafValues></_>
        <_>
          <internalNodes>
            0 -1 133 -772849536 1361778890 1410130000 -787758398
            -782319488 2301760 -213522550 -758909989</internalNodes>
          <leafValues>
            -1.8133790791034698e-01 2.3777246475219727e-01</leafValues></_>
        <_>
          <internalNodes>
            0 -1 3 -1878799726 -1215321998 371183193 -139214341
            1020387546 -541472878 -1588467478 -682371823</internalNodes>
          <leafValues>
            -1.6787031292915344e-01 2.4202767014503479e-01</leafValues></_>
        <_>
          <internalNodes>
            0 -1 477 -429152674 958597403 -1124927684 822577704
            154474291 187905555 -458816554 622395431</internalNodes>
          <leafValues>
            -2.9992377758026123e-01 1.4568467438220978e-01</leafValues></_>
        <_>
          <internalNodes>
            0 -1 268 -607175809 924578595 1922559698 -2026796382
            745361823 15825077 1085758063 -923535633</internalNodes>
          <leafValues>
            -1.8104925751686096e-01 2.2475771605968475e-01</leafValues></_>
        <_>
          <internalNodes>
            0 -1 27 -543166538 22410085 99377457 1380001363 650555288
            -1950043679 1542990042 1618157650</internalNodes>
          <leafValues>
            -2.7939388155937195e-01 1.6518235206604004e-01</leafValues></_>
        <_>
          <internalNodes>
            0 -1 570 37695507 37628039 986699029 1440830045 -1642453504
            -1897973584 655881343 -805308933</internalNodes>
          <leafValues>
            -1.7591881752014160e-01 2.5015252828598022e-01</leafValues></_>
        <_>
          <internalNodes>
            0 -1 965 -785656070 942276832 -2062225795 368381945
            -888944164 168497649 185116154 499905475</internalNodes>
          <leafValues>
            -1.8496058881282806e-01 2.2638639807701111e-01</leafValues></_>
        <_>
          <internalNodes>
            0 -1 181 -16515414 -909432694 1127363345 1407032520
            269198234 143247104 84390123 -875826213</internalNodes>
          <leafValues>
            -1.3559527695178986e-01 3.0200615525245667e-01</leafValues></_>
        <_>
          <internalNodes>
            0 -1 356 -1555043597 -2098321700 541270759 1108012794
            -1476475327 281043792 -1965836861 1375796688</internalNodes>
          <leafValues>
            -2.4531237781047821e-01 1.5744523704051971e-01</leafValues></_>
        <_>
          <internalNodes>
            0 -1 905 1566508244 -606132495 2050645598 450446422
            -898986472 -1161919436 2014464702 -1442180608</internalNodes>
          <leafValues>
            -2.3965831100940704e-01 1.6187505424022675e-01</leafValues></_>
        <_>
          <internalNodes>
            0 -1 985 -508824862 -1744723294 578265313 -798696367
            659995018 76067872 1467445662 -724581904</internalNodes>
          <leafValues>
            -1.6376364231109619e-01 2.2679272294044495e-01</leafValues></_>
        <_>
          <internalNodes>
            0 -1 831 -1366609357 1533489678 10845823 -713064577
            -1691634672 1807167492 1784407889 2064643929</internalNodes>
          <leafValues>
            -1.7706318199634552e-01 2.2835049033164978e-01</leafValues></_>
        <_>
          <internalNodes>
            0 -1 543 -1439715589 992063267 -915580427 522362415
            1465733630 -40935075 -549382913 -2127411285</internalNodes>
          <leafValues>
            -1.8709518015384674e-01 2.0268462598323822e-01</leafValues></_>
        <_>
          <internalNodes>
            0 -1 245 -1222647809 -33784262 268986643 1467433170
            899022845 -1943002654 9126846 17904511</internalNodes>
          <leafValues>
            -2.4772638082504272e-01 1.7421422898769379e-01</leafValues></_>
        <_>
          <internalNodes>
            0 -1 117 -605038958 -1855197185 1618035248 1923990499
            -496246782 101515202 -211495805 -436207637</internalNodes>
          <leafValues>
            -1.6597893834114075e-01 2.5477692484855652e-01</leafValues></_>
        <_>
          <internalNodes>
            0 -1 401 1765523763 1542010475 -1327466639 -1600338769
            726361775 -874123697 122380635 -332338431</internalNodes>
          <leafValues>
            -1.6895514726638794e-01 2.2910705208778381e-01</leafValues></_>
        <_>
          <internalNodes>
            0 -1 53 -329065446 -1653858984 352408881 570033502 521143296
            311629891 1910171 738938235</internalNodes>
          <leafValues>
            -2.9432338476181030e-01 1.5357731282711029e-01</leafValues></_>
        <_>
          <internalNodes>
            0 -1 323 -13975560 -542305136 -1858553517 -653407948
            1105390474 -829956460 252896955 -823209509</internalNodes>
          <leafValues>
            -1.4199976623058319e-01 2.8240191936492920e-01</leafValues></_>
        <_>
          <internalNodes>
            0 -1 160 182000 134392992 1362648784 -1114873502 1140444080
            -1915217692 123965664 22152209</internalNodes>
          <leafValues>
            -3.2827201485633850e-01 1.3388453423976898e-01</leafValues></_></weakClassifiers></_>
    <!-- stage 3 -->
    <_>
      <maxWeakCount>52</maxWeakCount>
      <stageThreshold>-1.7121175527572632e+00</stageThreshold>
      <weakClassifiers>
        <_>
          <internalNodes>
            0 -1 262 -1 1006578687 -134218241 1006578303 -1065985
            305865407 -67633153 868185087</internalNodes>
          <leafValues>
            -5.0697672367095947e-01 2.9832401871681213e-01</leafValues></_>
        <_>
          <internalNodes>
            0 -1 32 -612368385 -537428057 564344307 -138708993
            -1345351698 -2010905312 -8193 1364684899</internalNodes>
          <leafValues>
            -3.2257008552551270e-01 2.4377931654453278e-01</leafValues></_>
        <_>
          <internalNodes>
            0 -1 11 -536879649 1568512337 -805873807 1597064533 54981523
            2145070851 522396433 2066969363</internalNodes>
          <leafValues>
            -2.7639311552047729e-01 2.1450465917587280e-01</leafValues></_>
        <_>
          <internalNodes>
            0 -1 901 -609566046 8555176 -2128016128 -1647342848
            -1644430150 -1931698181 1196683763 -740330017</internalNodes>
          <leafValues>
            -2.2712998092174530e-01 2.1665382385253906e-01</leafValues></_>
        <_>
          <internalNodes>
            0 -1 471 871328771 15460554 -1430359744 808384770 208351744
            -1468270880 -890088256 -67111969</internalNodes>
          <leafValues>
            -1.7995141446590424e-01 2.6216790080070496e-01</leafValues></_>
        <_>
          <internalNodes>
            0 -1 130 -43169 1896504703 -672194957 1617379078 1243563015
            1412192671 2118061595 203833915</internalNodes>
          <leafValues>
            -3.0783867835998535e-01 1.2204305082559586e-01</leafValues></_>
        <_>
          <internalNodes>
            0 -1 968 -587216758 1242450490 -1979265489 1342325994
            -602616318 1212812098 1845812974 -217318693</internalNodes>
          <leafValues>
            -1.6594976186752319e-01 2.6529875397682190e-01</leafValues></_>
        <_>
          <internalNodes>
            0 -1 885 -450366877 410658 -1325440803 1349513983 6189822
            68109335 1421164796 -800074651</internalNodes>
          <leafValues>
            -2.2091507911682129e-01 1.8274571001529694e-01</leafValues></_>
        <_>
          <internalNodes>
            0 -1 420 -487612382 -756378989 -378063613 -794638478
            -335834701 -624962697 -138943599 -1058740506</internalNodes>
          <leafValues>
            -1.8161103129386902e-01 2.1747638285160065e-01</leafValues></_>
        <_>
          <internalNodes>
            0 -1 262 313242270 -566043122 185091797 -981337234 867202443
            732412749 68161629 222530574</internalNodes>
          <leafValues>
            -2.8462806344032288e-01 1.4511255919933319e-01</leafValues></_>
        <_>
          <internalNodes>
            0 -1 852 1549540430 -113305985 -18196482 1351142972
            -128041464 -18040298 -18940594 -536678898</internalNodes>
          <leafValues>
            -2.3465105891227722e-01 1.6085676848888397e-01</leafValues></_>
        <_>
          <internalNodes>
            0 -1 100 -7550 -668041534 1077769744 1884393137 -1036009728
            51362118 -682112557 -1008993317</internalNodes>
          <leafValues>
            -1.7828816175460815e-01 2.1898913383483887e-01</leafValues></_>
        <_>
          <internalNodes>
            0 -1 310 537895899 319503755 600715855 864713542 423604941
            45253 1955813849 983226335</internalNodes>
          <leafValues>
            -2.2055812180042267e-01 1.7992338538169861e-01</leafValues></_>
        <_>
          <internalNodes>
            0 -1 629 -2144629033 -83182830 1073196925 2138215312
            396235831 -632382949 1264522768 -1849470</internalNodes>
          <leafValues>
            -1.6338357329368591e-01 2.3657149076461792e-01</leafValues></_>
        <_>
          <internalNodes>
            0 -1 242 -742956477 -9470033 7868945 1608509007 -671095557
            -1941674424 1186755291 1087013898</internalNodes>
          <leafValues>
            -2.0104731619358063e-01 1.8632464110851288e-01</leafValues></_>
        <_>
          <internalNodes>
            0 -1 221 -93597558 -119336326 1079008786 268661591
            -1064656894 1830180371 -731914550 -215745409</internalNodes>
          <leafValues>
            -1.6006335616111755e-01 2.2570151090621948e-01</leafValues></_>
        <_>
          <internalNodes>
            0 -1 12 -1996433421 -1882937664 -1956126733 -1378877825
            -1000275972 -1696858122 1205315555 -2023549133</internalNodes>
          <leafValues>
            -1.6371233761310577e-01 2.1186327934265137e-01</leafValues></_>
        <_>
          <internalNodes>
            0 -1 785 -600832816 -6353800 14480637 1574788637 -1407411680
            -2353128 -1961824866 -1089791920</internalNodes>
          <leafValues>
            -1.6070102155208588e-01 2.0697326958179474e-01</leafValues></_>
        <_>
          <internalNodes>
            0 -1 457 2072345972 917387872 12278490 585509596 539580913
            544631665 7355614 6750302</internalNodes>
          <leafValues>
            -3.7084066867828369e-01 9.0419456362724304e-02</leafValues></_>
        <_>
          <internalNodes>
            0 -1 404 -304675325 259995507 -1074005003 675131391
            -1351958790 -1090520582 -1376011576 -1996755928</internalNodes>
          <leafValues>
            -1.5071719884872437e-01 2.1286420524120331e-01</leafValues></_>
        <_>
          <internalNodes>
            0 -1 203 -1426070902 682539882 1793685296 826374778
            -1954573310 664258 1174919106 1081016014</internalNodes>
          <leafValues>
            -2.3646152019500732e-01 1.3597856462001801e-01</leafValues></_>
        <_>
          <internalNodes>
            0 -1 83 -812933221 -683540515 -1880220165 -1724393660
            7274775 365769811 216990943 1249342834</internalNodes>
          <leafValues>
            -2.2545960545539856e-01 1.4533288776874542e-01</leafValues></_>
        <_>
          <internalNodes>
            0 -1 992 -97787230 -902911958 542178384 -168830080 89649913
            69716000 1446368663 -716440077</internalNodes>
          <leafValues>
            -1.4972659945487976e-01 2.1661481261253357e-01</leafValues></_>
        <_>
          <internalNodes>
            0 -1 902 -2147478912 -746061112 52430933 -1723495623
            189303788 -1415837000 2363612 533532680</internalNodes>
          <leafValues>
            -2.4684788286685944e-01 1.2238755822181702e-01</leafValues></_>
        <_>
          <internalNodes>
            0 -1 107 1971300199 824355627 -1230703562 -205259296
            1710163925 556225079 1164957020 -475736220</internalNodes>
          <leafValues>
            -1.8599280714988708e-01 1.7080289125442505e-01</leafValues></_>
        <_>
          <internalNodes>
            0 -1 840 -612433901 -907071977 334067539 -616402916
            391984656 -564626348 -800951948 2064181620</internalNodes>
          <leafValues>
            -1.9966796040534973e-01 1.5760223567485809e-01</leafValues></_>
        <_>
          <internalNodes>
            0 -1 367 -891354913 -1997383521 -51758857 1073900442
            -29450872 -1910170790 -551830790 -318570758</internalNodes>
          <leafValues>
            -1.3023430109024048e-01 2.4277360737323761e-01</leafValues></_>
        <_>
          <internalNodes>
            0 -1 949 -768880405 -72358150 1306865 -219152892 -1705725701
            -1964902022 40236542 -538979218</internalNodes>
          <leafValues>
            -9.4509415328502655e-02 3.1895947456359863e-01</leafValues></_>
        <_>
          <internalNodes>
            0 -1 21 392953279 328547588 1526298097 261825553 -817387617
            -1461502155 536848117 946024707</internalNodes>
          <leafValues>
            -2.0498551428318024e-01 1.5475937724113464e-01</leafValues></_>
        <_>
          <internalNodes>
            0 -1 339 1828161315 -1275121809 1069229470 154803951
            -426307456 -1095074213 -832029688 -52756738</internalNodes>
          <leafValues>
            -1.5088093280792236e-01 2.1948240697383881e-01</leafValues></_>
        <_>
          <internalNodes>
            0 -1 595 -360215029 3059262 -322493470 1623654118
            -1808091632 -2072776732 1957130816 1146544384</internalNodes>
          <leafValues>
            -3.0684223771095276e-01 1.0012423992156982e-01</leafValues></_>
        <_>
          <internalNodes>
            0 -1 125 -596705188 -67290025 -1208013578 2057438426
            374603790 1064594804 2119964862 -368510261</internalNodes>
          <leafValues>
            -1.9396577775478363e-01 1.6063843667507172e-01</leafValues></_>
        <_>
          <internalNodes>
            0 -1 219 -788544382 -221331721 -1066246028 1887006935
            -875657078 -855921344 -833490302 -1020662861</internalNodes>
          <leafValues>
            -1.4511118829250336e-01 2.2031481564044952e-01</leafValues></_>
        <_>
          <internalNodes>
            0 -1 630 -501764865 562541879 -1149305891 1060867623
            993336506 -1438695657 -539706049 589670263</internalNodes>
          <leafValues>
            -2.0528410375118256e-01 1.6682063043117523e-01</leafValues></_>
        <_>
          <internalNodes>
            0 -1 995 -217930822 690529962 -1862535821 -1110393676
            -1372409426 368720104 1542527936 -2228778</internalNodes>
          <leafValues>
            -1.5728868544101715e-01 2.0161621272563934e-01</leafValues></_>
        <_>
          <internalNodes>
            0 -1 49 69438722 130793144 -1482213840 -1006786488
            1579496194 200150033 74794114 1374147664</internalNodes>
          <leafValues>
            -2.5330844521522522e-01 1.2547181546688080e-01</leafValues></_>
        <_>
          <internalNodes>
            0 -1 373 -68693797 -612951202 307453691 492431037 -159737144
            -2536074 -1167410290 -11865825</internalNodes>
          <leafValues>
            -8.7678752839565277e-02 3.5433939099311829e-01</leafValues></_>
        <_>
          <internalNodes>
            0 -1 861 -587075307 1141713016 -2026496033 167906935
            1245280191 766709622 957363257 136541233</internalNodes>
          <leafValues>
            -2.5715735554695129e-01 1.2745335698127747e-01</leafValues></_>
        <_>
          <internalNodes>
            0 -1 910 -1761636765 1542267400 547105887 1346196190
            1986662418 -328893944 1247327410 -15729122</internalNodes>
          <leafValues>
            -1.3427370786666870e-01 2.4244654178619385e-01</leafValues></_>
        <_>
          <internalNodes>
            0 -1 449 -336128513 -571617 -2142034113 2101343803 16733695
            -1502520196 1148547067 -922816786</internalNodes>
          <leafValues>
            -1.3243539631366730e-01 2.5079226493835449e-01</leafValues></_>
        <_>
          <internalNodes>
            0 -1 828 588187655 1937703498 1056366071 1356753951
            -1097432511 -1239139568 1578254192 2135652566</internalNodes>
          <leafValues>
            -1.9798836112022400e-01 1.7093670368194580e-01</leafValues></_>
        <_>
          <internalNodes>
            0 -1 501 -1687419949 460265375 -1480655111 137014587
            -842333991 -1447823957 90507499 -260729761</internalNodes>
          <leafValues>
            -1.6181921958923340e-01 1.9561399519443512e-01</leafValues></_>
        <_>
          <internalNodes>
            0 -1 61 -202380061 -1074794966 1039744784 -1278214312
            5248999 -1652497931 128390338 -973083441</internalNodes>
          <leafValues>
            -1.3333182036876678e-01 2.4477152526378632e-01</leafValues></_>
        <_>
          <internalNodes>
            0 -1 984 -1381008862 8806978 40723152 1355792082 255586564
            71803648 1439592512 1427895384</internalNodes>
          <leafValues>
            -2.8385177254676819e-01 1.1363125592470169e-01</leafValues></_>
        <_>
          <internalNodes>
            0 -1 166 1576992759 1332871027 2080329207 2102479653
            -1770540305 -1373487578 -38300744 -387450364</internalNodes>
          <leafValues>
            -1.3861231505870819e-01 2.2845812141895294e-01</leafValues></_>
        <_>
          <internalNodes>
            0 -1 921 -268389440 -886131830 -1159429228 -1111805346
            -1749777752 -1896067352 1007757450 -543487334</internalNodes>
          <leafValues>
            -1.4828230440616608e-01 2.1879445016384125e-01</leafValues></_>
        <_>
          <internalNodes>
            0 -1 541 -1361089265 -899219773 -68947717 -256844820
            2146787153 -252227745 -570835399 2016804050</internalNodes>
          <leafValues>
            -1.8682257831096649e-01 1.6675792634487152e-01</leafValues></_>
        <_>
          <internalNodes>
            0 -1 113 1189071563 1398330202 -788569246 392325366
            1155515142 1154560338 -209856621 -1051658365</internalNodes>
          <leafValues>
            -1.7407996952533722e-01 1.7671512067317963e-01</leafValues></_>
        <_>
          <internalNodes>
            0 -1 539 195174929 389730239 -1152147625 -214805484
            -1944355919 -1527587873 1014187575 30441752</internalNodes>
          <leafValues>
            -2.5655269622802734e-01 1.2607088685035706e-01</leafValues></_>
        <_>
          <internalNodes>
            0 -1 919 -618530117 -771564928 240089169 -45233424
            -1880097286 -321944168 1465251035 -639904324</internalNodes>
          <leafValues>
            -1.0216552019119263e-01 3.0666536092758179e-01</leafValues></_>
        <_>
          <internalNodes>
            0 -1 743 1426016256 -775913889 -1092656001 268885677
            1493058048 -1162084745 -22397170 134906914</internalNodes>
          <leafValues>
            -2.5889268517494202e-01 1.2089478224515915e-01</leafValues></_>
        <_>
          <internalNodes>
            0 -1 376 -1843883344 -75875912 478428145 -582286627
            -1899431183 -1704878340 305419935 -1081409256</internalNodes>
          <leafValues>
            -1.5174606442451477e-01 2.0222310721874237e-01</leafValues></_></weakClassifiers></_>
    <!-- stage 4 -->
    <_>
      <maxWeakCount>60</maxWeakCount>
      <stageThreshold>-1.6577749252319336e+00</stageThreshold>
      <weakClassifiers>
        <_>
          <internalNodes>
            0 -1 34 -1 -2107393 387801087 -673353225 -4194385 335487746
            -8389633 863466355</internalNodes>
          <leafValues>
            -4.7567680478096008e-01 2.2108490765094757e-01</leafValues></_>
        <_>
          <internalNodes>
            0 -1 865 -183765761 169869466 -1474113537 20516095
            -283386881 252142493 -1962151969 264230143</internalNodes>
          <leafValues>
            -3.0125954747200012e-01 2.0532834529876709e-01</leafValues></_>
        <_>
          <internalNodes>
            0 -1 146 -215002533 1397691263 2005487947 289676685
            252662223 1498239903 1024988923 1809736923</internalNodes>
          <leafValues>
            -2.5975206494331360e-01 1.8379321694374084e-01</leafValues></_>
        <_>
          <internalNodes>
            0 -1 952 -771693880 -787972032 37751568 286326784
            -1568628552 11020256 33599131 -1693515109</internalNodes>
          <leafValues>
            -1.4363791048526764e-01 2.7908918261528015e-01</leafValues></_>
        <_>
          <internalNodes>
            0 -1 169 -142608801 -671088899 2125845 1979153189 -877662785
            -872128508 20765695 21100366</internalNodes>
          <leafValues>
            -2.3545086383819580e-01 1.7349706590175629e-01</leafValues></_>
        <_>
          <internalNodes>
            0 -1 473 171901467 1123945146 1749292785 1078863565
            198836906 -2000809336 46045134 -537926401</internalNodes>
          <leafValues>
            -2.0661601424217224e-01 2.2179250419139862e-01</leafValues></_>
        <_>
          <internalNodes>
            0 -1 54 -655368229 -581120674 703975929 1083459664 8917913
            497166091 1348749467 1225282655</internalNodes>
          <leafValues>
            -2.0130811631679535e-01 2.1338899433612823e-01</leafValues></_>
        <_>
          <internalNodes>
            0 -1 946 -74456414 -636837246 446648 -644880242 722444794
            -1876945851 1091555768 -800274708</internalNodes>
          <leafValues>
            -1.8273331224918365e-01 2.1989171206951141e-01</leafValues></_>
        <_>
          <internalNodes>
            0 -1 311 -758394725 -209757961 441023071 1937463455
            -29716344 -330017518 -670107942 -82052129</internalNodes>
          <leafValues>
            -7.5046926736831665e-02 3.9047130942344666e-01</leafValues></_>
        <_>
          <internalNodes>
            0 -1 959 1422016526 2010796606 437808766 1358034986
            1213775880 709381140 -463281522 679978</internalNodes>
          <leafValues>
            -2.8805029392242432e-01 1.1307713389396667e-01</leafValues></_>
        <_>
          <internalNodes>
            0 -1 761 573507121 -549778158 316342071 1594715356
            -1237436907 -1975378927 862139153 -12853613</internalNodes>
          <leafValues>
            -1.4227961003780365e-01 2.2804558277130127e-01</leafValues></_>
        <_>
          <internalNodes>
            0 -1 293 -742917377 855896935 -70976519 432206097 735035279
            768049052 -1818894116 419822604</internalNodes>
          <leafValues>
            -2.0123933255672455e-01 1.6677354276180267e-01</leafValues></_>
        <_>
          <internalNodes>
            0 -1 557 -584012840 -35121968 87357813 1565349328
            -1441134870 -1409807304 795909354 -1148577634</internalNodes>
          <leafValues>
            -1.5954241156578064e-01 2.1733465790748596e-01</leafValues></_>
        <_>
          <internalNodes>
            0 -1 7 16823008 763735428 -408158634 -537010848 -711728133
            -1883504752 2103964402 -674762176</internalNodes>
          <leafValues>
            -1.9593030214309692e-01 1.6338494420051575e-01</leafValues></_>
        <_>
          <internalNodes>
            0 -1 503 -621084453 -1033707906 1928861823 1074980074
            -59007335 -30159792 -1354970374 -904143973</internalNodes>
          <leafValues>
            -1.2797524034976959e-01 2.5144216418266296e-01</leafValues></_>
        <_>
          <internalNodes>
            0 -1 745 2057805535 -169885978 784742813 -1191907084
            339151287 -1505530529 3295263 697943</internalNodes>
          <leafValues>
            -2.3319834470748901e-01 1.3702699542045593e-01</leafValues></_>
        <_>
          <internalNodes>
            0 -1 76 -93589630 -1182017888 540398592 -645794816
            1094714376 543298896 1198256858 -776998695</internalNodes>
          <leafValues>
            -1.5383705496788025e-01 1.9543227553367615e-01</leafValues></_>
        <_>
          <internalNodes>
            0 -1 931 -94401022 669720714 1245332091 286096594 -569840636
            1262621012 -368538978 -83625381</internalNodes>
          <leafValues>
            -1.4405357837677002e-01 2.0851497352123260e-01</leafValues></_>
        <_>
          <internalNodes>
            0 -1 142 -545374092 -25264169 -1938552730 136076054
            996409344 -42179272 2115907246 914389887</internalNodes>
          <leafValues>
            -2.6607868075370789e-01 1.1540206521749496e-01</leafValues></_>
        <_>
          <internalNodes>
            0 -1 742 874252920 1884470652 -1881156515 2026511003
            672008512 -97517602 -285016946 -938846177</internalNodes>
          <leafValues>
            -1.9638049602508545e-01 1.5013308823108673e-01</leafValues></_>
        <_>
          <internalNodes>
            0 -1 810 -1557417029 -936654206 -1800406091 -18439
            -1953561135 -1068116089 105347287 1217549318</internalNodes>
          <leafValues>
            -1.7279547452926636e-01 1.6792684793472290e-01</leafValues></_>
        <_>
          <internalNodes>
            0 -1 417 -1968476381 15388594 1475861849 -813176021
            -1553500633 -933204938 -1376785185 -908003543</internalNodes>
          <leafValues>
            -1.6142857074737549e-01 1.7963629961013794e-01</leafValues></_>
        <_>
          <internalNodes>
            0 -1 58 -626415744 -724969149 -1722958499 1075170431
            1890554801 1594826944 1735021915 1393312399</internalNodes>
          <leafValues>
            -2.6827570796012878e-01 1.0535938292741776e-01</leafValues></_>
        <_>
          <internalNodes>
            0 -1 507 -1878910320 -1702748034 867737183 957572113
            -1407286632 -317860 -1711222565 -1961934049</internalNodes>
          <leafValues>
            -1.4531721174716949e-01 2.0387263596057892e-01</leafValues></_>
        <_>
          <internalNodes>
            0 -1 231 -659062568 -756088244 137364508 1564973180
            572055680 -1822144912 33623176 -1155024245</internalNodes>
          <leafValues>
            -1.4295250177383423e-01 1.9765287637710571e-01</leafValues></_>
        <_>
          <internalNodes>
            0 -1 628 1098807451 1645770844 567153108 1565972948
            1440708884 209606496 1179604336 1608506673</internalNodes>
          <leafValues>
            -1.9070683419704437e-01 1.5394264459609985e-01</leafValues></_>
        <_>
          <internalNodes>
            0 -1 265 -1086345423 104593959 -40960070 640865870 589243825
            489943143 -1130898420 1757077054</internalNodes>
          <leafValues>
            -1.9639196991920471e-01 1.3912245631217957e-01</leafValues></_>
        <_>
          <internalNodes>
            0 -1 680 -1967160397 -1640584206 -1946191498 -626872592
            1696035339 -1429452017 -1199957612 -352654288</internalNodes>
          <leafValues>
            -1.5632590651512146e-01 1.7868719995021820e-01</leafValues></_>
        <_>
          <internalNodes>
            0 -1 375 -1703014384 985952866 1150945913 504368180
            -1531052032 -1172289726 426386184 939658622</internalNodes>
          <leafValues>
            -2.7917301654815674e-01 1.0311015695333481e-01</leafValues></_>
        <_>
          <internalNodes>
            0 -1 990 -1306266966 -85057406 715451555 -659559766
            -344722758 -2140694586 3645599 -245367105</internalNodes>
          <leafValues>
            -1.2678404152393341e-01 2.1894660592079163e-01</leafValues></_>
        <_>
          <internalNodes>
            0 -1 451 1999076916 2062797430 84374909 -340836668 34093561
            1920609525 537034909 5718606</internalNodes>
          <leafValues>
            -2.7996501326560974e-01 9.9060066044330597e-02</leafValues></_>
        <_>
          <internalNodes>
            0 -1 157 1427165200 -582971252 816851736 -551254070
            -788458582 -253464272 -234753109 1493401610</internalNodes>
          <leafValues>
            -1.7103768885135651e-01 1.6171056032180786e-01</leafValues></_>
        <_>
          <internalNodes>
            0 -1 110 -641218357 -265832457 -1031668367 -213661446
            -528760696 857333570 -790445118 -208404749</internalNodes>
          <leafValues>
            -1.0344911366701126e-01 2.7552244067192078e-01</leafValues></_>
        <_>
          <internalNodes>
            0 -1 414 571417327 -352682249 262665725 1523511292
            1802495923 -268700681 -1645805831 -4268840</internalNodes>
          <leafValues>
            -1.1360549926757812e-01 2.3401829600334167e-01</leafValues></_>
        <_>
          <internalNodes>
            0 -1 25 2017197711 1094931379 412426225 833821057 1271746494
            871620452 -369242819 1970742609</internalNodes>
          <leafValues>
            -2.0452655851840973e-01 1.3741308450698853e-01</leafValues></_>
        <_>
          <internalNodes>
            0 -1 444 -33599375 2111187842 -151095727 2144172113
            -617651512 -1364016096 419068075 -1978971069</internalNodes>
          <leafValues>
            -1.1155419051647186e-01 2.5533595681190491e-01</leafValues></_>
        <_>
          <internalNodes>
            0 -1 979 -26219830 -1068536800 8549896 1345309354 1360523392
            1648514064 -2134551414 1431303893</internalNodes>
          <leafValues>
            -2.0053751766681671e-01 1.4285546541213989e-01</leafValues></_>
        <_>
          <internalNodes>
            0 -1 307 -1573930814 840382748 174338073 846377746 316577759
            21241809 320651512 1615191462</internalNodes>
          <leafValues>
            -2.8771069645881653e-01 9.5493547618389130e-02</leafValues></_>
        <_>
          <internalNodes>
            0 -1 814 -754839397 -8359736 -1387063819 -16011023
            -1106749520 -323961576 965154298 -614774766</internalNodes>
          <leafValues>
            -1.2458512932062149e-01 2.3962002992630005e-01</leafValues></_>
        <_>
          <internalNodes>
            0 -1 569 1718986655 -1908352142 510879582 801285760
            1463503072 -1894889870 1164534868 2091963524</internalNodes>
          <leafValues>
            -2.2377249598503113e-01 1.2179704755544662e-01</leafValues></_>
        <_>
          <internalNodes>
            0 -1 372 -782577445 -102928543 1111480667 288510143 -8485760
            -94480811 -954013702 -82052129</internalNodes>
          <leafValues>
            -9.1130390763282776e-02 3.0518022179603577e-01</leafValues></_>
        <_>
          <internalNodes>
            0 -1 348 739641141 677818481 -1572921857 37168753
            -1526849312 -1363932520 -2131152827 83675156</internalNodes>
          <leafValues>
            -2.5594028830528259e-01 1.0826859623193741e-01</leafValues></_>
        <_>
          <internalNodes>
            0 -1 102 -237018044 -953871238 -1105963952 816146082
            1884554272 2047099976 1677866494 -78218546</internalNodes>
          <leafValues>
            -1.9934548437595367e-01 1.4122278988361359e-01</leafValues></_>
        <_>
          <internalNodes>
            0 -1 875 -43032019 1143287534 -1595084186 -98044268
            1357853913 16347952 1689548181 -123510419</internalNodes>
          <leafValues>
            -1.6404210031032562e-01 1.6351783275604248e-01</leafValues></_>
        <_>
          <internalNodes>
            0 -1 452 -216904782 -675648888 -1754179977 -581087691
            -2043923544 -1952656716 489135099 -1617965397</internalNodes>
          <leafValues>
            -1.0230955481529236e-01 2.6611074805259705e-01</leafValues></_>
        <_>
          <internalNodes>
            0 -1 597 -1396984961 -898711570 -283116848 -296960910
            -1089243887 -151552138 -754451152 1757075312</internalNodes>
          <leafValues>
            -2.0019906759262085e-01 1.4113637804985046e-01</leafValues></_>
        <_>
          <internalNodes>
            0 -1 243 -969993940 1449875342 1102708849 892561015
            606167727 1143498564 79186175 4216186</internalNodes>
          <leafValues>
            -2.9655355215072632e-01 9.1627553105354309e-02</leafValues></_>
        <_>
          <internalNodes>
            0 -1 820 -631370536 1467154546 1543526263 1534400221
            340687560 -47760800 -196961061 -7620302</internalNodes>
          <leafValues>
            -1.2035232782363892e-01 2.3681411147117615e-01</leafValues></_>
        <_>
          <internalNodes>
            0 -1 215 -747954849 -217843361 -411881605 -1805189128
            1082089423 -1696668682 -667727273 -1987710290</internalNodes>
          <leafValues>
            -1.2903155386447906e-01 2.1532304584980011e-01</leafValues></_>
        <_>
          <internalNodes>
            0 -1 377 145372094 265780916 360044336 1597607412
            -1465329253 -1685174028 -1867173210 249430664</internalNodes>
          <leafValues>
            -2.2511363029479980e-01 1.2262582778930664e-01</leafValues></_>
        <_>
          <internalNodes>
            0 -1 993 -1977423990 33596420 1060149395 -1146298219
            -1429936167 67591194 1946527121 -844630575</internalNodes>
          <leafValues>
            -1.8341290950775146e-01 1.4936570823192596e-01</leafValues></_>
        <_>
          <internalNodes>
            0 -1 944 -1154487262 -2104876410 39811792 -800267598
            805257988 41174048 873530544 1431362884</internalNodes>
          <leafValues>
            -2.7356711030006409e-01 1.0169792175292969e-01</leafValues></_>
        <_>
          <internalNodes>
            0 -1 825 -1279283485 356199048 576116125 269523477 366393087
            74198784 -731372940 -46526460</internalNodes>
          <leafValues>
            -1.6750989854335785e-01 1.6012060642242432e-01</leafValues></_>
        <_>
          <internalNodes>
            0 -1 853 -43036577 -176346101 1278618751 -242500061
            -30137322 -98409 -127022577 -1066998250</internalNodes>
          <leafValues>
            -1.4250868558883667e-01 1.9769798219203949e-01</leafValues></_>
        <_>
          <internalNodes>
            0 -1 219 -925121920 -1008811445 1545890466 1383333631
            -1957197184 -816590779 -1975151190 -1037304165</internalNodes>
          <leafValues>
            -1.3675464689731598e-01 2.0343229174613953e-01</leafValues></_>
        <_>
          <internalNodes>
            0 -1 43 -573579265 -1182683341 1070994289 514339137
            -1998698026 -1730525865 802440624 182710035</internalNodes>
          <leafValues>
            -1.7575268447399139e-01 1.5840296447277069e-01</leafValues></_>
        <_>
          <internalNodes>
            0 -1 815 -1465907072 18480 428868386 -822012124 190885625
            -1345843293 2175280 734466049</internalNodes>
          <leafValues>
            -2.8564316034317017e-01 9.4585694372653961e-02</leafValues></_>
        <_>
          <internalNodes>
            0 -1 807 -1628499949 -86099017 1803724796 -83960982
            -209755373 -664635637 -505130942 -76487528</internalNodes>
          <leafValues>
            -1.4148202538490295e-01 1.9813692569732666e-01</leafValues></_>
        <_>
          <internalNodes>
            0 -1 766 2130657299 69611047 -1767939204 470699142 791370927
            -835483613 807687228 1545269272</internalNodes>
          <leafValues>
            -2.2924722731113434e-01 1.2182445079088211e-01</leafValues></_>
        <_>
          <internalNodes>
            0 -1 181 -141839453 -606622774 -572041423 -581310336
            151332530 1322125984 292008939 -806361633</internalNodes>
          <leafValues>
            -9.8012998700141907e-02 2.8844517469406128e-01</leafValues></_></weakClassifiers></_>
    <!-- stage 5 -->
    <_>
      <maxWeakCount>72</maxWeakCount>
      <stageThreshold>-1.6171084642410278e+00</stageThreshold>
      <weakClassifiers>
        <_>
          <internalNodes>
            0 -1 58 -4195329 -10753 -649199649 -572531713 988779519
            465502655 934240255 1006597119</internalNodes>
          <leafValues>
            -3.7152820825576782e-01 1.9900187849998474e-01</leafValues></_>
        <_>
          <internalNodes>
            0 -1 856 -9437185 -598800846 1784872159 7212287 -586880001
            -1987110283 673962495 147834111</internalNodes>
          <leafValues>
            -2.6774179935455322e-01 1.8809641897678375e-01</leafValues></_>
        <_>
          <internalNodes>
            0 -1 2 -2029787264 392423328 -1892293839 -142759184 55568331
            -2023396608 1997906832 -750305264</internalNodes>
          <leafValues>
            -2.4968823790550232e-01 1.6898448765277863e-01</leafValues></_>
        <_>
          <internalNodes>
            0 -1 153 -93339648 -581717426 606472271 415962751 275255296
            -11525065 441456266 -1437864961</internalNodes>
          <leafValues>
            -1.8593378365039825e-01 1.9572700560092926e-01</leafValues></_>
        <_>
          <internalNodes>
            0 -1 18 2059661456 -978392382 -1438329951 -284579616
            -1075450959 -1968709008 1130627328 -2063116735</internalNodes>
          <leafValues>
            -2.6563653349876404e-01 1.1493822932243347e-01</leafValues></_>
        <_>
          <internalNodes>
            0 -1 418 -2138340613 36709568 267184633 1082192634
            -1342457158 -1896971812 -1706688806 -611648806</internalNodes>
          <leafValues>
            -1.1200600862503052e-01 2.8426080942153931e-01</leafValues></_>
        <_>
          <internalNodes>
            0 -1 448 1472145119 -68181362 1685061719 -81762705
            1090453727 -1365867018 15992543 1078120175</internalNodes>
          <leafValues>
            -2.4654453992843628e-01 1.1961368471384048e-01</leafValues></_>
        <_>
          <internalNodes>
            0 -1 900 -788364560 -611679608 129062737 -553422396
            -1106529861 -1964208400 133272059 -607140645</internalNodes>
          <leafValues>
            -1.0638108849525452e-01 2.8846403956413269e-01</leafValues></_>
        <_>
          <internalNodes>
            0 -1 784 -2113879936 165936 730817553 526118555 -79721223
            162190785 1450263953 -604015913</internalNodes>
          <leafValues>
            -2.3324780166149139e-01 1.2626284360885620e-01</leafValues></_>
        <_>
          <internalNodes>
            0 -1 50 -632962942 2040596500 1133172 1903247377 843055106
            2036016144 1128468111 2071425759</internalNodes>
          <leafValues>
            -1.8436682224273682e-01 1.5653865039348602e-01</leafValues></_>
        <_>
          <internalNodes>
            0 -1 934 -92552502 441139714 1089359615 1396657243
            -160558016 1930979396 1610639071 -83101857</internalNodes>
          <leafValues>
            -1.2903758883476257e-01 2.3920550942420959e-01</leafValues></_>
        <_>
          <internalNodes>
            0 -1 128 -11542689 1400853503 -1747061389 2105916182
            -747404541 -2115831853 -598817341 -1052260590</internalNodes>
          <leafValues>
            -1.2982957065105438e-01 2.1465052664279938e-01</leafValues></_>
        <_>
          <internalNodes>
            0 -1 225 -598228766 1419645724 1219776593 289516111
            -1860791160 -1119873514 -1288401270 -83625989</internalNodes>
          <leafValues>
            -1.2371192127466202e-01 2.2446961700916290e-01</leafValues></_>
        <_>
          <internalNodes>
            0 -1 876 -940609379 4655150 270670591 1482952783 -571262723
            136344047 1477197048 -937463751</internalNodes>
          <leafValues>
            -1.6076634824275970e-01 1.6739471256732941e-01</leafValues></_>
        <_>
          <internalNodes>
            0 -1 29 -2140746582 326765185 541507584 -5111086 950861306
            -1223408108 -1471935542 54706336</internalNodes>
          <leafValues>
            -2.3579934239387512e-01 1.0859680920839310e-01</leafValues></_>
        <_>
          <internalNodes>
            0 -1 510 -1726762000 1504126160 419968337 -543616604
            621415354 -1901452928 67545850 -1433756518</internalNodes>
          <leafValues>
            -1.3906411826610565e-01 1.8646660447120667e-01</leafValues></_>
        <_>
          <internalNodes>
            0 -1 897 8422048 144744576 379413120 264831172 229370361
            161541631 246812929 164975953</internalNodes>
          <leafValues>
            -3.5240572690963745e-01 8.9531898498535156e-02</leafValues></_>
        <_>
          <internalNodes>
            0 -1 317 -619838848 329484898 590619021 287247022
            -1693578616 441189856 1878851805 463535690</internalNodes>
          <leafValues>
            -2.1567024290561676e-01 1.1240315437316895e-01</leafValues></_>
        <_>
          <internalNodes>
            0 -1 196 -2014317406 -1468339362 1782013456 1910503344
            242199042 38469504 87466706 -925894661</internalNodes>
          <leafValues>
            -1.5210174024105072e-01 1.6666650772094727e-01</leafValues></_>
        <_>
          <internalNodes>
            0 -1 22 1373622206 23146527 1171720567 67332357 -1054092373
            -1920125389 -1376648997 2069177619</internalNodes>
          <leafValues>
            -2.1051093935966492e-01 1.2712295353412628e-01</leafValues></_>
        <_>
          <internalNodes>
            0 -1 568 581909299 579473656 847494808 59500342 923999024
            707155008 538408736 2145614675</internalNodes>
          <leafValues>
            -2.0639331638813019e-01 1.3042744994163513e-01</leafValues></_>
        <_>
          <internalNodes>
            0 -1 842 -747637229 -579876098 -78229665 -774472961
            -643586800 -16800512 17683640 -45559568</internalNodes>
          <leafValues>
            -1.1224331706762314e-01 2.3669888079166412e-01</leafValues></_>
        <_>
          <internalNodes>
            0 -1 955 -731643894 2069192647 -1789647269 1588493050
            1948604972 -1998936436 -123913681 -2145325546</internalNodes>
          <leafValues>
            -2.0942172408103943e-01 1.2452992796897888e-01</leafValues></_>
        <_>
          <internalNodes>
            0 -1 584 1860145023 544378031 -866255795 1764513294
            575645205 -732798434 1925966376 1711793671</internalNodes>
          <leafValues>
            -2.1179723739624023e-01 1.1469557136297226e-01</leafValues></_>
        <_>
          <internalNodes>
            0 -1 950 -74190094 -74547096 1108459594 -639778090
            -1270355969 -1971314732 285640591 -590364213</internalNodes>
          <leafValues>
            -9.1856941580772400e-02 2.7256172895431519e-01</leafValues></_>
        <_>
          <internalNodes>
            0 -1 989 -2136692054 33819264 -1875485728 361286784
            920890247 212660764 834725320 1238189956</internalNodes>
          <leafValues>
            -2.6097312569618225e-01 9.8432913422584534e-02</leafValues></_>
        <_>
          <internalNodes>
            0 -1 277 -201431241 560929407 -1040235013 586411775
            -1900870511 -1426443341 -341034776 -839913760</internalNodes>
          <leafValues>
            -1.2773698568344116e-01 1.9319742918014526e-01</leafValues></_>
        <_>
          <internalNodes>
            0 -1 131 -538504621 1376251417 -43025037 -1728512044
            1221134219 147901337 1592738460 1100530656</internalNodes>
          <leafValues>
            -1.9420860707759857e-01 1.2320232391357422e-01</leafValues></_>
        <_>
          <internalNodes>
            0 -1 148 -1070825344 -1860867898 209986050 1573470600
            581206152 288694848 67646088 386902539</internalNodes>
          <leafValues>
            -1.9576384127140045e-01 1.2347707897424698e-01</leafValues></_>
        <_>
          <internalNodes>
            0 -1 666 -931880363 266216564 242630621 530143389
            -1976817222 -339960608 507654142 -1078289254</internalNodes>
          <leafValues>
            -1.1839475482702255e-01 2.0913934707641602e-01</leafValues></_>
        <_>
          <internalNodes>
            0 -1 171 138895182 90470258 276836477 1461002900 -1931677778
            75639552 64295418 24453982</internalNodes>
          <leafValues>
            -3.0426043272018433e-01 8.3062633872032166e-02</leafValues></_>
        <_>
          <internalNodes>
            0 -1 393 2011140663 343779880 1328541375 -1110300305
            -581238019 -1195846058 -557086040 -893723650</internalNodes>
          <leafValues>
            -1.1526082456111908e-01 2.1850343048572540e-01</leafValues></_>
        <_>
          <internalNodes>
            0 -1 687 -421134304 -12685718 112870876 309339750
            -1691402667 -400198544 398210737 2044493232</internalNodes>
          <leafValues>
            -2.1509706974029541e-01 1.1237576603889465e-01</leafValues></_>
        <_>
          <internalNodes>
            0 -1 263 -209998917 -681579808 -2061766384 -678972527
            -1943558478 -874599980 590735274 -808459045</internalNodes>
          <leafValues>
            -8.5491016507148743e-02 2.8797474503517151e-01</leafValues></_>
        <_>
          <internalNodes>
            0 -1 762 -903501786 572788262 -1366253953 1058641475
            -474252847 -1955527822 -441549711 43206753</internalNodes>
          <leafValues>
            -2.4930959939956665e-01 1.0035725682973862e-01</leafValues></_>
        <_>
          <internalNodes>
            0 -1 945 -207375685 -752181086 36564120 -733622027
            -1223703877 -2057719821 216523263 -733752066</internalNodes>
          <leafValues>
            -1.0050062835216522e-01 2.4590523540973663e-01</leafValues></_>
        <_>
          <internalNodes>
            0 -1 742 -636022736 -237153354 1591537034 1476840513
            286395212 -89199624 -1089965240 -1475982790</internalNodes>
          <leafValues>
            -1.7934177815914154e-01 1.3611517846584320e-01</leafValues></_>
        <_>
          <internalNodes>
            0 -1 134 -629256026 1952894561 945164318 102916986
            1735544832 1733438464 -136086957 1610794931</internalNodes>
          <leafValues>
            -2.6265493035316467e-01 8.9869268238544464e-02</leafValues></_>
        <_>
          <internalNodes>
            0 -1 500 -1146679075 -1307442817 502993822 805966769
            -1151493667 -1106445525 -1685764736 -1187839437</internalNodes>
          <leafValues>
            -1.5033882856369019e-01 1.6041170060634613e-01</leafValues></_>
        <_>
          <internalNodes>
            0 -1 850 -161873702 2098893364 136198495 1901419118
            -90339192 -24076264 -1731821921 453115924</internalNodes>
          <leafValues>
            -1.7282675206661224e-01 1.3930149376392365e-01</leafValues></_>
        <_>
          <internalNodes>
            0 -1 123 -964706110 1509075519 -387352560 1890048683
            -264519032 -1807513777 1929621378 -750520413</internalNodes>
          <leafValues>
            -1.3571746647357941e-01 1.7526327073574066e-01</leafValues></_>
        <_>
          <internalNodes>
            0 -1 15 -1611689997 1101082608 358569333 57130785 349429487
            -906195107 415586533 1509279568</internalNodes>
          <leafValues>
            -1.8101280927658081e-01 1.3498385250568390e-01</leafValues></_>
        <_>
          <internalNodes>
            0 -1 997 -702307840 1359482184 -2090481108 1564545064
            110527418 -2097799800 642552271 -1043342453</internalNodes>
          <leafValues>
            -1.3514761626720428e-01 1.8392740190029144e-01</leafValues></_>
        <_>
          <internalNodes>
            0 -1 793 3868183 -164029388 518452989 2083841046 1471320882
            662216292 120224115 2138046296</internalNodes>
          <leafValues>
            -1.7232374846935272e-01 1.4114549756050110e-01</leafValues></_>
        <_>
          <internalNodes>
            0 -1 703 -334574446 671023173 1954340799 272310161 180233278
            -1374138704 723705838 -338821120</internalNodes>
          <leafValues>
            -1.7225399613380432e-01 1.4278000593185425e-01</leafValues></_>
        <_>
          <internalNodes>
            0 -1 281 -1366500646 320510409 -260803376 90281902
            1037538203 453688847 -1515855785 17116493</internalNodes>
          <leafValues>
            -2.7481275796890259e-01 9.0960681438446045e-02</leafValues></_>
        <_>
          <internalNodes>
            0 -1 480 -512797189 1480765311 -1559159905 -1543605542
            1674011158 -1577453598 318704387 -303838705</internalNodes>
          <leafValues>
            -1.2585599720478058e-01 1.9776736199855804e-01</leafValues></_>
        <_>
          <internalNodes>
            0 -1 589 -876935369 14113630 2078248660 1505680091
            1705993568 578030693 394191077 909049556</internalNodes>
          <leafValues>
            -2.1682105958461761e-01 1.1235108971595764e-01</leafValues></_>
        <_>
          <internalNodes>
            0 -1 983 -1197219173 1460659712 136892994 -736645769
            -1781143878 102671493 1155625368 -590908681</internalNodes>
          <leafValues>
            -1.2048454582691193e-01 2.0859698951244354e-01</leafValues></_>
        <_>
          <internalNodes>
            0 -1 439 35653632 307233584 1018178581 2038503253 727855272
            -2108519984 242356786 176816408</internalNodes>
          <leafValues>
            -2.7741616964340210e-01 8.7124705314636230e-02</leafValues></_>
        <_>
          <internalNodes>
            0 -1 600 -1826387751 -1813905317 397614165 -1717173025
            -312651335 -613587491 -1335540901 -652193311</internalNodes>
          <leafValues>
            -1.2864644825458527e-01 1.8502460420131683e-01</leafValues></_>
        <_>
          <internalNodes>
            0 -1 506 -106725221 -1711663109 756677087 890853999
            -1073768440 -20319944 -1424256002 -1156868469</internalNodes>
          <leafValues>
            -8.9091427624225616e-02 2.4968531727790833e-01</leafValues></_>
        <_>
          <internalNodes>
            0 -1 547 -1430295693 -901591276 -641576400 -328977806
            -1656897244 -999064713 1911421008 1450368232</internalNodes>
          <leafValues>
            -2.1472832560539246e-01 1.1195843666791916e-01</leafValues></_>
        <_>
          <internalNodes>
            0 -1 75 -1364221950 1142989360 722819888 160031104
            1074008064 90382864 1158894467 1149755793</internalNodes>
          <leafValues>
            -2.5456863641738892e-01 9.1306515038013458e-02</leafValues></_>
        <_>
          <internalNodes>
            0 -1 937 -161496417 1608469530 1679707897 -748953857
            484873906 1326387032 -966104629 -11540097</internalNodes>
          <leafValues>
            -7.8800186514854431e-02 2.9698330163955688e-01</leafValues></_>
        <_>
          <internalNodes>
            0 -1 619 -37519747 329459251 1580465492 1057203347
            -435527861 -1534768283 -2079316658 587541925</internalNodes>
          <leafValues>
            -2.1031637489795685e-01 1.1451914906501770e-01</leafValues></_>
        <_>
          <internalNodes>
            0 -1 692 -1904795066 -900177161 -292826882 -1167835538
            1718032145 -64561071 1304137786 -26161072</internalNodes>
          <leafValues>
            -1.8164840340614319e-01 1.4215275645256042e-01</leafValues></_>
        <_>
          <internalNodes>
            0 -1 13 656599074 -2033426432 1868294058 -1885877472
            -1325925657 -840472132 1169233745 1306986240</internalNodes>
          <leafValues>
            -2.5637048482894897e-01 9.2521719634532928e-02</leafValues></_>
        <_>
          <internalNodes>
            0 -1 328 -667982878 1972089504 106161489 2094363664
            -844480104 183395048 391639967 -1953839718</internalNodes>
          <leafValues>
            -1.1888256669044495e-01 1.9887894392013550e-01</leafValues></_>
        <_>
          <internalNodes>
            0 -1 492 -2004221903 1620228725 -1719976833 1879767339
            -1427633347 -1405550655 -640690768 1277848368</internalNodes>
          <leafValues>
            -2.2589488327503204e-01 1.0400038957595825e-01</leafValues></_>
        <_>
          <internalNodes>
            0 -1 142 1416626176 -27065362 46156030 179588542 1342309456
            2115773810 -1330234710 553956199</internalNodes>
          <leafValues>
            -2.9614111781120300e-01 7.5731188058853149e-02</leafValues></_>
        <_>
          <internalNodes>
            0 -1 221 -221605168 1926270669 1348039831 1359181806
            -987848574 -2012044190 -486030702 -442252909</internalNodes>
          <leafValues>
            -1.2497741729021072e-01 2.0231102406978607e-01</leafValues></_>
        <_>
          <internalNodes>
            0 -1 835 34538257 40668380 -1326403627 1466857597 1849799196
            738475573 1406746864 1070335064</internalNodes>
          <leafValues>
            -2.4261450767517090e-01 9.4473361968994141e-02</leafValues></_>
        <_>
          <internalNodes>
            0 -1 485 -387471561 1428766627 -1527409767 -5130955
            -1077976137 -575128334 -310661953 -857423102</internalNodes>
          <leafValues>
            -1.0498271137475967e-01 2.2125063836574554e-01</leafValues></_>
        <_>
          <internalNodes>
            0 -1 206 1911505586 287326363 -69944866 424448865 227360251
            88948303 1942299613 1090577567</internalNodes>
          <leafValues>
            -2.7174484729766846e-01 8.8441029191017151e-02</leafValues></_>
        <_>
          <internalNodes>
            0 -1 700 -796786480 -642119618 286334975 -1627041666
            -1081367559 -1896285703 31670739 -1106553624</internalNodes>
          <leafValues>
            -1.3936513662338257e-01 1.7821320891380310e-01</leafValues></_>
        <_>
          <internalNodes>
            0 -1 896 -611323229 -1037194462 722011328 -83910695
            725013431 70450370 1974297815 1087368979</internalNodes>
          <leafValues>
            -1.8202139437198639e-01 1.3486409187316895e-01</leafValues></_>
        <_>
          <internalNodes>
            0 -1 7 860598256 -406335744 -8820 -37230634 -547767829
            1605877497 1723118467 -270027264</internalNodes>
          <leafValues>
            -1.5556086599826813e-01 1.5210476517677307e-01</leafValues></_>
        <_>
          <internalNodes>
            0 -1 434 -1943629167 -1164669378 -848240933 -1724753698
            -132529016 -1126614056 -300221745 -1165784489</internalNodes>
          <leafValues>
            -1.1135299503803253e-01 2.1195411682128906e-01</leafValues></_>
        <_>
          <internalNodes>
            0 -1 974 -354166918 411108424 -643244583 535684818 327543185
            688469168 478206204 659027043</internalNodes>
          <leafValues>
            -1.5908466279506683e-01 1.4859578013420105e-01</leafValues></_>
        <_>
          <internalNodes>
            0 -1 374 -749600728 -1793542524 719728434 828385287
            -481884152 -1185110435 674243208 574849870</internalNodes>
          <leafValues>
            -2.1765996515750885e-01 1.0812120884656906e-01</leafValues></_>
        <_>
          <internalNodes>
            0 -1 743 1444566248 -7792712 854459955 278945388 1894082126
            1932977799 -1939018097 6464014</internalNodes>
          <leafValues>
            -2.4973440170288086e-01 9.2601716518402100e-02</leafValues></_></weakClassifiers></_>
    <!-- stage 6 -->
    <_>
      <maxWeakCount>85</maxWeakCount>
      <stageThreshold>-1.5377113819122314e+00</stageThreshold>
      <weakClassifiers>
        <_>
          <internalNodes>
            0 -1 174 -1048577 -540024833 -1621918465 1971149823
            -71434241 333054975 1998582239 872100831</internalNodes>
          <leafValues>
            -3.8321995735168457e-01 1.4127424359321594e-01</leafValues></_>
        <_>
          <internalNodes>
            0 -1 53 -677 -545268385 -33957383 2130271739 253825027
            1001881207 357896635 2067488635</internalNodes>
          <leafValues>
            -2.3675025999546051e-01 1.6634391248226166e-01</leafValues></_>
        <_>
          <internalNodes>
            0 -1 956 -598785894 -146551841 -603181121 1428484734
            -11683650 -632406610 -85065985 -2146895654</internalNodes>
          <leafValues>
            -2.0560301840305328e-01 1.6572457551956177e-01</leafValues></_>
        <_>
          <internalNodes>
            0 -1 522 125248289 2128610 268130099 438463922 386352161
            -1632153519 1475821760 -12549</internalNodes>
          <leafValues>
            -1.2671974301338196e-01 2.5520494580268860e-01</leafValues></_>
        <_>
          <internalNodes>
            0 -1 502 -1441808385 571174667 -1970308113 689946371
            -1954809857 154452454 2012563451 1003474943</internalNodes>
          <leafValues>
            -2.4904890358448029e-01 1.2028624862432480e-01</leafValues></_>
        <_>
          <internalNodes>
            0 -1 537 -352335353 -970805597 -324010570 -44796908
            -1304960477 -399507355 -896545109 -334430956</internalNodes>
          <leafValues>
            -1.7444540560245514e-01 1.6857071220874786e-01</leafValues></_>
        <_>
          <internalNodes>
            0 -1 614 866123455 -135295505 1188173687 1685206775
            1692271743 -1389046921 -2068831937 -999889810</internalNodes>
          <leafValues>
            -1.3173881173133850e-01 1.8633827567100525e-01</leafValues></_>
        <_>
          <internalNodes>
            0 -1 920 -769398144 -641168864 54908016 -540053892
            -1729499404 -2137944908 6119903 -644899703</internalNodes>
          <leafValues>
            -1.4749091863632202e-01 1.8942299485206604e-01</leafValues></_>
        <_>
          <internalNodes>
            0 -1 971 -226499958 208601610 -2007440737 1365493503
            -233122240 1108767232 -1001209623 -11797793</internalNodes>
          <leafValues>
            -9.7661823034286499e-02 2.1609832346439362e-01</leafValues></_>
        <_>
          <internalNodes>
            0 -1 14 989302523 -1566372368 -1746950863 -608223391
            -638640649 -290451755 -2072837743 1173816661</internalNodes>
          <leafValues>
            -2.0178446173667908e-01 1.1693609505891800e-01</leafValues></_>
        <_>
          <internalNodes>
            0 -1 257 -1685892190 -1014652768 1336899377 -1622325564
            671744426 -1953701376 285431003 -891368225</internalNodes>
          <leafValues>
            -1.2977106869220734e-01 1.9047687947750092e-01</leafValues></_>
        <_>
          <internalNodes>
            0 -1 764 -2098724815 -578270978 1904164349 -1115918086
            26673272 -111254958 1685085777 2132955664</internalNodes>
          <leafValues>
            -1.6859312355518341e-01 1.4564007520675659e-01</leafValues></_>
        <_>
          <internalNodes>
            0 -1 154 -198325154 1462347926 506645006 205487358 304903184
            1599682163 1026385451 -368390145</internalNodes>
          <leafValues>
            -2.1535763144493103e-01 9.8798967897891998e-02</leafValues></_>
        <_>
          <internalNodes>
            0 -1 334 -1506835919 843054843 -1418749185 678831678
            -679804656 -1614857119 -1701051296 1048772106</internalNodes>
          <leafValues>
            -1.8774531781673431e-01 1.2396763265132904e-01</leafValues></_>
        <_>
          <internalNodes>
            0 -1 95 -612908837 -714093831 -247542479 1928715280
            -1688305014 461530424 -681836577 -212601349</internalNodes>
          <leafValues>
            -6.9311216473579407e-02 3.1544974446296692e-01</leafValues></_>
        <_>
          <internalNodes>
            0 -1 767 589561211 35696128 1051982487 992738995 297650140
            1069236791 -1532831917 178454544</internalNodes>
          <leafValues>
            -2.3346218466758728e-01 9.0113267302513123e-02</leafValues></_>
        <_>
          <internalNodes>
            0 -1 494 -2104786181 171634651 -1923121671 1089133770
            -18892293 -1902182619 -613697608 -21440552</internalNodes>
          <leafValues>
            -1.0875443369150162e-01 2.1230520308017731e-01</leafValues></_>
        <_>
          <internalNodes>
            0 -1 33 1540842391 1297594237 5243249 899089269 -882917492
            -1888225407 1979131898 1635197431</internalNodes>
          <leafValues>
            -2.1908517181873322e-01 9.6842713654041290e-02</leafValues></_>
        <_>
          <internalNodes>
            0 -1 862 1952373912 190775819 1209537695 1494553305
            -1136768862 -1234561978 943751062 -83117293</internalNodes>
          <leafValues>
            -1.1259626597166061e-01 2.1027173101902008e-01</leafValues></_>
        <_>
          <internalNodes>
            0 -1 446 1560181778 -539003333 930840597 439377991
            1685872712 -1459835018 -995057957 4441610</internalNodes>
          <leafValues>
            -1.9867689907550812e-01 1.1667598783969879e-01</leafValues></_>
        <_>
          <internalNodes>
            0 -1 918 -81005901 -550772670 340218997 -585380662
            -1419795472 -869276442 1125511643 -555756033</internalNodes>
          <leafValues>
            -7.9256415367126465e-02 2.9687553644180298e-01</leafValues></_>
        <_>
          <internalNodes>
            0 -1 424 -1426390885 -2101932848 1247442524 538992624
            -1724932064 -401083056 -1620774972 63640</internalNodes>
          <leafValues>
            -2.1171073615550995e-01 1.0181305557489395e-01</leafValues></_>
        <_>
          <internalNodes>
            0 -1 167 872152059 599240687 1753265937 -1220845723
            1172029663 -555772636 -876630631 -9456108</internalNodes>
          <leafValues>
            -9.6885420382022858e-02 2.2956837713718414e-01</leafValues></_>
        <_>
          <internalNodes>
            0 -1 72 -1897771177 -249422857 -1621999759 3279394 172239619
            652626451 1500841463 1323353078</internalNodes>
          <leafValues>
            -1.8939384818077087e-01 1.1909888684749603e-01</leafValues></_>
        <_>
          <internalNodes>
            0 -1 736 -805175152 -612222926 689602429 -566283240
            -1175765574 -386755848 50418331 -1425862655</internalNodes>
          <leafValues>
            -1.4841328561306000e-01 1.4932593703269958e-01</leafValues></_>
        <_>
          <internalNodes>
            0 -1 125 -95084028 1920410173 -1855164686 1885612682
            1557927180 524027256 1959789242 -1136364978</internalNodes>
          <leafValues>
            -1.9749525189399719e-01 1.1251296103000641e-01</leafValues></_>
        <_>
          <internalNodes>
            0 -1 435 -1447132968 -2003093798 -1430348545 824659037
            -663451136 -754690189 -550515510 -399247385</internalNodes>
          <leafValues>
            -1.4172656834125519e-01 1.4927004277706146e-01</leafValues></_>
        <_>
          <internalNodes>
            0 -1 108 2077225971 1621903114 2032596857 -1009995311
            5523369 1441221339 1177043109 1166104216</internalNodes>
          <leafValues>
            -2.1866583824157715e-01 9.9818788468837738e-02</leafValues></_>
        <_>
          <internalNodes>
            0 -1 881 1368388279 1145119330 645263995 1886867007
            120942397 231683957 1546539389 1611649059</internalNodes>
          <leafValues>
            -1.6094744205474854e-01 1.3902047276496887e-01</leafValues></_>
        <_>
          <internalNodes>
            0 -1 696 -1088162313 -812648205 -216050561 -1838804385
            1392923715 -637905547 -42003366 -199212491</internalNodes>
          <leafValues>
            -1.2451773136854172e-01 1.8457750976085663e-01</leafValues></_>
        <_>
          <internalNodes>
            0 -1 323 -1021733896 -578705744 1194684785 -551686416
            83027690 -1917264148 84317611 -825306918</internalNodes>
          <leafValues>
            -1.0048269480466843e-01 2.1429961919784546e-01</leafValues></_>
        <_>
          <internalNodes>
            0 -1 624 102443571 -2098590042 343113495 1278095207
            -1907128813 528316209 795277288 1598005150</internalNodes>
          <leafValues>
            -1.6716316342353821e-01 1.3102735579013824e-01</leafValues></_>
        <_>
          <internalNodes>
            0 -1 240 -707921923 -1062240940 -458262529 325146883
            -1902129995 -1683005903 -151584530 -1430584303</internalNodes>
          <leafValues>
            -1.4323103427886963e-01 1.5653540194034576e-01</leafValues></_>
        <_>
          <internalNodes>
            0 -1 158 320968322 -548950880 -81802384 -574754286
            1272953819 -540073168 1710875856 -1946187776</internalNodes>
          <leafValues>
            -1.6096338629722595e-01 1.3808046281337738e-01</leafValues></_>
        <_>
          <internalNodes>
            0 -1 663 314458837 -1726608878 1522695253 1482249324
            785131696 -21483004 443711163 -1156903145</internalNodes>
          <leafValues>
            -1.1633695662021637e-01 1.8956156075000763e-01</leafValues></_>
        <_>
          <internalNodes>
            0 -1 415 -1360065013 -889800021 1222597728 1378829676
            -33577309 -1296111625 -268960016 1140774814</internalNodes>
          <leafValues>
            -1.6804794967174530e-01 1.3361091911792755e-01</leafValues></_>
        <_>
          <internalNodes>
            0 -1 217 -1686142837 47666159 598215466 291437442 -941907072
            1280978210 -673718334 -955385141</internalNodes>
          <leafValues>
            -1.1623829603195190e-01 1.8044662475585938e-01</leafValues></_>
        <_>
          <internalNodes>
            0 -1 340 67345925 222705523 -1074180162 549353403
            -1382809583 -1166071182 -523427424 136108288</internalNodes>
          <leafValues>
            -2.3162342607975006e-01 9.2848010361194611e-02</leafValues></_>
        <_>
          <internalNodes>
            0 -1 720 -1998256572 1622060878 -826655900 1882779364
            553582852 712995664 -1799510528 1497273592</internalNodes>
          <leafValues>
            -2.6131016016006470e-01 7.8480206429958344e-02</leafValues></_>
        <_>
          <internalNodes>
            0 -1 619 2103302745 454241855 -870910635 992458294
            -414392766 789923575 1140911117 722986847</internalNodes>
          <leafValues>
            -1.8674765527248383e-01 1.1096514016389847e-01</leafValues></_>
        <_>
          <internalNodes>
            0 -1 86 -637534285 -756440342 611810578 -241045455 18924674
            42659714 -942672246 -1008732677</internalNodes>
          <leafValues>
            -8.8092051446437836e-02 2.5314182043075562e-01</leafValues></_>
        <_>
          <internalNodes>
            0 -1 973 -240913773 455942888 -367593641 1374507647
            1289759391 99293038 -1862961930 -648022785</internalNodes>
          <leafValues>
            -8.4479019045829773e-02 2.5486671924591064e-01</leafValues></_>
        <_>
          <internalNodes>
            0 -1 750 -1344283219 442440209 1862157463 1346319543
            1043736143 2134542160 1212956542 -1083306464</internalNodes>
          <leafValues>
            -1.3115324079990387e-01 1.5850913524627686e-01</leafValues></_>
        <_>
          <internalNodes>
            0 -1 4 71991698 -1436048638 -1649274255 -405551327
            1363140778 -638773399 617050816 1533104401</internalNodes>
          <leafValues>
            -2.1105085313320160e-01 1.0151006281375885e-01</leafValues></_>
        <_>
          <internalNodes>
            0 -1 998 -805006840 1929382600 -1752903900 428147164
            -1195196760 575418416 889496014 1527186058</internalNodes>
          <leafValues>
            -1.6692084074020386e-01 1.2477850168943405e-01</leafValues></_>
        <_>
          <internalNodes>
            0 -1 695 -147086701 -924391493 169828349 -931239058
            -1759512816 -45099435 930469168 -698813252</internalNodes>
          <leafValues>
            -1.2851229310035706e-01 1.6850969195365906e-01</leafValues></_>
        <_>
          <internalNodes>
            0 -1 852 1417023488 -23118225 -689473026 -669614716
            1646085192 -76153609 -281085333 671776330</internalNodes>
          <leafValues>
            -2.3140242695808411e-01 9.4747498631477356e-02</leafValues></_>
        <_>
          <internalNodes>
            0 -1 19 321034914 -1595886928 -418366541 -1884628207
            -1166863122 1307719280 356848385 1158116372</internalNodes>
          <leafValues>
            -2.6832282543182373e-01 7.5402833521366119e-02</leafValues></_>
        <_>
          <internalNodes>
            0 -1 950 -568810821 -624548192 203415366 -540679496
            -1715219474 -1902510636 1333057500 -811606033</internalNodes>
          <leafValues>
            -9.0004272758960724e-02 2.3847573995590210e-01</leafValues></_>
        <_>
          <internalNodes>
            0 -1 291 -1351620609 586315579 -205252048 -1595798790
            1709655406 7280306 1935888737 1612834609</internalNodes>
          <leafValues>
            -2.9481172561645508e-01 7.3942415416240692e-02</leafValues></_>
        <_>
          <internalNodes>
            0 -1 326 -91586561 1408122856 492044273 536026613 1652695607
            -1344311596 132194251 -826605650</internalNodes>
          <leafValues>
            -9.6020430326461792e-02 2.2278529405593872e-01</leafValues></_>
        <_>
          <internalNodes>
            0 -1 98 1101559570 -784662529 159309822 196607428 1108481815
            80831281 -923990369 1100006400</internalNodes>
          <leafValues>
            -2.2390651702880859e-01 9.7440853714942932e-02</leafValues></_>
        <_>
          <internalNodes>
            0 -1 891 -282069265 1211024110 -119541184 -154404209
            39212048 1081396421 339940357 1355862036</internalNodes>
          <leafValues>
            -2.1912920475006104e-01 9.5854282379150391e-02</leafValues></_>
        <_>
          <internalNodes>
            0 -1 313 -197148480 -8967461 -361998531 1469126331
            -544701304 -1086178490 -26550578 -115343365</internalNodes>
          <leafValues>
            -9.4578012824058533e-02 2.2994734346866608e-01</leafValues></_>
        <_>
          <internalNodes>
            0 -1 103 543942367 -747110630 1778295186 84045955 20149507
            83947300 -978061389 -2067470614</internalNodes>
          <leafValues>
            -1.4000037312507629e-01 1.4874899387359619e-01</leafValues></_>
        <_>
          <internalNodes>
            0 -1 156 321323042 956982914 425971391 940526478 1139348360
            1044906792 1198932207 943387804</internalNodes>
          <leafValues>
            -2.0352281630039215e-01 1.0153449326753616e-01</leafValues></_>
        <_>
          <internalNodes>
            0 -1 908 -627059457 450837067 1314420383 1473594103
            -647641469 -1098985884 -838539274 -13894165</internalNodes>
          <leafValues>
            -7.2436876595020294e-02 2.9177510738372803e-01</leafValues></_>
        <_>
          <internalNodes>
            0 -1 443 1063227604 1104018292 -12903939 1755607344 74386825
            713690614 795029944 137364480</internalNodes>
          <leafValues>
            -3.3508780598640442e-01 6.3942015171051025e-02</leafValues></_>
        <_>
          <internalNodes>
            0 -1 575 568000535 -1895941541 2105478471 1257135348
            -1624259054 -696320590 1467790891 -828721458</internalNodes>
          <leafValues>
            -1.3340465724468231e-01 1.6394957900047302e-01</leafValues></_>
        <_>
          <internalNodes>
            0 -1 877 50541115 -154262366 1018096371 1903787607
            1956365276 1717069396 916318016 2071846773</internalNodes>
          <leafValues>
            -1.5088894963264465e-01 1.4461809396743774e-01</leafValues></_>
        <_>
          <internalNodes>
            0 -1 60 -4200574 -385996384 1336933649 -1778398272 124191746
            1321521888 1405548475 -872487701</internalNodes>
          <leafValues>
            -1.1902232468128204e-01 1.7753608524799347e-01</leafValues></_>
        <_>
          <internalNodes>
            0 -1 1 1426104368 1803727076 348826996 -544477278 -595155463
            1424434081 1736419026 1095076352</internalNodes>
          <leafValues>
            -2.2782137989997864e-01 1.0226020216941833e-01</leafValues></_>
        <_>
          <internalNodes>
            0 -1 450 -1088046234 975060254 -1858124621 -1180484073
            67468157 880181014 1083384446 6507646</internalNodes>
          <leafValues>
            -2.5545248389244080e-01 8.1868059933185577e-02</leafValues></_>
        <_>
          <internalNodes>
            0 -1 989 136883858 16810632 -1372147469 326404624 821008127
            -1944254370 1953554896 -1728727868</internalNodes>
          <leafValues>
            -2.1866802871227264e-01 9.8193474113941193e-02</leafValues></_>
        <_>
          <internalNodes>
            0 -1 945 -73157838 -676756394 -1925242844 -86641096
            759000218 -283820046 493707952 -598452404</internalNodes>
          <leafValues>
            -1.1962571740150452e-01 1.7965942621231079e-01</leafValues></_>
        <_>
          <internalNodes>
            0 -1 411 711077631 -949881229 699161599 -1290495760
            -2131192866 -863093954 -874650625 1535703208</internalNodes>
          <leafValues>
            -1.5149737894535065e-01 1.4399926364421844e-01</leafValues></_>
        <_>
          <internalNodes>
            0 -1 371 -2004123512 -1999828249 58527482 56639225
            2103088640 -77800651 -1202140330 1361107211</internalNodes>
          <leafValues>
            -1.9985024631023407e-01 1.0882541537284851e-01</leafValues></_>
        <_>
          <internalNodes>
            0 -1 430 -1425141677 978793067 -806675912 -1744688325
            595154172 -1397656612 -1400812709 -1743495947</internalNodes>
          <leafValues>
            -1.6052584350109100e-01 1.4067339897155762e-01</leafValues></_>
        <_>
          <internalNodes>
            0 -1 315 -749240167 -116183266 -1006666753 -547411492
            -748969592 -1218194101 -69474417 -74453541</internalNodes>
          <leafValues>
            -6.6297598183155060e-02 3.0377566814422607e-01</leafValues></_>
        <_>
          <internalNodes>
            0 -1 939 1384065666 -1026874802 13788722 1886016011
            2003529880 1314019892 2080781344 1448410884</internalNodes>
          <leafValues>
            -2.3779940605163574e-01 9.0922333300113678e-02</leafValues></_>
        <_>
          <internalNodes>
            0 -1 144 -588037857 1350269671 852410203 1749237117
            1432819456 -397061587 943610415 -465022994</internalNodes>
          <leafValues>
            -1.5774740278720856e-01 1.3446831703186035e-01</leafValues></_>
        <_>
          <internalNodes>
            0 -1 109 -2140151166 409989000 1173837840 284550890
            1108313856 68042706 -1066150957 -1051722079</internalNodes>
          <leafValues>
            -1.6467827558517456e-01 1.3176950812339783e-01</leafValues></_>
        <_>
          <internalNodes>
            0 -1 466 -1431369677 -889953512 -2047780011 1180269780
            2819602 -898917086 58795990 533597656</internalNodes>
          <leafValues>
            -1.8829101324081421e-01 1.1339280754327774e-01</leafValues></_>
        <_>
          <internalNodes>
            0 -1 209 -2124722885 -1992820261 1852205148 1199315578
            893896322 -1117738190 -575566651 -1966623037</internalNodes>
          <leafValues>
            -1.2114080041646957e-01 1.7176498472690582e-01</leafValues></_>
        <_>
          <internalNodes>
            0 -1 57 -643051568 -990558755 -1967956955 1381957 1491773120
            129389652 174401055 352323337</internalNodes>
          <leafValues>
            -2.7620261907577515e-01 7.6995410025119781e-02</leafValues></_>
        <_>
          <internalNodes>
            0 -1 904 -799883081 -608000776 -1465858355 1501401975
            -1953851254 2126835442 -1139499521 -1684304358</internalNodes>
          <leafValues>
            -9.1157719492912292e-02 2.4213573336601257e-01</leafValues></_>
        <_>
          <internalNodes>
            0 -1 752 -469796385 1051402303 -1158793347 955659965
            -168042499 -1633338813 342248493 -194031457</internalNodes>
          <leafValues>
            -1.1622973531484604e-01 1.8593266606330872e-01</leafValues></_>
        <_>
          <internalNodes>
            0 -1 190 1120876330 445229728 842391424 124758064
            -2040266752 14908104 56095650 1288692888</internalNodes>
          <leafValues>
            -2.0763820409774780e-01 1.0422885417938232e-01</leafValues></_>
        <_>
          <internalNodes>
            0 -1 642 -2005786057 -625071109 1005993343 1354918140
            -1396373712 705899548 862024837 109737048</internalNodes>
          <leafValues>
            -2.2023104131221771e-01 9.6042998135089874e-02</leafValues></_>
        <_>
          <internalNodes>
            0 -1 857 -729809672 1489463816 -1359634945 1502944375
            -632648064 -87524544 1277746942 -5563992</internalNodes>
          <leafValues>
            -1.0204017907381058e-01 2.1121661365032196e-01</leafValues></_>
        <_>
          <internalNodes>
            0 -1 349 -336695705 1364584446 -1414321165 -1342751337
            1765666695 -660341532 737651705 -310915326</internalNodes>
          <leafValues>
            -1.0078628361225128e-01 2.0178720355033875e-01</leafValues></_>
        <_>
          <internalNodes>
            0 -1 23 -1796211982 -1573734746 -367919695 -1108218219
            -305135653 -1359018460 -323789477 -2127318253</internalNodes>
          <leafValues>
            -1.2793254852294922e-01 1.5885509550571442e-01</leafValues></_>
        <_>
          <internalNodes>
            0 -1 224 579797712 1403201422 799748096 330293343 100651908
            167798746 57571269 273475061</internalNodes>
          <leafValues>
            -2.6229497790336609e-01 7.9583019018173218e-02</leafValues></_>
        <_>
          <internalNodes>
            0 -1 771 -872212941 -815105026 -1366668868 2125212688
            -9087659 -12690148 -1025702156 1398974500</internalNodes>
          <leafValues>
            -1.6395488381385803e-01 1.2562449276447296e-01</leafValues></_>
        <_>
          <internalNodes>
            0 -1 845 -886419070 1512972962 1571262921 -571514129
            935003097 91678427 634855424 -725224889</internalNodes>
          <leafValues>
