<?xml version="1.0"?>
<opencv_storage>
<stage18>
  <maxWeakCount>184</maxWeakCount>
  <stageThreshold>-1.2480931282043457e+00</stageThreshold>
  <weakClassifiers>
    <_>
      <internalNodes>
        0 -1 1210 -717099289 -1391591342 -1272820317 -168269006
        -1403518895 -1931759565 -1578270429 -1174170445</internalNodes>
      <leafValues>
        -1.4217521250247955e-01 8.9773520827293396e-02</leafValues></_>
    <_>
      <internalNodes>
        0 -1 2410 -235416493 -1322174085 825392603 436393938 -2067557184
        -1824570121 -1937013536 -620760097</internalNodes>
      <leafValues>
        -7.7060937881469727e-02 1.5720993280410767e-01</leafValues></_>
    <_>
      <internalNodes>
        0 -1 3755 28031995 128945122 -1753620653 -1611796877 8642559
        215560125 1224724983 1338444305</internalNodes>
      <leafValues>
        -1.3782601058483124e-01 8.5553906857967377e-02</leafValues></_>
    <_>
      <internalNodes>
        0 -1 1699 -1025054200 -2138849245 -398149599 -198708391
        -379182349 -901303565 -299063809 -454755987</internalNodes>
      <leafValues>
        -1.0858757793903351e-01 1.0779263079166412e-01</leafValues></_>
    <_>
      <internalNodes>
        0 -1 790 551377615 -712678858 1095782449 1467317977 1348335353
        545956594 1090984127 298922750</internalNodes>
      <leafValues>
        -1.5464742481708527e-01 9.5523282885551453e-02</leafValues></_>
    <_>
      <internalNodes>
        0 -1 2169 -151454310 1381157198 -1086272292 -1359828376
        2036038512 -522225315 -174532522 -70657979</internalNodes>
      <leafValues>
        -1.1561035364866257e-01 1.2921386957168579e-01</leafValues></_>
    <_>
      <internalNodes>
        0 -1 10 274635229 17502104 -582641423 79960624 633963764
        1151102061 1372856821 1130443569</internalNodes>
      <leafValues>
        -1.6081874072551727e-01 8.4813147783279419e-02</leafValues></_>
    <_>
      <internalNodes>
        0 -1 2435 1197298569 -1625801999 -2031655491 2136694529
        1465749541 1852014161 223414968 1550112819</internalNodes>
      <leafValues>
        -1.7821247875690460e-01 2.4964593350887299e-02</leafValues></_>
    <_>
      <internalNodes>
        0 -1 2259 -1945228257 1123705787 -1409373604 1076926230
        -1358975275 -2069714006 -2032812354 -1624729314</internalNodes>
      <leafValues>
        -3.9386801421642303e-02 1.6956593096256256e-01</leafValues></_>
    <_>
      <internalNodes>
        0 -1 88 -1885614630 -859338297 82782588 394333717 17212163
        -1792922841 -92955197 -369228262</internalNodes>
      <leafValues>
        -1.1784954369068146e-01 8.2025177776813507e-02</leafValues></_>
    <_>
      <internalNodes>
        0 -1 1654 -2101213665 -894029835 763788927 1212202734
        -1410005211 -927408268 -1771504641 2115038792</internalNodes>
      <leafValues>
        -1.1537645757198334e-01 9.9012188613414764e-02</leafValues></_>
    <_>
      <internalNodes>
        0 -1 2979 -626018384 1352584234 -1342640003 -772608418 -73550607
        -411533319 -243937032 -71580712</internalNodes>
      <leafValues>
        -6.2108676880598068e-02 1.6408030688762665e-01</leafValues></_>
    <_>
      <internalNodes>
        0 -1 2211 -2006514921 1082015291 1652432349 -1064543241
        -1482785531 -2042849025 1730084625 1208205662</internalNodes>
      <leafValues>
        -1.4771910011768341e-01 5.7718433439731598e-02</leafValues></_>
    <_>
      <internalNodes>
        0 -1 3879 -2088525382 -688975360 -1179318401 -666521581
        120749934 -441875398 1631639613 -811381065</internalNodes>
      <leafValues>
        -6.0913007706403732e-02 1.4335784316062927e-01</leafValues></_>
    <_>
      <internalNodes>
        0 -1 3923 -613679237 1916248250 604437365 1606397033 -871570148
        -2096418572 -1030175638 -1727270797</internalNodes>
      <leafValues>
        -8.6059726774692535e-02 1.2673245370388031e-01</leafValues></_>
    <_>
      <internalNodes>
        0 -1 2947 -2038516684 -1437321450 1520377854 1069168477
        -1477853740 241119757 1439125753 36377850</internalNodes>
      <leafValues>
        -1.4157134294509888e-01 7.5888030230998993e-02</leafValues></_>
    <_>
      <internalNodes>
        0 -1 3504 -771769857 -110137409 1333223035 -189858946 2127000896
        -25224202 -144781168 -23529236</internalNodes>
      <leafValues>
        -6.5770812332630157e-02 1.5427911281585693e-01</leafValues></_>
    <_>
      <internalNodes>
        0 -1 374 -461484754 -666506748 545661967 145753711 1350373408
        -13743322 1853124170 -1033222561</internalNodes>
      <leafValues>
        -1.5384164452552795e-01 5.4489716887474060e-02</leafValues></_>
    <_>
      <internalNodes>
        0 -1 2851 1450669052 968913628 353655613 909295102 1625324875
        -1438638503 1087316443 686310622</internalNodes>
      <leafValues>
        -1.6049899160861969e-01 6.5777420997619629e-02</leafValues></_>
    <_>
      <internalNodes>
        0 -1 2895 -1280785535 -1027830208 1503424285 1057721725
        942455200 -1343649291 -1580534096 -33556755</internalNodes>
      <leafValues>
        -7.4734948575496674e-02 1.3899895548820496e-01</leafValues></_>
    <_>
      <internalNodes>
        0 -1 2631 -2078666223 -1896863587 163471327 459548684
        -1900399056 -1901325079 976624246 24820880</internalNodes>
      <leafValues>
        -1.6366924345493317e-01 5.1440194249153137e-02</leafValues></_>
    <_>
      <internalNodes>
        0 -1 3648 -617620781 -555861544 1069497855 -590874404 -341852878
        -36844417 -1760036269 -538260366</internalNodes>
      <leafValues>
        -4.2025528848171234e-02 1.9387418031692505e-01</leafValues></_>
    <_>
      <internalNodes>
        0 -1 3434 -1533173030 586129555 371120253 -1769956617 213782190
        571644304 23860484 1957597620</internalNodes>
      <leafValues>
        -1.5720181167125702e-01 5.1235023885965347e-02</leafValues></_>
    <_>
      <internalNodes>
        0 -1 1595 -162659834 1899248150 -349272112 1595307682 1002484522
        -1164152866 -726886433 -87883981</internalNodes>
      <leafValues>
        -7.0886023342609406e-02 1.2266314029693604e-01</leafValues></_>
    <_>
      <internalNodes>
        0 -1 1026 578626094 575811548 69885552 37810146 240399108
        -2138522000 1163344224 1073751664</internalNodes>
      <leafValues>
        -2.6435330510139465e-01 2.8537290170788765e-02</leafValues></_>
    <_>
      <internalNodes>
        0 -1 401 296560094 1104496086 1113797996 37754144 1201450392
        181829169 1466521481 1050368</internalNodes>
      <leafValues>
        -2.2933974862098694e-01 3.8705725222826004e-02</leafValues></_>
    <_>
      <internalNodes>
        0 -1 1802 1746657797 661738164 -1795721353 270482989 440873559
        -1769497686 494343679 -68157565</internalNodes>
      <leafValues>
        -5.6767296046018600e-02 1.7637637257575989e-01</leafValues></_>
    <_>
      <internalNodes>
        0 -1 1754 -2146795312 683052186 -983490701 40916702 -1341997056
        -321899908 -837234422 672237888</internalNodes>
      <leafValues>
        -1.3553202152252197e-01 7.1330837905406952e-02</leafValues></_>
    <_>
      <internalNodes>
        0 -1 1105 1348010136 1070342647 2017145039 323305061 -42168104
        -59152873 37831578 170306283</internalNodes>
      <leafValues>
        -1.2951187789440155e-01 6.9101095199584961e-02</leafValues></_>
    <_>
      <internalNodes>
        0 -1 1788 1440102426 -35426760 -1578850795 1478230147 2019410992
        -1392672212 -521111313 7016494</internalNodes>
      <leafValues>
        -1.3465063273906708e-01 6.6730208694934845e-02</leafValues></_>
    <_>
      <internalNodes>
        0 -1 1462 8418892 1844937833 -1323125499 1344425008 -1065653720
        942179450 375165236 -1943869328</internalNodes>
      <leafValues>
        -1.4646907150745392e-01 6.4109295606613159e-02</leafValues></_>
    <_>
      <internalNodes>
        0 -1 143 -483398958 -1753238830 -977277039 233827665 1198329089
        1451425432 -471611173 -570432257</internalNodes>
      <leafValues>
        -6.6146738827228546e-02 1.3749682903289795e-01</leafValues></_>
    <_>
      <internalNodes>
        0 -1 0 356658962 354663964 -1336071099 221219597 -219021377
        -58931282 1996438523 1060839979</internalNodes>
      <leafValues>
        -9.9825061857700348e-02 9.3605265021324158e-02</leafValues></_>
    <_>
      <internalNodes>
        0 -1 24 -1595428206 -2122095518 746848045 -1659902249 1707783928
        -2027547132 589628673 21280002</internalNodes>
      <leafValues>
        -1.6298794746398926e-01 5.4391488432884216e-02</leafValues></_>
    <_>
      <internalNodes>
        0 -1 3552 -1109448999 2067162716 557733245 -639675155
        -1116601214 -54592644 2019606400 -16007448</internalNodes>
      <leafValues>
        -6.4919814467430115e-02 1.4688673615455627e-01</leafValues></_>
    <_>
      <internalNodes>
        0 -1 3867 544680642 49277988 1601164 408680486 1008739992
        209350226 467948377 1865577028</internalNodes>
      <leafValues>
        -1.4741244912147522e-01 6.7170970141887665e-02</leafValues></_>
    <_>
      <internalNodes>
        0 -1 3198 -1291181000 -323341578 209528604 1283516134
        -1780587724 1588488893 1429960753 1780088848</internalNodes>
      <leafValues>
        -1.6617295145988464e-01 5.4172042757272720e-02</leafValues></_>
    <_>
      <internalNodes>
        0 -1 1382 -76303937 -814812673 1706634106 -19269319 -1951935013
        -1650341247 -1017408645 -642791269</internalNodes>
      <leafValues>
        -4.4425163418054581e-02 2.1318073570728302e-01</leafValues></_>
    <_>
      <internalNodes>
        0 -1 701 1403900383 1933909415 1576407771 1334101116 1591392252
        406943188 1742596333 -116589156</internalNodes>
      <leafValues>
        -8.4913767874240875e-02 1.0995117574930191e-01</leafValues></_>
    <_>
      <internalNodes>
        0 -1 2726 -721955041 -42699873 -789582133 -272810181 -800076826
        -563615603 -270325837 -6445953</internalNodes>
      <leafValues>
        -4.7737106680870056e-02 2.0671418309211731e-01</leafValues></_>
    <_>
      <internalNodes>
        0 -1 3774 948119586 -402102778 343884628 -838341432 687673259
        -281432278 50812187 44358922</internalNodes>
      <leafValues>
        -1.6274389624595642e-01 5.7780180126428604e-02</leafValues></_>
    <_>
      <internalNodes>
        0 -1 3652 -754184157 -91708686 -1530972523 -543324445
        -1808061543 -269627490 801326235 -808763254</internalNodes>
      <leafValues>
        -6.4812518656253815e-02 1.3890847563743591e-01</leafValues></_>
    <_>
      <internalNodes>
        0 -1 2297 -1897452022 15615972 -1360270268 1089657552 337595392
        1684436979 -581676016 1084371984</internalNodes>
      <leafValues>
        -2.6517167687416077e-01 3.1355086714029312e-02</leafValues></_>
    <_>
      <internalNodes>
        0 -1 1764 -246510176 -556521456 933455649 497657680 351679403
        -1996879664 237382382 -1464958550</internalNodes>
      <leafValues>
        -8.2867868244647980e-02 1.1305945366621017e-01</leafValues></_>
    <_>
      <internalNodes>
        0 -1 3225 1342859920 -95241321 1977984463 541747282 738988357
        -628131333 1804638478 -1474557941</internalNodes>
      <leafValues>
        -1.2970523536205292e-01 7.5189158320426941e-02</leafValues></_>
    <_>
      <internalNodes>
        0 -1 3786 1348242560 336724195 1827490364 257797678 2018682832
        1946484732 -1694429686 1259585794</internalNodes>
      <leafValues>
        -1.1811032891273499e-01 8.3860620856285095e-02</leafValues></_>
    <_>
      <internalNodes>
        0 -1 3492 196817417 -2100611719 853055997 35282748 1179966772
        -26313615 936432788 1550062724</internalNodes>
      <leafValues>
        -1.6900730133056641e-01 5.8435484766960144e-02</leafValues></_>
    <_>
      <internalNodes>
        0 -1 200 -488944686 120127090 -76349643 -1770356548 525025290
        -2107610648 -155388983 -489562115</internalNodes>
      <leafValues>
        -8.3060085773468018e-02 1.1037547141313553e-01</leafValues></_>
    <_>
      <internalNodes>
        0 -1 1049 1389763295 28355994 -1681047750 -183494255 -2004885537
        -2107203165 -110929254 -2097182437</internalNodes>
      <leafValues>
        -7.8789956867694855e-02 1.2356356531381607e-01</leafValues></_>
    <_>
      <internalNodes>
        0 -1 169 1115376130 431047661 -579544656 697798948 1080893954
        171380 -849258512 1371926993</internalNodes>
      <leafValues>
        -1.5160892903804779e-01 6.5580934286117554e-02</leafValues></_>
    <_>
      <internalNodes>
        0 -1 2322 -274523650 -353473318 468319517 -205904376 242971880
        -921439954 156549595 -247011696</internalNodes>
      <leafValues>
        -7.6436690986156464e-02 1.2137740105390549e-01</leafValues></_>
    <_>
      <internalNodes>
        0 -1 3773 -1538489688 67152428 1034233368 133186530 -1883524687
        -1795772984 928729921 16064337</internalNodes>
      <leafValues>
        -2.0708751678466797e-01 4.4878706336021423e-02</leafValues></_>
    <_>
      <internalNodes>
        0 -1 3962 -201137486 1353772170 538134300 1760524938 756621817
        1155464827 329609658 1416230162</internalNodes>
      <leafValues>
        -1.1495278030633926e-01 8.1648141145706177e-02</leafValues></_>
    <_>
      <internalNodes>
        0 -1 3831 -215223775 -628887753 1056964123 1602203378
        -1788410078 -143655183 -403317573 -209800</internalNodes>
      <leafValues>
        -5.8629024773836136e-02 1.6947709023952484e-01</leafValues></_>
    <_>
      <internalNodes>
        0 -1 19 587341746 -2135457182 791632891 -1516151131 869648311
        -325175359 889688833 -39377920</internalNodes>
      <leafValues>
        -1.2337430566549301e-01 7.9757131636142731e-02</leafValues></_>
    <_>
      <internalNodes>
        0 -1 1468 291982191 1610374880 1324783541 -582837492 1246091772
        -1157699998 -1969238648 -1430614854</internalNodes>
      <leafValues>
        -7.4443809688091278e-02 1.3749200105667114e-01</leafValues></_>
    <_>
      <internalNodes>
        0 -1 881 -752710255 5758114 -544338174 -1608078836 590152916
        -1151093661 -1103166416 1821436968</internalNodes>
      <leafValues>
        -1.4301964640617371e-01 6.9669798016548157e-02</leafValues></_>
    <_>
      <internalNodes>
        0 -1 1305 -548566125 1298709483 -1822133532 -1644822947
        -1725458194 -3135738 -1694626053 -1345469314</internalNodes>
      <leafValues>
        -6.4565934240818024e-02 1.4867603778839111e-01</leafValues></_>
    <_>
      <internalNodes>
        0 -1 167 -751703808 1361414087 1549311030 -776244321 1925574728
        316473357 1969151065 1109148392</internalNodes>
      <leafValues>
        -1.7783242464065552e-01 5.7839568704366684e-02</leafValues></_>
    <_>
      <internalNodes>
        0 -1 651 199086063 -1966219292 -890256806 -28124438 -1087582729
        -846927876 -288490005 -890309144</internalNodes>
      <leafValues>
        -5.9419419616460800e-02 1.7250971496105194e-01</leafValues></_>
    <_>
      <internalNodes>
        0 -1 1733 -286528826 1109403251 -1889093103 -28678970 2146792176
        -1050718809 2097592305 1746790545</internalNodes>
      <leafValues>
        -1.1836286634206772e-01 8.2252547144889832e-02</leafValues></_>
    <_>
      <internalNodes>
        0 -1 996 1882736638 -1275204306 -1352520269 1825370994
        -1214487745 -856361621 -1170243766 -141547</internalNodes>
      <leafValues>
        -6.5279036760330200e-02 1.4055997133255005e-01</leafValues></_>
    <_>
      <internalNodes>
        0 -1 1918 673980424 330539707 407647064 591073557 705637047
        296751966 288031062 2101264</internalNodes>
      <leafValues>
        -3.3058866858482361e-01 2.8624203056097031e-02</leafValues></_>
    <_>
      <internalNodes>
        0 -1 3009 -1089522063 -1062181257 472194928 -2131693898
        1848931876 -2433035 1526850896 1512281136</internalNodes>
      <leafValues>
        -1.4017029106616974e-01 6.9003656506538391e-02</leafValues></_>
    <_>
      <internalNodes>
        0 -1 2944 -563212401 -20430823 368319218 -1774902058 1694482641
        -1085093349 1146469821 -1372076261</internalNodes>
      <leafValues>
        -8.2772672176361084e-02 1.1941781640052795e-01</leafValues></_>
    <_>
      <internalNodes>
        0 -1 2715 -1016977626 -2011165000 1342143787 1296302687
        -1368021162 -1000851593 670368576 215997948</internalNodes>
      <leafValues>
        -1.3970389962196350e-01 6.7578338086605072e-02</leafValues></_>
    <_>
      <internalNodes>
        0 -1 703 -804208616 -1080462673 39332886 -664720349 -1838437376
        -1774563202 -147687806 -1877541097</internalNodes>
      <leafValues>
        -9.7626373171806335e-02 9.8744139075279236e-02</leafValues></_>
    <_>
      <internalNodes>
        0 -1 290 1602699902 1903759100 -1309315991 2015965674 -453541782
        1039668026 -52201538 -108009906</internalNodes>
      <leafValues>
        -8.8804878294467926e-02 1.0701577365398407e-01</leafValues></_>
    <_>
      <internalNodes>
        0 -1 452 332116619 -1609992743 528366001 -237651652 -1074150689
        -1962983692 -2092366134 -1950368546</internalNodes>
      <leafValues>
        -5.4969344288110733e-02 1.7085736989974976e-01</leafValues></_>
    <_>
      <internalNodes>
        0 -1 131 -619289452 1124057590 197312264 -1005387423 102477824
        338117469 221513796 18224739</internalNodes>
      <leafValues>
        -2.3548948764801025e-01 3.9896093308925629e-02</leafValues></_>
    <_>
      <internalNodes>
        0 -1 2165 1543204859 -33562881 1374286901 -642657756 2003999226
        -303901253 -69740385 -37826906</internalNodes>
      <leafValues>
        -4.7895431518554688e-02 2.1654349565505981e-01</leafValues></_>
    <_>
      <internalNodes>
        0 -1 2870 -247405320 -1811048593 -293577360 -1915678032
        -1468457718 -1498855409 179375119 973802591</internalNodes>
      <leafValues>
        -1.6112849116325378e-01 6.1787780374288559e-02</leafValues></_>
    <_>
      <internalNodes>
        0 -1 2934 -1573961925 -562529667 -592022723 -685154689
        -1264605323 -1652676793 355768788 -83951618</internalNodes>
      <leafValues>
        -6.5318584442138672e-02 1.4797179400920868e-01</leafValues></_>
    <_>
      <internalNodes>
        0 -1 1414 15671955 1222568916 183058302 1612730976 -1115817200
        223056464 -1355318711 1295040001</internalNodes>
      <leafValues>
        -1.5019376575946808e-01 6.5385565161705017e-02</leafValues></_>
    <_>
      <internalNodes>
        0 -1 3399 -754195783 -695454566 956372725 -581959778 -1356079696
        -84829476 -1620508520 -850407221</internalNodes>
      <leafValues>
        -5.6789159774780273e-02 1.6929961740970612e-01</leafValues></_>
    <_>
      <internalNodes>
        0 -1 3172 1858869384 1311176428 -490064948 444477538 -1481830917
        -1652533835 -1752301944 2078941195</internalNodes>
      <leafValues>
        -1.3629655539989471e-01 7.0591442286968231e-02</leafValues></_>
    <_>
      <internalNodes>
        0 -1 3934 1258792682 36877878 -1936183633 -786444594 -240862582
        453301348 -146097826 -16515117</internalNodes>
      <leafValues>
        -7.7039107680320740e-02 1.2591303884983063e-01</leafValues></_>
    <_>
      <internalNodes>
        0 -1 3661 1416830978 429363836 -1598591564 1084103443 1914580037
        2034253070 -2172392 -1607580158</internalNodes>
      <leafValues>
        -1.5130294859409332e-01 6.3795864582061768e-02</leafValues></_>
    <_>
      <internalNodes>
        0 -1 3655 1997975046 291482358 819324697 462274151 397975742
        -151975778 1067685736 1057957380</internalNodes>
      <leafValues>
        -1.0021430253982544e-01 1.0242865234613419e-01</leafValues></_>
    <_>
      <internalNodes>
        0 -1 3854 -1056442825 -100267812 -1029419087 -540896170
        388708123 -8440740 176702747 -1422973912</internalNodes>
      <leafValues>
        -1.0183457285165787e-01 9.7917757928371429e-02</leafValues></_>
    <_>
      <internalNodes>
        0 -1 1447 -139995945 -210351489 -543207713 -134375773
        -1132625011 -276047189 -1950641153 -129114993</internalNodes>
      <leafValues>
        -3.9827138185501099e-02 2.4949225783348083e-01</leafValues></_>
    <_>
      <internalNodes>
        0 -1 702 173998306 -1026725126 61934298 -1598110728 659202048
        -2143752288 -916397376 1678046965</internalNodes>
      <leafValues>
        -1.5316678583621979e-01 6.3618518412113190e-02</leafValues></_>
    <_>
      <internalNodes>
        0 -1 578 -545537893 -311210869 -1276876830 -326635943 -255489654
        -1298338824 -779223137 -848298311</internalNodes>
      <leafValues>
        -4.9317590892314911e-02 1.9544328749179840e-01</leafValues></_>
    <_>
      <internalNodes>
        0 -1 1515 -88120694 54066835 835380836 1879955708 -2042952400
        229894894 -2001805327 533895832</internalNodes>
      <leafValues>
        -1.3110452890396118e-01 7.4486166238784790e-02</leafValues></_>
    <_>
      <internalNodes>
        0 -1 2369 1404509094 61935474 437919005 -1475874790 171082109
        276060674 3668984 -1193052224</internalNodes>
      <leafValues>
        -9.9241413176059723e-02 9.9341720342636108e-02</leafValues></_>
    <_>
      <internalNodes>
        0 -1 3200 -1515249580 -436067758 148115976 -1064013630
        1968657426 1218891088 -917986560 1894018122</internalNodes>
      <leafValues>
        -1.8540307879447937e-01 5.2607942372560501e-02</leafValues></_>
    <_>
      <internalNodes>
        0 -1 3849 414771934 273033391 -1217032852 838565414 1585029036
        -1705347872 1331145928 1305037946</internalNodes>
      <leafValues>
        -1.0317313671112061e-01 9.3877948820590973e-02</leafValues></_>
    <_>
      <internalNodes>
        0 -1 67 4096856 848227027 540115643 587392933 947646386 4269844
        1175501966 895550721</internalNodes>
      <leafValues>
        -2.0135734975337982e-01 4.8059418797492981e-02</leafValues></_>
    <_>
      <internalNodes>
        0 -1 1280 -1662624889 -691246362 78665957 -1867375374 970511255
        -1679921199 -1440956933 -201862</internalNodes>
      <leafValues>
        -6.6940218210220337e-02 1.5121583640575409e-01</leafValues></_>
    <_>
      <internalNodes>
        0 -1 3764 -17864690 141182126 -197595136 -219437498 458179794
        4523861 21977112 1356453460</internalNodes>
      <leafValues>
        -1.8736869096755981e-01 5.2494376897811890e-02</leafValues></_>
    <_>
      <internalNodes>
        0 -1 3646 -108300069 -72421466 1735562365 -8392133 913805810
        -94372021 471539626 -302232481</internalNodes>
      <leafValues>
        -4.7558847814798355e-02 2.0263129472732544e-01</leafValues></_>
    <_>
      <internalNodes>
        0 -1 1538 -1899356592 -1096598118 -522022844 235876118
        2000743431 721534338 1067844692 555979305</internalNodes>
      <leafValues>
        -2.1207439899444580e-01 4.8097811639308929e-02</leafValues></_>
    <_>
      <internalNodes>
        0 -1 2012 -759630857 1400218463 -235913236 -711729326 -379069961
        -1741294862 -336210106 -389687855</internalNodes>
      <leafValues>
        -5.1222879439592361e-02 1.8977893888950348e-01</leafValues></_>
    <_>
      <internalNodes>
        0 -1 1360 182454538 892369481 -788767764 -1860047342 -708812939
        -957681964 -2035329130 543845488</internalNodes>
      <leafValues>
        -1.7384596168994904e-01 5.5418919771909714e-02</leafValues></_>
    <_>
      <internalNodes>
        0 -1 1016 1584639653 1080116070 1663487997 -1653594787
        1683432761 -1862584397 -1892159032 -392983348</internalNodes>
      <leafValues>
        -8.0319523811340332e-02 1.1846825480461121e-01</leafValues></_>
    <_>
      <internalNodes>
        0 -1 1995 -1388762 -227897286 -794933584 1400040740 -820526334
        214398290 -396518266 339600605</internalNodes>
      <leafValues>
        -1.3942973315715790e-01 7.0081599056720734e-02</leafValues></_>
    <_>
      <internalNodes>
        0 -1 2696 -94322286 -96597230 -616646157 1151494044 -1108265987
        -1764919754 1434081187 -1394143786</internalNodes>
      <leafValues>
        -8.1694468855857849e-02 1.2044009566307068e-01</leafValues></_>
    <_>
      <internalNodes>
        0 -1 2580 539886096 21503107 207713374 -1929362372 -1922105328
        -859778476 -1960558008 1112121957</internalNodes>
      <leafValues>
        -1.9417040050029755e-01 5.1287461072206497e-02</leafValues></_>
    <_>
      <internalNodes>
        0 -1 2423 1079905798 -1066650385 1290344229 1818391417 180290323
        -1907918797 -2008826283 137878642</internalNodes>
      <leafValues>
        -1.5246325731277466e-01 6.3907407224178314e-02</leafValues></_>
    <_>
      <internalNodes>
        0 -1 3093 -836256929 -134538177 -82348131 -578826339 -1934698697
        -1632068035 527843231 -268435478</internalNodes>
      <leafValues>
        -4.6573016792535782e-02 2.1895301342010498e-01</leafValues></_>
    <_>
      <internalNodes>
        0 -1 1258 -1440216472 31601599 -117225404 584544705 1251357315
        -684548598 242189878 9830691</internalNodes>
      <leafValues>
        -1.9680130481719971e-01 5.0371933728456497e-02</leafValues></_>
    <_>
      <internalNodes>
        0 -1 1439 -658799973 2112876364 532745695 -248179985 -898662228
        -612379308 -78680365 -16515157</internalNodes>
      <leafValues>
        -5.6738510727882385e-02 1.7858894169330597e-01</leafValues></_>
    <_>
      <internalNodes>
        0 -1 1129 1380319812 285237349 -874841674 -1241511833 1886655488
        2046173033 773925390 67429895</internalNodes>
      <leafValues>
        -2.0303551852703094e-01 4.9384932965040207e-02</leafValues></_>
    <_>
      <internalNodes>
        0 -1 3229 -1047263205 -168336390 1170809710 -1130057601 76399243
        287519299 9241173 -1463818215</internalNodes>
      <leafValues>
        -1.0470014065504074e-01 9.3029081821441650e-02</leafValues></_>
    <_>
      <internalNodes>
        0 -1 2189 -1930802545 1996265887 -1074042939 -52680858
        -195357901 -742129869 349334586 -39360473</internalNodes>
      <leafValues>
        -7.3264643549919128e-02 1.4474502205848694e-01</leafValues></_>
    <_>
      <internalNodes>
        0 -1 2889 -1941298688 -2141450412 1032383545 238313528
        -2039840458 -1517481131 558632724 103333444</internalNodes>
      <leafValues>
        -2.3216940462589264e-01 4.3395806103944778e-02</leafValues></_>
    <_>
      <internalNodes>
        0 -1 2643 448658431 1563386471 1387150327 -553265091 1060726203
        -1079296338 -998238317 -3429493</internalNodes>
      <leafValues>
        -3.8331396877765656e-02 2.5919204950332642e-01</leafValues></_>
    <_>
      <internalNodes>
        0 -1 2583 1596084288 139238200 261439327 138207188 -1910229276
        -1469520416 385884370 402786500</internalNodes>
      <leafValues>
        -1.8263240158557892e-01 5.2994474768638611e-02</leafValues></_>
    <_>
      <internalNodes>
        0 -1 3905 -670765378 1398507228 2028327686 521745608 377000374
        -1594067762 2080155338 -550016358</internalNodes>
      <leafValues>
        -7.5827062129974365e-02 1.2627960741519928e-01</leafValues></_>
    <_>
      <internalNodes>
        0 -1 3825 1090462240 13526079 1745237536 674724410 1965901151
        605446212 1191657936 1012688592</internalNodes>
      <leafValues>
        -2.1062542498111725e-01 4.6503216028213501e-02</leafValues></_>
    <_>
      <internalNodes>
        0 -1 1443 -1555057643 -76857350 764606805 -592417178 -1771583320
        -1332133273 -1327969891 -667736612</internalNodes>
      <leafValues>
        -5.4729457944631577e-02 1.7764399945735931e-01</leafValues></_>
    <_>
      <internalNodes>
        0 -1 749 -606361644 -686125107 22155769 466629472 644821682
        537002948 1497128441 1622313468</internalNodes>
      <leafValues>
        -1.3475155830383301e-01 7.0997208356857300e-02</leafValues></_>
    <_>
      <internalNodes>
        0 -1 1441 -1573248314 3476120 1195460507 -1775245940 -585071590
        -2073375115 -527720455 -1569851713</internalNodes>
      <leafValues>
        -1.0310348868370056e-01 9.9572256207466125e-02</leafValues></_>
    <_>
      <internalNodes>
        0 -1 3673 -686866780 333048746 1856979871 1891039915 -418235904
        1041421822 -361861730 -194488566</internalNodes>
      <leafValues>
        -1.1697356402873993e-01 8.3074815571308136e-02</leafValues></_>
    <_>
      <internalNodes>
        0 -1 3855 1111926402 41283306 1312246010 84359786 1723987600
        -54640543 1819404316 1394290708</internalNodes>
      <leafValues>
        -1.2268647551536560e-01 8.3753451704978943e-02</leafValues></_>
    <_>
      <internalNodes>
        0 -1 3907 15246860 1545921598 -881021896 1846587570 1585062988
        1382558569 -607892978 673186320</internalNodes>
      <leafValues>
        -2.3658394813537598e-01 4.4226367026567459e-02</leafValues></_>
    <_>
      <internalNodes>
        0 -1 834 901699291 1012394969 1698567185 -1073893523 1525616570
        -1646776880 -26220053 -355547714</internalNodes>
      <leafValues>
        -5.2683319896459579e-02 1.9334299862384796e-01</leafValues></_>
    <_>
      <internalNodes>
        0 -1 7 -2043993376 121712134 -1246761396 -817179950 340200368
        837915577 -1644235456 633672768</internalNodes>
      <leafValues>
        -2.0983652770519257e-01 4.8087734729051590e-02</leafValues></_>
    <_>
      <internalNodes>
        0 -1 3880 1398794455 -624465658 2095775731 -42501526 895971804
        -840969604 1459021546 -1573943</internalNodes>
      <leafValues>
        -5.0499014556407928e-02 1.9315662980079651e-01</leafValues></_>
    <_>
      <internalNodes>
        0 -1 3707 -867872376 2918966 987599540 981506106 -782310882
        80568789 1686638876 1412038975</internalNodes>
      <leafValues>
        -1.7056091129779816e-01 5.7674031704664230e-02</leafValues></_>
    <_>
      <internalNodes>
        0 -1 3841 -49240176 -788468442 970280530 -581046770 183073396
        -1097869578 1560572879 -876634934</internalNodes>
      <leafValues>
        -7.1717344224452972e-02 1.3692945241928101e-01</leafValues></_>
    <_>
      <internalNodes>
        0 -1 3510 126563668 59140346 -291946640 1140902062 481695600
        -498645664 274002944 2097471552</internalNodes>
      <leafValues>
        -1.9185331463813782e-01 5.2417021244764328e-02</leafValues></_>
    <_>
      <internalNodes>
        0 -1 3705 -286127098 -2045054362 1786151503 1417635986
        1999106747 1196587624 -155943882 -61721222</internalNodes>
      <leafValues>
        -1.2132047861814499e-01 8.1814341247081757e-02</leafValues></_>
    <_>
      <internalNodes>
        0 -1 3250 -1741577208 -502123148 893129041 -1627713819 991503889
        -1413604556 766920311 1005515592</internalNodes>
      <leafValues>
        -1.3039964437484741e-01 7.5979582965373993e-02</leafValues></_>
    <_>
      <internalNodes>
        0 -1 1134 -233344073 -632881486 1067400159 -1086465450
        -774248513 -86078552 -2055769861 -1890595137</internalNodes>
      <leafValues>
        -4.9169410020112991e-02 2.0771475136280060e-01</leafValues></_>
    <_>
      <internalNodes>
        0 -1 349 1433215936 -480923998 -1501286219 431006257 14156624
        694641728 458498696 1439135306</internalNodes>
      <leafValues>
        -1.5195195376873016e-01 6.7974597215652466e-02</leafValues></_>
    <_>
      <internalNodes>
        0 -1 3466 -948066001 -226520290 1073217172 -554291742 -958967362
        1029647134 1837229409 -8679430</internalNodes>
      <leafValues>
        -6.0616999864578247e-02 1.6884578764438629e-01</leafValues></_>
    <_>
      <internalNodes>
        0 -1 1810 455010850 1123905136 950407624 768882738 2106080712
        2079893 1637973969 204481808</internalNodes>
      <leafValues>
        -2.3513479530811310e-01 4.6155728399753571e-02</leafValues></_>
    <_>
      <internalNodes>
        0 -1 205 -436215329 -796292 1394331120 182311238 1344848146
        1598301720 1978490335 -1549942598</internalNodes>
      <leafValues>
        -7.2160772979259491e-02 1.4191582798957825e-01</leafValues></_>
    <_>
      <internalNodes>
        0 -1 3393 866849302 1340882672 502865268 236903004 -896812768
        -2001413444 1372996865 244043889</internalNodes>
      <leafValues>
        -1.5818034112453461e-01 6.3161864876747131e-02</leafValues></_>
    <_>
      <internalNodes>
        0 -1 1221 -2118048161 -1881910292 -1120994403 -579495811
        -608405524 -2080087147 -1279395265 -476671826</internalNodes>
      <leafValues>
        -7.4407063424587250e-02 1.4048686623573303e-01</leafValues></_>
    <_>
      <internalNodes>
        0 -1 2511 1722745785 -84766977 721311551 2047519338 113223671
        -1896583393 -1913327880 -560269894</internalNodes>
      <leafValues>
        -6.9062568247318268e-02 1.4767505228519440e-01</leafValues></_>
    <_>
      <internalNodes>
        0 -1 1319 151863227 -760725908 -296906908 -786773252 617787184
        42004415 1246197360 1566946628</internalNodes>
      <leafValues>
        -1.5378998219966888e-01 7.0029698312282562e-02</leafValues></_>
    <_>
      <internalNodes>
        0 -1 450 -723804000 -783637740 923625728 -1347536640 190786377
        289079252 397571898 505070968</internalNodes>
      <leafValues>
        -1.2692840397357941e-01 7.9549036920070648e-02</leafValues></_>
    <_>
      <internalNodes>
        0 -1 864 -1318423749 1592503798 -591069904 -1236679548
        -1439734254 1643696528 582476746 -456209266</internalNodes>
      <leafValues>
        -8.0380573868751526e-02 1.2835499644279480e-01</leafValues></_>
    <_>
      <internalNodes>
        0 -1 38 -2023497102 565828706 556088405 -1550957950 184392152
        -2074245409 337068292 1252484161</internalNodes>
      <leafValues>
        -1.4717826247215271e-01 7.4697241187095642e-02</leafValues></_>
    <_>
      <internalNodes>
        0 -1 941 -42476705 -545806375 -549506151 -407141417 837017801
        -52264229 -520818817 -6585619</internalNodes>
      <leafValues>
        -4.8087462782859802e-02 2.1212671697139740e-01</leafValues></_>
    <_>
      <internalNodes>
        0 -1 3871 207497762 177654830 1282558052 323620452 1835991728
        638377296 1919874050 1950937488</internalNodes>
      <leafValues>
        -1.7943403124809265e-01 5.8614935725927353e-02</leafValues></_>
    <_>
      <internalNodes>
        0 -1 1950 50332248 685622460 1861373693 456799974 -1432079127
        206974064 -1543753643 346690592</internalNodes>
      <leafValues>
        -2.0816765725612640e-01 4.8262186348438263e-02</leafValues></_>
    <_>
      <internalNodes>
        0 -1 3099 -678563448 -543516466 1550097691 -638349848 788594608
        -1476718649 705329147 -302255868</internalNodes>
      <leafValues>
        -7.0902556180953979e-02 1.4509990811347961e-01</leafValues></_>
    <_>
      <internalNodes>
        0 -1 1505 25600598 1115425770 -1609294585 -1304150218 700715517
        297045252 41334926 1424475770</internalNodes>
      <leafValues>
        -1.6162303090095520e-01 6.4662694931030273e-02</leafValues></_>
    <_>
      <internalNodes>
        0 -1 3915 1347224634 2074347526 -1363637959 67124057 2063376764
        1280234658 1348859592 2132122</internalNodes>
      <leafValues>
        -1.9340240955352783e-01 5.3108382970094681e-02</leafValues></_>
    <_>
      <internalNodes>
        0 -1 1719 -1562656129 -1595607810 -1349537633 1363738266
        -1504562608 -889596764 1508365280 -82136629</internalNodes>
      <leafValues>
        -7.9132780432701111e-02 1.2771104276180267e-01</leafValues></_>
    <_>
      <internalNodes>
        0 -1 357 -747698688 1376068940 -810389604 1208362500 105906432
        1074545054 1287799300 68567512</internalNodes>
      <leafValues>
        -2.8855073451995850e-01 3.5418547689914703e-02</leafValues></_>
    <_>
      <internalNodes>
        0 -1 3206 -141821445 -45948346 -1250758315 -573637219
        -1137862405 -1175770646 -276441955 -89930720</internalNodes>
      <leafValues>
        -4.0917098522186279e-02 2.5710457563400269e-01</leafValues></_>
    <_>
      <internalNodes>
        0 -1 3968 1929706130 -638032425 -1421714646 -1157612030
        -1707035731 -1847921424 -108410165 -7362661</internalNodes>
      <leafValues>
        -6.9100230932235718e-02 1.5068787336349487e-01</leafValues></_>
    <_>
      <internalNodes>
        0 -1 2431 275674192 755010851 2125658835 -1193180366 -2080172744
        1089084890 109272528 801743906</internalNodes>
      <leafValues>
        -1.5336847305297852e-01 6.9097585976123810e-02</leafValues></_>
    <_>
      <internalNodes>
        0 -1 3904 -265623782 -180294008 -1213056488 -547037654
        -1396331522 -958410863 804773262 -693125954</internalNodes>
      <leafValues>
        -6.9933809340000153e-02 1.4651577174663544e-01</leafValues></_>
    <_>
      <internalNodes>
        0 -1 666 198124034 33596938 764035792 37945120 1719468544
        38467076 1918268772 2158484</internalNodes>
      <leafValues>
        -2.9860854148864746e-01 3.4648064523935318e-02</leafValues></_>
    <_>
      <internalNodes>
        0 -1 1996 -222729230 1149525066 -1151660103 -814784919
        -1216123662 -1466779726 -1907470245 -779754197</internalNodes>
      <leafValues>
        -8.4030762314796448e-02 1.2393718212842941e-01</leafValues></_>
    <_>
      <internalNodes>
        0 -1 3469 260576016 699800756 -20308809 715955796 -1850143204
        499080061 -745339375 748721196</internalNodes>
      <leafValues>
        -2.1292829513549805e-01 4.8423402011394501e-02</leafValues></_>
    <_>
      <internalNodes>
        0 -1 1440 -219769857 -1615471752 -546088485 -632206115
        -136405096 -103349407 -344474721 -278205953</internalNodes>
      <leafValues>
        -4.6004645526409149e-02 2.2355760633945465e-01</leafValues></_>
    <_>
      <internalNodes>
        0 -1 3201 548024848 -1528755288 -1718607303 -890567786
        -2024996461 -1933238977 559386020 1621431427</internalNodes>
      <leafValues>
        -1.8086603283882141e-01 5.7599432766437531e-02</leafValues></_>
    <_>
      <internalNodes>
        0 -1 872 -388304106 -1888028601 1296988018 -2091903374
        -1561874110 -53052624 -1361892920 -376298583</internalNodes>
      <leafValues>
        -9.3340307474136353e-02 1.1110310256481171e-01</leafValues></_>
    <_>
      <internalNodes>
        0 -1 3897 463407648 1252043264 101339824 135194798 493714746
        572553163 1077928120 1691415969</internalNodes>
      <leafValues>
        -1.9709138572216034e-01 5.2118830382823944e-02</leafValues></_>
    <_>
      <internalNodes>
        0 -1 3219 -938228557 1543314923 180304505 960717833 2058972794
        -31566171 -29496437 -4485561</internalNodes>
      <leafValues>
        -5.2179027348756790e-02 1.9447587430477142e-01</leafValues></_>
    <_>
      <internalNodes>
        0 -1 2303 312870175 -362753602 1801314271 1203660 2101151571
        176176549 636839505 1380110528</internalNodes>
      <leafValues>
        -1.6529506444931030e-01 6.1055891215801239e-02</leafValues></_>
    <_>
      <internalNodes>
        0 -1 1055 -76898320 1996696415 -704874627 -784357035 1281093567
        -823115536 -579856421 -712512985</internalNodes>
      <leafValues>
        -6.8275228142738342e-02 1.5711393952369690e-01</leafValues></_>
    <_>
      <internalNodes>
        0 -1 1859 -1026610413 -1677844462 1696231237 -801432049
        -812202490 -332403930 -12343927 1572003498</internalNodes>
      <leafValues>
        -9.7742587327957153e-02 1.0377943515777588e-01</leafValues></_>
    <_>
      <internalNodes>
        0 -1 3124 -535871468 2138730397 -268551178 1038970732 -620919664
        -1342390405 -1088757554 -104879074</internalNodes>
      <leafValues>
        -7.1026377379894257e-02 1.4824068546295166e-01</leafValues></_>
    <_>
      <internalNodes>
        0 -1 191 1600861712 1077267943 526780376 31868113 5113600
        1095173223 126841088 35668002</internalNodes>
      <leafValues>
        -3.4687024354934692e-01 3.1141649931669235e-02</leafValues></_>
    <_>
      <internalNodes>
        0 -1 2310 -293824033 1602925214 -1225188321 522859403
        -1269263142 -212908992 -1123506749 -591662689</internalNodes>
      <leafValues>
        -6.4304009079933167e-02 1.6385218501091003e-01</leafValues></_>
    <_>
      <internalNodes>
        0 -1 2695 70197794 -1574293593 -1942585151 -905965954 240894743
        -968463321 1430607681 137664260</internalNodes>
      <leafValues>
        -2.1930679678916931e-01 4.8721287399530411e-02</leafValues></_>
    <_>
      <internalNodes>
        0 -1 495 -337643014 744138335 1733127731 -2118038276 -2023106629
        -1209840030 -958280744 -308421889</internalNodes>
      <leafValues>
        -4.4847428798675537e-02 2.3389400541782379e-01</leafValues></_>
    <_>
      <internalNodes>
        0 -1 419 -1537768432 208668382 671100837 1966214464 157290544
        236404784 -1312221325 438435890</internalNodes>
      <leafValues>
        -2.4311128258705139e-01 4.7325339168310165e-02</leafValues></_>
    <_>
      <internalNodes>
        0 -1 408 131497218 320014770 -255442584 -582166030 -1428450577
        -1786875613 584658109 -1835925256</internalNodes>
      <leafValues>
        -1.1321099102497101e-01 9.2728689312934875e-02</leafValues></_>
    <_>
      <internalNodes>
        0 -1 3273 -743058597 -581054729 1016395293 -6320643 402119612
        -916971 -1212758857 -1050642</internalNodes>
      <leafValues>
        -3.9455704391002655e-02 2.6218837499618530e-01</leafValues></_>
    <_>
      <internalNodes>
        0 -1 3376 -1601564346 -284345067 1048120540 -122102529
        1329079152 1011038163 2020872800 706934794</internalNodes>
      <leafValues>
        -1.5506829321384430e-01 6.7880660295486450e-02</leafValues></_>
    <_>
      <internalNodes>
        0 -1 2079 -95719181 1542204112 -1989493643 -541133944
        -1174455318 -539316828 1284252351 -389022566</internalNodes>
      <leafValues>
        -6.0315214097499847e-02 1.7477017641067505e-01</leafValues></_>
    <_>
      <internalNodes>
        0 -1 3935 -596776417 1247723544 -991927917 -1188321542
        1655988432 -2046894012 -515842398 -277053850</internalNodes>
      <leafValues>
        -8.7638452649116516e-02 1.1624478548765182e-01</leafValues></_>
    <_>
      <internalNodes>
        0 -1 3328 -2063857914 236710404 -269222115 2091639960 1126995328
        -1331861809 699453568 969724068</internalNodes>
      <leafValues>
        -1.4892809092998505e-01 7.1040660142898560e-02</leafValues></_>
    <_>
      <internalNodes>
        0 -1 1309 -1592926803 -631948365 -465715207 -1951409166
        -943946702 -92220517 -126022005 -9573651</internalNodes>
      <leafValues>
        -6.2242802232503891e-02 1.6597004234790802e-01</leafValues></_>
    <_>
      <internalNodes>
        0 -1 610 1110052383 272281943 893513726 1556021055 24903940
        246321672 -1967651280 1209434485</internalNodes>
      <leafValues>
        -1.7768251895904541e-01 5.6142762303352356e-02</leafValues></_>
    <_>
      <internalNodes>
        0 -1 415 1092920074 972795110 -609490582 -743069958 1312000794
        -1979662984 1173691154 -2063743800</internalNodes>
      <leafValues>
        -1.1045757681131363e-01 9.3432970345020294e-02</leafValues></_>
    <_>
      <internalNodes>
        0 -1 959 -2005001717 -1831313797 316792358 350945978 -949028966
        -1478404538 -1366111237 205844036</internalNodes>
      <leafValues>
        -1.1522050201892853e-01 8.8041193783283234e-02</leafValues></_>
    <_>
      <internalNodes>
        0 -1 2963 1490529310 -708303027 834203715 -93259498 -784626251
        1745583366 414323130 -630492694</internalNodes>
      <leafValues>
        -8.1198804080486298e-02 1.2846142053604126e-01</leafValues></_>
    <_>
      <internalNodes>
        0 -1 129 -1140301818 52466172 -1846341216 -2147150260 1593246224
        6542880 1665306609 626476614</internalNodes>
      <leafValues>
        -2.4415019154548645e-01 4.3268516659736633e-02</leafValues></_>
    <_>
      <internalNodes>
        0 -1 1188 1396797841 1593577054 -723741737 -784307339
        -1389921747 42271444 -266129315 -1612465688</internalNodes>
      <leafValues>
        -7.0493064820766449e-02 1.4578032493591309e-01</leafValues></_>
    <_>
      <internalNodes>
        0 -1 2834 -896553262 158393363 -996512760 265268262 -684736078
        1225611475 -1966619499 -539870729</internalNodes>
      <leafValues>
        -1.2358880788087845e-01 8.4056228399276733e-02</leafValues></_>
    <_>
      <internalNodes>
        0 -1 1390 -1707075376 969038552 -530262179 420756818 -1569025472
        -1605054215 -1326772556 704720361</internalNodes>
      <leafValues>
        -1.5956825017929077e-01 6.4247719943523407e-02</leafValues></_>
    <_>
      <internalNodes>
        0 -1 1509 -1942596064 1512861554 1603802993 1214100788 587681826
        -811709064 7854018 718183496</internalNodes>
      <leafValues>
        -1.5162165462970734e-01 6.8563632667064667e-02</leafValues></_>
    <_>
      <internalNodes>
        0 -1 3551 -46799918 -752017233 2017121500 -1086865047 -916163725
        1477122439 -1912434932 -207113326</internalNodes>
      <leafValues>
        -5.2614994347095490e-02 2.0035758614540100e-01</leafValues></_>
    <_>
      <internalNodes>
        0 -1 2003 -1433793602 49167911 -1748988405 -1526488870
        1095125302 4535816 1007227039 2007893252</internalNodes>
      <leafValues>
        -1.9890265166759491e-01 5.3179621696472168e-02</leafValues></_>
    <_>
      <internalNodes>
        0 -1 3341 -159406842 1800380312 -1678944456 -1143104293
        1797051709 -1392862358 -1014452266 -1115120471</internalNodes>
      <leafValues>
        -7.9855717718601227e-02 1.3319441676139832e-01</leafValues></_></weakClassifiers></stage18>
</opencv_storage>
