<?xml version="1.0"?>
<opencv_storage>
<stage1>
  <maxWeakCount>28</maxWeakCount>
  <stageThreshold>-2.0060544013977051e+00</stageThreshold>
  <weakClassifiers>
    <_>
      <internalNodes>
        0 -1 791 -1 -71305217 -67109377 -1569 -68157441 687485617
        -1275330561 16470751</internalNodes>
      <leafValues>
        -5.7009047269821167e-01 4.6177524328231812e-01</leafValues></_>
    <_>
      <internalNodes>
        0 -1 323 1405047635 1398735743 -672172037 1939714519 13570303
        469725151 1140790015 1541370843</internalNodes>
      <leafValues>
        -3.8214308023452759e-01 3.0724743008613586e-01</leafValues></_>
    <_>
      <internalNodes>
        0 -1 32 -146800641 1462994295 807550037 1964209425 -273678338
        -2011163644 1358430207 1095845120</internalNodes>
      <leafValues>
        -3.6320400238037109e-01 2.6390922069549561e-01</leafValues></_>
    <_>
      <internalNodes>
        0 -1 3225 -265629616 -220849954 342023231 1351631580 -1526592504
        -121977766 -1425483382 -2013126629</internalNodes>
      <leafValues>
        -2.9130369424819946e-01 2.6439961791038513e-01</leafValues></_>
    <_>
      <internalNodes>
        0 -1 1122 -789446512 -682098671 541071481 353374307 -2113929208
        -114685948 -369083766 -83131733</internalNodes>
      <leafValues>
        -2.0683820545673370e-01 3.4322834014892578e-01</leafValues></_>
    <_>
      <internalNodes>
        0 -1 23 -1043411233 153181189 1328434677 1143034897 28479930
        75637815 1658995131 1936942899</internalNodes>
      <leafValues>
        -3.2785442471504211e-01 2.1569614112377167e-01</leafValues></_>
    <_>
      <internalNodes>
        0 -1 3773 -2122142800 159416464 487997425 501585013 -1950434823
        -1414218600 1834220499 -1717742127</internalNodes>
      <leafValues>
        -3.0654025077819824e-01 2.1861246228218079e-01</leafValues></_>
    <_>
      <internalNodes>
        0 -1 1582 1077134388 497978645 -1950646540 260449372 53216145
        -1657528879 82850064 -937369056</internalNodes>
      <leafValues>
        -3.1408366560935974e-01 2.0853370428085327e-01</leafValues></_>
    <_>
      <internalNodes>
        0 -1 3939 -27278646 7211202 4981270 1342792788 -666185592
        -532670460 -666836230 -78909217</internalNodes>
      <leafValues>
        -2.1666026115417480e-01 2.8814983367919922e-01</leafValues></_>
    <_>
      <internalNodes>
        0 -1 7 -2111657504 -1344164384 -1211380129 -539637950 389276602
        -1141405776 -577251408 -406629312</internalNodes>
      <leafValues>
        -2.5938659906387329e-01 2.4867731332778931e-01</leafValues></_>
    <_>
      <internalNodes>
        0 -1 1444 -1832779584 -210235316 4197471 269484056 -1084618616
        -1101119483 137636863 -1156929026</internalNodes>
      <leafValues>
        -2.6964798569679260e-01 2.2124186158180237e-01</leafValues></_>
    <_>
      <internalNodes>
        0 -1 3689 -595209761 33555631 712029951 859286195 -1153105921
        -1926992515 637580761 159634483</internalNodes>
      <leafValues>
        -2.3931205272674561e-01 2.4106280505657196e-01</leafValues></_>
    <_>
      <internalNodes>
        0 -1 1764 -1870626672 -543942512 777794321 1560622556
        -1974558534 -1901556584 205558778 -1970667384</internalNodes>
      <leafValues>
        -2.3454198241233826e-01 2.4973054230213165e-01</leafValues></_>
    <_>
      <internalNodes>
        0 -1 3399 -2146959216 -620230504 23335645 -1660085219
        -1457512246 -342425351 304760985 -1693777906</internalNodes>
      <leafValues>
        -2.3879316449165344e-01 2.3401534557342529e-01</leafValues></_>
    <_>
      <internalNodes>
        0 -1 3661 1075462168 1415459036 2103934973 1350064247 73141262
        -122233764 -26416370 134374954</internalNodes>
      <leafValues>
        -3.4144416451454163e-01 1.6361579298973083e-01</leafValues></_>
    <_>
      <internalNodes>
        0 -1 270 -71319422 -682000768 2328576 1375068696 -1037070078
        570765380 1110569603 -748948481</internalNodes>
      <leafValues>
        -2.0348174870014191e-01 2.7535885572433472e-01</leafValues></_>
    <_>
      <internalNodes>
        0 -1 2163 1878094711 70417139 -1610776835 1001581888 927298793
        -285773071 1453535368 -531982</internalNodes>
      <leafValues>
        -1.8019692599773407e-01 2.9388412833213806e-01</leafValues></_>
    <_>
      <internalNodes>
        0 -1 3678 -254370600 1507787274 405821279 1494028501 946739400
        -1100475296 146865914 -83149670</internalNodes>
      <leafValues>
        -1.6201452910900116e-01 3.2783564925193787e-01</leafValues></_>
    <_>
      <internalNodes>
        0 -1 95 -806691086 -705660577 -1665147627 159651904 270140851
        368141137 1240662323 161678339</internalNodes>
      <leafValues>
        -3.4626734256744385e-01 1.6345116496086121e-01</leafValues></_>
    <_>
      <internalNodes>
        0 -1 1309 -1389940957 190068786 -1989066899 -1422675081
        -1176567580 -339960519 -1526910335 -923801568</internalNodes>
      <leafValues>
        -2.3061217367649078e-01 2.2735549509525299e-01</leafValues></_>
    <_>
      <internalNodes>
        0 -1 2074 -2147352432 -1680338760 403970591 386011375 -133398520
        -1735063508 -2108155218 402785499</internalNodes>
      <leafValues>
        -3.0458271503448486e-01 1.5658062696456909e-01</leafValues></_>
    <_>
      <internalNodes>
        0 -1 348 -567590784 1477189640 67373730 1543520024 33555008
        1614940241 607150470 839643151</internalNodes>
      <leafValues>
        -3.2928529381752014e-01 1.4822000265121460e-01</leafValues></_>
    <_>
      <internalNodes>
        0 -1 1061 -489700674 286090597 -1078986498 825353457 101554139
        295130613 -237652790 1879360909</internalNodes>
      <leafValues>
        -2.7884939312934875e-01 1.7138502001762390e-01</leafValues></_>
    <_>
      <internalNodes>
        0 -1 3024 -249902960 -137224584 607133695 496834012 -1700222276
        -1172567992 -58155270 -1081468856</internalNodes>
      <leafValues>
        -1.8887467682361603e-01 2.6006269454956055e-01</leafValues></_>
    <_>
      <internalNodes>
        0 -1 3652 -1845329744 -819429216 358962259 -10545939 -1369789268
        -1429683572 278147263 453181568</internalNodes>
      <leafValues>
        -2.4091807007789612e-01 1.9557790458202362e-01</leafValues></_>
    <_>
      <internalNodes>
        0 -1 374 -94448801 -248668462 610927839 4822106 1080305696
        -11528650 737433530 -1972485285</internalNodes>
      <leafValues>
        -1.9214546680450439e-01 2.4195405840873718e-01</leafValues></_>
    <_>
      <internalNodes>
        0 -1 1668 -487067881 278278081 -47276623 -318589041 -135323081
        -68013399 -1731200625 -370082493</internalNodes>
      <leafValues>
        -1.6445715725421906e-01 2.8417548537254333e-01</leafValues></_>
    <_>
      <internalNodes>
        0 -1 197 -788545661 1362548651 1573976053 -201458213 367318926
        282329375 1171080525 1334263948</internalNodes>
      <leafValues>
        -2.3745872080326080e-01 1.9657355546951294e-01</leafValues></_></weakClassifiers></stage1>
</opencv_storage>
