<?xml version="1.0"?>
<opencv_storage>
<cascade>
  <stageType>BOOST</stageType>
  <featureType>HAAR</featureType>
  <height>20</height>
  <width>20</width>
  <stageParams>
    <boostType>GAB</boostType>
    <minHitRate>9.9900001287460327e-01</minHitRate>
    <maxFalseAlarm>5.0000000000000000e-01</maxFalseAlarm>
    <weightTrimRate>9.4999999999999996e-01</weightTrimRate>
    <maxDepth>1</maxDepth>
    <maxWeakCount>200</maxWeakCount></stageParams>
  <featureParams>
    <maxCatCount>0</maxCatCount>
    <featSize>1</featSize>
    <mode>ALL</mode></featureParams>
  <stageNum>1</stageNum>
  <stages>
    <!-- stage 0 -->
    <_>
      <maxWeakCount>10</maxWeakCount>
      <stageThreshold>-1.7709255218505859e+00</stageThreshold>
      <weakClassifiers>
        <_>
          <internalNodes>
            0 -1 2 -1.0414039343595505e-01</internalNodes>
          <leafValues>
            7.3462873697280884e-01 -6.8675702810287476e-01</leafValues></_>
        <_>
          <internalNodes>
            0 -1 0 -7.1848463267087936e-03</internalNodes>
          <leafValues>
            3.4746888279914856e-01 -6.9486534595489502e-01</leafValues></_>
        <_>
          <internalNodes>
            0 -1 4 -9.6172671765089035e-03</internalNodes>
          <leafValues>
            2.9220151901245117e-01 -7.2653567790985107e-01</leafValues></_>
        <_>
          <internalNodes>
            0 -1 3 7.9492598772048950e-02</internalNodes>
          <leafValues>
            2.3255528509616852e-01 -8.2397764921188354e-01</leafValues></_>
        <_>
          <internalNodes>
            0 -1 1 -2.5258202105760574e-02</internalNodes>
          <leafValues>
            7.0738923549652100e-01 -2.4951957166194916e-01</leafValues></_>
        <_>
          <internalNodes>
            0 -1 7 -1.0491449385881424e-02</internalNodes>
          <leafValues>
            6.1230665445327759e-01 -2.4680803716182709e-01</leafValues></_>
        <_>
          <internalNodes>
            0 -1 9 1.3945790669822600e-05</internalNodes>
          <leafValues>
            -3.0191853642463684e-01 4.2603811621665955e-01</leafValues></_>
        <_>
          <internalNodes>
            0 -1 6 6.4310282468795776e-03</internalNodes>
          <leafValues>
            1.4207042753696442e-01 -8.2590663433074951e-01</leafValues></_>
        <_>
          <internalNodes>
            0 -1 8 9.1781876981258392e-03</internalNodes>
          <leafValues>
            -1.8651868402957916e-01 8.0222201347351074e-01</leafValues></_>
        <_>
          <internalNodes>
            0 -1 5 2.0850820001214743e-03</internalNodes>
          <leafValues>
            2.1941502392292023e-01 -6.4969909191131592e-01</leafValues></_></weakClassifiers></_></stages>
  <features>
    <_>
      <rects>
        <_>
          1 5 12 9 -1.</_>
        <_>
          5 8 4 3 9.</_></rects>
      <tilted>0</tilted></_>
    <_>
      <rects>
        <_>
          2 2 12 6 -1.</_>
        <_>
          2 4 12 2 3.</_></rects>
      <tilted>0</tilted></_>
    <_>
      <rects>
        <_>
          3 0 14 18 -1.</_>
        <_>
          3 6 14 6 3.</_></rects>
      <tilted>0</tilted></_>
    <_>
      <rects>
        <_>
          7 0 6 20 -1.</_>
        <_>
          7 10 6 10 2.</_></rects>
      <tilted>0</tilted></_>
    <_>
      <rects>
        <_>
          7 5 12 9 -1.</_>
        <_>
          11 8 4 3 9.</_></rects>
      <tilted>0</tilted></_>
    <_>
      <rects>
        <_>
          7 11 3 3 -1.</_>
        <_>
          8 12 1 1 9.</_></rects>
      <tilted>0</tilted></_>
    <_>
      <rects>
        <_>
          8 8 3 6 -1.</_>
        <_>
          9 10 1 2 9.</_></rects>
      <tilted>0</tilted></_>
    <_>
      <rects>
        <_>
          9 0 3 6 -1.</_>
        <_>
          9 2 3 2 3.</_></rects>
      <tilted>0</tilted></_>
    <_>
      <rects>
        <_>
          9 1 4 4 -1.</_>
        <_>
          9 2 4 2 2.</_></rects>
      <tilted>0</tilted></_>
    <_>
      <rects>
        <_>
          9 9 2 2 -1.</_>
        <_>
          9 10 2 1 2.</_></rects>
      <tilted>0</tilted></_></features></cascade>
</opencv_storage>
