<?xml version="1.0"?>
<opencv_storage>
<stage3>
  <maxWeakCount>24</maxWeakCount>
  <stageThreshold>-1.8454477787017822e+00</stageThreshold>
  <weakClassifiers>
    <_>
      <internalNodes>
        0 -1 35218 2.6630288630258292e-05</internalNodes>
      <leafValues>
        -6.2860190868377686e-01 4.0994668006896973e-01</leafValues></_>
    <_>
      <internalNodes>
        0 -1 5259 -2.7253452688455582e-02</internalNodes>
      <leafValues>
        3.9149245619773865e-01 -4.2568358778953552e-01</leafValues></_>
    <_>
      <internalNodes>
        0 -1 117265 -2.1282697562128305e-03</internalNodes>
      <leafValues>
        4.3230989575386047e-01 -2.9952171444892883e-01</leafValues></_>
    <_>
      <internalNodes>
        0 -1 56397 -9.6721826121211052e-03</internalNodes>
      <leafValues>
        3.0098995566368103e-01 -4.5532971620559692e-01</leafValues></_>
    <_>
      <internalNodes>
        0 -1 88251 -1.6869653481990099e-03</internalNodes>
      <leafValues>
        5.1691752672195435e-01 -2.2633884847164154e-01</leafValues></_>
    <_>
      <internalNodes>
        0 -1 16554 -2.3901276290416718e-03</internalNodes>
      <leafValues>
        4.7352936863899231e-01 -2.2210639715194702e-01</leafValues></_>
    <_>
      <internalNodes>
        0 -1 87610 -2.2793128155171871e-03</internalNodes>
      <leafValues>
        5.9278076887130737e-01 -1.5675510466098785e-01</leafValues></_>
    <_>
      <internalNodes>
        0 -1 113031 -4.9076258437708020e-04</internalNodes>
      <leafValues>
        2.0835337042808533e-01 -4.9303072690963745e-01</leafValues></_>
    <_>
      <internalNodes>
        0 -1 82228 -3.4476909786462784e-03</internalNodes>
      <leafValues>
        4.9144929647445679e-01 -1.8193563818931580e-01</leafValues></_>
    <_>
      <internalNodes>
        0 -1 86932 -2.0564976148307323e-03</internalNodes>
      <leafValues>
        5.6037515401840210e-01 -1.3335664570331573e-01</leafValues></_>
    <_>
      <internalNodes>
        0 -1 124530 -3.0756541527807713e-03</internalNodes>
      <leafValues>
        5.7096642255783081e-01 -1.1496440321207047e-01</leafValues></_>
    <_>
      <internalNodes>
        0 -1 97938 -3.1891667749732733e-03</internalNodes>
      <leafValues>
        -6.7202854156494141e-01 9.8127789795398712e-02</leafValues></_>
    <_>
      <internalNodes>
        0 -1 78049 4.1622261051088572e-05</internalNodes>
      <leafValues>
        -3.1111016869544983e-01 2.3223443329334259e-01</leafValues></_>
    <_>
      <internalNodes>
        0 -1 72696 -1.2362609803676605e-01</internalNodes>
      <leafValues>
        -6.3223087787628174e-01 1.4090202748775482e-01</leafValues></_>
    <_>
      <internalNodes>
        0 -1 123281 -5.7506719604134560e-03</internalNodes>
      <leafValues>
        4.2732596397399902e-01 -1.8129684031009674e-01</leafValues></_>
    <_>
      <internalNodes>
        0 -1 123350 2.9281564056873322e-03</internalNodes>
      <leafValues>
        -1.0786158591508865e-01 5.4333972930908203e-01</leafValues></_>
    <_>
      <internalNodes>
        0 -1 77834 1.0610171593725681e-03</internalNodes>
      <leafValues>
        1.0849154740571976e-01 -6.2657552957534790e-01</leafValues></_>
    <_>
      <internalNodes>
        0 -1 53483 2.3216005414724350e-02</internalNodes>
      <leafValues>
        6.0017161071300507e-02 -7.3589241504669189e-01</leafValues></_>
    <_>
      <internalNodes>
        0 -1 17459 2.5646616704761982e-03</internalNodes>
      <leafValues>
        -1.2250076979398727e-01 5.2662396430969238e-01</leafValues></_>
    <_>
      <internalNodes>
        0 -1 102741 -7.6999478042125702e-03</internalNodes>
      <leafValues>
        2.5772276520729065e-01 -2.1487201750278473e-01</leafValues></_>
    <_>
      <internalNodes>
        0 -1 62609 2.4677282199263573e-03</internalNodes>
      <leafValues>
        1.0102282464504242e-01 -5.5678761005401611e-01</leafValues></_>
    <_>
      <internalNodes>
        0 -1 41593 -6.5849847160279751e-03</internalNodes>
      <leafValues>
        5.0448840856552124e-01 -1.1559912562370300e-01</leafValues></_>
    <_>
      <internalNodes>
        0 -1 31615 -3.7192972376942635e-03</internalNodes>
      <leafValues>
        3.9674904942512512e-01 -1.2579500675201416e-01</leafValues></_>
    <_>
      <internalNodes>
        0 -1 8360 2.9233819805085659e-03</internalNodes>
      <leafValues>
        -7.9290941357612610e-02 5.6294870376586914e-01</leafValues></_></weakClassifiers></stage3>
</opencv_storage>
