<?xml version="1.0"?>
<opencv_storage>
<stage12>
  <maxWeakCount>100</maxWeakCount>
  <stageThreshold>-1.6774964332580566e+00</stageThreshold>
  <weakClassifiers>
    <_>
      <internalNodes>
        0 -1 85622 4.2573585233185440e-05</internalNodes>
      <leafValues>
        -7.8501552343368530e-02 2.9824560880661011e-01</leafValues></_>
    <_>
      <internalNodes>
        0 -1 21379 -1.4107836410403252e-02</internalNodes>
      <leafValues>
        1.4101560413837433e-01 -2.2851891815662384e-01</leafValues></_>
    <_>
      <internalNodes>
        0 -1 123350 4.1205538436770439e-03</internalNodes>
      <leafValues>
        -7.9220615327358246e-02 3.2913869619369507e-01</leafValues></_>
    <_>
      <internalNodes>
        0 -1 123300 -4.2597735300660133e-03</internalNodes>
      <leafValues>
        2.6914507150650024e-01 -1.3333845138549805e-01</leafValues></_>
    <_>
      <internalNodes>
        0 -1 71831 3.2013945747166872e-04</internalNodes>
      <leafValues>
        9.4373889267444611e-02 -2.6203531026840210e-01</leafValues></_>
    <_>
      <internalNodes>
        0 -1 29818 -6.7801950499415398e-03</internalNodes>
      <leafValues>
        2.7987027168273926e-01 -7.0317804813385010e-02</leafValues></_>
    <_>
      <internalNodes>
        0 -1 70966 4.4954993063583970e-04</internalNodes>
      <leafValues>
        4.1919231414794922e-02 -4.1830387711524963e-01</leafValues></_>
    <_>
      <internalNodes>
        0 -1 26078 -2.4271036090794951e-04</internalNodes>
      <leafValues>
        1.3201916217803955e-01 -1.7224030196666718e-01</leafValues></_>
    <_>
      <internalNodes>
        0 -1 73638 -1.5377996023744345e-03</internalNodes>
      <leafValues>
        2.1632710099220276e-01 -1.1385741829872131e-01</leafValues></_>
    <_>
      <internalNodes>
        0 -1 72890 -3.9975717663764954e-03</internalNodes>
      <leafValues>
        3.6513099074363708e-01 -4.3200258165597916e-02</leafValues></_>
    <_>
      <internalNodes>
        0 -1 98214 3.9277241739910096e-05</internalNodes>
      <leafValues>
        -1.2613064050674438e-01 1.7474818229675293e-01</leafValues></_>
    <_>
      <internalNodes>
        0 -1 108942 -1.6355591360479593e-03</internalNodes>
      <leafValues>
        1.0526594519615173e-01 -2.0422574877738953e-01</leafValues></_>
    <_>
      <internalNodes>
        0 -1 72094 -3.3179000020027161e-03</internalNodes>
      <leafValues>
        3.0171486735343933e-01 -7.7912800014019012e-02</leafValues></_>
    <_>
      <internalNodes>
        0 -1 92317 -9.2239528894424438e-03</internalNodes>
      <leafValues>
        1.6634115576744080e-01 -1.2068553268909454e-01</leafValues></_>
    <_>
      <internalNodes>
        0 -1 68161 5.7774083688855171e-03</internalNodes>
      <leafValues>
        3.3625636249780655e-02 -5.3012716770172119e-01</leafValues></_>
    <_>
      <internalNodes>
        0 -1 84172 3.7976301973685622e-04</internalNodes>
      <leafValues>
        -8.6142376065254211e-02 2.3498186469078064e-01</leafValues></_>
    <_>
      <internalNodes>
        0 -1 73111 3.6080174148082733e-02</internalNodes>
      <leafValues>
        4.3546762317419052e-02 -5.3464370965957642e-01</leafValues></_>
    <_>
      <internalNodes>
        0 -1 83159 2.8756866231560707e-04</internalNodes>
      <leafValues>
        -9.4806611537933350e-02 1.9221948087215424e-01</leafValues></_>
    <_>
      <internalNodes>
        0 -1 61195 -7.8700799494981766e-03</internalNodes>
      <leafValues>
        -3.1446179747581482e-01 8.1219069659709930e-02</leafValues></_>
    <_>
      <internalNodes>
        0 -1 79885 4.4744141632691026e-04</internalNodes>
      <leafValues>
        5.1293555647134781e-02 -3.1420516967773438e-01</leafValues></_>
    <_>
      <internalNodes>
        0 -1 2813 -1.3850913383066654e-02</internalNodes>
      <leafValues>
        3.0949580669403076e-01 -5.7927221059799194e-02</leafValues></_>
    <_>
      <internalNodes>
        0 -1 9049 2.5379951111972332e-03</internalNodes>
      <leafValues>
        -6.2303606420755386e-02 2.7064108848571777e-01</leafValues></_>
    <_>
      <internalNodes>
        0 -1 3804 -2.7276197075843811e-01</internalNodes>
      <leafValues>
        -7.7010786533355713e-01 2.1718919277191162e-02</leafValues></_>
    <_>
      <internalNodes>
        0 -1 84633 2.5919019244611263e-03</internalNodes>
      <leafValues>
        2.7918040752410889e-02 -5.3529673814773560e-01</leafValues></_>
    <_>
      <internalNodes>
        0 -1 103367 3.0921160941943526e-04</internalNodes>
      <leafValues>
        -7.6248668134212494e-02 2.4676857888698578e-01</leafValues></_>
    <_>
      <internalNodes>
        0 -1 96996 6.2931689899414778e-04</internalNodes>
      <leafValues>
        -1.0663776844739914e-01 1.9889195263385773e-01</leafValues></_>
    <_>
      <internalNodes>
        0 -1 5075 -5.8901088777929544e-04</internalNodes>
      <leafValues>
        1.8377909064292908e-01 -8.4484115242958069e-02</leafValues></_>
    <_>
      <internalNodes>
        0 -1 108684 5.0743512110784650e-04</internalNodes>
      <leafValues>
        4.5116420835256577e-02 -3.2198998332023621e-01</leafValues></_>
    <_>
      <internalNodes>
        0 -1 124139 -6.5076602622866631e-03</internalNodes>
      <leafValues>
        3.5598674416542053e-01 -4.8296310007572174e-02</leafValues></_>
    <_>
      <internalNodes>
        0 -1 123552 -4.7145877033472061e-04</internalNodes>
      <leafValues>
        -2.6202431321144104e-01 6.4265057444572449e-02</leafValues></_>
    <_>
      <internalNodes>
        0 -1 118371 -1.9286229507997632e-04</internalNodes>
      <leafValues>
        -1.9927065074443817e-01 1.0228723287582397e-01</leafValues></_>
    <_>
      <internalNodes>
        0 -1 18649 -1.3960620760917664e-01</internalNodes>
      <leafValues>
        -6.0929346084594727e-01 2.9500596225261688e-02</leafValues></_>
    <_>
      <internalNodes>
        0 -1 114624 3.4156297333538532e-03</internalNodes>
      <leafValues>
        -5.6732531636953354e-02 3.3357304334640503e-01</leafValues></_>
    <_>
      <internalNodes>
        0 -1 84087 -1.2730048038065434e-02</internalNodes>
      <leafValues>
        1.4515508711338043e-01 -1.2431441247463226e-01</leafValues></_>
    <_>
      <internalNodes>
        0 -1 79621 4.3701223330572248e-04</internalNodes>
      <leafValues>
        6.9413110613822937e-02 -2.5625780224800110e-01</leafValues></_>
    <_>
      <internalNodes>
        0 -1 63859 3.9152735844254494e-03</internalNodes>
      <leafValues>
        -8.9221902191638947e-02 2.1181274950504303e-01</leafValues></_>
    <_>
      <internalNodes>
        0 -1 67239 1.9512739032506943e-02</internalNodes>
      <leafValues>
        3.6887377500534058e-02 -4.8144319653511047e-01</leafValues></_>
    <_>
      <internalNodes>
        0 -1 106982 -1.6560747753828764e-03</internalNodes>
      <leafValues>
        2.1152032911777496e-01 -8.1747494637966156e-02</leafValues></_>
    <_>
      <internalNodes>
        0 -1 5087 -3.1257267110049725e-03</internalNodes>
      <leafValues>
        2.4184398353099823e-01 -6.7387677729129791e-02</leafValues></_>
    <_>
      <internalNodes>
        0 -1 86002 -1.6599462833255529e-04</internalNodes>
      <leafValues>
        -2.1668152511119843e-01 7.4293978512287140e-02</leafValues></_>
    <_>
      <internalNodes>
        0 -1 70285 1.3945790669822600e-05</internalNodes>
      <leafValues>
        -1.1265218257904053e-01 1.4967447519302368e-01</leafValues></_>
    <_>
      <internalNodes>
        0 -1 22025 -1.8163009081035852e-03</internalNodes>
      <leafValues>
        2.8569230437278748e-01 -5.7274371385574341e-02</leafValues></_>
    <_>
      <internalNodes>
        0 -1 70645 2.6221942971460521e-04</internalNodes>
      <leafValues>
        7.9715184867382050e-02 -2.1343658864498138e-01</leafValues></_>
    <_>
      <internalNodes>
        0 -1 55001 -3.8068606518208981e-03</internalNodes>
      <leafValues>
        2.3341596126556396e-01 -7.4014477431774139e-02</leafValues></_>
    <_>
      <internalNodes>
        0 -1 71685 1.1971280036959797e-04</internalNodes>
      <leafValues>
        8.1776425242424011e-02 -2.0323321223258972e-01</leafValues></_>
    <_>
      <internalNodes>
        0 -1 78732 -1.2716816272586584e-03</internalNodes>
      <leafValues>
        9.5562182366847992e-02 -1.6965387761592865e-01</leafValues></_>
    <_>
      <internalNodes>
        0 -1 85998 5.0499424105510116e-04</internalNodes>
      <leafValues>
        4.7883141785860062e-02 -3.5708379745483398e-01</leafValues></_>
    <_>
      <internalNodes>
        0 -1 68451 -8.6256843060255051e-03</internalNodes>
      <leafValues>
        1.1971495300531387e-01 -1.7221386730670929e-01</leafValues></_>
    <_>
      <internalNodes>
        0 -1 95011 -1.4262489276006818e-03</internalNodes>
      <leafValues>
        1.7713239789009094e-01 -9.6346423029899597e-02</leafValues></_>
    <_>
      <internalNodes>
        0 -1 82335 1.4224005863070488e-03</internalNodes>
      <leafValues>
        6.4336143434047699e-02 -2.7483344078063965e-01</leafValues></_>
    <_>
      <internalNodes>
        0 -1 103433 1.3634977862238884e-02</internalNodes>
      <leafValues>
        -3.6213852465152740e-02 4.8658195137977600e-01</leafValues></_>
    <_>
      <internalNodes>
        0 -1 113814 -5.3662862628698349e-03</internalNodes>
      <leafValues>
        1.2555535137653351e-01 -1.2627460062503815e-01</leafValues></_>
    <_>
      <internalNodes>
        0 -1 50383 -1.8252885201945901e-03</internalNodes>
      <leafValues>
        1.5024702250957489e-01 -1.0868011415004730e-01</leafValues></_>
    <_>
      <internalNodes>
        0 -1 122614 -1.6476567834615707e-03</internalNodes>
      <leafValues>
        1.8364706635475159e-01 -8.2119815051555634e-02</leafValues></_>
    <_>
      <internalNodes>
        0 -1 98529 -3.9874116191640496e-04</internalNodes>
      <leafValues>
        -4.5349779725074768e-01 3.5102304071187973e-02</leafValues></_>
    <_>
      <internalNodes>
        0 -1 110862 -1.3036411255598068e-03</internalNodes>
      <leafValues>
        1.9846981763839722e-01 -7.5744800269603729e-02</leafValues></_>
    <_>
      <internalNodes>
        0 -1 62958 -2.3470263113267720e-04</internalNodes>
      <leafValues>
        -1.9548086822032928e-01 7.3638387024402618e-02</leafValues></_>
    <_>
      <internalNodes>
        0 -1 63730 -7.1462215855717659e-03</internalNodes>
      <leafValues>
        2.5851523876190186e-01 -6.0304369777441025e-02</leafValues></_>
    <_>
      <internalNodes>
        0 -1 54493 7.8623974695801735e-04</internalNodes>
      <leafValues>
        6.3990719616413116e-02 -2.4039129912853241e-01</leafValues></_>
    <_>
      <internalNodes>
        0 -1 63262 -4.5247781090438366e-03</internalNodes>
      <leafValues>
        4.7260195016860962e-01 -3.5377074033021927e-02</leafValues></_>
    <_>
      <internalNodes>
        0 -1 84624 -2.0233662507962435e-04</internalNodes>
      <leafValues>
        2.3374515771865845e-01 -6.3285224139690399e-02</leafValues></_>
    <_>
      <internalNodes>
        0 -1 116253 -7.7381741721183062e-04</internalNodes>
      <leafValues>
        1.2786826491355896e-01 -1.1618168652057648e-01</leafValues></_>
    <_>
      <internalNodes>
        0 -1 85999 -5.8875553077086806e-04</internalNodes>
      <leafValues>
        -3.4079638123512268e-01 4.3873552232980728e-02</leafValues></_>
    <_>
      <internalNodes>
        0 -1 78714 -1.8397076055407524e-03</internalNodes>
      <leafValues>
        1.3659371435642242e-01 -1.1545626819133759e-01</leafValues></_>
    <_>
      <internalNodes>
        0 -1 106538 -1.0450694244354963e-03</internalNodes>
      <leafValues>
        1.7973206937313080e-01 -8.4829136729240417e-02</leafValues></_>
    <_>
      <internalNodes>
        0 -1 124924 1.7434742767363787e-04</internalNodes>
      <leafValues>
        9.1421924531459808e-02 -1.6593232750892639e-01</leafValues></_>
    <_>
      <internalNodes>
        0 -1 102626 -6.5362616442143917e-04</internalNodes>
      <leafValues>
        1.6965372860431671e-01 -8.7849996984004974e-02</leafValues></_>
    <_>
      <internalNodes>
        0 -1 93594 -2.0516049698926508e-04</internalNodes>
      <leafValues>
        -2.3400592803955078e-01 6.6120535135269165e-02</leafValues></_>
    <_>
      <internalNodes>
        0 -1 84624 1.5289918519556522e-04</internalNodes>
      <leafValues>
        -7.6809264719486237e-02 2.0266571640968323e-01</leafValues></_>
    <_>
      <internalNodes>
        0 -1 62603 -1.5678766067139804e-04</internalNodes>
      <leafValues>
        -3.0628255009651184e-01 4.8175647854804993e-02</leafValues></_>
    <_>
      <internalNodes>
        0 -1 21756 3.0646327883005142e-02</internalNodes>
      <leafValues>
        -6.7485503852367401e-02 2.2322532534599304e-01</leafValues></_>
    <_>
      <internalNodes>
        0 -1 115592 6.9817425683140755e-03</internalNodes>
      <leafValues>
        -3.0950123444199562e-02 4.8621690273284912e-01</leafValues></_>
    <_>
      <internalNodes>
        0 -1 36165 -3.3996919228229672e-05</internalNodes>
      <leafValues>
        1.0969863831996918e-01 -1.3416831195354462e-01</leafValues></_>
    <_>
      <internalNodes>
        0 -1 7062 1.3090778375044465e-03</internalNodes>
      <leafValues>
        -8.5094772279262543e-02 1.7704519629478455e-01</leafValues></_>
    <_>
      <internalNodes>
        0 -1 63506 1.6488891560584307e-04</internalNodes>
      <leafValues>
        6.5065555274486542e-02 -2.2185285389423370e-01</leafValues></_>
    <_>
      <internalNodes>
        0 -1 63493 3.5173855721950531e-03</internalNodes>
      <leafValues>
        -8.8363729417324066e-02 1.6794665157794952e-01</leafValues></_>
    <_>
      <internalNodes>
        0 -1 109936 8.3044933853670955e-04</internalNodes>
      <leafValues>
        8.2233004271984100e-02 -2.1619924902915955e-01</leafValues></_>
    <_>
      <internalNodes>
        0 -1 5213 9.2431483790278435e-04</internalNodes>
      <leafValues>
        -9.2250958085060120e-02 1.6576850414276123e-01</leafValues></_>
    <_>
      <internalNodes>
        0 -1 5 -6.1156647279858589e-04</internalNodes>
      <leafValues>
        -1.9628818333148956e-01 7.3400609195232391e-02</leafValues></_>
    <_>
      <internalNodes>
        0 -1 7110 1.7473648767918348e-03</internalNodes>
      <leafValues>
        -7.7603109180927277e-02 1.8610578775405884e-01</leafValues></_>
    <_>
      <internalNodes>
        0 -1 80484 -1.1547590605914593e-02</internalNodes>
      <leafValues>
        8.7933458387851715e-02 -1.6979420185089111e-01</leafValues></_>
    <_>
      <internalNodes>
        0 -1 51191 -4.1384985670447350e-03</internalNodes>
      <leafValues>
        2.7551606297492981e-01 -5.3619019687175751e-02</leafValues></_>
    <_>
      <internalNodes>
        0 -1 7735 -1.9978273194283247e-03</internalNodes>
      <leafValues>
        1.6921512782573700e-01 -7.9629525542259216e-02</leafValues></_>
    <_>
      <internalNodes>
        0 -1 1 6.2662968412041664e-04</internalNodes>
      <leafValues>
        5.4098721593618393e-02 -2.5796318054199219e-01</leafValues></_>
    <_>
      <internalNodes>
        0 -1 123855 -1.3298034667968750e-02</internalNodes>
      <leafValues>
        2.2439514100551605e-01 -6.2903232872486115e-02</leafValues></_>
    <_>
      <internalNodes>
        0 -1 20668 -3.4378558397293091e-01</internalNodes>
      <leafValues>
        8.2007789611816406e-01 -1.6740204766392708e-02</leafValues></_>
    <_>
      <internalNodes>
        0 -1 53781 3.1909705139696598e-03</internalNodes>
      <leafValues>
        3.0586469918489456e-02 -5.4442030191421509e-01</leafValues></_>
    <_>
      <internalNodes>
        0 -1 105754 1.0568054392933846e-02</internalNodes>
      <leafValues>
        -4.0589891374111176e-02 3.6813145875930786e-01</leafValues></_>
    <_>
      <internalNodes>
        0 -1 2742 -6.8688452243804932e-01</internalNodes>
      <leafValues>
        4.6112415194511414e-01 -2.8717909008264542e-02</leafValues></_>
    <_>
      <internalNodes>
        0 -1 123380 -6.7483959719538689e-03</internalNodes>
      <leafValues>
        2.1271176636219025e-01 -7.2954453527927399e-02</leafValues></_>
    <_>
      <internalNodes>
        0 -1 29141 -2.3187048733234406e-02</internalNodes>
      <leafValues>
        3.4257212281227112e-01 -3.7737727165222168e-02</leafValues></_>
    <_>
      <internalNodes>
        0 -1 99320 -1.8706094124354422e-05</internalNodes>
      <leafValues>
        1.0389117151498795e-01 -1.3623853027820587e-01</leafValues></_>
    <_>
      <internalNodes>
        0 -1 78983 -4.0723447455093265e-04</internalNodes>
      <leafValues>
        -2.2426019608974457e-01 5.8645077049732208e-02</leafValues></_>
    <_>
      <internalNodes>
        0 -1 54859 5.8157946914434433e-03</internalNodes>
      <leafValues>
        -3.2912418246269226e-02 4.9477064609527588e-01</leafValues></_>
    <_>
      <internalNodes>
        0 -1 86237 1.3945790669822600e-05</internalNodes>
      <leafValues>
        -9.6610069274902344e-02 1.5096604824066162e-01</leafValues></_>
    <_>
      <internalNodes>
        0 -1 124934 -5.1588742062449455e-03</internalNodes>
      <leafValues>
        8.1383541226387024e-02 -1.7534771561622620e-01</leafValues></_>
    <_>
      <internalNodes>
        0 -1 71080 -1.6910039121285081e-03</internalNodes>
      <leafValues>
        1.0872399806976318e-01 -1.4377380907535553e-01</leafValues></_>
    <_>
      <internalNodes>
        0 -1 104861 -2.0519911777228117e-04</internalNodes>
      <leafValues>
        -3.1337487697601318e-01 4.7436747699975967e-02</leafValues></_>
    <_>
      <internalNodes>
        0 -1 106642 -5.5168173275887966e-04</internalNodes>
      <leafValues>
        1.6801142692565918e-01 -9.6900925040245056e-02</leafValues></_>
    <_>
      <internalNodes>
        0 -1 90136 2.9735229327343404e-04</internalNodes>
      <leafValues>
        -8.2582585513591766e-02 1.7053417861461639e-01</leafValues></_></weakClassifiers></stage12>
</opencv_storage>
