<?xml version="1.0"?>
<opencv_storage>
<stage16>
  <maxWeakCount>17</maxWeakCount>
  <stageThreshold>-1.3446338176727295e+00</stageThreshold>
  <weakClassifiers>
    <_>
      <internalNodes>
        0 -1 2063 1078936627 1566215277 -1813483501 1501711369 144704642
        -624809503 -2034469114 -1077153717</internalNodes>
      <leafValues>
        -2.6700848340988159e-01 6.3470983505249023e-01</leafValues></_>
    <_>
      <internalNodes>
        0 -1 3661 -2100559856 923829350 -1515443137 2031305218 601147092
        -864205447 -2145367879 -1383497639</internalNodes>
      <leafValues>
        -3.7495079636573792e-01 4.5435461401939392e-01</leafValues></_>
    <_>
      <internalNodes>
        0 -1 1982 -553169277 437911809 -482622185 1329922071 -2147465039
        -1467940663 -1434277193 -12848365</internalNodes>
      <leafValues>
        -2.2484999895095825e-01 7.1790325641632080e-01</leafValues></_>
    <_>
      <internalNodes>
        0 -1 916 1208633742 160366605 197397772 252838681 -1023236824
        202014856 88090120 -1986331603</internalNodes>
      <leafValues>
        -4.2372244596481323e-01 3.9333158731460571e-01</leafValues></_>
    <_>
      <internalNodes>
        0 -1 2970 -2118434813 7083522 137519107 1766002882 832610826
        -1993309934 -1999656150 -335891733</internalNodes>
      <leafValues>
        -3.2138976454734802e-01 5.2934658527374268e-01</leafValues></_>
    <_>
      <internalNodes>
        0 -1 2541 -249308094 1080451586 1326563963 -1086105549
        -1844211584 -1542829038 193101998 -883244739</internalNodes>
      <leafValues>
        -2.8344017267227173e-01 5.2554935216903687e-01</leafValues></_>
    <_>
      <internalNodes>
        0 -1 114 -402093904 -1189038672 -2111805640 -1384972032
        -1056964471 -2056776384 211107482 -1962720997</internalNodes>
      <leafValues>
        -3.0666309595108032e-01 5.1855486631393433e-01</leafValues></_>
    <_>
      <internalNodes>
        0 -1 2091 103376983 -2111241670 911644437 732110192 -1937792768
        -11764112 -1642843112 -764719085</internalNodes>
      <leafValues>
        -3.4913286566734314e-01 4.8803144693374634e-01</leafValues></_>
    <_>
      <internalNodes>
        0 -1 3726 1938944659 285294595 288891778 319423509 -1035689406
        1275203657 -1879039438 1645068299</internalNodes>
      <leafValues>
        -3.1056854128837585e-01 5.2559387683868408e-01</leafValues></_>
    <_>
      <internalNodes>
        0 -1 3777 -2145386352 48180758 -1426445353 -1244354187 70792961
        -557515036 74589952 -1348029342</internalNodes>
      <leafValues>
        -3.9539232850074768e-01 4.3523502349853516e-01</leafValues></_>
    <_>
      <internalNodes>
        0 -1 1508 -62033480 -1924030446 -2068669963 595980628 878735741
        -1544411688 -1290763122 -1527577402</internalNodes>
      <leafValues>
        -3.4598800539970398e-01 5.0573652982711792e-01</leafValues></_>
    <_>
      <internalNodes>
        0 -1 2946 -2093049334 -1073594348 36849943 -1838964600
        -2145779174 -1593376687 -1560239877 -340808966</internalNodes>
      <leafValues>
        -2.6800900697708130e-01 6.3587576150894165e-01</leafValues></_>
    <_>
      <internalNodes>
        0 -1 1336 -1524514415 -1574502006 -1973884034 -953023487
        69337125 279003265 184683170 2139284815</internalNodes>
      <leafValues>
        -3.3942949771881104e-01 5.0787907838821411e-01</leafValues></_>
    <_>
      <internalNodes>
        0 -1 3968 -1599708512 -1999864273 799747604 -1810876892
        -723246844 -1401653428 511508646 -301062646</internalNodes>
      <leafValues>
        -3.6922731995582581e-01 4.8915624618530273e-01</leafValues></_>
    <_>
      <internalNodes>
        0 -1 3880 -803536880 -805031661 -1496839651 882901012 1100104858
        25519376 545408042 -653580550</internalNodes>
      <leafValues>
        -3.5833656787872314e-01 4.9579542875289917e-01</leafValues></_>
    <_>
      <internalNodes>
        0 -1 2271 -1047559677 -1197169071 -1539243644 -268103662
        -1551202679 -660465951 -2129272104 -621834598</internalNodes>
      <leafValues>
        -2.6100561022758484e-01 6.8395364284515381e-01</leafValues></_>
    <_>
      <internalNodes>
        0 -1 1343 74424 -2062282370 1222651440 1436304182 550405257
        147081488 -1194096440 -1218562661</internalNodes>
      <leafValues>
        -2.7913278341293335e-01 5.6769925355911255e-01</leafValues></_></weakClassifiers></stage16>
</opencv_storage>
