<?xml version="1.0"?>
<opencv_storage>
<stage12>
  <maxWeakCount>26</maxWeakCount>
  <stageThreshold>-1.4699048995971680e+00</stageThreshold>
  <weakClassifiers>
    <_>
      <internalNodes>
        0 -1 2220 1339752255 -639958987 408297463 2069845373 -1431392341
        -1146468134 453557179 1073364893</internalNodes>
      <leafValues>
        -3.0090129375457764e-01 2.9620525240898132e-01</leafValues></_>
    <_>
      <internalNodes>
        0 -1 296 2130136276 -539099159 -1349666 -537919569 1691094156
        -1102644 2129088462 -341053489</internalNodes>
      <leafValues>
        -2.7945554256439209e-01 3.1490650773048401e-01</leafValues></_>
    <_>
      <internalNodes>
        0 -1 2523 -800603990 -237788526 13444 -779775254 -498368000
        -1073575782 -1607863936 -141559110</internalNodes>
      <leafValues>
        -2.2323472797870636e-01 3.7749892473220825e-01</leafValues></_>
    <_>
      <internalNodes>
        0 -1 3888 -259010558 -702315008 -764542863 -236519326
        -1589599872 1154089984 -708718198 -138702673</internalNodes>
      <leafValues>
        -2.4340307712554932e-01 3.8172724843025208e-01</leafValues></_>
    <_>
      <internalNodes>
        0 -1 3345 -716440065 1342280818 -570433537 1634554239 -455609124
        2098300 1147815150 1074746879</internalNodes>
      <leafValues>
        -2.8456705808639526e-01 2.9114723205566406e-01</leafValues></_>
    <_>
      <internalNodes>
        0 -1 3375 -618597160 -615848464 -713017120 -7855920 -119088972
        -1526724496 -1693907768 -1089798016</internalNodes>
      <leafValues>
        -2.5635844469070435e-01 3.2730296254158020e-01</leafValues></_>
    <_>
      <internalNodes>
        0 -1 2775 -603805526 -79444854 9367246 -720913441 -1442149718
        -535786368 -2071152406 -74465046</internalNodes>
      <leafValues>
        -2.1292518079280853e-01 3.8633123040199280e-01</leafValues></_>
    <_>
      <internalNodes>
        0 -1 599 -553386499 1065812185 1334451695 -594455084 680319656
        1371086233 247263228 75519056</internalNodes>
      <leafValues>
        -4.0222328901290894e-01 2.4064621329307556e-01</leafValues></_>
    <_>
      <internalNodes>
        0 -1 2747 2195610 1347879058 42472051 1442780436 575449761
        1348124596 -2146845762 -67134726</internalNodes>
      <leafValues>
        -2.6527640223503113e-01 3.3654317259788513e-01</leafValues></_>
    <_>
      <internalNodes>
        0 -1 218 -779106074 -11444221 1074308328 856901359 -736573365
        -578861565 461276607 -9445381</internalNodes>
      <leafValues>
        -3.0489966273307800e-01 3.2680055499076843e-01</leafValues></_>
    <_>
      <internalNodes>
        0 -1 3348 -1066409982 84066498 2490950 1459947626 380216870
        1174823436 -1582584917 -4211798</internalNodes>
      <leafValues>
        -2.2911523282527924e-01 3.3455413579940796e-01</leafValues></_>
    <_>
      <internalNodes>
        0 -1 2301 -1162620677 -1024723310 2016727291 -775698177
        -655517733 -391384848 1074659563 -664021813</internalNodes>
      <leafValues>
        -2.0942033827304840e-01 3.9725896716117859e-01</leafValues></_>
    <_>
      <internalNodes>
        0 -1 2735 1111526928 1042677824 256461077 2103067921 615294142
        -1463811891 454741751 -6611777</internalNodes>
      <leafValues>
        -2.6951292157173157e-01 2.8845077753067017e-01</leafValues></_>
    <_>
      <internalNodes>
        0 -1 3263 1417303120 -17843849 2082221429 -590543535 1156120013
        -105282415 -328435559 406714555</internalNodes>
      <leafValues>
        -3.5183370113372803e-01 2.2059454023838043e-01</leafValues></_>
    <_>
      <internalNodes>
        0 -1 648 -738476026 -192218734 422732882 -250535696 -1843166208
        1413120032 -2146391936 -613696630</internalNodes>
      <leafValues>
        -2.4128182232379913e-01 3.3201310038566589e-01</leafValues></_>
    <_>
      <internalNodes>
        0 -1 1368 1970402581 -1265155821 -25985034 1610553172 69890
        -2113928960 822286846 -548701253</internalNodes>
      <leafValues>
        -2.6579061150550842e-01 3.0018398165702820e-01</leafValues></_>
    <_>
      <internalNodes>
        0 -1 3336 -1069490032 -788004800 289153318 1430586964 40861882
        -1843094628 56357818 -1066050</internalNodes>
      <leafValues>
        -1.7962065339088440e-01 4.0174540877342224e-01</leafValues></_>
    <_>
      <internalNodes>
        0 -1 63 780328866 -1479159852 -1610299393 -1610746401 -35665425
        -346914169 -829764914 1290968050</internalNodes>
      <leafValues>
        -3.7223282456398010e-01 2.0341949164867401e-01</leafValues></_>
    <_>
      <internalNodes>
        0 -1 198 -803147086 -209704958 -1330219824 -41901504 -1517240186
        -71068030 -1512987175 -73706349</internalNodes>
      <leafValues>
        -1.8867108225822449e-01 4.1494101285934448e-01</leafValues></_>
    <_>
      <internalNodes>
        0 -1 3624 -619981950 -715317178 1081132036 -553171645 -183889262
        1343553764 -750529464 -14974774</internalNodes>
      <leafValues>
        -1.9303293526172638e-01 3.7796273827552795e-01</leafValues></_>
    <_>
      <internalNodes>
        0 -1 217 2067881465 1368753265 457818095 1564955717 53023723
        2022381642 222451695 2113619289</internalNodes>
      <leafValues>
        -3.3605736494064331e-01 2.3311436176300049e-01</leafValues></_>
    <_>
      <internalNodes>
        0 -1 2547 -521629608 -784154542 -1311722032 -12057134 -252525432
        -2113797902 -939357990 -2122316662</internalNodes>
      <leafValues>
        -2.9942259192466736e-01 2.8613820672035217e-01</leafValues></_>
    <_>
      <internalNodes>
        0 -1 612 -285215974 -890830263 1544674701 1319572773 325978760
        -1642587392 -920212005 -1083490309</internalNodes>
      <leafValues>
        -2.3029135167598724e-01 3.3450335264205933e-01</leafValues></_>
    <_>
      <internalNodes>
        0 -1 3954 -250414958 -2147449340 766772240 -147518432 -800656398
        20716912 -1718171410 -175127905</internalNodes>
      <leafValues>
        -2.1705619990825653e-01 3.8514465093612671e-01</leafValues></_>
    <_>
      <internalNodes>
        0 -1 1384 -1076801325 -71872353 -1889200037 1595640634
        -1335839998 -483257981 1799557838 -82062629</internalNodes>
      <leafValues>
        -1.9970276951789856e-01 3.8809570670127869e-01</leafValues></_>
    <_>
      <internalNodes>
        0 -1 2763 1396932687 1465810963 71702743 -717006351 -2100975745
        -2105170426 -1550861665 -203431238</internalNodes>
      <leafValues>
        -1.7233541607856750e-01 4.1868436336517334e-01</leafValues></_></weakClassifiers></stage12>
</opencv_storage>
