<?xml version="1.0"?>
<opencv_storage>
<cascade>
  <stageType>BOOST</stageType>
  <featureType>HAAR</featureType>
  <height>20</height>
  <width>20</width>
  <stageParams>
    <boostType>GAB</boostType>
    <minHitRate>9.9900001287460327e-01</minHitRate>
    <maxFalseAlarm>5.0000000000000000e-01</maxFalseAlarm>
    <weightTrimRate>9.4999999999999996e-01</weightTrimRate>
    <maxDepth>1</maxDepth>
    <maxWeakCount>1000</maxWeakCount></stageParams>
  <featureParams>
    <maxCatCount>0</maxCatCount>
    <featSize>1</featSize>
    <mode>ALL</mode></featureParams>
  <stageNum>3</stageNum>
  <stages>
    <!-- stage 0 -->
    <_>
      <maxWeakCount>25</maxWeakCount>
      <stageThreshold>-1.9436317682266235e+00</stageThreshold>
      <weakClassifiers>
        <_>
          <internalNodes>
            0 -1 17 -1.6021391749382019e-01</internalNodes>
          <leafValues>
            5.8973246812820435e-01 -5.2326303720474243e-01</leafValues></_>
        <_>
          <internalNodes>
            0 -1 2 -1.7246004939079285e-01</internalNodes>
          <leafValues>
            4.8212236166000366e-01 -3.7461018562316895e-01</leafValues></_>
        <_>
          <internalNodes>
            0 -1 35 7.9724211245775223e-03</internalNodes>
          <leafValues>
            -1.9713400304317474e-01 4.5904678106307983e-01</leafValues></_>
        <_>
          <internalNodes>
            0 -1 20 -1.3396267313510180e-03</internalNodes>
          <leafValues>
            6.1783301830291748e-01 -1.3696619868278503e-01</leafValues></_>
        <_>
          <internalNodes>
            0 -1 20 1.7868010327219963e-03</internalNodes>
          <leafValues>
            -1.7741551995277405e-01 6.9858187437057495e-01</leafValues></_>
        <_>
          <internalNodes>
            0 -1 57 3.0297606717795134e-03</internalNodes>
          <leafValues>
            -1.1534882336854935e-01 6.2127923965454102e-01</leafValues></_>
        <_>
          <internalNodes>
            0 -1 30 -1.2311784550547600e-02</internalNodes>
          <leafValues>
            5.5294138193130493e-01 -1.2586165964603424e-01</leafValues></_>
        <_>
          <internalNodes>
            0 -1 31 1.2060182169079781e-02</internalNodes>
          <leafValues>
            -1.8163591623306274e-01 5.4324853420257568e-01</leafValues></_>
        <_>
          <internalNodes>
            0 -1 24 -3.3172093331813812e-02</internalNodes>
          <leafValues>
            4.4682356715202332e-01 -1.4457689225673676e-01</leafValues></_>
        <_>
          <internalNodes>
            0 -1 57 -1.9335346296429634e-03</internalNodes>
          <leafValues>
            4.6172943711280823e-01 -1.4987891912460327e-01</leafValues></_>
        <_>
          <internalNodes>
            0 -1 75 6.0738651081919670e-03</internalNodes>
          <leafValues>
            -8.2239009439945221e-02 5.0351798534393311e-01</leafValues></_>
        <_>
          <internalNodes>
            0 -1 3 -7.9748071730136871e-03</internalNodes>
          <leafValues>
            4.2184972763061523e-01 -1.3824242353439331e-01</leafValues></_>
        <_>
          <internalNodes>
            0 -1 25 -1.1105301976203918e-01</internalNodes>
          <leafValues>
            -7.4245715141296387e-01 7.6698638498783112e-02</leafValues></_>
        <_>
          <internalNodes>
            0 -1 68 -4.8944950103759766e-03</internalNodes>
          <leafValues>
            4.1432142257690430e-01 -1.4014683663845062e-01</leafValues></_>
        <_>
          <internalNodes>
            0 -1 6 3.6488294135779142e-03</internalNodes>
          <leafValues>
            -9.8366089165210724e-02 5.3669416904449463e-01</leafValues></_>
        <_>
          <internalNodes>
            0 -1 32 9.7005981951951981e-03</internalNodes>
          <leafValues>
            1.6096210479736328e-01 -3.6406415700912476e-01</leafValues></_>
        <_>
          <internalNodes>
            0 -1 56 -2.0977489650249481e-02</internalNodes>
          <leafValues>
            2.9416528344154358e-01 -1.6574671864509583e-01</leafValues></_>
        <_>
          <internalNodes>
            0 -1 59 5.6483019143342972e-03</internalNodes>
          <leafValues>
            -7.8996844589710236e-02 6.5417534112930298e-01</leafValues></_>
        <_>
          <internalNodes>
            0 -1 48 1.1638006195425987e-02</internalNodes>
          <leafValues>
            -8.2444712519645691e-02 5.3855288028717041e-01</leafValues></_>
        <_>
          <internalNodes>
            0 -1 60 -1.7126876628026366e-03</internalNodes>
          <leafValues>
            4.5330011844635010e-01 -9.5891848206520081e-02</leafValues></_>
        <_>
          <internalNodes>
            0 -1 40 -5.5038139224052429e-02</internalNodes>
          <leafValues>
            -7.7913135290145874e-01 6.7203290760517120e-02</leafValues></_>
        <_>
          <internalNodes>
            0 -1 43 6.5946420654654503e-03</internalNodes>
          <leafValues>
            5.9273876249790192e-02 -6.6658443212509155e-01</leafValues></_>
        <_>
          <internalNodes>
            0 -1 39 3.6548385396599770e-03</internalNodes>
          <leafValues>
            -1.0623268038034439e-01 4.9737271666526794e-01</leafValues></_>
        <_>
          <internalNodes>
            0 -1 27 -4.3214308097958565e-03</internalNodes>
          <leafValues>
            4.1790151596069336e-01 -1.1216744035482407e-01</leafValues></_>
        <_>
          <internalNodes>
            0 -1 23 -1.9008373841643333e-02</internalNodes>
          <leafValues>
            6.3712286949157715e-01 -7.0584855973720551e-02</leafValues></_></weakClassifiers></_>
    <!-- stage 1 -->
    <_>
      <maxWeakCount>36</maxWeakCount>
      <stageThreshold>-2.0474393367767334e+00</stageThreshold>
      <weakClassifiers>
        <_>
          <internalNodes>
            0 -1 2 -2.0698669552803040e-01</internalNodes>
          <leafValues>
            5.6216591596603394e-01 -4.1508561372756958e-01</leafValues></_>
        <_>
          <internalNodes>
            0 -1 5 -8.9475903660058975e-03</internalNodes>
          <leafValues>
            5.2048265933990479e-01 -2.2510066628456116e-01</leafValues></_>
        <_>
          <internalNodes>
            0 -1 74 8.3322729915380478e-03</internalNodes>
          <leafValues>
            -1.8155613541603088e-01 4.0255409479141235e-01</leafValues></_>
        <_>
          <internalNodes>
            0 -1 69 9.1367010027170181e-03</internalNodes>
          <leafValues>
            -1.9696246087551117e-01 4.8764640092849731e-01</leafValues></_>
        <_>
          <internalNodes>
            0 -1 12 3.7899808958172798e-03</internalNodes>
          <leafValues>
            -7.0715971291065216e-02 6.8870419263839722e-01</leafValues></_>
        <_>
          <internalNodes>
            0 -1 29 1.0784983634948730e-02</internalNodes>
          <leafValues>
            -1.5850757062435150e-01 4.7088497877120972e-01</leafValues></_>
        <_>
          <internalNodes>
            0 -1 31 2.1381894126534462e-02</internalNodes>
          <leafValues>
            -1.2112477421760559e-01 5.8752101659774780e-01</leafValues></_>
        <_>
          <internalNodes>
            0 -1 70 -2.4124034680426121e-03</internalNodes>
          <leafValues>
            5.2222830057144165e-01 -1.2805140018463135e-01</leafValues></_>
        <_>
          <internalNodes>
            0 -1 70 3.5351414699107409e-03</internalNodes>
          <leafValues>
            -8.0424800515174866e-02 6.1942774057388306e-01</leafValues></_>
        <_>
          <internalNodes>
            0 -1 22 -2.3987573385238647e-01</internalNodes>
          <leafValues>
            3.4789586067199707e-01 -1.8576006591320038e-01</leafValues></_>
        <_>
          <internalNodes>
            0 -1 53 3.2107739243656397e-03</internalNodes>
          <leafValues>
            -1.2062235176563263e-01 5.3332132101058960e-01</leafValues></_>
        <_>
          <internalNodes>
            0 -1 53 -2.8017540462315083e-03</internalNodes>
          <leafValues>
            5.6360799074172974e-01 -1.0613030940294266e-01</leafValues></_>
        <_>
          <internalNodes>
            0 -1 34 6.0043991543352604e-03</internalNodes>
          <leafValues>
            -1.0999500006437302e-01 4.8345327377319336e-01</leafValues></_>
        <_>
          <internalNodes>
            0 -1 21 -9.2685921117663383e-03</internalNodes>
          <leafValues>
            4.2512449622154236e-01 -1.4229647815227509e-01</leafValues></_>
        <_>
          <internalNodes>
            0 -1 63 -1.3291561976075172e-02</internalNodes>
          <leafValues>
            4.8969495296478271e-01 -1.0265318304300308e-01</leafValues></_>
        <_>
          <internalNodes>
            0 -1 44 5.7570599019527435e-03</internalNodes>
          <leafValues>
            8.6585983633995056e-02 -6.7800790071487427e-01</leafValues></_>
        <_>
          <internalNodes>
            0 -1 66 3.7204222753643990e-03</internalNodes>
          <leafValues>
            -1.0061733424663544e-01 5.3755784034729004e-01</leafValues></_>
        <_>
          <internalNodes>
            0 -1 65 -8.1325918436050415e-03</internalNodes>
          <leafValues>
            4.1757395863533020e-01 -1.3247410953044891e-01</leafValues></_>
        <_>
          <internalNodes>
            0 -1 19 -5.8754771016538143e-03</internalNodes>
          <leafValues>
            4.5942765474319458e-01 -1.0138157755136490e-01</leafValues></_>
        <_>
          <internalNodes>
            0 -1 26 -1.4105162024497986e-01</internalNodes>
          <leafValues>
            -6.4999109506607056e-01 7.8150652348995209e-02</leafValues></_>
        <_>
          <internalNodes>
            0 -1 36 -4.6131640672683716e-02</internalNodes>
          <leafValues>
            1.5229710936546326e-01 -2.9248213768005371e-01</leafValues></_>
        <_>
          <internalNodes>
            0 -1 4 1.3531919568777084e-02</internalNodes>
          <leafValues>
            -9.6631623804569244e-02 4.8492181301116943e-01</leafValues></_>
        <_>
          <internalNodes>
            0 -1 37 -1.7384605109691620e-01</internalNodes>
          <leafValues>
            -7.6734077930450439e-01 7.3507167398929596e-02</leafValues></_>
        <_>
          <internalNodes>
            0 -1 28 -2.9038200154900551e-03</internalNodes>
          <leafValues>
            4.2876276373863220e-01 -1.2024892866611481e-01</leafValues></_>
        <_>
          <internalNodes>
            0 -1 28 3.4817177802324295e-03</internalNodes>
          <leafValues>
            -8.8786654174327850e-02 4.6586585044860840e-01</leafValues></_>
        <_>
          <internalNodes>
            0 -1 71 1.5248519368469715e-02</internalNodes>
          <leafValues>
            -7.4813224375247955e-02 5.8617609739303589e-01</leafValues></_>
        <_>
          <internalNodes>
            0 -1 62 2.6705507189035416e-03</internalNodes>
          <leafValues>
            -7.5844123959541321e-02 5.1730173826217651e-01</leafValues></_>
        <_>
          <internalNodes>
            0 -1 47 7.9155443236231804e-03</internalNodes>
          <leafValues>
            6.3263028860092163e-02 -7.1934628486633301e-01</leafValues></_>
        <_>
          <internalNodes>
            0 -1 14 1.7540890723466873e-02</internalNodes>
          <leafValues>
            -9.3741044402122498e-02 5.0663405656814575e-01</leafValues></_>
        <_>
          <internalNodes>
            0 -1 15 -3.1316775083541870e-01</internalNodes>
          <leafValues>
            -6.7406749725341797e-01 6.3562713563442230e-02</leafValues></_>
        <_>
          <internalNodes>
            0 -1 11 5.8552389964461327e-03</internalNodes>
          <leafValues>
            -8.4971845149993896e-02 4.5669275522232056e-01</leafValues></_>
        <_>
          <internalNodes>
            0 -1 58 6.6117169335484505e-03</internalNodes>
          <leafValues>
            -5.5466674268245697e-02 5.7988446950912476e-01</leafValues></_>
        <_>
          <internalNodes>
            0 -1 46 5.5080223828554153e-03</internalNodes>
          <leafValues>
            7.4117094278335571e-02 -5.3555107116699219e-01</leafValues></_>
        <_>
          <internalNodes>
            0 -1 67 -4.2116101831197739e-03</internalNodes>
          <leafValues>
            6.5153402090072632e-01 -6.2021002173423767e-02</leafValues></_>
        <_>
          <internalNodes>
            0 -1 51 1.0152462869882584e-02</internalNodes>
          <leafValues>
            -1.3643164932727814e-01 2.6120436191558838e-01</leafValues></_>
        <_>
          <internalNodes>
            0 -1 41 1.1892206966876984e-02</internalNodes>
          <leafValues>
            -6.6901378333568573e-02 5.4965740442276001e-01</leafValues></_></weakClassifiers></_>
    <!-- stage 2 -->
    <_>
      <maxWeakCount>26</maxWeakCount>
      <stageThreshold>-1.7879447937011719e+00</stageThreshold>
      <weakClassifiers>
        <_>
          <internalNodes>
            0 -1 49 4.3640501797199249e-02</internalNodes>
          <leafValues>
            -4.1225719451904297e-01 3.2913637161254883e-01</leafValues></_>
        <_>
          <internalNodes>
            0 -1 0 -1.0094959288835526e-02</internalNodes>
          <leafValues>
            5.6728219985961914e-01 -2.0720341801643372e-01</leafValues></_>
        <_>
          <internalNodes>
            0 -1 16 2.8410542290657759e-03</internalNodes>
          <leafValues>
            -1.4702174067497253e-01 6.4121729135513306e-01</leafValues></_>
        <_>
          <internalNodes>
            0 -1 16 -1.6716349637135863e-03</internalNodes>
          <leafValues>
            5.7147568464279175e-01 -2.2251553833484650e-01</leafValues></_>
        <_>
          <internalNodes>
            0 -1 13 2.5824334006756544e-03</internalNodes>
          <leafValues>
            -1.4889733493328094e-01 6.2473535537719727e-01</leafValues></_>
        <_>
          <internalNodes>
            0 -1 61 3.4187913406640291e-03</internalNodes>
          <leafValues>
            -1.1836826801300049e-01 6.3042640686035156e-01</leafValues></_>
        <_>
          <internalNodes>
            0 -1 55 -3.7140111089684069e-05</internalNodes>
          <leafValues>
            4.4555920362472534e-01 -1.6495527327060699e-01</leafValues></_>
        <_>
          <internalNodes>
            0 -1 61 -3.2032013405114412e-03</internalNodes>
          <leafValues>
            5.9540706872940063e-01 -1.5635077655315399e-01</leafValues></_>
        <_>
          <internalNodes>
            0 -1 33 2.9326900839805603e-03</internalNodes>
          <leafValues>
            -3.5976588726043701e-01 2.6934930682182312e-01</leafValues></_>
        <_>
          <internalNodes>
            0 -1 1 3.6661496758460999e-01</internalNodes>
          <leafValues>
            7.6211333274841309e-02 -6.6648763418197632e-01</leafValues></_>
        <_>
          <internalNodes>
            0 -1 38 -2.0222950726747513e-02</internalNodes>
          <leafValues>
            3.0377164483070374e-01 -2.5955265760421753e-01</leafValues></_>
        <_>
          <internalNodes>
            0 -1 64 -2.7132690884172916e-03</internalNodes>
          <leafValues>
            5.0244736671447754e-01 -1.3559818267822266e-01</leafValues></_>
        <_>
          <internalNodes>
            0 -1 64 2.0291076507419348e-03</internalNodes>
          <leafValues>
            -1.7231655120849609e-01 5.0114560127258301e-01</leafValues></_>
        <_>
          <internalNodes>
            0 -1 8 2.9915568232536316e-01</internalNodes>
          <leafValues>
            1.2253843247890472e-01 -6.6396898031234741e-01</leafValues></_>
        <_>
          <internalNodes>
            0 -1 54 3.7075104046380147e-05</internalNodes>
          <leafValues>
            -2.1514649689197540e-01 2.9947215318679810e-01</leafValues></_>
        <_>
          <internalNodes>
            0 -1 54 -3.4603086533024907e-05</internalNodes>
          <leafValues>
            3.2860678434371948e-01 -1.6488501429557800e-01</leafValues></_>
        <_>
          <internalNodes>
            0 -1 52 -3.7998075131326914e-03</internalNodes>
          <leafValues>
            7.8686696290969849e-01 -6.0415357351303101e-02</leafValues></_>
        <_>
          <internalNodes>
            0 -1 9 6.1806323938071728e-03</internalNodes>
          <leafValues>
            -9.0018749237060547e-02 5.2447581291198730e-01</leafValues></_>
        <_>
          <internalNodes>
            0 -1 7 -4.9443086609244347e-03</internalNodes>
          <leafValues>
            5.0420147180557251e-01 -1.1805909872055054e-01</leafValues></_>
        <_>
          <internalNodes>
            0 -1 45 -2.6284791529178619e-02</internalNodes>
          <leafValues>
            2.2672924399375916e-01 -2.6383453607559204e-01</leafValues></_>
        <_>
          <internalNodes>
            0 -1 50 6.7364191636443138e-03</internalNodes>
          <leafValues>
            1.1119044572114944e-01 -5.5454236268997192e-01</leafValues></_>
        <_>
          <internalNodes>
            0 -1 73 7.8619122505187988e-03</internalNodes>
          <leafValues>
            -1.0285411775112152e-01 5.9108865261077881e-01</leafValues></_>
        <_>
          <internalNodes>
            0 -1 72 4.5438297092914581e-03</internalNodes>
          <leafValues>
            -8.7318859994411469e-02 5.4033440351486206e-01</leafValues></_>
        <_>
          <internalNodes>
            0 -1 18 3.7365737371146679e-03</internalNodes>
          <leafValues>
            -6.7268542945384979e-02 7.0291596651077271e-01</leafValues></_>
        <_>
          <internalNodes>
            0 -1 42 -7.1457214653491974e-02</internalNodes>
          <leafValues>
            -7.1302402019500732e-01 7.9054340720176697e-02</leafValues></_>
        <_>
          <internalNodes>
            0 -1 10 2.9665487818419933e-03</internalNodes>
          <leafValues>
            -1.0865183174610138e-01 4.7400242090225220e-01</leafValues></_></weakClassifiers></_></stages>
  <features>
    <_>
      <rects>
        <_>
          0 0 4 6 -1.</_>
        <_>
          0 0 2 3 2.</_>
        <_>
          2 3 2 3 2.</_></rects>
      <tilted>0</tilted></_>
    <_>
      <rects>
        <_>
          0 0 20 20 -1.</_>
        <_>
          0 10 20 10 2.</_></rects>
      <tilted>0</tilted></_>
    <_>
      <rects>
        <_>
          0 1 20 17 -1.</_>
        <_>
          5 1 10 17 2.</_></rects>
      <tilted>0</tilted></_>
    <_>
      <rects>
        <_>
          0 4 3 3 -1.</_>
        <_>
          1 5 1 1 9.</_></rects>
      <tilted>0</tilted></_>
    <_>
      <rects>
        <_>
          0 4 3 9 -1.</_>
        <_>
          1 4 1 9 3.</_></rects>
      <tilted>0</tilted></_>
    <_>
      <rects>
        <_>
          0 4 2 12 -1.</_>
        <_>
          1 4 1 12 2.</_></rects>
      <tilted>0</tilted></_>
    <_>
      <rects>
        <_>
          0 5 3 1 -1.</_>
        <_>
          1 5 1 1 3.</_></rects>
      <tilted>0</tilted></_>
    <_>
      <rects>
        <_>
          0 7 2 6 -1.</_>
        <_>
          0 7 1 3 2.</_>
        <_>
          1 10 1 3 2.</_></rects>
      <tilted>0</tilted></_>
    <_>
      <rects>
        <_>
          0 7 20 13 -1.</_>
        <_>
          10 7 10 13 2.</_></rects>
      <tilted>0</tilted></_>
    <_>
      <rects>
        <_>
          0 8 2 6 -1.</_>
        <_>
          0 8 1 3 2.</_>
        <_>
          1 11 1 3 2.</_></rects>
      <tilted>0</tilted></_>
    <_>
      <rects>
        <_>
          0 11 3 1 -1.</_>
        <_>
          1 11 1 1 3.</_></rects>
      <tilted>0</tilted></_>
    <_>
      <rects>
        <_>
          0 12 2 4 -1.</_>
        <_>
          0 12 1 2 2.</_>
        <_>
          1 14 1 2 2.</_></rects>
      <tilted>0</tilted></_>
    <_>
      <rects>
        <_>
          0 13 3 1 -1.</_>
        <_>
          1 13 1 1 3.</_></rects>
      <tilted>0</tilted></_>
    <_>
      <rects>
        <_>
          1 1 2 4 -1.</_>
        <_>
          1 1 1 2 2.</_>
        <_>
          2 3 1 2 2.</_></rects>
      <tilted>0</tilted></_>
    <_>
      <rects>
        <_>
          1 2 3 15 -1.</_>
        <_>
          2 2 1 15 3.</_></rects>
      <tilted>0</tilted></_>
    <_>
      <rects>
        <_>
          1 3 15 12 -1.</_>
        <_>
          6 7 5 4 9.</_></rects>
      <tilted>0</tilted></_>
    <_>
      <rects>
        <_>
          1 15 2 4 -1.</_>
        <_>
          1 15 1 2 2.</_>
        <_>
          2 17 1 2 2.</_></rects>
      <tilted>0</tilted></_>
    <_>
      <rects>
        <_>
          2 0 16 20 -1.</_>
        <_>
          2 5 16 10 2.</_></rects>
      <tilted>0</tilted></_>
    <_>
      <rects>
        <_>
          2 2 2 2 -1.</_>
        <_>
          2 2 1 1 2.</_>
        <_>
          3 3 1 1 2.</_></rects>
      <tilted>0</tilted></_>
    <_>
      <rects>
        <_>
          2 2 3 1 -1.</_>
        <_>
          3 3 1 1 3.</_></rects>
      <tilted>1</tilted></_>
    <_>
      <rects>
        <_>
          2 16 2 2 -1.</_>
        <_>
          2 16 1 1 2.</_>
        <_>
          3 17 1 1 2.</_></rects>
      <tilted>0</tilted></_>
    <_>
      <rects>
        <_>
          2 16 3 3 -1.</_>
        <_>
          3 17 1 1 9.</_></rects>
      <tilted>0</tilted></_>
    <_>
      <rects>
        <_>
          3 0 16 20 -1.</_>
        <_>
          3 5 16 10 2.</_></rects>
      <tilted>0</tilted></_>
    <_>
      <rects>
        <_>
          4 0 12 2 -1.</_>
        <_>
          4 0 6 1 2.</_>
        <_>
          10 1 6 1 2.</_></rects>
      <tilted>0</tilted></_>
    <_>
      <rects>
        <_>
          4 0 13 4 -1.</_>
        <_>
          4 2 13 2 2.</_></rects>
      <tilted>0</tilted></_>
    <_>
      <rects>
        <_>
          4 7 9 9 -1.</_>
        <_>
          7 10 3 3 9.</_></rects>
      <tilted>0</tilted></_>
    <_>
      <rects>
        <_>
          4 7 12 9 -1.</_>
        <_>
          8 10 4 3 9.</_></rects>
      <tilted>0</tilted></_>
    <_>
      <rects>
        <_>
          4 18 6 2 -1.</_>
        <_>
          4 18 3 1 2.</_>
        <_>
          7 19 3 1 2.</_></rects>
      <tilted>0</tilted></_>
    <_>
      <rects>
        <_>
          5 0 1 3 -1.</_>
        <_>
          5 1 1 1 3.</_></rects>
      <tilted>0</tilted></_>
    <_>
      <rects>
        <_>
          5 0 2 3 -1.</_>
        <_>
          5 0 1 3 2.</_></rects>
      <tilted>1</tilted></_>
    <_>
      <rects>
        <_>
          5 0 3 4 -1.</_>
        <_>
          6 1 1 4 3.</_></rects>
      <tilted>1</tilted></_>
    <_>
      <rects>
        <_>
          5 0 3 5 -1.</_>
        <_>
          6 1 1 5 3.</_></rects>
      <tilted>1</tilted></_>
    <_>
      <rects>
        <_>
          5 6 9 9 -1.</_>
        <_>
          8 9 3 3 9.</_></rects>
      <tilted>0</tilted></_>
    <_>
      <rects>
        <_>
          5 6 13 14 -1.</_>
        <_>
          5 13 13 7 2.</_></rects>
      <tilted>0</tilted></_>
    <_>
      <rects>
        <_>
          5 15 1 3 -1.</_>
        <_>
          4 16 1 1 3.</_></rects>
      <tilted>1</tilted></_>
    <_>
      <rects>
        <_>
          5 18 12 2 -1.</_>
        <_>
          5 19 12 1 2.</_></rects>
      <tilted>0</tilted></_>
    <_>
      <rects>
        <_>
          6 1 9 18 -1.</_>
        <_>
          9 7 3 6 9.</_></rects>
      <tilted>0</tilted></_>
    <_>
      <rects>
        <_>
          6 4 12 9 -1.</_>
        <_>
          10 7 4 3 9.</_></rects>
      <tilted>0</tilted></_>
    <_>
      <rects>
        <_>
          6 9 5 6 -1.</_>
        <_>
          4 11 5 2 3.</_></rects>
      <tilted>1</tilted></_>
    <_>
      <rects>
        <_>
          6 17 1 3 -1.</_>
        <_>
          6 18 1 1 3.</_></rects>
      <tilted>0</tilted></_>
    <_>
      <rects>
        <_>
          7 7 6 6 -1.</_>
        <_>
          9 9 2 2 9.</_></rects>
      <tilted>0</tilted></_>
    <_>
      <rects>
        <_>
          8 0 3 3 -1.</_>
        <_>
          8 1 3 1 3.</_></rects>
      <tilted>0</tilted></_>
    <_>
      <rects>
        <_>
          8 7 9 6 -1.</_>
        <_>
          11 9 3 2 9.</_></rects>
      <tilted>0</tilted></_>
    <_>
      <rects>
        <_>
          8 8 3 3 -1.</_>
        <_>
          9 9 1 1 9.</_></rects>
      <tilted>0</tilted></_>
    <_>
      <rects>
        <_>
          8 9 3 3 -1.</_>
        <_>
          9 10 1 1 9.</_></rects>
      <tilted>0</tilted></_>
    <_>
      <rects>
        <_>
          8 12 12 6 -1.</_>
        <_>
          12 14 4 2 9.</_></rects>
      <tilted>0</tilted></_>
    <_>
      <rects>
        <_>
          9 8 3 3 -1.</_>
        <_>
          10 9 1 1 9.</_></rects>
      <tilted>0</tilted></_>
    <_>
      <rects>
        <_>
          9 9 3 3 -1.</_>
        <_>
          10 10 1 1 9.</_></rects>
      <tilted>0</tilted></_>
    <_>
      <rects>
        <_>
          10 2 10 2 -1.</_>
        <_>
          10 2 5 1 2.</_>
        <_>
          15 3 5 1 2.</_></rects>
      <tilted>0</tilted></_>
    <_>
      <rects>
        <_>
          10 2 10 16 -1.</_>
        <_>
          15 2 5 16 2.</_></rects>
      <tilted>0</tilted></_>
    <_>
      <rects>
        <_>
          10 9 4 2 -1.</_>
        <_>
          10 9 2 2 2.</_></rects>
      <tilted>1</tilted></_>
    <_>
      <rects>
        <_>
          11 16 4 4 -1.</_>
        <_>
          11 18 4 2 2.</_></rects>
      <tilted>0</tilted></_>
    <_>
      <rects>
        <_>
          13 0 2 2 -1.</_>
        <_>
          13 0 1 1 2.</_>
        <_>
          14 1 1 1 2.</_></rects>
      <tilted>0</tilted></_>
    <_>
      <rects>
        <_>
          14 0 1 3 -1.</_>
        <_>
          14 1 1 1 3.</_></rects>
      <tilted>0</tilted></_>
    <_>
      <rects>
        <_>
          14 7 2 2 -1.</_>
        <_>
          14 7 1 1 2.</_>
        <_>
          15 8 1 1 2.</_></rects>
      <tilted>0</tilted></_>
    <_>
      <rects>
        <_>
          14 8 2 1 -1.</_>
        <_>
          15 8 1 1 2.</_></rects>
      <tilted>0</tilted></_>
    <_>
      <rects>
        <_>
          14 10 6 4 -1.</_>
        <_>
          16 12 2 4 3.</_></rects>
      <tilted>1</tilted></_>
    <_>
      <rects>
        <_>
          14 17 1 3 -1.</_>
        <_>
          14 18 1 1 3.</_></rects>
      <tilted>0</tilted></_>
    <_>
      <rects>
        <_>
          15 1 2 4 -1.</_>
        <_>
          15 1 1 2 2.</_>
        <_>
          16 3 1 2 2.</_></rects>
      <tilted>0</tilted></_>
    <_>
      <rects>
        <_>
          16 1 1 3 -1.</_>
        <_>
          16 2 1 1 3.</_></rects>
      <tilted>0</tilted></_>
    <_>
      <rects>
        <_>
          16 2 2 2 -1.</_>
        <_>
          16 2 1 1 2.</_>
        <_>
          17 3 1 1 2.</_></rects>
      <tilted>0</tilted></_>
    <_>
      <rects>
        <_>
          16 2 4 2 -1.</_>
        <_>
          16 2 2 1 2.</_>
        <_>
          18 3 2 1 2.</_></rects>
      <tilted>0</tilted></_>
    <_>
      <rects>
        <_>
          16 16 2 2 -1.</_>
        <_>
          16 16 1 1 2.</_>
        <_>
          17 17 1 1 2.</_></rects>
      <tilted>0</tilted></_>
    <_>
      <rects>
        <_>
          16 16 3 3 -1.</_>
        <_>
          17 17 1 1 9.</_></rects>
      <tilted>0</tilted></_>
    <_>
      <rects>
        <_>
          16 16 2 4 -1.</_>
        <_>
          16 16 1 2 2.</_>
        <_>
          17 18 1 2 2.</_></rects>
      <tilted>0</tilted></_>
    <_>
      <rects>
        <_>
          17 3 3 3 -1.</_>
        <_>
          18 4 1 1 9.</_></rects>
      <tilted>0</tilted></_>
    <_>
      <rects>
        <_>
          17 4 3 1 -1.</_>
        <_>
          18 4 1 1 3.</_></rects>
      <tilted>0</tilted></_>
    <_>
      <rects>
        <_>
          17 4 2 2 -1.</_>
        <_>
          17 4 1 1 2.</_>
        <_>
          18 5 1 1 2.</_></rects>
      <tilted>0</tilted></_>
    <_>
      <rects>
        <_>
          17 4 3 4 -1.</_>
        <_>
          18 4 1 4 3.</_></rects>
      <tilted>0</tilted></_>
    <_>
      <rects>
        <_>
          17 5 3 11 -1.</_>
        <_>
          18 5 1 11 3.</_></rects>
      <tilted>0</tilted></_>
    <_>
      <rects>
        <_>
          17 15 3 1 -1.</_>
        <_>
          18 15 1 1 3.</_></rects>
      <tilted>0</tilted></_>
    <_>
      <rects>
        <_>
          17 15 3 2 -1.</_>
        <_>
          18 16 1 2 3.</_></rects>
      <tilted>1</tilted></_>
    <_>
      <rects>
        <_>
          18 2 2 4 -1.</_>
        <_>
          18 2 1 2 2.</_>
        <_>
          19 4 1 2 2.</_></rects>
      <tilted>0</tilted></_>
    <_>
      <rects>
        <_>
          18 4 2 6 -1.</_>
        <_>
          18 4 1 3 2.</_>
        <_>
          19 7 1 3 2.</_></rects>
      <tilted>0</tilted></_>
    <_>
      <rects>
        <_>
          18 4 2 12 -1.</_>
        <_>
          19 4 1 12 2.</_></rects>
      <tilted>0</tilted></_>
    <_>
      <rects>
        <_>
          18 5 2 8 -1.</_>
        <_>
          18 5 1 4 2.</_>
        <_>
          19 9 1 4 2.</_></rects>
      <tilted>0</tilted></_></features></cascade>
</opencv_storage>
