<?xml version="1.0"?>
<opencv_storage>
<cascade>
  <stageType>BOOST</stageType>
  <featureType>HAAR</featureType>
  <height>20</height>
  <width>20</width>
  <stageParams>
    <boostType>GAB</boostType>
    <minHitRate>9.9900001287460327e-01</minHitRate>
    <maxFalseAlarm>5.0000000000000000e-01</maxFalseAlarm>
    <weightTrimRate>9.4999999999999996e-01</weightTrimRate>
    <maxDepth>1</maxDepth>
    <maxWeakCount>1000</maxWeakCount></stageParams>
  <featureParams>
    <maxCatCount>0</maxCatCount>
    <featSize>1</featSize>
    <mode>ALL</mode></featureParams>
  <stageNum>6</stageNum>
  <stages>
    <!-- stage 0 -->
    <_>
      <maxWeakCount>41</maxWeakCount>
      <stageThreshold>-1.7305769920349121e+00</stageThreshold>
      <weakClassifiers>
        <_>
          <internalNodes>
            0 -1 323 1.7267420887947083e-02</internalNodes>
          <leafValues>
            -2.5093379616737366e-01 4.2923524975776672e-01</leafValues></_>
        <_>
          <internalNodes>
            0 -1 63 2.1698303520679474e-02</internalNodes>
          <leafValues>
            2.1733826398849487e-01 -4.2170917987823486e-01</leafValues></_>
        <_>
          <internalNodes>
            0 -1 13 -3.1014494597911835e-02</internalNodes>
          <leafValues>
            4.2811706662178040e-01 -1.8158766627311707e-01</leafValues></_>
        <_>
          <internalNodes>
            0 -1 130 -1.1637089774012566e-02</internalNodes>
          <leafValues>
            2.7306151390075684e-01 -2.4297519028186798e-01</leafValues></_>
        <_>
          <internalNodes>
            0 -1 275 -1.8514208495616913e-03</internalNodes>
          <leafValues>
            -5.2078223228454590e-01 1.2609499692916870e-01</leafValues></_>
        <_>
          <internalNodes>
            0 -1 275 7.8232074156403542e-04</internalNodes>
          <leafValues>
            2.3489136993885040e-01 -3.2803609967231750e-01</leafValues></_>
        <_>
          <internalNodes>
            0 -1 303 1.7164211720228195e-02</internalNodes>
          <leafValues>
            -1.6472028195858002e-01 4.0684789419174194e-01</leafValues></_>
        <_>
          <internalNodes>
            0 -1 329 1.0167658329010010e-03</internalNodes>
          <leafValues>
            1.6093194484710693e-01 -3.6630511283874512e-01</leafValues></_>
        <_>
          <internalNodes>
            0 -1 298 9.6022244542837143e-04</internalNodes>
          <leafValues>
            1.5844538807868958e-01 -4.0071910619735718e-01</leafValues></_>
        <_>
          <internalNodes>
            0 -1 129 1.8129906058311462e-01</internalNodes>
          <leafValues>
            -9.7014725208282471e-02 8.0463391542434692e-01</leafValues></_>
        <_>
          <internalNodes>
            0 -1 77 2.1667249500751495e-02</internalNodes>
          <leafValues>
            -7.1581147611141205e-02 5.6232398748397827e-01</leafValues></_>
        <_>
          <internalNodes>
            0 -1 200 -7.3494296520948410e-04</internalNodes>
          <leafValues>
            -3.1204417347908020e-01 1.6773223876953125e-01</leafValues></_>
        <_>
          <internalNodes>
            0 -1 200 1.3742784503847361e-03</internalNodes>
          <leafValues>
            1.3411125540733337e-01 -5.3530669212341309e-01</leafValues></_>
        <_>
          <internalNodes>
            0 -1 106 -2.6671686209738255e-03</internalNodes>
          <leafValues>
            6.5711373090744019e-01 -8.0038376152515411e-02</leafValues></_>
        <_>
          <internalNodes>
            0 -1 256 -9.1309864073991776e-03</internalNodes>
          <leafValues>
            3.1033882498741150e-01 -1.4631041884422302e-01</leafValues></_>
        <_>
          <internalNodes>
            0 -1 263 9.9042002111673355e-03</internalNodes>
          <leafValues>
            -1.5978661179542542e-01 3.5132601857185364e-01</leafValues></_>
        <_>
          <internalNodes>
            0 -1 230 9.1022055130451918e-04</internalNodes>
          <leafValues>
            1.3006703555583954e-01 -3.5279357433319092e-01</leafValues></_>
        <_>
          <internalNodes>
            0 -1 230 -7.4156746268272400e-04</internalNodes>
          <leafValues>
            -3.4254556894302368e-01 1.7089776694774628e-01</leafValues></_>
        <_>
          <internalNodes>
            0 -1 276 7.7502921223640442e-02</internalNodes>
          <leafValues>
            -8.3317309617996216e-02 6.2573784589767456e-01</leafValues></_>
        <_>
          <internalNodes>
            0 -1 7 2.3461824283003807e-02</internalNodes>
          <leafValues>
            -8.8963739573955536e-02 4.6466398239135742e-01</leafValues></_>
        <_>
          <internalNodes>
            0 -1 299 -1.6543196979910135e-03</internalNodes>
          <leafValues>
            -4.4114288687705994e-01 1.0952378809452057e-01</leafValues></_>
        <_>
          <internalNodes>
            0 -1 282 -1.1052649933844805e-03</internalNodes>
          <leafValues>
            -3.5060763359069824e-01 1.2492111325263977e-01</leafValues></_>
        <_>
          <internalNodes>
            0 -1 335 -1.6616638749837875e-02</internalNodes>
          <leafValues>
            5.5142378807067871e-01 -8.3673276007175446e-02</leafValues></_>
        <_>
          <internalNodes>
            0 -1 367 -2.1775560453534126e-03</internalNodes>
          <leafValues>
            5.6224811077117920e-01 -7.3593832552433014e-02</leafValues></_>
        <_>
          <internalNodes>
            0 -1 117 6.6093856003135443e-04</internalNodes>
          <leafValues>
            1.5005558729171753e-01 -2.9183104634284973e-01</leafValues></_>
        <_>
          <internalNodes>
            0 -1 284 1.1960744159296155e-03</internalNodes>
          <leafValues>
            1.0244544595479965e-01 -4.0060243010520935e-01</leafValues></_>
        <_>
          <internalNodes>
            0 -1 358 1.0692991316318512e-02</internalNodes>
          <leafValues>
            -1.1288379877805710e-01 3.9936634898185730e-01</leafValues></_>
        <_>
          <internalNodes>
            0 -1 239 5.5669079301878810e-04</internalNodes>
          <leafValues>
            1.1763165891170502e-01 -3.5709539055824280e-01</leafValues></_>
        <_>
          <internalNodes>
            0 -1 72 -1.7302880296483636e-03</internalNodes>
          <leafValues>
            4.9970442056655884e-01 -9.4428971409797668e-02</leafValues></_>
        <_>
          <internalNodes>
            0 -1 159 1.8046966288238764e-03</internalNodes>
          <leafValues>
            1.0780110210180283e-01 -3.8152137398719788e-01</leafValues></_>
        <_>
          <internalNodes>
            0 -1 43 -4.4752890244126320e-03</internalNodes>
          <leafValues>
            5.9699356555938721e-01 -6.9982439279556274e-02</leafValues></_>
        <_>
          <internalNodes>
            0 -1 152 -3.5104313865303993e-03</internalNodes>
          <leafValues>
            7.0648121833801270e-01 -4.6734850853681564e-02</leafValues></_>
        <_>
          <internalNodes>
            0 -1 26 6.4640522003173828e-01</internalNodes>
          <leafValues>
            -3.5772629082202911e-02 8.1884956359863281e-01</leafValues></_>
        <_>
          <internalNodes>
            0 -1 38 -3.3805552870035172e-02</internalNodes>
          <leafValues>
            2.3509958386421204e-01 -2.0340918004512787e-01</leafValues></_>
        <_>
          <internalNodes>
            0 -1 122 2.8960878262296319e-04</internalNodes>
          <leafValues>
            1.3411393761634827e-01 -3.1303888559341431e-01</leafValues></_>
        <_>
          <internalNodes>
            0 -1 314 -2.7705668471753597e-03</internalNodes>
          <leafValues>
            6.3473403453826904e-01 -6.7000277340412140e-02</leafValues></_>
        <_>
          <internalNodes>
            0 -1 81 -4.8356186598539352e-03</internalNodes>
          <leafValues>
            2.8758838772773743e-01 -1.2726308405399323e-01</leafValues></_>
        <_>
          <internalNodes>
            0 -1 51 -4.6936450526118279e-03</internalNodes>
          <leafValues>
            5.6884783506393433e-01 -6.8254120647907257e-02</leafValues></_>
        <_>
          <internalNodes>
            0 -1 14 -4.7166189178824425e-03</internalNodes>
          <leafValues>
            2.8257730603218079e-01 -1.3138175010681152e-01</leafValues></_>
        <_>
          <internalNodes>
            0 -1 143 -5.5246049305424094e-04</internalNodes>
          <leafValues>
            -3.6536213755607605e-01 1.1983889341354370e-01</leafValues></_>
        <_>
          <internalNodes>
            0 -1 165 -1.9691328052431345e-03</internalNodes>
          <leafValues>
            -4.6604305505752563e-01 7.3497228324413300e-02</leafValues></_></weakClassifiers></_>
    <!-- stage 1 -->
    <_>
      <maxWeakCount>53</maxWeakCount>
      <stageThreshold>-1.6762406826019287e+00</stageThreshold>
      <weakClassifiers>
        <_>
          <internalNodes>
            0 -1 80 -3.1647190451622009e-02</internalNodes>
          <leafValues>
            3.8504257798194885e-01 -2.4191673099994659e-01</leafValues></_>
        <_>
          <internalNodes>
            0 -1 249 -8.7864790111780167e-03</internalNodes>
          <leafValues>
            3.2335186004638672e-01 -2.2608408331871033e-01</leafValues></_>
        <_>
          <internalNodes>
            0 -1 20 1.9072186201810837e-02</internalNodes>
          <leafValues>
            -1.3463626801967621e-01 4.1877111792564392e-01</leafValues></_>
        <_>
          <internalNodes>
            0 -1 351 4.1781701147556305e-03</internalNodes>
          <leafValues>
            -1.3047824800014496e-01 4.5913374423980713e-01</leafValues></_>
        <_>
          <internalNodes>
            0 -1 65 -4.3082488700747490e-03</internalNodes>
          <leafValues>
            1.6082145273685455e-01 -3.2188290357589722e-01</leafValues></_>
        <_>
          <internalNodes>
            0 -1 27 -5.5146049708127975e-03</internalNodes>
          <leafValues>
            3.5267922282218933e-01 -1.4341606199741364e-01</leafValues></_>
        <_>
          <internalNodes>
            0 -1 68 -1.4120033010840416e-02</internalNodes>
          <leafValues>
            4.4184860587120056e-01 -7.3062695562839508e-02</leafValues></_>
        <_>
          <internalNodes>
            0 -1 352 -3.2998588867485523e-03</internalNodes>
          <leafValues>
            4.3927523493766785e-01 -1.0256541520357132e-01</leafValues></_>
        <_>
          <internalNodes>
            0 -1 23 3.8808804750442505e-01</internalNodes>
          <leafValues>
            -7.0683792233467102e-02 5.9307479858398438e-01</leafValues></_>
        <_>
          <internalNodes>
            0 -1 165 8.5012114141136408e-04</internalNodes>
          <leafValues>
            1.3750335574150085e-01 -3.0919900536537170e-01</leafValues></_>
        <_>
          <internalNodes>
            0 -1 75 7.9667149111628532e-03</internalNodes>
          <leafValues>
            -1.2614493072032928e-01 3.1382116675376892e-01</leafValues></_>
        <_>
          <internalNodes>
            0 -1 262 2.0809883717447519e-03</internalNodes>
          <leafValues>
            9.0174093842506409e-02 -4.6904006600379944e-01</leafValues></_>
        <_>
          <internalNodes>
            0 -1 47 4.8202767968177795e-01</internalNodes>
          <leafValues>
            4.1182894259691238e-02 -7.6741141080856323e-01</leafValues></_>
        <_>
          <internalNodes>
            0 -1 237 1.6459119506180286e-03</internalNodes>
          <leafValues>
            7.1253843605518341e-02 -4.6710720658302307e-01</leafValues></_>
        <_>
          <internalNodes>
            0 -1 1 5.8827495574951172e-01</internalNodes>
          <leafValues>
            4.0900576859712601e-02 -7.5498110055923462e-01</leafValues></_>
        <_>
          <internalNodes>
            0 -1 18 -4.3292110785841942e-03</internalNodes>
          <leafValues>
            2.2328424453735352e-01 -1.6424567997455597e-01</leafValues></_>
        <_>
          <internalNodes>
            0 -1 69 4.7242045402526855e-02</internalNodes>
          <leafValues>
            -8.7314449250698090e-02 3.9196550846099854e-01</leafValues></_>
        <_>
          <internalNodes>
            0 -1 137 3.8752540946006775e-01</internalNodes>
          <leafValues>
            -5.5606193840503693e-02 7.4132305383682251e-01</leafValues></_>
        <_>
          <internalNodes>
            0 -1 144 -1.4363855589181185e-03</internalNodes>
          <leafValues>
            -3.8083171844482422e-01 1.0470332950353622e-01</leafValues></_>
        <_>
          <internalNodes>
            0 -1 224 -1.7817738698795438e-03</internalNodes>
          <leafValues>
            -4.0357905626296997e-01 8.5397362709045410e-02</leafValues></_>
        <_>
          <internalNodes>
            0 -1 320 2.8668623417615891e-03</internalNodes>
          <leafValues>
            -5.7877533137798309e-02 6.0276341438293457e-01</leafValues></_>
        <_>
          <internalNodes>
            0 -1 40 -2.9927184805274010e-03</internalNodes>
          <leafValues>
            4.1845551133155823e-01 -7.4201330542564392e-02</leafValues></_>
        <_>
          <internalNodes>
            0 -1 144 1.2019936693832278e-03</internalNodes>
          <leafValues>
            1.1103080958127975e-01 -3.2776632905006409e-01</leafValues></_>
        <_>
          <internalNodes>
            0 -1 112 -4.6123876236379147e-03</internalNodes>
          <leafValues>
            5.6276333332061768e-01 -6.1355587095022202e-02</leafValues></_>
        <_>
          <internalNodes>
            0 -1 356 -2.3586072493344545e-03</internalNodes>
          <leafValues>
            5.0249701738357544e-01 -5.9032037854194641e-02</leafValues></_>
        <_>
          <internalNodes>
            0 -1 257 -2.3585902526974678e-03</internalNodes>
          <leafValues>
            -4.6848288178443909e-01 7.3866926133632660e-02</leafValues></_>
        <_>
          <internalNodes>
            0 -1 108 5.2490993402898312e-03</internalNodes>
          <leafValues>
            -6.9397158920764923e-02 5.4681491851806641e-01</leafValues></_>
        <_>
          <internalNodes>
            0 -1 279 -9.5889758085832000e-04</internalNodes>
          <leafValues>
            -2.6788738369941711e-01 1.1924063414335251e-01</leafValues></_>
        <_>
          <internalNodes>
            0 -1 86 -7.4276654049754143e-03</internalNodes>
          <leafValues>
            2.3642791807651520e-01 -1.3318938016891479e-01</leafValues></_>
        <_>
          <internalNodes>
            0 -1 319 1.6267111897468567e-01</internalNodes>
          <leafValues>
            -4.2057409882545471e-02 6.5145897865295410e-01</leafValues></_>
        <_>
          <internalNodes>
            0 -1 107 -5.8018006384372711e-03</internalNodes>
          <leafValues>
            2.9475334286689758e-01 -1.0745086520910263e-01</leafValues></_>
        <_>
          <internalNodes>
            0 -1 187 -1.8453396623954177e-03</internalNodes>
          <leafValues>
            -4.6049723029136658e-01 7.1413993835449219e-02</leafValues></_>
        <_>
          <internalNodes>
            0 -1 206 -5.9371544048190117e-03</internalNodes>
          <leafValues>
            3.7116914987564087e-01 -9.3145191669464111e-02</leafValues></_>
        <_>
          <internalNodes>
            0 -1 308 -8.2880695117637515e-04</internalNodes>
          <leafValues>
            -2.9495033621788025e-01 1.1893183737993240e-01</leafValues></_>
        <_>
          <internalNodes>
            0 -1 155 2.7727615088224411e-03</internalNodes>
          <leafValues>
            9.0378008782863617e-02 -3.7201234698295593e-01</leafValues></_>
        <_>
          <internalNodes>
            0 -1 288 4.1086124838329852e-05</internalNodes>
          <leafValues>
            -1.7616215348243713e-01 1.8298697471618652e-01</leafValues></_>
        <_>
          <internalNodes>
            0 -1 79 1.4400764368474483e-02</internalNodes>
          <leafValues>
            -9.3841269612312317e-02 3.2947275042533875e-01</leafValues></_>
        <_>
          <internalNodes>
            0 -1 62 -4.4208085164427757e-03</internalNodes>
          <leafValues>
            2.1240574121475220e-01 -1.4125780761241913e-01</leafValues></_>
        <_>
          <internalNodes>
            0 -1 37 -5.3725512698292732e-03</internalNodes>
          <leafValues>
            3.1939432024955750e-01 -1.0762563347816467e-01</leafValues></_>
        <_>
          <internalNodes>
            0 -1 247 -1.8542348407208920e-03</internalNodes>
          <leafValues>
            -4.1939216852188110e-01 7.9626150429248810e-02</leafValues></_>
        <_>
          <internalNodes>
            0 -1 150 3.4686275757849216e-03</internalNodes>
          <leafValues>
            -1.1858210712671280e-01 2.7126732468605042e-01</leafValues></_>
        <_>
          <internalNodes>
            0 -1 55 -1.3727157376706600e-02</internalNodes>
          <leafValues>
            1.9721706211566925e-01 -1.7546746134757996e-01</leafValues></_>
        <_>
          <internalNodes>
            0 -1 289 1.5288235154002905e-03</internalNodes>
          <leafValues>
            8.5553899407386780e-02 -3.9013388752937317e-01</leafValues></_>
        <_>
          <internalNodes>
            0 -1 266 -4.9575045704841614e-03</internalNodes>
          <leafValues>
            2.5541749596595764e-01 -1.3278785347938538e-01</leafValues></_>
        <_>
          <internalNodes>
            0 -1 134 -5.0137884914875031e-02</internalNodes>
          <leafValues>
            5.3926992416381836e-01 -5.6172024458646774e-02</leafValues></_>
        <_>
          <internalNodes>
            0 -1 359 -9.6958372741937637e-03</internalNodes>
          <leafValues>
            2.3286606371402740e-01 -1.3844287395477295e-01</leafValues></_>
        <_>
          <internalNodes>
            0 -1 218 1.4746955037117004e-01</internalNodes>
          <leafValues>
            -4.2905572801828384e-02 7.0199519395828247e-01</leafValues></_>
        <_>
          <internalNodes>
            0 -1 364 -1.5541561879217625e-03</internalNodes>
          <leafValues>
            4.2162513732910156e-01 -6.6089294850826263e-02</leafValues></_>
        <_>
          <internalNodes>
            0 -1 364 2.3681032471358776e-03</internalNodes>
          <leafValues>
            -6.5287619829177856e-02 4.8524206876754761e-01</leafValues></_>
        <_>
          <internalNodes>
            0 -1 166 6.9118654355406761e-03</internalNodes>
          <leafValues>
            7.2587445378303528e-02 -4.7953200340270996e-01</leafValues></_>
        <_>
          <internalNodes>
            0 -1 339 4.3192058801651001e-03</internalNodes>
          <leafValues>
            -6.5189644694328308e-02 5.3766804933547974e-01</leafValues></_>
        <_>
          <internalNodes>
            0 -1 238 -1.6693940851837397e-03</internalNodes>
          <leafValues>
            -3.1622233986854553e-01 9.9458523094654083e-02</leafValues></_>
        <_>
          <internalNodes>
            0 -1 354 8.7394546717405319e-03</internalNodes>
          <leafValues>
            -1.2531225383281708e-01 2.4177888035774231e-01</leafValues></_></weakClassifiers></_>
    <!-- stage 2 -->
    <_>
      <maxWeakCount>64</maxWeakCount>
      <stageThreshold>-1.4581114053726196e+00</stageThreshold>
      <weakClassifiers>
        <_>
          <internalNodes>
            0 -1 348 1.5796123072504997e-02</internalNodes>
          <leafValues>
            -1.9309082627296448e-01 3.2103461027145386e-01</leafValues></_>
        <_>
          <internalNodes>
            0 -1 73 1.6473345458507538e-02</internalNodes>
          <leafValues>
            -1.8128420412540436e-01 2.9117801785469055e-01</leafValues></_>
        <_>
          <internalNodes>
            0 -1 12 -6.5899379551410675e-03</internalNodes>
          <leafValues>
            2.4025884270668030e-01 -1.5038256347179413e-01</leafValues></_>
        <_>
          <internalNodes>
            0 -1 116 -1.7419796437025070e-02</internalNodes>
          <leafValues>
            1.3479128479957581e-01 -2.6012989878654480e-01</leafValues></_>
        <_>
          <internalNodes>
            0 -1 309 1.6951963771134615e-03</internalNodes>
          <leafValues>
            1.0685636103153229e-01 -3.8252443075180054e-01</leafValues></_>
        <_>
          <internalNodes>
            0 -1 111 -4.0180049836635590e-03</internalNodes>
          <leafValues>
            1.9286789000034332e-01 -1.8840579688549042e-01</leafValues></_>
        <_>
          <internalNodes>
            0 -1 131 4.4385802745819092e-01</internalNodes>
          <leafValues>
            -5.8631438761949539e-02 6.6618537902832031e-01</leafValues></_>
        <_>
          <internalNodes>
            0 -1 172 -7.9912766814231873e-03</internalNodes>
          <leafValues>
            -4.8646336793899536e-01 9.4760775566101074e-02</leafValues></_>
        <_>
          <internalNodes>
            0 -1 332 -1.6177807003259659e-02</internalNodes>
          <leafValues>
            2.5756591558456421e-01 -1.4249387383460999e-01</leafValues></_>
        <_>
          <internalNodes>
            0 -1 310 5.1895696669816971e-03</internalNodes>
          <leafValues>
            -1.2511113286018372e-01 2.5215718150138855e-01</leafValues></_>
        <_>
          <internalNodes>
            0 -1 299 1.0462324135005474e-03</internalNodes>
          <leafValues>
            1.3269360363483429e-01 -2.9631987214088440e-01</leafValues></_>
        <_>
          <internalNodes>
            0 -1 217 1.0128788650035858e-02</internalNodes>
          <leafValues>
            3.8400415331125259e-02 -6.2393593788146973e-01</leafValues></_>
        <_>
          <internalNodes>
            0 -1 28 -7.0443889126181602e-03</internalNodes>
          <leafValues>
            2.6731705665588379e-01 -1.2107428163290024e-01</leafValues></_>
        <_>
          <internalNodes>
            0 -1 244 1.6357307322323322e-03</internalNodes>
          <leafValues>
            9.3925297260284424e-02 -3.8140147924423218e-01</leafValues></_>
        <_>
          <internalNodes>
            0 -1 30 1.3091623783111572e-02</internalNodes>
          <leafValues>
            -1.0350915789604187e-01 3.3503213524818420e-01</leafValues></_>
        <_>
          <internalNodes>
            0 -1 245 -1.6599718946963549e-03</internalNodes>
          <leafValues>
            -3.5172849893569946e-01 9.5743015408515930e-02</leafValues></_>
        <_>
          <internalNodes>
            0 -1 110 1.0349536314606667e-02</internalNodes>
          <leafValues>
            -1.0936349630355835e-01 3.3822390437126160e-01</leafValues></_>
        <_>
          <internalNodes>
            0 -1 344 4.7323317267000675e-03</internalNodes>
          <leafValues>
            -4.6940237283706665e-02 4.6183842420578003e-01</leafValues></_>
        <_>
          <internalNodes>
            0 -1 240 2.2936416789889336e-03</internalNodes>
          <leafValues>
            5.6238640099763870e-02 -4.7821328043937683e-01</leafValues></_>
        <_>
          <internalNodes>
            0 -1 178 3.6942721635568887e-05</internalNodes>
          <leafValues>
            -1.6654551029205322e-01 1.7912620306015015e-01</leafValues></_>
        <_>
          <internalNodes>
            0 -1 9 -4.0142989158630371e-01</internalNodes>
          <leafValues>
            -5.4933214187622070e-01 4.0609173476696014e-02</leafValues></_>
        <_>
          <internalNodes>
            0 -1 326 -1.0494233574718237e-03</internalNodes>
          <leafValues>
            -3.1773173809051514e-01 9.3709915876388550e-02</leafValues></_>
        <_>
          <internalNodes>
            0 -1 306 -2.5865673087537289e-03</internalNodes>
          <leafValues>
            -4.2607083916664124e-01 6.4394913613796234e-02</leafValues></_>
        <_>
          <internalNodes>
            0 -1 32 -3.7664591800421476e-03</internalNodes>
          <leafValues>
            2.3879458010196686e-01 -1.2761029601097107e-01</leafValues></_>
        <_>
          <internalNodes>
            0 -1 163 1.7693897461867891e-05</internalNodes>
          <leafValues>
            -1.5397725999355316e-01 1.8331128358840942e-01</leafValues></_>
        <_>
          <internalNodes>
            0 -1 225 1.8459151760907844e-05</internalNodes>
          <leafValues>
            -1.6966436803340912e-01 1.6788928210735321e-01</leafValues></_>
        <_>
          <internalNodes>
            0 -1 100 1.9816290587186813e-03</internalNodes>
          <leafValues>
            8.1771060824394226e-02 -4.3211451172828674e-01</leafValues></_>
        <_>
          <internalNodes>
            0 -1 311 4.4766198843717575e-03</internalNodes>
          <leafValues>
            -5.6625153869390488e-02 6.5363281965255737e-01</leafValues></_>
        <_>
          <internalNodes>
            0 -1 60 -1.5693164896219969e-03</internalNodes>
          <leafValues>
            1.7566226422786713e-01 -1.5513749420642853e-01</leafValues></_>
        <_>
          <internalNodes>
            0 -1 182 -4.9917986616492271e-03</internalNodes>
          <leafValues>
            4.8031541705131531e-01 -6.1754785478115082e-02</leafValues></_>
        <_>
          <internalNodes>
            0 -1 31 2.5757104158401489e-01</internalNodes>
          <leafValues>
            -4.7880914062261581e-02 5.2621686458587646e-01</leafValues></_>
        <_>
          <internalNodes>
            0 -1 192 -8.6554675363004208e-04</internalNodes>
          <leafValues>
            -3.8286116719245911e-01 7.7583901584148407e-02</leafValues></_>
        <_>
          <internalNodes>
            0 -1 36 -6.1961859464645386e-03</internalNodes>
          <leafValues>
            2.5734239816665649e-01 -1.2462285161018372e-01</leafValues></_>
        <_>
          <internalNodes>
            0 -1 191 1.8892340449383482e-05</internalNodes>
          <leafValues>
            -1.6601680219173431e-01 1.8892437219619751e-01</leafValues></_>
        <_>
          <internalNodes>
            0 -1 52 -3.0506523326039314e-03</internalNodes>
          <leafValues>
            3.8222783803939819e-01 -7.3111973702907562e-02</leafValues></_>
        <_>
          <internalNodes>
            0 -1 216 -1.5457035042345524e-03</internalNodes>
          <leafValues>
            -3.8186579942703247e-01 8.2608453929424286e-02</leafValues></_>
        <_>
          <internalNodes>
            0 -1 360 1.1599261313676834e-02</internalNodes>
          <leafValues>
            -7.8348062932491302e-02 3.7031728029251099e-01</leafValues></_>
        <_>
          <internalNodes>
            0 -1 317 -1.1998860165476799e-02</internalNodes>
          <leafValues>
            3.1358370184898376e-01 -9.1022402048110962e-02</leafValues></_>
        <_>
          <internalNodes>
            0 -1 177 -1.4338679611682892e-03</internalNodes>
          <leafValues>
            -3.0635270476341248e-01 8.7130323052406311e-02</leafValues></_>
        <_>
          <internalNodes>
            0 -1 316 4.3918858282268047e-03</internalNodes>
          <leafValues>
            -1.2123568356037140e-01 2.2120471298694611e-01</leafValues></_>
        <_>
          <internalNodes>
            0 -1 343 7.7017635339871049e-04</internalNodes>
          <leafValues>
            1.0125186294317245e-01 -2.5602138042449951e-01</leafValues></_>
        <_>
          <internalNodes>
            0 -1 295 5.6882545351982117e-02</internalNodes>
          <leafValues>
            -5.6057870388031006e-02 4.9308434128761292e-01</leafValues></_>
        <_>
          <internalNodes>
            0 -1 231 1.7606797628104687e-03</internalNodes>
          <leafValues>
            7.4569627642631531e-02 -4.1588601469993591e-01</leafValues></_>
        <_>
          <internalNodes>
            0 -1 126 -8.7639391422271729e-03</internalNodes>
          <leafValues>
            6.4483141899108887e-01 -4.6535659581422806e-02</leafValues></_>
        <_>
          <internalNodes>
            0 -1 197 1.6806208805064671e-05</internalNodes>
          <leafValues>
            -1.4796787500381470e-01 1.7764396965503693e-01</leafValues></_>
        <_>
          <internalNodes>
            0 -1 362 -1.8022435251623392e-03</internalNodes>
          <leafValues>
            3.7660777568817139e-01 -6.6262952983379364e-02</leafValues></_>
        <_>
          <internalNodes>
            0 -1 186 3.3251403365284204e-03</internalNodes>
          <leafValues>
            9.3567639589309692e-02 -2.8733354806900024e-01</leafValues></_>
        <_>
          <internalNodes>
            0 -1 353 3.2100980170071125e-03</internalNodes>
          <leafValues>
            -7.1760423481464386e-02 3.9451605081558228e-01</leafValues></_>
        <_>
          <internalNodes>
            0 -1 66 -8.3075920119881630e-03</internalNodes>
          <leafValues>
            1.2372196465730667e-01 -2.2196583449840546e-01</leafValues></_>
        <_>
          <internalNodes>
            0 -1 168 1.8843062207452022e-05</internalNodes>
          <leafValues>
            -1.7247417569160461e-01 1.7132972180843353e-01</leafValues></_>
        <_>
          <internalNodes>
            0 -1 286 4.4983380939811468e-04</internalNodes>
          <leafValues>
            9.3649476766586304e-02 -3.0290448665618896e-01</leafValues></_>
        <_>
          <internalNodes>
            0 -1 315 -6.3581247813999653e-03</internalNodes>
          <leafValues>
            1.7143020033836365e-01 -1.6282835602760315e-01</leafValues></_>
        <_>
          <internalNodes>
            0 -1 61 2.2114653140306473e-02</internalNodes>
          <leafValues>
            -9.8129242658615112e-02 2.6495304703712463e-01</leafValues></_>
        <_>
          <internalNodes>
            0 -1 157 9.4093546271324158e-02</internalNodes>
          <leafValues>
            -4.4666711241006851e-02 5.9117174148559570e-01</leafValues></_>
        <_>
          <internalNodes>
            0 -1 233 -8.7280466686934233e-04</internalNodes>
          <leafValues>
            -4.2463973164558411e-01 7.0323094725608826e-02</leafValues></_>
        <_>
          <internalNodes>
            0 -1 153 1.3232442736625671e-01</internalNodes>
          <leafValues>
            -4.8252087086439133e-02 6.4548403024673462e-01</leafValues></_>
        <_>
          <internalNodes>
            0 -1 19 -3.4963916987180710e-03</internalNodes>
          <leafValues>
            1.7730592191219330e-01 -1.4931513369083405e-01</leafValues></_>
        <_>
          <internalNodes>
            0 -1 330 1.7131154891103506e-03</internalNodes>
          <leafValues>
            -1.1206000298261642e-01 2.2950881719589233e-01</leafValues></_>
        <_>
          <internalNodes>
            0 -1 145 6.8013109266757965e-03</internalNodes>
          <leafValues>
            4.3731983751058578e-02 -5.7436865568161011e-01</leafValues></_>
        <_>
          <internalNodes>
            0 -1 95 1.9081449863733724e-05</internalNodes>
          <leafValues>
            -1.6055159270763397e-01 1.5698854625225067e-01</leafValues></_>
        <_>
          <internalNodes>
            0 -1 289 2.3267006035894156e-03</internalNodes>
          <leafValues>
            6.0073398053646088e-02 -4.4144186377525330e-01</leafValues></_>
        <_>
          <internalNodes>
            0 -1 367 -1.9719167612493038e-03</internalNodes>
          <leafValues>
            3.9303454756736755e-01 -7.0700049400329590e-02</leafValues></_>
        <_>
          <internalNodes>
            0 -1 355 5.7654988020658493e-02</internalNodes>
          <leafValues>
            -4.4124271720647812e-02 5.5008906126022339e-01</leafValues></_>
        <_>
          <internalNodes>
            0 -1 368 -2.8587644919753075e-03</internalNodes>
          <leafValues>
            4.8488533496856689e-01 -4.8441313207149506e-02</leafValues></_></weakClassifiers></_>
    <!-- stage 3 -->
    <_>
      <maxWeakCount>71</maxWeakCount>
      <stageThreshold>-1.5819851160049438e+00</stageThreshold>
      <weakClassifiers>
        <_>
          <internalNodes>
            0 -1 363 6.6625913605093956e-03</internalNodes>
          <leafValues>
            -2.0626492798328400e-01 2.4033404886722565e-01</leafValues></_>
        <_>
          <internalNodes>
            0 -1 115 3.8957550714258105e-05</internalNodes>
          <leafValues>
            -1.9630385935306549e-01 2.2841398417949677e-01</leafValues></_>
        <_>
          <internalNodes>
            0 -1 91 3.7259458622429520e-05</internalNodes>
          <leafValues>
            -2.0711752772331238e-01 2.3720724880695343e-01</leafValues></_>
        <_>
          <internalNodes>
            0 -1 49 -8.6842558812350035e-04</internalNodes>
          <leafValues>
            1.1822263896465302e-01 -3.3840429782867432e-01</leafValues></_>
        <_>
          <internalNodes>
            0 -1 272 3.5495017073117197e-05</internalNodes>
          <leafValues>
            -1.5469048917293549e-01 2.3974679410457611e-01</leafValues></_>
        <_>
          <internalNodes>
            0 -1 176 -6.1824088916182518e-03</internalNodes>
          <leafValues>
            2.4604479968547821e-01 -1.4019505679607391e-01</leafValues></_>
        <_>
          <internalNodes>
            0 -1 270 3.8082929677329957e-05</internalNodes>
          <leafValues>
            -2.3860481381416321e-01 1.4823552966117859e-01</leafValues></_>
        <_>
          <internalNodes>
            0 -1 44 -2.7430390473455191e-03</internalNodes>
          <leafValues>
            4.4578176736831665e-01 -3.3197488635778427e-02</leafValues></_>
        <_>
          <internalNodes>
            0 -1 265 1.3913551811128855e-03</internalNodes>
          <leafValues>
            -8.8113017380237579e-02 3.7368315458297729e-01</leafValues></_>
        <_>
          <internalNodes>
            0 -1 265 -1.4291562838479877e-03</internalNodes>
          <leafValues>
            3.7427449226379395e-01 -9.2127472162246704e-02</leafValues></_>
        <_>
          <internalNodes>
            0 -1 161 1.2612100690603256e-03</internalNodes>
          <leafValues>
            1.1534447968006134e-01 -2.9011040925979614e-01</leafValues></_>
        <_>
          <internalNodes>
            0 -1 2 4.2377197742462158e-01</internalNodes>
          <leafValues>
            7.2056427597999573e-02 -5.1019632816314697e-01</leafValues></_>
        <_>
          <internalNodes>
            0 -1 44 4.6686160203535110e-05</internalNodes>
          <leafValues>
            -1.8794772028923035e-01 1.5780660510063171e-01</leafValues></_>
        <_>
          <internalNodes>
            0 -1 147 -1.4417346566915512e-02</internalNodes>
          <leafValues>
            -5.3333014249801636e-01 7.1341887116432190e-02</leafValues></_>
        <_>
          <internalNodes>
            0 -1 214 1.5304902195930481e-01</internalNodes>
          <leafValues>
            -5.5590122938156128e-02 5.9873449802398682e-01</leafValues></_>
        <_>
          <internalNodes>
            0 -1 123 -3.7473901174962521e-03</internalNodes>
          <leafValues>
            2.0123395323753357e-01 -1.4668983221054077e-01</leafValues></_>
        <_>
          <internalNodes>
            0 -1 90 -1.9225712865591049e-02</internalNodes>
          <leafValues>
            -3.5625812411308289e-01 8.7294481694698334e-02</leafValues></_>
        <_>
          <internalNodes>
            0 -1 185 4.4061391236027703e-05</internalNodes>
          <leafValues>
            -1.8584205210208893e-01 1.5661996603012085e-01</leafValues></_>
        <_>
          <internalNodes>
            0 -1 140 -8.6404231842607260e-04</internalNodes>
          <leafValues>
            -2.7629721164703369e-01 9.4986692070960999e-02</leafValues></_>
        <_>
          <internalNodes>
            0 -1 142 2.5787511840462685e-03</internalNodes>
          <leafValues>
            8.0606073141098022e-02 -3.5549959540367126e-01</leafValues></_>
        <_>
          <internalNodes>
            0 -1 167 3.9385420677717775e-05</internalNodes>
          <leafValues>
            -1.5304973721504211e-01 1.7631596326828003e-01</leafValues></_>
        <_>
          <internalNodes>
            0 -1 171 3.9713100704830140e-05</internalNodes>
          <leafValues>
            -1.6391703486442566e-01 1.7185726761817932e-01</leafValues></_>
        <_>
          <internalNodes>
            0 -1 173 -6.0480425599962473e-04</internalNodes>
          <leafValues>
            -3.8755258917808533e-01 8.7607182562351227e-02</leafValues></_>
        <_>
          <internalNodes>
            0 -1 84 4.4301194138824940e-03</internalNodes>
          <leafValues>
            -5.0259988754987717e-02 6.3033634424209595e-01</leafValues></_>
        <_>
          <internalNodes>
            0 -1 164 4.1126477299258113e-05</internalNodes>
          <leafValues>
            -1.5395608544349670e-01 1.8033593893051147e-01</leafValues></_>
        <_>
          <internalNodes>
            0 -1 346 -1.3908230699598789e-02</internalNodes>
          <leafValues>
            2.1200893819332123e-01 -1.2291706353425980e-01</leafValues></_>
        <_>
          <internalNodes>
            0 -1 283 -1.7221374437212944e-03</internalNodes>
          <leafValues>
            -4.0520462393760681e-01 6.7154251039028168e-02</leafValues></_>
        <_>
          <internalNodes>
            0 -1 305 3.8569076423300430e-05</internalNodes>
          <leafValues>
            -1.5111577510833740e-01 1.6730523109436035e-01</leafValues></_>
        <_>
          <internalNodes>
            0 -1 21 3.6327205598354340e-03</internalNodes>
          <leafValues>
            -5.8021690696477890e-02 4.1814979910850525e-01</leafValues></_>
        <_>
          <internalNodes>
            0 -1 70 -2.0582797005772591e-03</internalNodes>
          <leafValues>
            3.8282740116119385e-01 -6.1200443655252457e-02</leafValues></_>
        <_>
          <internalNodes>
            0 -1 70 2.4279423523694277e-03</internalNodes>
          <leafValues>
            -5.3668845444917679e-02 4.6294721961021423e-01</leafValues></_>
        <_>
          <internalNodes>
            0 -1 118 -3.1175357289612293e-03</internalNodes>
          <leafValues>
            -4.3684038519859314e-01 6.2167402356863022e-02</leafValues></_>
        <_>
          <internalNodes>
            0 -1 89 6.9717574119567871e-01</internalNodes>
          <leafValues>
            -3.7493016570806503e-02 7.1524530649185181e-01</leafValues></_>
        <_>
          <internalNodes>
            0 -1 227 6.1174464644864202e-04</internalNodes>
          <leafValues>
            7.8367300331592560e-02 -3.2324016094207764e-01</leafValues></_>
        <_>
          <internalNodes>
            0 -1 229 3.8320366002153605e-05</internalNodes>
          <leafValues>
            -1.5835103392601013e-01 1.6553202271461487e-01</leafValues></_>
        <_>
          <internalNodes>
            0 -1 234 -4.2752578156068921e-04</internalNodes>
          <leafValues>
            -3.1899017095565796e-01 8.6162775754928589e-02</leafValues></_>
        <_>
          <internalNodes>
            0 -1 158 -7.8946068882942200e-02</internalNodes>
          <leafValues>
            5.2954649925231934e-01 -6.2347143888473511e-02</leafValues></_>
        <_>
          <internalNodes>
            0 -1 78 -3.0078964307904243e-02</internalNodes>
          <leafValues>
            1.6378584504127502e-01 -1.7943151295185089e-01</leafValues></_>
        <_>
          <internalNodes>
            0 -1 361 -2.9337233863770962e-03</internalNodes>
          <leafValues>
            3.8948899507522583e-01 -6.9826759397983551e-02</leafValues></_>
        <_>
          <internalNodes>
            0 -1 183 -2.4764600675553083e-03</internalNodes>
          <leafValues>
            4.7727566957473755e-01 -4.8033446073532104e-02</leafValues></_>
        <_>
          <internalNodes>
            0 -1 125 -4.5412762119667605e-05</internalNodes>
          <leafValues>
            1.5771207213401794e-01 -1.4624473452568054e-01</leafValues></_>
        <_>
          <internalNodes>
            0 -1 124 4.4717402488458902e-05</internalNodes>
          <leafValues>
            -1.4191211760044098e-01 1.6623708605766296e-01</leafValues></_>
        <_>
          <internalNodes>
            0 -1 162 -1.3127169804647565e-03</internalNodes>
          <leafValues>
            -2.9343685507774353e-01 8.3315536379814148e-02</leafValues></_>
        <_>
          <internalNodes>
            0 -1 15 -2.8223586268723011e-03</internalNodes>
          <leafValues>
            2.2295424342155457e-01 -1.1456415057182312e-01</leafValues></_>
        <_>
          <internalNodes>
            0 -1 59 6.2650199979543686e-03</internalNodes>
          <leafValues>
            -1.1176430433988571e-01 2.0902277529239655e-01</leafValues></_>
        <_>
          <internalNodes>
            0 -1 119 4.9222330562770367e-04</internalNodes>
          <leafValues>
            8.7978415191173553e-02 -3.0378928780555725e-01</leafValues></_>
        <_>
          <internalNodes>
            0 -1 207 2.4680669885128736e-03</internalNodes>
          <leafValues>
            -6.0138203203678131e-02 4.4390773773193359e-01</leafValues></_>
        <_>
          <internalNodes>
            0 -1 121 3.8060148654039949e-05</internalNodes>
          <leafValues>
            -1.4922501146793365e-01 1.5787018835544586e-01</leafValues></_>
        <_>
          <internalNodes>
            0 -1 345 -4.1205734014511108e-03</internalNodes>
          <leafValues>
            4.2086225748062134e-01 -5.4707825183868408e-02</leafValues></_>
        <_>
          <internalNodes>
            0 -1 259 -2.3082981351763010e-03</internalNodes>
          <leafValues>
            -4.0208706259727478e-01 6.2201444059610367e-02</leafValues></_>
        <_>
          <internalNodes>
            0 -1 104 1.4914907515048981e-02</internalNodes>
          <leafValues>
            -8.7750062346458435e-02 2.9538100957870483e-01</leafValues></_>
        <_>
          <internalNodes>
            0 -1 336 9.1495579108595848e-03</internalNodes>
          <leafValues>
            -5.5901218205690384e-02 4.2945241928100586e-01</leafValues></_>
        <_>
          <internalNodes>
            0 -1 246 2.0011493470519781e-03</internalNodes>
          <leafValues>
            7.9507641494274139e-02 -3.5241895914077759e-01</leafValues></_>
        <_>
          <internalNodes>
            0 -1 181 3.7077399902045727e-03</internalNodes>
          <leafValues>
            -6.8754628300666809e-02 3.8242605328559875e-01</leafValues></_>
        <_>
          <internalNodes>
            0 -1 208 -2.3812949657440186e-03</internalNodes>
          <leafValues>
            2.8919053077697754e-01 -7.6819568872451782e-02</leafValues></_>
        <_>
          <internalNodes>
            0 -1 220 -1.3216454535722733e-03</internalNodes>
          <leafValues>
            -2.8939670324325562e-01 8.0573745071887970e-02</leafValues></_>
        <_>
          <internalNodes>
            0 -1 8 3.8933721184730530e-01</internalNodes>
          <leafValues>
            -4.3452698737382889e-02 6.5860164165496826e-01</leafValues></_>
        <_>
          <internalNodes>
            0 -1 278 -1.8547857180237770e-03</internalNodes>
          <leafValues>
            1.7137511074542999e-01 -1.4120455086231232e-01</leafValues></_>
        <_>
          <internalNodes>
            0 -1 251 -2.0418986678123474e-01</internalNodes>
          <leafValues>
            -6.6609525680541992e-01 3.2968260347843170e-02</leafValues></_>
        <_>
          <internalNodes>
            0 -1 294 2.9408908449113369e-03</internalNodes>
          <leafValues>
            -5.1185414195060730e-02 4.8171392083168030e-01</leafValues></_>
        <_>
          <internalNodes>
            0 -1 193 3.9042664866428822e-05</internalNodes>
          <leafValues>
            -1.3630425930023193e-01 1.6050638258457184e-01</leafValues></_>
        <_>
          <internalNodes>
            0 -1 228 3.9159589505288750e-05</internalNodes>
          <leafValues>
            -1.5802851319313049e-01 1.7638361454010010e-01</leafValues></_>
        <_>
          <internalNodes>
            0 -1 194 9.1995921684429049e-04</internalNodes>
          <leafValues>
            8.9168608188629150e-02 -3.3723330497741699e-01</leafValues></_>
        <_>
          <internalNodes>
            0 -1 92 -3.8383692502975464e-02</internalNodes>
          <leafValues>
            1.8050929903984070e-01 -1.5435166656970978e-01</leafValues></_>
        <_>
          <internalNodes>
            0 -1 241 1.5837398823350668e-03</internalNodes>
          <leafValues>
            7.6905764639377594e-02 -3.5228294134140015e-01</leafValues></_>
        <_>
          <internalNodes>
            0 -1 361 4.0975380688905716e-03</internalNodes>
          <leafValues>
            -5.8416087180376053e-02 4.4685164093971252e-01</leafValues></_>
        <_>
          <internalNodes>
            0 -1 210 8.0986199900507927e-03</internalNodes>
          <leafValues>
            7.6940692961215973e-02 -3.2287275791168213e-01</leafValues></_>
        <_>
          <internalNodes>
            0 -1 269 -2.9962284024804831e-03</internalNodes>
          <leafValues>
            3.4866502881050110e-01 -6.4229875802993774e-02</leafValues></_>
        <_>
          <internalNodes>
            0 -1 301 -9.8735583014786243e-04</internalNodes>
          <leafValues>
            -2.9194843769073486e-01 8.1784263253211975e-02</leafValues></_>
        <_>
          <internalNodes>
            0 -1 297 4.5203338231658563e-05</internalNodes>
          <leafValues>
            -1.5886682271957397e-01 1.5407145023345947e-01</leafValues></_>
        <_>
          <internalNodes>
            0 -1 350 4.6642627567052841e-03</internalNodes>
          <leafValues>
            -5.9445131570100784e-02 3.6498796939849854e-01</leafValues></_></weakClassifiers></_>
    <!-- stage 4 -->
    <_>
      <maxWeakCount>90</maxWeakCount>
      <stageThreshold>-1.4729646444320679e+00</stageThreshold>
      <weakClassifiers>
        <_>
          <internalNodes>
            0 -1 328 1.5661444514989853e-02</internalNodes>
          <leafValues>
            -1.6301096975803375e-01 2.1887549757957458e-01</leafValues></_>
        <_>
          <internalNodes>
            0 -1 10 -9.2811156064271927e-03</internalNodes>
          <leafValues>
            2.0392744243144989e-01 -1.4805571734905243e-01</leafValues></_>
        <_>
          <internalNodes>
            0 -1 205 2.8669717721641064e-03</internalNodes>
          <leafValues>
            -1.4051841199398041e-01 1.7346920073032379e-01</leafValues></_>
        <_>
          <internalNodes>
            0 -1 331 -1.4220148324966431e-02</internalNodes>
          <leafValues>
            2.8110736608505249e-01 -1.3300326466560364e-01</leafValues></_>
        <_>
          <internalNodes>
            0 -1 325 -5.8865682221949100e-03</internalNodes>
          <leafValues>
            -4.9889579415321350e-01 1.0235451906919479e-01</leafValues></_>
        <_>
          <internalNodes>
            0 -1 318 -3.8499552756547928e-02</internalNodes>
          <leafValues>
            2.6050835847854614e-01 -1.1001283675432205e-01</leafValues></_>
        <_>
          <internalNodes>
            0 -1 39 -2.9326353687793016e-03</internalNodes>
          <leafValues>
            4.6636691689491272e-01 -6.9985575973987579e-02</leafValues></_>
        <_>
          <internalNodes>
            0 -1 88 -2.1188784390687943e-02</internalNodes>
          <leafValues>
            1.3116900622844696e-01 -1.8278759717941284e-01</leafValues></_>
        <_>
          <internalNodes>
            0 -1 198 -1.0891370475292206e-03</internalNodes>
          <leafValues>
            -2.5975742936134338e-01 1.3604198396205902e-01</leafValues></_>
        <_>
          <internalNodes>
            0 -1 199 3.4710734325926751e-05</internalNodes>
          <leafValues>
            -1.6720840334892273e-01 1.4498008787631989e-01</leafValues></_>
        <_>
          <internalNodes>
            0 -1 106 -4.1273394599556923e-03</internalNodes>
          <leafValues>
            5.6178885698318481e-01 -4.4165916740894318e-02</leafValues></_>
        <_>
          <internalNodes>
            0 -1 25 3.2685679197311401e-01</internalNodes>
          <leafValues>
            -4.5560501515865326e-02 4.6599647402763367e-01</leafValues></_>
        <_>
          <internalNodes>
            0 -1 195 -4.3182779336348176e-04</internalNodes>
          <leafValues>
            -3.1717863678932190e-01 8.9230403304100037e-02</leafValues></_>
        <_>
          <internalNodes>
            0 -1 170 1.5347490261774510e-05</internalNodes>
          <leafValues>
            -1.5172150731086731e-01 1.8668991327285767e-01</leafValues></_>
        <_>
          <internalNodes>
            0 -1 127 8.9326761662960052e-03</internalNodes>
          <leafValues>
            -7.8864216804504395e-02 4.0596377849578857e-01</leafValues></_>
        <_>
          <internalNodes>
            0 -1 169 3.8246775511652231e-04</internalNodes>
          <leafValues>
            8.4495924413204193e-02 -2.8802248835563660e-01</leafValues></_>
        <_>
          <internalNodes>
            0 -1 314 1.9281844142824411e-03</internalNodes>
          <leafValues>
            -5.9498857706785202e-02 3.8901397585868835e-01</leafValues></_>
        <_>
          <internalNodes>
            0 -1 101 1.4168954454362392e-02</internalNodes>
          <leafValues>
            3.7164863198995590e-02 -5.7538235187530518e-01</leafValues></_>
        <_>
          <internalNodes>
            0 -1 293 3.5427929833531380e-03</internalNodes>
          <leafValues>
            -4.2597874999046326e-02 5.3571397066116333e-01</leafValues></_>
        <_>
          <internalNodes>
            0 -1 291 2.5823456235229969e-03</internalNodes>
          <leafValues>
            -5.3498908877372742e-02 4.1163250803947449e-01</leafValues></_>
        <_>
          <internalNodes>
            0 -1 261 2.1851523779332638e-03</internalNodes>
          <leafValues>
            5.2849847823381424e-02 -3.9615997672080994e-01</leafValues></_>
        <_>
          <internalNodes>
            0 -1 46 3.4714711364358664e-03</internalNodes>
          <leafValues>
            -1.1196599155664444e-01 1.9022998213768005e-01</leafValues></_>
        <_>
          <internalNodes>
            0 -1 29 5.1123404502868652e-01</internalNodes>
          <leafValues>
            -3.4671071916818619e-02 6.2841850519180298e-01</leafValues></_>
        <_>
          <internalNodes>
            0 -1 138 -5.4331282153725624e-03</internalNodes>
          <leafValues>
            -4.9625235795974731e-01 5.0056379288434982e-02</leafValues></_>
        <_>
          <internalNodes>
            0 -1 284 -8.0814410466700792e-04</internalNodes>
          <leafValues>
            -2.4053630232810974e-01 9.1827981173992157e-02</leafValues></_>
        <_>
          <internalNodes>
            0 -1 50 -3.8834686856716871e-03</internalNodes>
          <leafValues>
            3.6625504493713379e-01 -6.2623277306556702e-02</leafValues></_>
        <_>
          <internalNodes>
            0 -1 48 -3.3030752092599869e-03</internalNodes>
          <leafValues>
            2.0189805328845978e-01 -1.2500067055225372e-01</leafValues></_>
        <_>
          <internalNodes>
            0 -1 154 8.6540414486080408e-04</internalNodes>
          <leafValues>
            8.3430208265781403e-02 -2.4861954152584076e-01</leafValues></_>
        <_>
          <internalNodes>
            0 -1 114 3.4510747354943305e-05</internalNodes>
          <leafValues>
            -1.4994092285633087e-01 1.5945848822593689e-01</leafValues></_>
        <_>
          <internalNodes>
            0 -1 274 -1.6289488412439823e-03</internalNodes>
          <leafValues>
            -3.3527985215187073e-01 6.1526812613010406e-02</leafValues></_>
        <_>
          <internalNodes>
            0 -1 334 1.8162494897842407e-01</internalNodes>
          <leafValues>
            -3.2396744936704636e-02 6.7007833719253540e-01</leafValues></_>
        <_>
          <internalNodes>
            0 -1 151 -3.8094436749815941e-03</internalNodes>
          <leafValues>
            1.5887662768363953e-01 -1.4724776148796082e-01</leafValues></_>
        <_>
          <internalNodes>
            0 -1 274 7.1095599560067058e-04</internalNodes>
          <leafValues>
            9.3956470489501953e-02 -2.4370636045932770e-01</leafValues></_>
        <_>
          <internalNodes>
            0 -1 41 -3.6606967914849520e-03</internalNodes>
          <leafValues>
            3.2779461145401001e-01 -6.8540424108505249e-02</leafValues></_>
        <_>
          <internalNodes>
            0 -1 53 -5.8106011711061001e-03</internalNodes>
          <leafValues>
            2.4426196515560150e-01 -9.1805696487426758e-02</leafValues></_>
        <_>
          <internalNodes>
            0 -1 133 4.0879247535485774e-05</internalNodes>
          <leafValues>
            -1.3542665541172028e-01 1.5651835501194000e-01</leafValues></_>
        <_>
          <internalNodes>
            0 -1 54 5.2534230053424835e-03</internalNodes>
          <leafValues>
            -9.6192665398120880e-02 2.0589984953403473e-01</leafValues></_>
        <_>
          <internalNodes>
            0 -1 56 -1.2514282949268818e-02</internalNodes>
          <leafValues>
            3.0105525255203247e-01 -7.4655212461948395e-02</leafValues></_>
        <_>
          <internalNodes>
            0 -1 136 -9.1534561943262815e-04</internalNodes>
          <leafValues>
            -2.4250446259975433e-01 8.7705366313457489e-02</leafValues></_>
        <_>
          <internalNodes>
            0 -1 83 -1.8317772075533867e-02</internalNodes>
          <leafValues>
            1.5875653922557831e-01 -1.4119236171245575e-01</leafValues></_>
        <_>
          <internalNodes>
            0 -1 135 -6.6363632678985596e-02</internalNodes>
          <leafValues>
            3.7932258844375610e-01 -6.3334755599498749e-02</leafValues></_>
        <_>
          <internalNodes>
            0 -1 307 -1.6934722225414589e-05</internalNodes>
          <leafValues>
            1.6432613134384155e-01 -1.4051811397075653e-01</leafValues></_>
        <_>
          <internalNodes>
            0 -1 280 1.2768879532814026e-03</internalNodes>
          <leafValues>
            7.5805507600307465e-02 -3.0258861184120178e-01</leafValues></_>
        <_>
          <internalNodes>
            0 -1 223 4.0153448935598135e-05</internalNodes>
          <leafValues>
            -1.4523956179618835e-01 1.5522311627864838e-01</leafValues></_>
        <_>
          <internalNodes>
            0 -1 219 3.5430610296316445e-05</internalNodes>
          <leafValues>
            -1.7174482345581055e-01 1.8683481216430664e-01</leafValues></_>
        <_>
          <internalNodes>
            0 -1 333 -4.4749258086085320e-03</internalNodes>
          <leafValues>
            3.9693185687065125e-01 -5.3996279835700989e-02</leafValues></_>
        <_>
          <internalNodes>
            0 -1 175 4.5980801805853844e-03</internalNodes>
          <leafValues>
            4.9329433590173721e-02 -4.4449713826179504e-01</leafValues></_>
        <_>
          <internalNodes>
            0 -1 349 3.0518774874508381e-03</internalNodes>
          <leafValues>
            -5.1349908113479614e-02 4.3118911981582642e-01</leafValues></_>
        <_>
          <internalNodes>
            0 -1 307 -9.3749753432348371e-04</internalNodes>
          <leafValues>
            -3.1973987817764282e-01 6.3821092247962952e-02</leafValues></_>
        <_>
          <internalNodes>
            0 -1 338 -4.3313466012477875e-03</internalNodes>
          <leafValues>
            2.6305389404296875e-01 -8.2841888070106506e-02</leafValues></_>
        <_>
          <internalNodes>
            0 -1 327 -2.4421107955276966e-03</internalNodes>
          <leafValues>
            1.7382243275642395e-01 -1.2633018195629120e-01</leafValues></_>
        <_>
          <internalNodes>
            0 -1 22 -2.6810349663719535e-04</internalNodes>
          <leafValues>
            -2.1900035440921783e-01 9.0132966637611389e-02</leafValues></_>
        <_>
          <internalNodes>
            0 -1 22 5.1087542669847608e-04</internalNodes>
          <leafValues>
            8.7209232151508331e-02 -2.6710098981857300e-01</leafValues></_>
        <_>
          <internalNodes>
            0 -1 24 3.2024316489696503e-02</internalNodes>
          <leafValues>
            -7.1353860199451447e-02 2.8387898206710815e-01</leafValues></_>
        <_>
          <internalNodes>
            0 -1 109 -3.9592860266566277e-03</internalNodes>
          <leafValues>
            2.0270031690597534e-01 -1.0119030624628067e-01</leafValues></_>
        <_>
          <internalNodes>
            0 -1 227 -4.0231202729046345e-04</internalNodes>
          <leafValues>
            -2.6327180862426758e-01 7.5872920453548431e-02</leafValues></_>
        <_>
          <internalNodes>
            0 -1 349 -2.1413536742329597e-03</internalNodes>
          <leafValues>
            3.6486780643463135e-01 -5.7180508971214294e-02</leafValues></_>
        <_>
          <internalNodes>
            0 -1 113 5.0550177693367004e-03</internalNodes>
          <leafValues>
            -7.3540359735488892e-02 2.5502917170524597e-01</leafValues></_>
        <_>
          <internalNodes>
            0 -1 347 -2.8554531745612621e-03</internalNodes>
          <leafValues>
            1.3904888927936554e-01 -1.3508455455303192e-01</leafValues></_>
        <_>
          <internalNodes>
            0 -1 45 1.2799669057130814e-02</internalNodes>
          <leafValues>
            -8.7920412421226501e-02 2.2601988911628723e-01</leafValues></_>
        <_>
          <internalNodes>
            0 -1 260 3.8202961150091141e-05</internalNodes>
          <leafValues>
            -1.4119787514209747e-01 1.3666561245918274e-01</leafValues></_>
        <_>
          <internalNodes>
            0 -1 285 -2.5881333276629448e-03</internalNodes>
          <leafValues>
            -4.9927297234535217e-01 4.6682480722665787e-02</leafValues></_>
        <_>
          <internalNodes>
            0 -1 322 -3.1986020505428314e-02</internalNodes>
          <leafValues>
            5.0483691692352295e-01 -4.6369571238756180e-02</leafValues></_>
        <_>
          <internalNodes>
            0 -1 248 -1.8352402839809656e-03</internalNodes>
          <leafValues>
            -3.9519238471984863e-01 6.1906341463327408e-02</leafValues></_>
        <_>
          <internalNodes>
            0 -1 163 4.0667102439329028e-05</internalNodes>
          <leafValues>
            -1.4542566239833832e-01 1.4273814857006073e-01</leafValues></_>
        <_>
          <internalNodes>
            0 -1 368 4.3901256285607815e-03</internalNodes>
          <leafValues>
            -3.0513979494571686e-02 5.6791990995407104e-01</leafValues></_>
        <_>
          <internalNodes>
            0 -1 357 5.1968372426927090e-03</internalNodes>
          <leafValues>
            -9.1614820063114166e-02 2.0087131857872009e-01</leafValues></_>
        <_>
          <internalNodes>
            0 -1 99 1.0902896523475647e-02</internalNodes>
          <leafValues>
            3.3522341400384903e-02 -5.6401365995407104e-01</leafValues></_>
        <_>
          <internalNodes>
            0 -1 82 -2.9870867729187012e-03</internalNodes>
          <leafValues>
            1.8650601804256439e-01 -9.8426714539527893e-02</leafValues></_>
        <_>
          <internalNodes>
            0 -1 115 -9.6572685288265347e-04</internalNodes>
          <leafValues>
            -2.9096421599388123e-01 7.2914160788059235e-02</leafValues></_>
        <_>
          <internalNodes>
            0 -1 300 8.6886947974562645e-04</internalNodes>
          <leafValues>
            7.2155408561229706e-02 -2.5554046034812927e-01</leafValues></_>
        <_>
          <internalNodes>
            0 -1 33 2.2360677830874920e-03</internalNodes>
          <leafValues>
            -5.0483863800764084e-02 3.6649510264396667e-01</leafValues></_>
        <_>
          <internalNodes>
            0 -1 222 3.9505899621872231e-05</internalNodes>
          <leafValues>
            -1.2867005169391632e-01 1.3909408450126648e-01</leafValues></_>
        <_>
          <internalNodes>
            0 -1 190 3.9216836739797145e-05</internalNodes>
          <leafValues>
            -1.3259555399417877e-01 1.4315810799598694e-01</leafValues></_>
        <_>
          <internalNodes>
            0 -1 254 -7.3790748137980700e-04</internalNodes>
          <leafValues>
            -3.5048851370811462e-01 6.2746629118919373e-02</leafValues></_>
        <_>
          <internalNodes>
            0 -1 97 -5.3959079086780548e-03</internalNodes>
          <leafValues>
            1.3202357292175293e-01 -1.5031874179840088e-01</leafValues></_>
        <_>
          <internalNodes>
            0 -1 252 9.6966087818145752e-02</internalNodes>
          <leafValues>
            -5.0005320459604263e-02 4.7322282195091248e-01</leafValues></_>
        <_>
          <internalNodes>
            0 -1 313 -3.2670183572918177e-03</internalNodes>
          <leafValues>
            1.7446434497833252e-01 -1.3020363450050354e-01</leafValues></_>
        <_>
          <internalNodes>
            0 -1 76 -1.2454705312848091e-02</internalNodes>
          <leafValues>
            2.6289027929306030e-01 -7.7138558030128479e-02</leafValues></_>
        <_>
          <internalNodes>
            0 -1 77 1.0207192972302437e-02</internalNodes>
          <leafValues>
            -1.0721892863512039e-01 2.2620989382266998e-01</leafValues></_>
        <_>
          <internalNodes>
            0 -1 258 6.3759810291230679e-04</internalNodes>
          <leafValues>
            6.6057540476322174e-02 -3.1705346703529358e-01</leafValues></_>
        <_>
          <internalNodes>
            0 -1 202 3.6914847441948950e-05</internalNodes>
          <leafValues>
            -1.3586005568504333e-01 1.3630816340446472e-01</leafValues></_>
        <_>
          <internalNodes>
            0 -1 180 -4.3992139399051666e-03</internalNodes>
          <leafValues>
            6.1894553899765015e-01 -3.0615139752626419e-02</leafValues></_>
        <_>
          <internalNodes>
            0 -1 292 3.0398746021091938e-03</internalNodes>
          <leafValues>
            -3.8080621510744095e-02 4.3899816274642944e-01</leafValues></_>
        <_>
          <internalNodes>
            0 -1 64 -2.9696762561798096e-01</internalNodes>
          <leafValues>
            -6.8951731920242310e-01 2.7469385415315628e-02</leafValues></_>
        <_>
          <internalNodes>
            0 -1 116 -3.7166692316532135e-02</internalNodes>
          <leafValues>
            1.4444738626480103e-01 -1.2764526903629303e-01</leafValues></_>
        <_>
          <internalNodes>
            0 -1 221 -3.3525185426697135e-04</internalNodes>
          <leafValues>
            -2.4733828008174896e-01 9.0303719043731689e-02</leafValues></_>
        <_>
          <internalNodes>
            0 -1 201 -4.2099520214833319e-05</internalNodes>
          <leafValues>
            1.5636858344078064e-01 -1.2608933448791504e-01</leafValues></_>
        <_>
          <internalNodes>
            0 -1 16 -2.6076052337884903e-02</internalNodes>
          <leafValues>
            1.5455134212970734e-01 -1.3431616127490997e-01</leafValues></_>
        <_>
          <internalNodes>
            0 -1 98 -4.1718132793903351e-02</internalNodes>
          <leafValues>
            5.3183758258819580e-01 -3.8016073405742645e-02</leafValues></_></weakClassifiers></_>
    <!-- stage 5 -->
    <_>
      <maxWeakCount>88</maxWeakCount>
      <stageThreshold>-1.3905409574508667e+00</stageThreshold>
      <weakClassifiers>
        <_>
          <internalNodes>
            0 -1 339 -3.3441148698329926e-03</internalNodes>
          <leafValues>
            4.2238268256187439e-01 -7.9429738223552704e-02</leafValues></_>
        <_>
          <internalNodes>
            0 -1 311 2.1860469132661819e-03</internalNodes>
          <leafValues>
            -6.7947179079055786e-02 4.2279347777366638e-01</leafValues></_>
        <_>
          <internalNodes>
            0 -1 324 6.3542257994413376e-03</internalNodes>
          <leafValues>
            -1.5832619369029999e-01 1.8406359851360321e-01</leafValues></_>
        <_>
          <internalNodes>
            0 -1 339 3.1072821002453566e-04</internalNodes>
          <leafValues>
            -1.9454436004161835e-01 2.2092795372009277e-01</leafValues></_>
        <_>
          <internalNodes>
            0 -1 149 2.2866907529532909e-03</internalNodes>
          <leafValues>
            -2.3516882210969925e-02 4.4723764061927795e-01</leafValues></_>
        <_>
          <internalNodes>
            0 -1 43 -2.7795289643108845e-03</internalNodes>
          <leafValues>
            3.1879210472106934e-01 -8.5919633507728577e-02</leafValues></_>
        <_>
          <internalNodes>
            0 -1 43 2.3065579589456320e-03</internalNodes>
          <leafValues>
            -9.2114828526973724e-02 3.2731634378433228e-01</leafValues></_>
        <_>
          <internalNodes>
            0 -1 148 -8.3986222743988037e-03</internalNodes>
          <leafValues>
            2.2091400623321533e-01 -8.8478259742259979e-02</leafValues></_>
        <_>
          <internalNodes>
            0 -1 11 5.7766668498516083e-02</internalNodes>
          <leafValues>
            -8.3025068044662476e-02 3.3104974031448364e-01</leafValues></_>
        <_>
          <internalNodes>
            0 -1 152 -2.5902055203914642e-03</internalNodes>
          <leafValues>
            4.0385818481445312e-01 -4.5140221714973450e-02</leafValues></_>
        <_>
          <internalNodes>
            0 -1 103 1.9542649388313293e-03</internalNodes>
          <leafValues>
            5.7735204696655273e-02 -3.9841806888580322e-01</leafValues></_>
        <_>
          <internalNodes>
            0 -1 321 4.2387628927826881e-03</internalNodes>
          <leafValues>
            -4.7330416738986969e-02 4.3058791756629944e-01</leafValues></_>
        <_>
          <internalNodes>
            0 -1 281 7.3912768857553601e-04</internalNodes>
          <leafValues>
            1.0568660497665405e-01 -2.2333049774169922e-01</leafValues></_>
        <_>
          <internalNodes>
            0 -1 337 4.4186628656461835e-05</internalNodes>
          <leafValues>
            -1.5994882583618164e-01 1.4899761974811554e-01</leafValues></_>
        <_>
          <internalNodes>
            0 -1 179 -2.4777010548859835e-03</internalNodes>
          <leafValues>
            2.4549311399459839e-01 -8.6730532348155975e-02</leafValues></_>
        <_>
          <internalNodes>
            0 -1 141 -9.2766783200204372e-04</internalNodes>
          <leafValues>
            -2.5330227613449097e-01 1.1060931533575058e-01</leafValues></_>
        <_>
          <internalNodes>
            0 -1 93 3.1837679445743561e-02</internalNodes>
          <leafValues>
            2.6367956772446632e-02 -5.4827928543090820e-01</leafValues></_>
        <_>
          <internalNodes>
            0 -1 34 -1.8941547023132443e-04</internalNodes>
          <leafValues>
            -2.1322467923164368e-01 9.4601012766361237e-02</leafValues></_>
        <_>
          <internalNodes>
            0 -1 34 2.5539950001984835e-04</internalNodes>
          <leafValues>
            1.1319882422685623e-01 -2.2847707569599152e-01</leafValues></_>
        <_>
          <internalNodes>
            0 -1 215 5.0763264298439026e-02</internalNodes>
          <leafValues>
            -7.1225531399250031e-02 2.8847292065620422e-01</leafValues></_>
        <_>
          <internalNodes>
            0 -1 211 5.0246834754943848e-02</internalNodes>
          <leafValues>
            -3.4860461950302124e-02 6.5599441528320312e-01</leafValues></_>
        <_>
          <internalNodes>
            0 -1 17 -8.9646242558956146e-03</internalNodes>
          <leafValues>
            1.3670268654823303e-01 -1.6656845808029175e-01</leafValues></_>
        <_>
          <internalNodes>
            0 -1 5 -3.0843731760978699e-01</internalNodes>
          <leafValues>
            -3.8903826475143433e-01 5.5134858936071396e-02</leafValues></_>
        <_>
          <internalNodes>
            0 -1 242 -4.0583516238257289e-05</internalNodes>
          <leafValues>
            1.5315638482570648e-01 -1.3188557326793671e-01</leafValues></_>
        <_>
          <internalNodes>
            0 -1 146 4.2954081436619163e-05</internalNodes>
          <leafValues>
            -1.3551141321659088e-01 1.4775846898555756e-01</leafValues></_>
        <_>
          <internalNodes>
            0 -1 120 1.7398733689333312e-05</internalNodes>
          <leafValues>
            -1.4080409705638885e-01 1.6605618596076965e-01</leafValues></_>
        <_>
          <internalNodes>
            0 -1 105 -1.2527100741863251e-02</internalNodes>
          <leafValues>
            -7.1714812517166138e-01 2.7784638106822968e-02</leafValues></_>
        <_>
          <internalNodes>
            0 -1 85 -2.1230019629001617e-02</internalNodes>
          <leafValues>
            5.4600489139556885e-01 -4.5276485383510590e-02</leafValues></_>
        <_>
          <internalNodes>
            0 -1 204 3.0125635676085949e-03</internalNodes>
          <leafValues>
            -8.4644235670566559e-02 2.4360543489456177e-01</leafValues></_>
        <_>
          <internalNodes>
            0 -1 273 7.2215462569147348e-04</internalNodes>
          <leafValues>
            8.9108437299728394e-02 -2.3529712855815887e-01</leafValues></_>
        <_>
          <internalNodes>
            0 -1 304 -3.4682120895013213e-04</internalNodes>
          <leafValues>
            -2.4070197343826294e-01 9.0335234999656677e-02</leafValues></_>
        <_>
          <internalNodes>
            0 -1 268 -4.0486739017069340e-03</internalNodes>
          <leafValues>
            3.8818699121475220e-01 -5.9757098555564880e-02</leafValues></_>
        <_>
          <internalNodes>
            0 -1 174 4.3695323256542906e-05</internalNodes>
          <leafValues>
            -1.3324528932571411e-01 1.5246739983558655e-01</leafValues></_>
        <_>
          <internalNodes>
            0 -1 128 4.5374492183327675e-03</internalNodes>
          <leafValues>
            -7.2704352438449860e-02 2.8223606944084167e-01</leafValues></_>
        <_>
          <internalNodes>
            0 -1 57 -3.7356414832174778e-03</internalNodes>
          <leafValues>
            3.4451532363891602e-01 -5.0897601991891861e-02</leafValues></_>
        <_>
          <internalNodes>
            0 -1 87 1.0795635171234608e-02</internalNodes>
          <leafValues>
            4.3154194951057434e-02 -4.6117424964904785e-01</leafValues></_>
        <_>
          <internalNodes>
            0 -1 96 -5.0261482596397400e-02</internalNodes>
          <leafValues>
            4.4168385863304138e-01 -4.8041380941867828e-02</leafValues></_>
        <_>
          <internalNodes>
            0 -1 188 -1.9948198460042477e-03</internalNodes>
          <leafValues>
            -3.7783628702163696e-01 6.0088668018579483e-02</leafValues></_>
        <_>
          <internalNodes>
            0 -1 94 3.7331417843233794e-05</internalNodes>
          <leafValues>
            -1.4032121002674103e-01 1.4018721878528595e-01</leafValues></_>
        <_>
          <internalNodes>
            0 -1 296 -3.3248676918447018e-03</internalNodes>
          <leafValues>
            1.7507441341876984e-01 -1.1398895084857941e-01</leafValues></_>
        <_>
          <internalNodes>
            0 -1 243 -3.6430750042200089e-03</internalNodes>
          <leafValues>
            3.9778861403465271e-01 -4.7331120818853378e-02</leafValues></_>
        <_>
          <internalNodes>
            0 -1 230 8.8882079580798745e-04</internalNodes>
          <leafValues>
            7.6616041362285614e-02 -2.6667571067810059e-01</leafValues></_>
        <_>
          <internalNodes>
            0 -1 196 3.4446630161255598e-04</internalNodes>
          <leafValues>
            8.0323524773120880e-02 -2.4613186717033386e-01</leafValues></_>
        <_>
          <internalNodes>
            0 -1 184 4.0602190420031548e-03</internalNodes>
          <leafValues>
            -6.2683619558811188e-02 3.4308874607086182e-01</leafValues></_>
        <_>
          <internalNodes>
            0 -1 189 3.2838203012943268e-02</internalNodes>
          <leafValues>
            -6.3890233635902405e-02 2.7979138493537903e-01</leafValues></_>
        <_>
          <internalNodes>
            0 -1 102 -3.1162658706307411e-03</internalNodes>
          <leafValues>
            1.6040194034576416e-01 -1.3551396131515503e-01</leafValues></_>
        <_>
          <internalNodes>
            0 -1 209 -1.5055132098495960e-03</internalNodes>
          <leafValues>
            1.6196845471858978e-01 -1.2327194213867188e-01</leafValues></_>
        <_>
          <internalNodes>
            0 -1 160 -7.5375114101916552e-04</internalNodes>
          <leafValues>
            -2.6522532105445862e-01 7.0238664746284485e-02</leafValues></_>
        <_>
          <internalNodes>
            0 -1 4 5.9134662151336670e-02</internalNodes>
          <leafValues>
            -8.2038685679435730e-02 2.7016401290893555e-01</leafValues></_>
        <_>
          <internalNodes>
            0 -1 267 -1.4243803918361664e-02</internalNodes>
          <leafValues>
            1.8689517676830292e-01 -1.3026000559329987e-01</leafValues></_>
        <_>
          <internalNodes>
            0 -1 92 -2.8628015890717506e-02</internalNodes>
          <leafValues>
            1.4821188151836395e-01 -1.5366967022418976e-01</leafValues></_>
        <_>
          <internalNodes>
            0 -1 35 -1.6360434237867594e-03</internalNodes>
          <leafValues>
            2.3405924439430237e-01 -8.9316986501216888e-02</leafValues></_>
        <_>
          <internalNodes>
            0 -1 237 -9.1664027422666550e-04</internalNodes>
          <leafValues>
            -2.4816191196441650e-01 8.4072619676589966e-02</leafValues></_>
        <_>
          <internalNodes>
            0 -1 58 8.7703019380569458e-03</internalNodes>
          <leafValues>
            -1.0005158931016922e-01 2.1070377528667450e-01</leafValues></_>
        <_>
          <internalNodes>
            0 -1 277 -1.5790822217240930e-03</internalNodes>
          <leafValues>
            -3.0689573287963867e-01 6.8844906985759735e-02</leafValues></_>
        <_>
          <internalNodes>
            0 -1 312 -1.8565550446510315e-02</internalNodes>
          <leafValues>
            4.2330622673034668e-01 -4.9280125647783279e-02</leafValues></_>
        <_>
          <internalNodes>
            0 -1 366 4.0946267545223236e-03</internalNodes>
          <leafValues>
            -6.9836713373661041e-02 2.5940263271331787e-01</leafValues></_>
        <_>
          <internalNodes>
            0 -1 365 -4.5472327619791031e-03</internalNodes>
          <leafValues>
            2.2374925017356873e-01 -9.8279722034931183e-02</leafValues></_>
        <_>
          <internalNodes>
            0 -1 329 7.3782401159405708e-04</internalNodes>
          <leafValues>
            9.1483354568481445e-02 -2.2987543046474457e-01</leafValues></_>
        <_>
          <internalNodes>
            0 -1 213 -4.0163088589906693e-02</internalNodes>
          <leafValues>
            4.7743567824363708e-01 -4.7884970903396606e-02</leafValues></_>
        <_>
          <internalNodes>
            0 -1 255 -4.0355958044528961e-03</internalNodes>
          <leafValues>
            -3.9757865667343140e-01 5.6558761745691299e-02</leafValues></_>
        <_>
          <internalNodes>
            0 -1 42 2.9185141902416945e-03</internalNodes>
          <leafValues>
            -8.8702492415904999e-02 2.3318763077259064e-01</leafValues></_>
        <_>
          <internalNodes>
            0 -1 0 -1.4136286335997283e-04</internalNodes>
          <leafValues>
            -1.8008767068386078e-01 1.0807905346155167e-01</leafValues></_>
        <_>
          <internalNodes>
            0 -1 203 4.4312080717645586e-05</internalNodes>
          <leafValues>
            -1.3137941062450409e-01 1.5143986046314240e-01</leafValues></_>
        <_>
          <internalNodes>
            0 -1 132 -2.3844693787395954e-03</internalNodes>
          <leafValues>
            3.5615843534469604e-01 -5.2322953939437866e-02</leafValues></_>
        <_>
          <internalNodes>
            0 -1 74 -4.3640322983264923e-03</internalNodes>
          <leafValues>
            4.1103503108024597e-01 -4.0056303143501282e-02</leafValues></_>
        <_>
          <internalNodes>
            0 -1 287 -7.3292478919029236e-04</internalNodes>
          <leafValues>
            -3.1084811687469482e-01 6.0842987149953842e-02</leafValues></_>
        <_>
          <internalNodes>
            0 -1 71 2.2777891717851162e-03</internalNodes>
          <leafValues>
            -8.0013960599899292e-02 2.4687105417251587e-01</leafValues></_>
        <_>
          <internalNodes>
            0 -1 250 -7.1066460805013776e-04</internalNodes>
          <leafValues>
            -2.6574394106864929e-01 7.0840202271938324e-02</leafValues></_>
        <_>
          <internalNodes>
            0 -1 212 3.9909791667014360e-05</internalNodes>
          <leafValues>
            -1.4688463509082794e-01 1.3072837889194489e-01</leafValues></_>
        <_>
          <internalNodes>
            0 -1 340 4.4536267523653805e-05</internalNodes>
          <leafValues>
            -1.3622251152992249e-01 1.3853575289249420e-01</leafValues></_>
        <_>
          <internalNodes>
            0 -1 342 3.9285609091166407e-05</internalNodes>
          <leafValues>
            -1.5745896100997925e-01 1.6047458350658417e-01</leafValues></_>
        <_>
          <internalNodes>
            0 -1 302 -1.5711769461631775e-02</internalNodes>
          <leafValues>
            1.7037947475910187e-01 -1.1392467468976974e-01</leafValues></_>
        <_>
          <internalNodes>
            0 -1 271 -1.2709462642669678e-01</internalNodes>
          <leafValues>
            -6.6955119371414185e-01 2.4337027221918106e-02</leafValues></_>
        <_>
          <internalNodes>
            0 -1 341 4.8757791519165039e-03</internalNodes>
          <leafValues>
            -4.3058607727289200e-02 4.0635973215103149e-01</leafValues></_>
        <_>
          <internalNodes>
            0 -1 235 1.5514649930992164e-05</internalNodes>
          <leafValues>
            -1.1963485926389694e-01 1.3631084561347961e-01</leafValues></_>
        <_>
          <internalNodes>
            0 -1 236 3.7701065593864769e-05</internalNodes>
          <leafValues>
            -1.4097680151462555e-01 1.4607413113117218e-01</leafValues></_>
        <_>
          <internalNodes>
            0 -1 226 3.5281688906252384e-04</internalNodes>
          <leafValues>
            8.0570757389068604e-02 -2.4390132725238800e-01</leafValues></_>
        <_>
          <internalNodes>
            0 -1 156 2.3012594878673553e-01</internalNodes>
          <leafValues>
            -4.3629772961139679e-02 4.6884942054748535e-01</leafValues></_>
        <_>
          <internalNodes>
            0 -1 228 3.5462217056192458e-05</internalNodes>
          <leafValues>
            -1.3571630418300629e-01 1.4937071502208710e-01</leafValues></_>
        <_>
          <internalNodes>
            0 -1 139 -9.8234061151742935e-03</internalNodes>
          <leafValues>
            1.1877951025962830e-01 -1.6235670447349548e-01</leafValues></_>
        <_>
          <internalNodes>
            0 -1 232 1.7751539417076856e-05</internalNodes>
          <leafValues>
            -1.5067116916179657e-01 1.4879028499126434e-01</leafValues></_>
        <_>
          <internalNodes>
            0 -1 264 4.9192877486348152e-04</internalNodes>
          <leafValues>
            7.2609275579452515e-02 -2.5795924663543701e-01</leafValues></_>
        <_>
          <internalNodes>
            0 -1 253 1.0534768551588058e-01</internalNodes>
          <leafValues>
            -4.7796003520488739e-02 4.0176540613174438e-01</leafValues></_>
        <_>
          <internalNodes>
            0 -1 290 1.9625142216682434e-02</internalNodes>
          <leafValues>
            -1.2186404317617416e-01 1.7582702636718750e-01</leafValues></_>
        <_>
          <internalNodes>
            0 -1 6 -7.5600920245051384e-03</internalNodes>
          <leafValues>
            2.6157996058464050e-01 -6.8851530551910400e-02</leafValues></_>
        <_>
          <internalNodes>
            0 -1 67 -8.8340967893600464e-02</internalNodes>
          <leafValues>
            -5.2407437562942505e-01 3.5345718264579773e-02</leafValues></_>
        <_>
          <internalNodes>
            0 -1 3 -2.8654257766902447e-04</internalNodes>
          <leafValues>
            -2.0222742855548859e-01 8.5132524371147156e-02</leafValues></_></weakClassifiers></_></stages>
  <features>
    <_>
      <rects>
        <_>
          0 0 1 2 -1.</_>
        <_>
          0 1 1 1 2.</_></rects>
      <tilted>0</tilted></_>
    <_>
      <rects>
        <_>
          0 0 20 19 -1.</_>
        <_>
          10 0 10 19 2.</_></rects>
      <tilted>0</tilted></_>
    <_>
      <rects>
        <_>
          0 0 19 20 -1.</_>
        <_>
          0 10 19 10 2.</_></rects>
      <tilted>0</tilted></_>
    <_>
      <rects>
        <_>
          0 1 1 2 -1.</_>
        <_>
          0 2 1 1 2.</_></rects>
      <tilted>0</tilted></_>
    <_>
      <rects>
        <_>
          0 1 20 7 -1.</_>
        <_>
          5 1 10 7 2.</_></rects>
      <tilted>0</tilted></_>
    <_>
      <rects>
        <_>
          0 1 20 18 -1.</_>
        <_>
          10 1 10 18 2.</_></rects>
      <tilted>0</tilted></_>
    <_>
      <rects>
        <_>
          0 2 2 12 -1.</_>
        <_>
          0 2 1 6 2.</_>
        <_>
          1 8 1 6 2.</_></rects>
      <tilted>0</tilted></_>
    <_>
      <rects>
        <_>
          0 2 6 8 -1.</_>
        <_>
          0 2 3 4 2.</_>
        <_>
          3 6 3 4 2.</_></rects>
      <tilted>0</tilted></_>
    <_>
      <rects>
        <_>
          0 2 15 9 -1.</_>
        <_>
          5 5 5 3 9.</_></rects>
      <tilted>0</tilted></_>
    <_>
      <rects>
        <_>
          0 4 20 16 -1.</_>
        <_>
          10 4 10 16 2.</_></rects>
      <tilted>0</tilted></_>
    <_>
      <rects>
        <_>
          0 5 8 2 -1.</_>
        <_>
          4 5 4 2 2.</_></rects>
      <tilted>0</tilted></_>
    <_>
      <rects>
        <_>
          0 5 12 10 -1.</_>
        <_>
          0 5 6 5 2.</_>
        <_>
          6 10 6 5 2.</_></rects>
      <tilted>0</tilted></_>
    <_>
      <rects>
        <_>
          0 7 6 2 -1.</_>
        <_>
          3 7 3 2 2.</_></rects>
      <tilted>0</tilted></_>
    <_>
      <rects>
        <_>
          0 7 6 8 -1.</_>
        <_>
          3 7 3 8 2.</_></rects>
      <tilted>0</tilted></_>
    <_>
      <rects>
        <_>
          0 8 6 2 -1.</_>
        <_>
          2 8 2 2 3.</_></rects>
      <tilted>0</tilted></_>
    <_>
      <rects>
        <_>
          0 9 6 1 -1.</_>
        <_>
          2 9 2 1 3.</_></rects>
      <tilted>0</tilted></_>
    <_>
      <rects>
        <_>
          0 9 12 6 -1.</_>
        <_>
          4 11 4 2 9.</_></rects>
      <tilted>0</tilted></_>
    <_>
      <rects>
        <_>
          0 10 14 4 -1.</_>
        <_>
          7 10 7 4 2.</_></rects>
      <tilted>0</tilted></_>
    <_>
      <rects>
        <_>
          0 11 9 2 -1.</_>
        <_>
          3 11 3 2 3.</_></rects>
      <tilted>0</tilted></_>
    <_>
      <rects>
        <_>
          0 11 12 2 -1.</_>
        <_>
          3 11 6 2 2.</_></rects>
      <tilted>0</tilted></_>
    <_>
      <rects>
        <_>
          0 13 8 6 -1.</_>
        <_>
          0 13 4 3 2.</_>
        <_>
          4 16 4 3 2.</_></rects>
      <tilted>0</tilted></_>
    <_>
      <rects>
        <_>
          0 14 3 1 -1.</_>
        <_>
          1 14 1 1 3.</_></rects>
      <tilted>0</tilted></_>
    <_>
      <rects>
        <_>
          1 0 2 1 -1.</_>
        <_>
          2 0 1 1 2.</_></rects>
      <tilted>0</tilted></_>
    <_>
      <rects>
        <_>
          1 0 12 15 -1.</_>
        <_>
          5 5 4 5 9.</_></rects>
      <tilted>0</tilted></_>
    <_>
      <rects>
        <_>
          1 0 19 4 -1.</_>
        <_>
          1 2 19 2 2.</_></rects>
      <tilted>0</tilted></_>
    <_>
      <rects>
        <_>
          1 2 12 12 -1.</_>
        <_>
          5 6 4 4 9.</_></rects>
      <tilted>0</tilted></_>
    <_>
      <rects>
        <_>
          1 5 15 15 -1.</_>
        <_>
          6 10 5 5 9.</_></rects>
      <tilted>0</tilted></_>
    <_>
      <rects>
        <_>
          1 6 9 1 -1.</_>
        <_>
          4 6 3 1 3.</_></rects>
      <tilted>0</tilted></_>
    <_>
      <rects>
        <_>
          1 7 4 8 -1.</_>
        <_>
          1 7 2 4 2.</_>
        <_>
          3 11 2 4 2.</_></rects>
      <tilted>0</tilted></_>
    <_>
      <rects>
        <_>
          1 7 15 12 -1.</_>
        <_>
          6 11 5 4 9.</_></rects>
      <tilted>0</tilted></_>
    <_>
      <rects>
        <_>
          1 8 4 8 -1.</_>
        <_>
          1 8 2 4 2.</_>
        <_>
          3 12 2 4 2.</_></rects>
      <tilted>0</tilted></_>
    <_>
      <rects>
        <_>
          1 9 12 9 -1.</_>
        <_>
          5 12 4 3 9.</_></rects>
      <tilted>0</tilted></_>
    <_>
      <rects>
        <_>
          1 11 6 4 -1.</_>
        <_>
          1 11 3 2 2.</_>
        <_>
          4 13 3 2 2.</_></rects>
      <tilted>0</tilted></_>
    <_>
      <rects>
        <_>
          1 16 2 2 -1.</_>
        <_>
          1 16 1 1 2.</_>
        <_>
          2 17 1 1 2.</_></rects>
      <tilted>0</tilted></_>
    <_>
      <rects>
        <_>
          2 0 2 1 -1.</_>
        <_>
          3 0 1 1 2.</_></rects>
      <tilted>0</tilted></_>
    <_>
      <rects>
        <_>
          2 5 4 2 -1.</_>
        <_>
          2 5 2 1 2.</_>
        <_>
          4 6 2 1 2.</_></rects>
      <tilted>0</tilted></_>
    <_>
      <rects>
        <_>
          2 5 4 8 -1.</_>
        <_>
          2 5 2 4 2.</_>
        <_>
          4 9 2 4 2.</_></rects>
      <tilted>0</tilted></_>
    <_>
      <rects>
        <_>
          2 6 4 1 -1.</_>
        <_>
          2 6 2 1 2.</_></rects>
      <tilted>1</tilted></_>
    <_>
      <rects>
        <_>
          2 6 12 9 -1.</_>
        <_>
          6 9 4 3 9.</_></rects>
      <tilted>0</tilted></_>
    <_>
      <rects>
        <_>
          2 7 2 2 -1.</_>
        <_>
          2 7 1 1 2.</_>
        <_>
          3 8 1 1 2.</_></rects>
      <tilted>0</tilted></_>
    <_>
      <rects>
        <_>
          2 8 3 1 -1.</_>
        <_>
          3 8 1 1 3.</_></rects>
      <tilted>0</tilted></_>
    <_>
      <rects>
        <_>
          2 8 2 4 -1.</_>
        <_>
          2 8 1 2 2.</_>
        <_>
          3 10 1 2 2.</_></rects>
      <tilted>0</tilted></_>
    <_>
      <rects>
        <_>
          2 8 2 6 -1.</_>
        <_>
          2 8 1 3 2.</_>
        <_>
          3 11 1 3 2.</_></rects>
      <tilted>0</tilted></_>
    <_>
      <rects>
        <_>
          2 9 3 1 -1.</_>
        <_>
          3 9 1 1 3.</_></rects>
      <tilted>0</tilted></_>
    <_>
      <rects>
        <_>
          2 10 3 1 -1.</_>
        <_>
          3 10 1 1 3.</_></rects>
      <tilted>0</tilted></_>
    <_>
      <rects>
        <_>
          2 14 6 6 -1.</_>
        <_>
          2 14 3 3 2.</_>
        <_>
          5 17 3 3 2.</_></rects>
      <tilted>0</tilted></_>
    <_>
      <rects>
        <_>
          2 15 11 4 -1.</_>
        <_>
          2 16 11 2 2.</_></rects>
      <tilted>0</tilted></_>
    <_>
      <rects>
        <_>
          3 2 17 18 -1.</_>
        <_>
          3 11 17 9 2.</_></rects>
      <tilted>0</tilted></_>
    <_>
      <rects>
        <_>
          3 4 1 9 -1.</_>
        <_>
          3 7 1 3 3.</_></rects>
      <tilted>0</tilted></_>
    <_>
      <rects>
        <_>
          3 4 12 12 -1.</_>
        <_>
          7 8 4 4 9.</_></rects>
      <tilted>0</tilted></_>
    <_>
      <rects>
        <_>
          3 5 2 4 -1.</_>
        <_>
          3 5 1 2 2.</_>
        <_>
          4 7 1 2 2.</_></rects>
      <tilted>0</tilted></_>
    <_>
      <rects>
        <_>
          3 6 2 4 -1.</_>
        <_>
          3 6 1 2 2.</_>
        <_>
          4 8 1 2 2.</_></rects>
      <tilted>0</tilted></_>
    <_>
      <rects>
        <_>
          3 7 3 1 -1.</_>
        <_>
          4 7 1 1 3.</_></rects>
      <tilted>0</tilted></_>
    <_>
      <rects>
        <_>
          3 9 3 3 -1.</_>
        <_>
          2 10 3 1 3.</_></rects>
      <tilted>1</tilted></_>
    <_>
      <rects>
        <_>
          3 10 3 3 -1.</_>
        <_>
          2 11 3 1 3.</_></rects>
      <tilted>1</tilted></_>
    <_>
      <rects>
        <_>
          3 11 12 6 -1.</_>
        <_>
          7 13 4 2 9.</_></rects>
      <tilted>0</tilted></_>
    <_>
      <rects>
        <_>
          3 11 5 3 -1.</_>
        <_>
          2 12 5 1 3.</_></rects>
      <tilted>1</tilted></_>
    <_>
      <rects>
        <_>
          3 13 3 1 -1.</_>
        <_>
          4 13 1 1 3.</_></rects>
      <tilted>0</tilted></_>
    <_>
      <rects>
        <_>
          4 1 10 4 -1.</_>
        <_>
          4 1 5 2 2.</_>
        <_>
          9 3 5 2 2.</_></rects>
      <tilted>0</tilted></_>
    <_>
      <rects>
        <_>
          4 2 4 1 -1.</_>
        <_>
          4 2 2 1 2.</_></rects>
      <tilted>1</tilted></_>
    <_>
      <rects>
        <_>
          4 2 6 1 -1.</_>
        <_>
          6 4 2 1 3.</_></rects>
      <tilted>1</tilted></_>
    <_>
      <rects>
        <_>
          4 2 12 6 -1.</_>
        <_>
          4 2 6 3 2.</_>
        <_>
          10 5 6 3 2.</_></rects>
      <tilted>0</tilted></_>
    <_>
      <rects>
        <_>
          4 3 1 12 -1.</_>
        <_>
          4 7 1 4 3.</_></rects>
      <tilted>0</tilted></_>
    <_>
      <rects>
        <_>
          4 3 12 15 -1.</_>
        <_>
          8 8 4 5 9.</_></rects>
      <tilted>0</tilted></_>
    <_>
      <rects>
        <_>
          4 4 12 12 -1.</_>
        <_>
          8 8 4 4 9.</_></rects>
      <tilted>0</tilted></_>
    <_>
      <rects>
        <_>
          4 5 12 9 -1.</_>
        <_>
          8 8 4 3 9.</_></rects>
      <tilted>0</tilted></_>
    <_>
      <rects>
        <_>
          4 5 12 12 -1.</_>
        <_>
          8 9 4 4 9.</_></rects>
      <tilted>0</tilted></_>
    <_>
      <rects>
        <_>
          4 9 8 3 -1.</_>
        <_>
          4 9 4 3 2.</_></rects>
      <tilted>1</tilted></_>
    <_>
      <rects>
        <_>
          4 10 5 4 -1.</_>
        <_>
          3 11 5 2 2.</_></rects>
      <tilted>1</tilted></_>
    <_>
      <rects>
        <_>
          4 11 12 8 -1.</_>
        <_>
          4 11 6 4 2.</_>
        <_>
          10 15 6 4 2.</_></rects>
      <tilted>0</tilted></_>
    <_>
      <rects>
        <_>
          4 13 2 2 -1.</_>
        <_>
          4 13 1 1 2.</_>
        <_>
          5 14 1 1 2.</_></rects>
      <tilted>0</tilted></_>
    <_>
      <rects>
        <_>
          4 13 2 4 -1.</_>
        <_>
          4 13 1 2 2.</_>
        <_>
          5 15 1 2 2.</_></rects>
      <tilted>0</tilted></_>
    <_>
      <rects>
        <_>
          4 14 2 2 -1.</_>
        <_>
          4 14 1 1 2.</_>
        <_>
          5 15 1 1 2.</_></rects>
      <tilted>0</tilted></_>
    <_>
      <rects>
        <_>
          4 14 7 6 -1.</_>
        <_>
          4 17 7 3 2.</_></rects>
      <tilted>0</tilted></_>
    <_>
      <rects>
        <_>
          4 15 3 1 -1.</_>
        <_>
          5 15 1 1 3.</_></rects>
      <tilted>0</tilted></_>
    <_>
      <rects>
        <_>
          4 16 8 4 -1.</_>
        <_>
          4 16 4 2 2.</_>
        <_>
          8 18 4 2 2.</_></rects>
      <tilted>0</tilted></_>
    <_>
      <rects>
        <_>
          5 0 4 4 -1.</_>
        <_>
          6 1 2 4 2.</_></rects>
      <tilted>1</tilted></_>
    <_>
      <rects>
        <_>
          5 0 4 5 -1.</_>
        <_>
          6 1 2 5 2.</_></rects>
      <tilted>1</tilted></_>
    <_>
      <rects>
        <_>
          5 0 9 15 -1.</_>
        <_>
          8 5 3 5 9.</_></rects>
      <tilted>0</tilted></_>
    <_>
      <rects>
        <_>
          5 0 10 4 -1.</_>
        <_>
          5 0 5 2 2.</_>
        <_>
          10 2 5 2 2.</_></rects>
      <tilted>0</tilted></_>
    <_>
      <rects>
        <_>
          5 0 11 6 -1.</_>
        <_>
          5 3 11 3 2.</_></rects>
      <tilted>0</tilted></_>
    <_>
      <rects>
        <_>
          5 1 1 9 -1.</_>
        <_>
          5 4 1 3 3.</_></rects>
      <tilted>0</tilted></_>
    <_>
      <rects>
        <_>
          5 3 8 1 -1.</_>
        <_>
          7 3 4 1 2.</_></rects>
      <tilted>0</tilted></_>
    <_>
      <rects>
        <_>
          5 3 9 9 -1.</_>
        <_>
          8 6 3 3 9.</_></rects>
      <tilted>0</tilted></_>
    <_>
      <rects>
        <_>
          5 4 2 2 -1.</_>
        <_>
          5 4 1 1 2.</_>
        <_>
          6 5 1 1 2.</_></rects>
      <tilted>0</tilted></_>
    <_>
      <rects>
        <_>
          5 4 3 2 -1.</_>
        <_>
          6 5 1 2 3.</_></rects>
      <tilted>1</tilted></_>
    <_>
      <rects>
        <_>
          5 4 12 1 -1.</_>
        <_>
          9 4 4 1 3.</_></rects>
      <tilted>0</tilted></_>
    <_>
      <rects>
        <_>
          5 5 2 10 -1.</_>
        <_>
          6 5 1 10 2.</_></rects>
      <tilted>0</tilted></_>
    <_>
      <rects>
        <_>
          5 5 9 9 -1.</_>
        <_>
          8 8 3 3 9.</_></rects>
      <tilted>0</tilted></_>
    <_>
      <rects>
        <_>
          5 5 15 15 -1.</_>
        <_>
          10 10 5 5 9.</_></rects>
      <tilted>0</tilted></_>
    <_>
      <rects>
        <_>
          5 5 11 4 -1.</_>
        <_>
          5 7 11 2 2.</_></rects>
      <tilted>0</tilted></_>
    <_>
      <rects>
        <_>
          5 6 3 1 -1.</_>
        <_>
          6 6 1 1 3.</_></rects>
      <tilted>0</tilted></_>
    <_>
      <rects>
        <_>
          5 6 9 9 -1.</_>
        <_>
          8 9 3 3 9.</_></rects>
      <tilted>0</tilted></_>
    <_>
      <rects>
        <_>
          5 7 11 6 -1.</_>
        <_>
          5 9 11 2 3.</_></rects>
      <tilted>0</tilted></_>
    <_>
      <rects>
        <_>
          5 8 2 1 -1.</_>
        <_>
          6 8 1 1 2.</_></rects>
      <tilted>0</tilted></_>
    <_>
      <rects>
        <_>
          5 8 2 4 -1.</_>
        <_>
          6 8 1 4 2.</_></rects>
      <tilted>0</tilted></_>
    <_>
      <rects>
        <_>
          5 8 10 3 -1.</_>
        <_>
          10 8 5 3 2.</_></rects>
      <tilted>0</tilted></_>
    <_>
      <rects>
        <_>
          5 8 15 3 -1.</_>
        <_>
          10 8 5 3 3.</_></rects>
      <tilted>0</tilted></_>
    <_>
      <rects>
        <_>
          5 9 10 2 -1.</_>
        <_>
          10 9 5 2 2.</_></rects>
      <tilted>0</tilted></_>
    <_>
      <rects>
        <_>
          5 9 8 3 -1.</_>
        <_>
          5 10 8 1 3.</_></rects>
      <tilted>0</tilted></_>
    <_>
      <rects>
        <_>
          5 10 4 1 -1.</_>
        <_>
          7 10 2 1 2.</_></rects>
      <tilted>0</tilted></_>
    <_>
      <rects>
        <_>
          5 10 11 3 -1.</_>
        <_>
          5 11 11 1 3.</_></rects>
      <tilted>0</tilted></_>
    <_>
      <rects>
        <_>
          5 11 1 4 -1.</_>
        <_>
          5 11 1 2 2.</_></rects>
      <tilted>1</tilted></_>
    <_>
      <rects>
        <_>
          5 11 4 1 -1.</_>
        <_>
          7 11 2 1 2.</_></rects>
      <tilted>0</tilted></_>
    <_>
      <rects>
        <_>
          5 12 4 4 -1.</_>
        <_>
          4 13 4 2 2.</_></rects>
      <tilted>1</tilted></_>
    <_>
      <rects>
