<?xml version="1.0"?>
<opencv_storage>
<stage0>
  <maxWeakCount>41</maxWeakCount>
  <stageThreshold>-1.7305769920349121e+00</stageThreshold>
  <weakClassifiers>
    <_>
      <internalNodes>
        0 -1 112718 1.7267420887947083e-02</internalNodes>
      <leafValues>
        -2.5093379616737366e-01 4.2923524975776672e-01</leafValues></_>
    <_>
      <internalNodes>
        0 -1 40886 2.1698303520679474e-02</internalNodes>
      <leafValues>
        2.1733826398849487e-01 -4.2170917987823486e-01</leafValues></_>
    <_>
      <internalNodes>
        0 -1 5909 -3.1014494597911835e-02</internalNodes>
      <leafValues>
        4.2811706662178040e-01 -1.8158766627311707e-01</leafValues></_>
    <_>
      <internalNodes>
        0 -1 64768 -1.1637089774012566e-02</internalNodes>
      <leafValues>
        2.7306151390075684e-01 -2.4297519028186798e-01</leafValues></_>
    <_>
      <internalNodes>
        0 -1 102967 -1.8514208495616913e-03</internalNodes>
      <leafValues>
        -5.2078223228454590e-01 1.2609499692916870e-01</leafValues></_>
    <_>
      <internalNodes>
        0 -1 102967 7.8232074156403542e-04</internalNodes>
      <leafValues>
        2.3489136993885040e-01 -3.2803609967231750e-01</leafValues></_>
    <_>
      <internalNodes>
        0 -1 109005 1.7164211720228195e-02</internalNodes>
      <leafValues>
        -1.6472028195858002e-01 4.0684789419174194e-01</leafValues></_>
    <_>
      <internalNodes>
        0 -1 113933 1.0167658329010010e-03</internalNodes>
      <leafValues>
        1.6093194484710693e-01 -3.6630511283874512e-01</leafValues></_>
    <_>
      <internalNodes>
        0 -1 108817 9.6022244542837143e-04</internalNodes>
      <leafValues>
        1.5844538807868958e-01 -4.0071910619735718e-01</leafValues></_>
    <_>
      <internalNodes>
        0 -1 64480 1.8129906058311462e-01</internalNodes>
      <leafValues>
        -9.7014725208282471e-02 8.0463391542434692e-01</leafValues></_>
    <_>
      <internalNodes>
        0 -1 47228 2.1667249500751495e-02</internalNodes>
      <leafValues>
        -7.1581147611141205e-02 5.6232398748397827e-01</leafValues></_>
    <_>
      <internalNodes>
        0 -1 85726 -7.3494296520948410e-04</internalNodes>
      <leafValues>
        -3.1204417347908020e-01 1.6773223876953125e-01</leafValues></_>
    <_>
      <internalNodes>
        0 -1 85726 1.3742784503847361e-03</internalNodes>
      <leafValues>
        1.3411125540733337e-01 -5.3530669212341309e-01</leafValues></_>
    <_>
      <internalNodes>
        0 -1 55069 -2.6671686209738255e-03</internalNodes>
      <leafValues>
        6.5711373090744019e-01 -8.0038376152515411e-02</leafValues></_>
    <_>
      <internalNodes>
        0 -1 97962 -9.1309864073991776e-03</internalNodes>
      <leafValues>
        3.1033882498741150e-01 -1.4631041884422302e-01</leafValues></_>
    <_>
      <internalNodes>
        0 -1 99389 9.9042002111673355e-03</internalNodes>
      <leafValues>
        -1.5978661179542542e-01 3.5132601857185364e-01</leafValues></_>
    <_>
      <internalNodes>
        0 -1 91876 9.1022055130451918e-04</internalNodes>
      <leafValues>
        1.3006703555583954e-01 -3.5279357433319092e-01</leafValues></_>
    <_>
      <internalNodes>
        0 -1 91876 -7.4156746268272400e-04</internalNodes>
      <leafValues>
        -3.4254556894302368e-01 1.7089776694774628e-01</leafValues></_>
    <_>
      <internalNodes>
        0 -1 103133 7.7502921223640442e-02</internalNodes>
      <leafValues>
        -8.3317309617996216e-02 6.2573784589767456e-01</leafValues></_>
    <_>
      <internalNodes>
        0 -1 2087 2.3461824283003807e-02</internalNodes>
      <leafValues>
        -8.8963739573955536e-02 4.6466398239135742e-01</leafValues></_>
    <_>
      <internalNodes>
        0 -1 108818 -1.6543196979910135e-03</internalNodes>
      <leafValues>
        -4.4114288687705994e-01 1.0952378809452057e-01</leafValues></_>
    <_>
      <internalNodes>
        0 -1 104375 -1.1052649933844805e-03</internalNodes>
      <leafValues>
        -3.5060763359069824e-01 1.2492111325263977e-01</leafValues></_>
    <_>
      <internalNodes>
        0 -1 116122 -1.6616638749837875e-02</internalNodes>
      <leafValues>
        5.5142378807067871e-01 -8.3673276007175446e-02</leafValues></_>
    <_>
      <internalNodes>
        0 -1 124633 -2.1775560453534126e-03</internalNodes>
      <leafValues>
        5.6224811077117920e-01 -7.3593832552433014e-02</leafValues></_>
    <_>
      <internalNodes>
        0 -1 61282 6.6093856003135443e-04</internalNodes>
      <leafValues>
        1.5005558729171753e-01 -2.9183104634284973e-01</leafValues></_>
    <_>
      <internalNodes>
        0 -1 104640 1.1960744159296155e-03</internalNodes>
      <leafValues>
        1.0244544595479965e-01 -4.0060243010520935e-01</leafValues></_>
    <_>
      <internalNodes>
        0 -1 121253 1.0692991316318512e-02</internalNodes>
      <leafValues>
        -1.1288379877805710e-01 3.9936634898185730e-01</leafValues></_>
    <_>
      <internalNodes>
        0 -1 92798 5.5669079301878810e-04</internalNodes>
      <leafValues>
        1.1763165891170502e-01 -3.5709539055824280e-01</leafValues></_>
    <_>
      <internalNodes>
        0 -1 46406 -1.7302880296483636e-03</internalNodes>
      <leafValues>
        4.9970442056655884e-01 -9.4428971409797668e-02</leafValues></_>
    <_>
      <internalNodes>
        0 -1 76577 1.8046966288238764e-03</internalNodes>
      <leafValues>
        1.0780110210180283e-01 -3.8152137398719788e-01</leafValues></_>
    <_>
      <internalNodes>
        0 -1 26048 -4.4752890244126320e-03</internalNodes>
      <leafValues>
        5.9699356555938721e-01 -6.9982439279556274e-02</leafValues></_>
    <_>
      <internalNodes>
        0 -1 73641 -3.5104313865303993e-03</internalNodes>
      <leafValues>
        7.0648121833801270e-01 -4.6734850853681564e-02</leafValues></_>
    <_>
      <internalNodes>
        0 -1 14408 6.4640522003173828e-01</internalNodes>
      <leafValues>
        -3.5772629082202911e-02 8.1884956359863281e-01</leafValues></_>
    <_>
      <internalNodes>
        0 -1 24490 -3.3805552870035172e-02</internalNodes>
      <leafValues>
        2.3509958386421204e-01 -2.0340918004512787e-01</leafValues></_>
    <_>
      <internalNodes>
        0 -1 62954 2.8960878262296319e-04</internalNodes>
      <leafValues>
        1.3411393761634827e-01 -3.1303888559341431e-01</leafValues></_>
    <_>
      <internalNodes>
        0 -1 110179 -2.7705668471753597e-03</internalNodes>
      <leafValues>
        6.3473403453826904e-01 -6.7000277340412140e-02</leafValues></_>
    <_>
      <internalNodes>
        0 -1 48049 -4.8356186598539352e-03</internalNodes>
      <leafValues>
        2.8758838772773743e-01 -1.2726308405399323e-01</leafValues></_>
    <_>
      <internalNodes>
        0 -1 33564 -4.6936450526118279e-03</internalNodes>
      <leafValues>
        5.6884783506393433e-01 -6.8254120647907257e-02</leafValues></_>
    <_>
      <internalNodes>
        0 -1 6427 -4.7166189178824425e-03</internalNodes>
      <leafValues>
        2.8257730603218079e-01 -1.3138175010681152e-01</leafValues></_>
    <_>
      <internalNodes>
        0 -1 70258 -5.5246049305424094e-04</internalNodes>
      <leafValues>
        -3.6536213755607605e-01 1.1983889341354370e-01</leafValues></_>
    <_>
      <internalNodes>
        0 -1 77358 -1.9691328052431345e-03</internalNodes>
      <leafValues>
        -4.6604305505752563e-01 7.3497228324413300e-02</leafValues></_></weakClassifiers></stage0>
</opencv_storage>
