<?xml version="1.0"?>
<opencv_storage>
<stage22>
  <maxWeakCount>117</maxWeakCount>
  <stageThreshold>-1.0286949872970581e+00</stageThreshold>
  <weakClassifiers>
    <_>
      <internalNodes>
        0 -1 916 -1507966313 801978199 -273821307 -949279213 -1603597361
        1378929 -201170192 -861368591</internalNodes>
      <leafValues>
        7.1748040616512299e-02 3.4851101040840149e-01</leafValues></_>
    <_>
      <internalNodes>
        0 -1 3365 -2062551297 244264130 552596853 -1423659406 1754799064
        -285129862 143063411 -1551381936</internalNodes>
      <leafValues>
        -1.4759865403175354e-01 1.2768194079399109e-01</leafValues></_>
    <_>
      <internalNodes>
        0 -1 1107 -818393002 2001998171 531070078 280837688 -77447158
        -1829651462 -876986625 -1798543553</internalNodes>
      <leafValues>
        -1.4272546768188477e-01 1.1749529093503952e-01</leafValues></_>
    <_>
      <internalNodes>
        0 -1 1959 -887627490 94088083 -1432142 -573765870 193692398
        -1004249977 -1472936290 -312610845</internalNodes>
      <leafValues>
        -9.2748627066612244e-02 1.7440842092037201e-01</leafValues></_>
    <_>
      <internalNodes>
        0 -1 1959 340925153 -766805420 2079048888 -1924703723
        -1821959822 1080876079 1474259049 385089356</internalNodes>
      <leafValues>
        -2.1332831680774689e-01 5.7245831936597824e-02</leafValues></_>
    <_>
      <internalNodes>
        0 -1 1742 -1215686241 522337834 -587550465 -2091802191
        -383018150 -1388927189 -1301181765 -2005620731</internalNodes>
      <leafValues>
        -1.0857823491096497e-01 1.4790579676628113e-01</leafValues></_>
    <_>
      <internalNodes>
        0 -1 3665 -49414547 -564303746 1926820155 1346901014 622682481
        1530771009 979954034 137883706</internalNodes>
      <leafValues>
        -1.6114388406276703e-01 1.0380135476589203e-01</leafValues></_>
    <_>
      <internalNodes>
        0 -1 3145 -281126947 -559232981 1416591231 -77336388 -787442981
        -68872174 1229449194 -215234463</internalNodes>
      <leafValues>
        -8.6415812373161316e-02 2.0120723545551300e-01</leafValues></_>
    <_>
      <internalNodes>
        0 -1 3297 -1979243405 -1021629908 -358894859 343696990
        -614751887 -429444299 -1854458603 2144307157</internalNodes>
      <leafValues>
        -1.3288836181163788e-01 1.2009085714817047e-01</leafValues></_>
    <_>
      <internalNodes>
        0 -1 2554 -282225932 -886061457 -1624339789 -966512111 341668863
        -1842513963 -1889367042 -233681152</internalNodes>
      <leafValues>
        -1.1086363345384598e-01 1.4543905854225159e-01</leafValues></_>
    <_>
      <internalNodes>
        0 -1 2338 2016799949 1253900300 -2089223205 2050092485
        1547307318 235887656 640077117 797576236</internalNodes>
      <leafValues>
        -1.5511302649974823e-01 9.5807358622550964e-02</leafValues></_>
    <_>
      <internalNodes>
        0 -1 1901 -960093195 1938024780 -1635944931 -1299784988
        -193070221 -2137055425 -871071889 -117450233</internalNodes>
      <leafValues>
        -8.3541892468929291e-02 1.7897468805313110e-01</leafValues></_>
    <_>
      <internalNodes>
        0 -1 1562 650907672 305059782 506258652 685745172 1667969791
        1080152837 1893231476 52713564</internalNodes>
      <leafValues>
        -2.5903490185737610e-01 6.0009125620126724e-02</leafValues></_>
    <_>
      <internalNodes>
        0 -1 563 1580424687 1450633079 112607183 -1276934285 -287063885
        -351809997 -173437544 -74536961</internalNodes>
      <leafValues>
        -6.7629657685756683e-02 2.2386768460273743e-01</leafValues></_>
    <_>
      <internalNodes>
        0 -1 420 -1456746614 -1423121728 -1626163840 801956072
        2003919091 750681136 1459771665 1170449354</internalNodes>
      <leafValues>
        -1.7240197956562042e-01 8.8041238486766815e-02</leafValues></_>
    <_>
      <internalNodes>
        0 -1 2686 -1280986768 -805691175 51953143 -641351683 2000451503
        -880656077 29151480 -1392523337</internalNodes>
      <leafValues>
        -9.3088164925575256e-02 1.6411398351192474e-01</leafValues></_>
    <_>
      <internalNodes>
        0 -1 2695 -1436603581 -830593157 481749123 201846455 -2116351737
        1178099546 38443105 2027092496</internalNodes>
      <leafValues>
        -1.5624204277992249e-01 1.0045002400875092e-01</leafValues></_>
    <_>
      <internalNodes>
        0 -1 1240 2075555674 -124986253 1332620347 -855439609 -815049348
        -1199222283 -49307701 -1108415745</internalNodes>
      <leafValues>
        -8.3768598735332489e-02 1.9402955472469330e-01</leafValues></_>
    <_>
      <internalNodes>
        0 -1 34 -1169628221 -1001269846 134742788 556483168 1561905614
        -1630300208 -872906822 862279648</internalNodes>
      <leafValues>
        -1.9355247914791107e-01 9.3933120369911194e-02</leafValues></_>
    <_>
      <internalNodes>
        0 -1 326 -631244837 637340503 -985675789 -47850104 -752499834
        -995886321 -1395658801 -520622149</internalNodes>
      <leafValues>
        -8.0376803874969482e-02 2.1292062103748322e-01</leafValues></_>
    <_>
      <internalNodes>
        0 -1 3964 -98383198 -1977598336 263499621 -1150442667
        -1621437065 144760291 209182138 1291314923</internalNodes>
      <leafValues>
        -1.2070037424564362e-01 1.2371166050434113e-01</leafValues></_>
    <_>
      <internalNodes>
        0 -1 3129 -553772919 -678145640 63316644 -1350600747 -1005194702
        -657974325 -17613933 -285597958</internalNodes>
      <leafValues>
        -9.8059929907321930e-02 1.5880610048770905e-01</leafValues></_>
    <_>
      <internalNodes>
        0 -1 2504 744456242 179195700 2013565300 -1200740024 553844816
        -2059066022 63055065 1648508193</internalNodes>
      <leafValues>
        -2.2763305902481079e-01 6.3608847558498383e-02</leafValues></_>
    <_>
      <internalNodes>
        0 -1 2683 -738486660 -37020785 1735521471 -1185488444 -871951622
        -285403709 -942643452 -6556122</internalNodes>
      <leafValues>
        -6.7077100276947021e-02 2.1234114468097687e-01</leafValues></_>
    <_>
      <internalNodes>
        0 -1 192 1588296568 1284370519 -971006342 -2142485415 72941569
        140141563 218760585 8735761</internalNodes>
      <leafValues>
        -2.8669953346252441e-01 4.9302659928798676e-02</leafValues></_>
    <_>
      <internalNodes>
        0 -1 3244 1973362700 -1837290704 -1532444564 34014342 1459356208
        694588082 -1670494427 1753671930</internalNodes>
      <leafValues>
        -2.0145894587039948e-01 8.0346293747425079e-02</leafValues></_>
    <_>
      <internalNodes>
        0 -1 2009 -359677185 -663581868 -674068362 -228394442 -7348742
        -41137674 -119707160 -1013858881</internalNodes>
      <leafValues>
        -6.2840223312377930e-02 2.4200876057147980e-01</leafValues></_>
    <_>
      <internalNodes>
        0 -1 1375 142737615 -1108969826 -1067516297 959543791 -379060346
        -255535032 -36260155 1764462240</internalNodes>
      <leafValues>
        -1.4255775511264801e-01 1.0789345204830170e-01</leafValues></_>
    <_>
      <internalNodes>
        0 -1 3090 -1388874779 -1991007493 1672638077 -543574951
        -784667275 137363984 1681653861 -326348940</internalNodes>
      <leafValues>
        -1.0768544673919678e-01 1.4155772328376770e-01</leafValues></_>
    <_>
      <internalNodes>
        0 -1 1117 617087184 25046387 592982099 290718986 -917010944
        -1004567292 -1088519920 1097450238</internalNodes>
      <leafValues>
        -1.9733624160289764e-01 7.6919600367546082e-02</leafValues></_>
    <_>
      <internalNodes>
        0 -1 3295 -671351849 -26925941 2087638099 -157356993 -69886137
        -148084873 -650842417 -76553681</internalNodes>
      <leafValues>
        -5.2329152822494507e-02 2.7343451976776123e-01</leafValues></_>
    <_>
      <internalNodes>
        0 -1 3906 214736580 2058165495 1016596489 193045720 -796526645
        -528856261 -465727996 155452256</internalNodes>
      <leafValues>
        -1.8059283494949341e-01 8.2239300012588501e-02</leafValues></_>
    <_>
      <internalNodes>
        0 -1 964 -163724367 427733939 -1077985286 524525035 -891645793
        -1090534461 -1834985174 -2230100</internalNodes>
      <leafValues>
        -6.7278370261192322e-02 2.1644635498523712e-01</leafValues></_>
    <_>
      <internalNodes>
        0 -1 3402 -1530878256 1463164448 -2005113443 144676372
        1480589392 -258437452 1778973338 220405760</internalNodes>
      <leafValues>
        -2.0055136084556580e-01 7.6023735105991364e-02</leafValues></_>
    <_>
      <internalNodes>
        0 -1 3408 444552946 -248076753 753780806 940044077 -734840305
        -1172099945 -1107624886 -15315442</internalNodes>
      <leafValues>
        -1.0299576073884964e-01 1.5137316286563873e-01</leafValues></_>
    <_>
      <internalNodes>
        0 -1 3618 325652496 843513911 469176702 567769398 -804773627
        -1861617838 1237762288 1330386164</internalNodes>
      <leafValues>
        -2.0364098250865936e-01 7.1310773491859436e-02</leafValues></_>
    <_>
      <internalNodes>
        0 -1 2724 -858788353 -1694695750 2134504127 -413140037
        -803286385 -1393601735 -1996451453 -19924556</internalNodes>
      <leafValues>
        -7.2176299989223480e-02 2.1542404592037201e-01</leafValues></_>
    <_>
      <internalNodes>
        0 -1 251 -1956999097 -1219298565 -522556322 -988575010 11700032
        -872094935 -67380590 -1580206501</internalNodes>
      <leafValues>
        -1.1535163968801498e-01 1.3478453457355499e-01</leafValues></_>
    <_>
      <internalNodes>
        0 -1 1790 217395965 -163599198 623153137 -78413473 1603437746
        -1441717395 561135819 -1325662786</internalNodes>
      <leafValues>
        -9.9087588489055634e-02 1.5719905495643616e-01</leafValues></_>
    <_>
      <internalNodes>
        0 -1 3690 -603996641 770656860 1803026419 -718325031 -1504710934
        -26511614 -4212108 -3145818</internalNodes>
      <leafValues>
        -6.4478248357772827e-02 2.5524491071701050e-01</leafValues></_>
    <_>
      <internalNodes>
        0 -1 3825 -213408763 -630511953 -958297795 -516424586 828168016
        1312910580 271918524 2099044820</internalNodes>
      <leafValues>
        -1.3230077922344208e-01 1.2077266722917557e-01</leafValues></_>
    <_>
      <internalNodes>
        0 -1 3651 -366228486 -766473048 1610001747 -573059858 211679163
        749827321 763321818 -606299149</internalNodes>
      <leafValues>
        -9.2758148908615112e-02 1.7689086496829987e-01</leafValues></_>
    <_>
      <internalNodes>
        0 -1 2673 2060334926 281290149 1388410901 -1198693841 1179175745
        607584845 1625132175 139806463</internalNodes>
      <leafValues>
        -1.9547629356384277e-01 8.5561096668243408e-02</leafValues></_>
    <_>
      <internalNodes>
        0 -1 1606 -1161334766 546119630 838747989 -1887466921
        -1766820356 -118947882 -1477213413 -393675510</internalNodes>
      <leafValues>
        -1.0626536607742310e-01 1.5957185626029968e-01</leafValues></_>
    <_>
      <internalNodes>
        0 -1 1020 1441529671 -1074268255 -1343344905 -303276105
        1906300414 1113600601 -338692748 -4394211</internalNodes>
      <leafValues>
        -7.7225141227245331e-02 1.9740946590900421e-01</leafValues></_>
    <_>
      <internalNodes>
        0 -1 1213 -810549730 1980757549 -1075155149 2066089586 771343794
        -1665173903 923411925 1067339503</internalNodes>
      <leafValues>
        -1.2261179089546204e-01 1.3955177366733551e-01</leafValues></_>
    <_>
      <internalNodes>
        0 -1 72 -938823680 326036712 326203696 -175318310 1443529524
        2031801840 -416857080 -2079973064</internalNodes>
      <leafValues>
        -1.6119669377803802e-01 9.7996011376380920e-02</leafValues></_>
    <_>
      <internalNodes>
        0 -1 1002 -1546706709 -80732173 1365459828 1376708574 -969986348
        -2075207316 -571016760 1785749044</internalNodes>
      <leafValues>
        -1.3922266662120819e-01 1.1354715377092361e-01</leafValues></_>
    <_>
      <internalNodes>
        0 -1 2074 -1073047335 1496591038 -2010727939 391606398
        -369964659 -1111895012 -350630838 -15489409</internalNodes>
      <leafValues>
        -8.3240941166877747e-02 1.9571593403816223e-01</leafValues></_>
    <_>
      <internalNodes>
        0 -1 224 -569520641 -2978475 1367178523 2078795120 -348534045
        1258776939 -161482597 -155714821</internalNodes>
      <leafValues>
        -5.7086121290922165e-02 2.9610472917556763e-01</leafValues></_>
    <_>
      <internalNodes>
        0 -1 121 1139455830 -1588978197 1995244376 -1073535901
        -1527183598 -1149167575 1449070276 2238055</internalNodes>
      <leafValues>
        -2.2173908352851868e-01 7.4264235794544220e-02</leafValues></_>
    <_>
      <internalNodes>
        0 -1 3030 -327833997 -1637975785 -2067301353 70671429 1048496538
        -1088903260 2079554237 -607400300</internalNodes>
      <leafValues>
        -1.0484322160482407e-01 1.5648153424263000e-01</leafValues></_>
    <_>
      <internalNodes>
        0 -1 1824 1784820226 205662404 686119281 710281032 1042184864
        -1930550888 35128672 232543312</internalNodes>
      <leafValues>
        -2.6662799715995789e-01 6.4061716198921204e-02</leafValues></_>
    <_>
      <internalNodes>
        0 -1 2443 -1588642793 -963040455 375026841 -948386565
        -2031095026 -1629815709 1587732683 -2000949300</internalNodes>
      <leafValues>
        -9.4198860228061676e-02 1.7292268574237823e-01</leafValues></_>
    <_>
      <internalNodes>
        0 -1 1317 550472874 1646404640 557977117 718799076 17659798
        7343156 1744784661 1078472977</internalNodes>
      <leafValues>
        -2.9854151606559753e-01 5.6638184934854507e-02</leafValues></_>
    <_>
      <internalNodes>
        0 -1 2579 -1969518125 1401817821 -1726277295 1427050107
        -543186562 -1086114473 -1132802338 -32438037</internalNodes>
      <leafValues>
        -8.8899001479148865e-02 1.8580624461174011e-01</leafValues></_>
    <_>
      <internalNodes>
        0 -1 1890 -1073700292 818466048 1666449680 -1344826193 -91828000
        1068120607 -341681128 892720515</internalNodes>
      <leafValues>
        -1.6179738938808441e-01 1.0238883644342422e-01</leafValues></_>
    <_>
      <internalNodes>
        0 -1 3432 1463777019 -164056434 -1071453907 1528789724
        -436246353 2131174806 -237256801 -4377</internalNodes>
      <leafValues>
        -5.7815719395875931e-02 2.7683851122856140e-01</leafValues></_>
    <_>
      <internalNodes>
        0 -1 3961 -2081166402 -1998024824 599777009 -1914640827
        -838951533 -1981801100 1415783952 -641865003</internalNodes>
      <leafValues>
        -1.2993399798870087e-01 1.2813672423362732e-01</leafValues></_>
    <_>
      <internalNodes>
        0 -1 3778 369108010 1244174986 662244945 191542296 81016687
        1370143683 28060233 200256138</internalNodes>
      <leafValues>
        -1.9624277949333191e-01 8.4146514534950256e-02</leafValues></_>
    <_>
      <internalNodes>
        0 -1 1479 -783856845 2125854646 455986833 313384114 1859897471
        1584009880 -1133267253 -87370598</internalNodes>
      <leafValues>
        -7.8949786722660065e-02 2.1074511110782623e-01</leafValues></_>
    <_>
      <internalNodes>
        0 -1 3213 417742880 -1688689640 -1909131972 445060424 974392440
        -30391216 171839302 705178640</internalNodes>
      <leafValues>
        -2.5103902816772461e-01 6.7060813307762146e-02</leafValues></_>
    <_>
      <internalNodes>
        0 -1 3016 -1442636778 -1028345262 1310028060 1491078214
        357924160 -1666213958 542514401 1650940399</internalNodes>
      <leafValues>
        -1.9466154277324677e-01 8.5924856364727020e-02</leafValues></_>
    <_>
      <internalNodes>
        0 -1 3186 -336603265 -218223095 1470582726 1078063078
        -1964037451 -731654187 1100306272 -387814280</internalNodes>
      <leafValues>
        -1.0209293663501740e-01 1.6672919690608978e-01</leafValues></_>
    <_>
      <internalNodes>
        0 -1 2474 694307587 -1466417473 -823824922 99995651 304029819
        -669732182 1120365375 752478236</internalNodes>
      <leafValues>
        -1.8243458867073059e-01 9.1768629848957062e-02</leafValues></_>
    <_>
      <internalNodes>
        0 -1 2077 -1253353061 -148098834 1650959695 1932337026
        -1690794872 513930308 289061050 -634585293</internalNodes>
      <leafValues>
        -9.2261835932731628e-02 1.8554659187793732e-01</leafValues></_>
    <_>
      <internalNodes>
        0 -1 3159 -255018221 1501441850 1852828471 2069806915 -64685644
        -494938336 1713099252 -306456183</internalNodes>
      <leafValues>
        -7.5238652527332306e-02 2.2140602767467499e-01</leafValues></_>
    <_>
      <internalNodes>
        0 -1 2065 -1309959333 1257148983 -1349384490 815129157
        -1095856676 -901310337 -49682711 2024437699</internalNodes>
      <leafValues>
        -1.1768383532762527e-01 1.4463046193122864e-01</leafValues></_>
    <_>
      <internalNodes>
        0 -1 1939 -1837198745 492792822 938420634 -711673964 2034349766
        -235086542 -2096806453 -1079261661</internalNodes>
      <leafValues>
        -8.9839197695255280e-02 1.8904396891593933e-01</leafValues></_>
    <_>
      <internalNodes>
        0 -1 2387 -1072070271 1375748760 831963067 -1304387306
        1918435944 940438776 1253312086 1654706864</internalNodes>
      <leafValues>
        -2.0754021406173706e-01 8.3121336996555328e-02</leafValues></_>
    <_>
      <internalNodes>
        0 -1 1754 -936007488 -2006294867 1133534075 1163966818
        -1434858448 -215158216 -267865266 -282479938</internalNodes>
      <leafValues>
        -1.1356626451015472e-01 1.5006779134273529e-01</leafValues></_>
    <_>
      <internalNodes>
        0 -1 3935 -203169605 -1073782388 418816879 -1316266293
        2093873663 -602470700 1323866333 -147982693</internalNodes>
      <leafValues>
        -6.7137703299522400e-02 2.5037476420402527e-01</leafValues></_>
    <_>
      <internalNodes>
        0 -1 577 141318146 -1825438240 408101756 -1410888196 7050754
        -2106146468 -1005857260 1446176980</internalNodes>
      <leafValues>
        -2.0985497534275055e-01 8.2059353590011597e-02</leafValues></_>
    <_>
      <internalNodes>
        0 -1 360 -880813860 827862916 -1373876397 -810193466 -617484048
        -153674669 944140425 -8398033</internalNodes>
      <leafValues>
        -8.8140100240707397e-02 1.9558826088905334e-01</leafValues></_>
    <_>
      <internalNodes>
        0 -1 2070 -2113339376 3747510 -1037523560 -1298093744 88147968
        -1158878917 -1736178463 544293142</internalNodes>
      <leafValues>
        -2.6028189063072205e-01 6.5141886472702026e-02</leafValues></_>
    <_>
      <internalNodes>
        0 -1 3225 -626664651 1547669715 1876929895 807575598 709602084
        -1259847681 -1409438066 -1607836773</internalNodes>
      <leafValues>
        -1.3356274366378784e-01 1.2437171489000320e-01</leafValues></_>
    <_>
      <internalNodes>
        0 -1 3666 -2135119120 269496840 -431599636 490539248 1165361904
        477933428 1357419248 2063677032</internalNodes>
      <leafValues>
        -1.7151825129985809e-01 1.0621488839387894e-01</leafValues></_>
    <_>
      <internalNodes>
        0 -1 2625 -670740958 1287132882 -1639527295 131819 1705204227
        1178261568 1364731979 -190140273</internalNodes>
      <leafValues>
        -1.8541821837425232e-01 9.3339227139949799e-02</leafValues></_>
    <_>
      <internalNodes>
        0 -1 3734 -136316995 -232406051 1289356271 -547883213
        -1082983699 1955592807 -766689476 -139470996</internalNodes>
      <leafValues>
        -6.0563314706087112e-02 2.9564049839973450e-01</leafValues></_>
    <_>
      <internalNodes>
        0 -1 26 16944791 590662573 1632874437 2099647641 1372532190
        -782064859 -1590314371 -379115711</internalNodes>
      <leafValues>
        -1.2975655496120453e-01 1.3965745270252228e-01</leafValues></_>
    <_>
      <internalNodes>
        0 -1 1783 69652408 1895231118 -1008578051 -557813562 104009912
        1012328292 -1761592871 -1942305246</internalNodes>
      <leafValues>
        -1.4138491451740265e-01 1.2467480450868607e-01</leafValues></_>
    <_>
      <internalNodes>
        0 -1 3803 551225472 609822886 483388399 13853269 -1321922816
        -1019128812 1947220422 2131156628</internalNodes>
      <leafValues>
        -2.0661675930023193e-01 8.6796730756759644e-02</leafValues></_>
    <_>
      <internalNodes>
        0 -1 1810 1448063213 1196267414 2075586420 956093740 629537611
        -954840019 642927569 -1454527175</internalNodes>
      <leafValues>
        -1.0792063176631927e-01 1.5627180039882660e-01</leafValues></_>
    <_>
      <internalNodes>
        0 -1 2488 1059456316 -2069972634 -1740060612 -1603083771
        16745252 1221990475 1145997220 1527144881</internalNodes>
      <leafValues>
        -2.0950567722320557e-01 8.6062848567962646e-02</leafValues></_>
    <_>
      <internalNodes>
        0 -1 3868 463463102 1042948337 -1286172714 1363001232 829225684
        1762947184 145791019 1418378292</internalNodes>
      <leafValues>
        -1.5991352498531342e-01 1.0574804991483688e-01</leafValues></_>
    <_>
      <internalNodes>
        0 -1 3324 -1907031659 -537368542 -545380581 -10572241
        -1593384397 -1092453674 861189585 -1094814180</internalNodes>
      <leafValues>
        -9.6743091940879822e-02 1.7557412385940552e-01</leafValues></_>
    <_>
      <internalNodes>
        0 -1 3518 1808013882 -830072394 -856266359 1817508564
        -1120525040 232793900 1348010790 1498697800</internalNodes>
      <leafValues>
        -2.1170732378959656e-01 8.4312632679939270e-02</leafValues></_>
    <_>
      <internalNodes>
        0 -1 3726 -913612280 -1610107836 653572623 -2113115333
        -841239760 634515262 214960733 1213816159</internalNodes>
      <leafValues>
        -2.1024677157402039e-01 8.3474308252334595e-02</leafValues></_>
    <_>
      <internalNodes>
        0 -1 2029 -1905632833 447934203 33234821 -123118576 1912075003
        -554643613 -1056120913 -46051115</internalNodes>
      <leafValues>
        -9.2280924320220947e-02 1.9036978483200073e-01</leafValues></_>
    <_>
      <internalNodes>
        0 -1 671 1110331930 321544499 1502628464 -501790445 -850931392
        -1961549043 -1717285437 -926515197</internalNodes>
      <leafValues>
        -1.4311969280242920e-01 1.1978684365749359e-01</leafValues></_>
    <_>
      <internalNodes>
        0 -1 1309 -335016186 235260193 94060488 -2043169081 -862188540
        -1964500719 -1259528095 224233340</internalNodes>
      <leafValues>
        -2.1560321748256683e-01 8.2830280065536499e-02</leafValues></_>
    <_>
      <internalNodes>
        0 -1 2061 -1987827432 159133002 -1377289174 1999597650
        -1285286406 -1780007571 39522295 -579831887</internalNodes>
      <leafValues>
        -1.4658153057098389e-01 1.2312518060207367e-01</leafValues></_>
    <_>
      <internalNodes>
        0 -1 198 1907997659 -1178620725 -686561325 -1484159166
        1511262098 1126623123 -1229067013 -50858053</internalNodes>
      <leafValues>
        -7.2897151112556458e-02 2.4019595980644226e-01</leafValues></_>
    <_>
      <internalNodes>
        0 -1 1648 330707600 1368181425 -319781188 -1346065599
        -1153478270 19570235 -2099515412 1847632187</internalNodes>
      <leafValues>
        -1.5550486743450165e-01 1.1193792521953583e-01</leafValues></_>
    <_>
      <internalNodes>
        0 -1 2974 -255524324 -585209326 -159692136 -933212636
        -1766225146 342255682 76553202 -2008944160</internalNodes>
      <leafValues>
        -1.3460285961627960e-01 1.3176260888576508e-01</leafValues></_>
    <_>
      <internalNodes>
        0 -1 3813 373236607 1512008746 606997307 501200943 869119776
        -1470989452 -1407127202 2036065916</internalNodes>
      <leafValues>
        -1.2197441607713699e-01 1.4636032283306122e-01</leafValues></_>
    <_>
      <internalNodes>
        0 -1 2757 -198769788 676134597 236745333 1024795904 1415103173
        -821920592 237238363 15619733</internalNodes>
      <leafValues>
        -1.8124714493751526e-01 9.5885977149009705e-02</leafValues></_>
    <_>
      <internalNodes>
        0 -1 2415 -1308625264 -1870071312 -1799360769 -1640408832
        -513874991 520900188 -1825815380 -55085865</internalNodes>
      <leafValues>
        -1.0927633941173553e-01 1.6280063986778259e-01</leafValues></_>
    <_>
      <internalNodes>
        0 -1 3842 -790960581 1393345052 -673677505 1602743488 -534997301
        181181085 770787899 232726399</internalNodes>
      <leafValues>
        -1.1182516813278198e-01 1.5395030379295349e-01</leafValues></_>
    <_>
      <internalNodes>
        0 -1 3401 1201782432 140272572 -339648608 -1381307352 1821568945
        -523629384 -1934222 -558534831</internalNodes>
      <leafValues>
        -1.7925828695297241e-01 1.0494090616703033e-01</leafValues></_>
    <_>
      <internalNodes>
        0 -1 3022 -313611983 -79454722 1796740029 -911901388 -1975572293
        -122197695 725992765 -872707221</internalNodes>
      <leafValues>
        -8.7149024009704590e-02 2.0370270311832428e-01</leafValues></_>
    <_>
      <internalNodes>
        0 -1 1444 1282933248 501361209 -1402573993 324627072 335678468
        40127828 255867790 825238375</internalNodes>
      <leafValues>
        -2.5814849138259888e-01 7.0572219789028168e-02</leafValues></_>
    <_>
      <internalNodes>
        0 -1 3049 -22807623 1554492059 1519827349 -548147263 779283962
        -1485141493 -191568725 -3695697</internalNodes>
      <leafValues>
        -5.9002418071031570e-02 3.0020046234130859e-01</leafValues></_>
    <_>
      <internalNodes>
        0 -1 1719 235416090 38173932 208427677 141068536 1852907008
        -1575202572 -1780369324 1091064112</internalNodes>
      <leafValues>
        -3.0166843533515930e-01 6.0212541371583939e-02</leafValues></_>
    <_>
      <internalNodes>
        0 -1 1493 1465831223 331674594 -1080240053 -854754181 1315834697
        152437337 -1074841857 -70011244</internalNodes>
      <leafValues>
        -9.4614669680595398e-02 1.9038556516170502e-01</leafValues></_>
    <_>
      <internalNodes>
        0 -1 3654 -2083331871 -1079736140 -1028259169 224520476
        -1084031792 -898813191 -277774500 1259446824</internalNodes>
      <leafValues>
        -1.3975413143634796e-01 1.3030290603637695e-01</leafValues></_>
    <_>
      <internalNodes>
        0 -1 73 2032721515 -801778892 568324703 -562058298 1356890023
        -856068635 1128513715 -608180769</internalNodes>
      <leafValues>
        -7.2231508791446686e-02 2.4973991513252258e-01</leafValues></_>
    <_>
      <internalNodes>
        0 -1 858 -1236668714 -26325270 -2075443309 -1723430427 920529798
        9747588 1147817418 1078709399</internalNodes>
      <leafValues>
        -2.1368591487407684e-01 8.6521029472351074e-02</leafValues></_>
    <_>
      <internalNodes>
        0 -1 2810 -77081257 -333433166 -1289940484 -1304203894
        -310397712 -881821096 -927090806 -21900041</internalNodes>
      <leafValues>
        -7.9839937388896942e-02 2.3459891974925995e-01</leafValues></_>
    <_>
      <internalNodes>
        0 -1 1325 -1435423722 183203091 1103130989 1422873534 216579368
        -848516454 1570930350 227529034</internalNodes>
      <leafValues>
        -1.6767632961273193e-01 1.0954391211271286e-01</leafValues></_>
    <_>
      <internalNodes>
        0 -1 3724 1392358400 1391035110 -423216438 272923757 784448369
        112808992 -1132239055 -1800235212</internalNodes>
      <leafValues>
        -1.6748081147670746e-01 1.0728996992111206e-01</leafValues></_>
    <_>
      <internalNodes>
        0 -1 3426 -1504416712 611484882 2021926495 271290786 1977233960
        1009793712 -384410096 1260922608</internalNodes>
      <leafValues>
        -2.3576948046684265e-01 7.4199937283992767e-02</leafValues></_>
    <_>
      <internalNodes>
        0 -1 3912 1135275474 -1854240105 1573574565 -1141554951
        1496698011 60455163 1240780040 -979286888</internalNodes>
      <leafValues>
        -1.1234884709119797e-01 1.5371362864971161e-01</leafValues></_>
    <_>
      <internalNodes>
        0 -1 1796 -901351914 -1919942411 -1463450639 217719656
        -1607262352 -1436792871 -2010514275 747246288</internalNodes>
      <leafValues>
        -2.2255703806877136e-01 7.7042564749717712e-02</leafValues></_>
    <_>
      <internalNodes>
        0 -1 1194 -227808303 2042846014 634313137 533814651 1112419515
        -444836310 -538517557 -18117478</internalNodes>
      <leafValues>
        -6.8728990852832794e-02 2.5660365819931030e-01</leafValues></_>
    <_>
      <internalNodes>
        0 -1 725 1403650730 453459234 369842905 931673900 455782848
        17631578 1258380040 1086328172</internalNodes>
      <leafValues>
        -2.6239031553268433e-01 6.9581374526023865e-02</leafValues></_>
    <_>
      <internalNodes>
        0 -1 3208 -26224327 -556176681 -1286975135 -39725193 -1655968897
        -1039294793 -1676625701 -8686122</internalNodes>
      <leafValues>
        -6.6729284822940826e-02 2.7843794226646423e-01</leafValues></_></weakClassifiers></stage22>
</opencv_storage>
